{
  "defaults": {},
  "inputs": [
    {
      "name": "ph_phi_0",
      "offset": 0,
      "scale": 1
    },
    {
      "name": "ph_e_0",
      "offset": 0,
      "scale": 1
    },
    {
      "name": "jet_pt_0",
      "offset": 0,
      "scale": 1
    },
    {
      "name": "jet_pt_1",
      "offset": 0,
      "scale": 1
    },
    {
      "name": "jet_pt_2",
      "offset": 0,
      "scale": 1
    },
    {
      "name": "jet_pt_3",
      "offset": 0,
      "scale": 1
    },
    {
      "name": "jet_pt_4",
      "offset": 0,
      "scale": 1
    },
    {
      "name": "jet_tagWeightBin_leading",
      "offset": 0,
      "scale": 1
    },
    {
      "name": "jet_tagWeightBin_subleading",
      "offset": 0,
      "scale": 1
    },
    {
      "name": "jet_tagWeightBin_subsubleading",
      "offset": 0,
      "scale": 1
    },
    {
      "name": "met_met",
      "offset": 0,
      "scale": 1
    },
    {
      "name": "ph_HFT_MVA_0",
      "offset": 0,
      "scale": 1
    },
    {
      "name": "ph_drleadjet_0",
      "offset": 0,
      "scale": 1
    },
    {
      "name": "ph_drsubljet_0",
      "offset": 0,
      "scale": 1
    },
    {
      "name": "ph_drlept_0",
      "offset": 0,
      "scale": 1
    },
    {
      "name": "ph_mgammalept_0",
      "offset": 0,
      "scale": 1
    },
    {
      "name": "event_HT",
      "offset": 0,
      "scale": 1
    },
    {
      "name": "event_mll",
      "offset": 0,
      "scale": 1
    },
    {
      "name": "event_mwt",
      "offset": 0,
      "scale": 1
    },
    {
      "name": "event_njets",
      "offset": 0,
      "scale": 1
    },
    {
      "name": "event_nbjets77",
      "offset": 0,
      "scale": 1
    }
  ],
  "layers": [
    {
      "architecture": "normalization",
      "bias": [
        0.1298946589231491,
        -105922.8125,
        -76735.671875,
        -38328.796875,
        -24770.826171875,
        -5715.68017578125,
        -1371.72265625,
        -4.716957092285156,
        -1.3792284727096558,
        -0.9057489037513733,
        -48887.40625,
        -0.763535737991333,
        -2.47760009765625,
        17.76709747314453,
        -1.7800649404525757,
        -71537.484375,
        -229448.296875,
        -9305.7646484375,
        -60262.71484375,
        -2.841834783554077,
        -1.536815881729126
      ],
      "weights": [
        0.11377594619989395,
        7.78563571657287e-06,
        1.1000440281350166e-05,
        1.723786408547312e-05,
        2.3802564101060852e-05,
        2.465039142407477e-05,
        2.2085952878114767e-05,
        1.0191024541854858,
        0.5611258745193481,
        1.0606088638305664,
        2.40414374275133e-05,
        3.306368589401245,
        0.611783504486084,
        0.017794879153370857,
        0.9777211546897888,
        1.3100414435029961e-05,
        6.216574547579512e-06,
        2.827787830028683e-05,
        1.4310541700979229e-05,
        0.24558036029338837,
        0.49299779534339905
      ]
    },
    {
      "activation": "rectified",
      "architecture": "dense",
      "bias": [
        -0.34299102425575256,
        -0.15864646434783936,
        -0.056220706552267075,
        -0.019167037680745125,
        -0.22885718941688538,
        -0.11878062784671783,
        -0.4416692554950714,
        -0.08575689792633057,
        -0.15349432826042175,
        -0.042331285774707794,
        -0.18078379333019257,
        0.15847668051719666,
        -0.35914695262908936,
        0.051043543964624405,
        -0.16918432712554932,
        -0.21306803822517395,
        -0.4194951355457306,
        -0.2579495906829834,
        -0.4909154772758484,
        -0.17683257162570953,
        0.022511843591928482,
        -0.26857423782348633,
        -0.18618860840797424,
        -0.18335303664207458,
        -0.027639253064990044,
        -0.4776788651943207,
        -0.06190992146730423,
        -0.20253251492977142,
        -0.21672409772872925,
        -0.20883765816688538,
        -0.11929777264595032,
        -0.16536036133766174,
        -0.1953415721654892,
        -0.23188799619674683,
        -0.1251169741153717,
        -0.02167229913175106,
        -0.05783349275588989,
        0.0013266783207654953,
        -0.22288767993450165,
        -0.045638661831617355,
        0.030427169054746628,
        -0.496826171875,
        -0.41216009855270386,
        -0.20363514125347137,
        3.412532532820478e-05,
        -0.1533745378255844,
        -0.15825213491916656,
        -0.20994088053703308,
        -0.3370065689086914,
        -0.34466350078582764,
        0.07993602007627487,
        -0.1837492138147354,
        -0.05297839269042015,
        -0.15970055758953094,
        -0.3046761751174927,
        -0.2883938252925873,
        -0.05648944154381752,
        -0.3993256092071533,
        -0.18334577977657318,
        -0.02431841380894184,
        -0.15019291639328003,
        0.02874249778687954,
        -0.35222166776657104,
        -0.17762669920921326,
        -0.3908724784851074,
        -0.1485247164964676,
        -0.12539413571357727,
        -0.22335171699523926,
        -0.19207607209682465,
        -0.1817346066236496,
        0.03875088319182396,
        -0.054023679345846176,
        0.24392634630203247,
        -0.18102224171161652,
        -0.10149883478879929,
        -0.2623595893383026,
        -0.1475372612476349,
        -0.40190955996513367,
        0.045374177396297455,
        -0.18421512842178345,
        -0.11481060832738876,
        -0.2991148829460144,
        -0.11632944643497467,
        -0.1972300261259079,
        -0.1840401291847229,
        -0.343475341796875,
        -0.33066830039024353,
        -0.15317784249782562,
        -0.299509197473526,
        -0.20735114812850952,
        -0.14256882667541504,
        -0.0729207769036293,
        -0.24702876806259155,
        -0.2785230278968811,
        -0.49150532484054565,
        -0.17578546702861786,
        -0.056952182203531265,
        -0.05951400101184845,
        -0.08204415440559387,
        -0.11941231787204742,
        0.03666594624519348,
        -0.20108453929424286,
        -0.11105331033468246,
        -0.2638235092163086,
        -0.3569484055042267,
        0.08775518089532852,
        0.06578702479600906,
        -0.10727708786725998,
        -0.12764346599578857,
        -0.2278052419424057,
        -0.3128914535045624,
        -0.14954161643981934,
        -0.3295924961566925,
        -0.4125639796257019,
        -0.2170715183019638,
        -0.2960605323314667,
        -0.4228493571281433,
        -0.26477760076522827,
        -0.030178649351000786,
        -0.004677295219153166,
        -0.17022399604320526,
        0.030887961387634277,
        -0.320203959941864,
        -0.029957139864563942,
        0.013743812218308449,
        -0.3480660319328308,
        -0.05448323115706444,
        0.052037350833415985
      ],
      "weights": [
        0.02635497972369194,
        -0.04561930149793625,
        -0.2659355103969574,
        -0.2468879520893097,
        -0.07201948016881943,
        -0.04565979540348053,
        0.18212956190109253,
        0.0848006010055542,
        -0.02472054772078991,
        -0.004258355591446161,
        -0.2571725845336914,
        0.02009417675435543,
        -0.07873625308275223,
        0.019234338775277138,
        0.05122450366616249,
        -0.34588149189949036,
        -0.2213045060634613,
        -0.04352239519357681,
        0.0053617884404957294,
        -0.08947566151618958,
        0.22632388770580292,
        -0.07807984948158264,
        -0.2134905606508255,
        0.11545168608427048,
        -0.1173100695014,
        -0.04005485773086548,
        0.09854678064584732,
        0.10205494612455368,
        0.0058142272755503654,
        -0.05213598161935806,
        0.03831193223595619,
        -0.1436653882265091,
        -0.009333311580121517,
        0.16557370126247406,
        0.008730794303119183,
        -0.20105956494808197,
        -0.69095778465271,
        -0.00870395265519619,
        -0.14618271589279175,
        0.12198834121227264,
        -0.00067120511084795,
        0.13464553654193878,
        -0.07104495167732239,
        -0.4421890377998352,
        -0.07175208628177643,
        -0.041496869176626205,
        -0.022391190752387047,
        -0.033452507108449936,
        -0.025161277502775192,
        -0.031624581664800644,
        -0.030696606263518333,
        -0.011524185538291931,
        -0.03245527669787407,
        0.017669476568698883,
        0.11986695230007172,
        0.25165271759033203,
        0.006243638228625059,
        -0.07033328711986542,
        0.21160928905010223,
        -0.7210679054260254,
        -0.00047028495464473963,
        0.03782801330089569,
        -0.017779527232050896,
        -0.3153986632823944,
        -0.017096776515245438,
        -0.20187844336032867,
        -0.11341000348329544,
        -0.08141952753067017,
        0.40611928701400757,
        0.2741341292858124,
        -0.10509301722049713,
        0.07809211313724518,
        -0.007462518289685249,
        -0.10248353332281113,
        0.11874683201313019,
        -0.09654923528432846,
        -0.05115776136517525,
        -0.0030454283114522696,
        0.03020913153886795,
        -0.029104698449373245,
        -0.08905443549156189,
        -0.26672932505607605,
        -0.008878386579453945,
        0.0961294025182724,
        0.032341137528419495,
        0.10650131851434708,
        0.17381611466407776,
        0.019749237224459648,
        0.18263548612594604,
        0.12701481580734253,
        -0.06848573684692383,
        0.16235148906707764,
        0.06766775250434875,
        -0.08987138420343399,
        -0.009645615704357624,
        -0.09548930823802948,
        0.018578099086880684,
        0.02506955899298191,
        0.06685154139995575,
        0.036500561982393265,
        -0.3518734276294708,
        -0.3155546486377716,
        0.22436314821243286,
        -0.1922755092382431,
        -0.04350776970386505,
        -0.03654679283499718,
        -0.2145603895187378,
        -0.05605161562561989,
        0.0013972504530102015,
        0.1833886206150055,
        0.056251782923936844,
        -0.2611449956893921,
        0.022517362609505653,
        0.05432429537177086,
        -0.09594859182834625,
        0.047110337764024734,
        0.03320566192269325,
        -0.03164052590727806,
        -0.016050342470407486,
        -0.10861577093601227,
        -0.6289268136024475,
        -0.026819102466106415,
        -0.31566956639289856,
        0.07911843061447144,
        -0.08279696851968765,
        0.07210858911275864,
        0.002613774500787258,
        0.30895012617111206,
        0.021504774689674377,
        0.12466118484735489,
        0.13172803819179535,
        0.041854407638311386,
        -0.0029472841415554285,
        -0.02843831293284893,
        -0.06418558210134506,
        -0.016623403877019882,
        0.04080373793840408,
        -0.30923163890838623,
        -0.01887897588312626,
        0.020135462284088135,
        0.016720246523618698,
        -0.008912265300750732,
        -0.12130662798881531,
        -0.020149823278188705,
        -0.0029955573845654726,
        0.1306484043598175,
        0.11729159951210022,
        -0.15029636025428772,
        0.018397897481918335,
        0.13716363906860352,
        0.1521914005279541,
        -0.34132084250450134,
        -0.18698206543922424,
        -0.04712078347802162,
        -0.11994929611682892,
        -0.013057329691946507,
        -0.5656015872955322,
        -0.04123628884553909,
        -0.031260550022125244,
        -0.0005977808032184839,
        0.2486022412776947,
        -0.07294349372386932,
        0.11139816790819168,
        -0.16985775530338287,
        -0.47202274203300476,
        0.10844753682613373,
        0.06894787400960922,
        -0.050382331013679504,
        0.08351952582597733,
        0.09261591732501984,
        -0.10286270827054977,
        0.10106903314590454,
        0.006260373163968325,
        0.04034312441945076,
        0.08702497184276581,
        -0.18528594076633453,
        -0.46076998114585876,
        -0.3301853835582733,
        -0.23386365175247192,
        -0.0861007422208786,
        -0.2044791430234909,
        -0.2746864855289459,
        -0.03525353968143463,
        0.03887969255447388,
        0.15864576399326324,
        -0.003984732553362846,
        0.015369167551398277,
        -0.03268156573176384,
        0.3615621328353882,
        -0.19397687911987305,
        0.03398490697145462,
        -0.024214694276452065,
        0.1048658937215805,
        0.015120403841137886,
        -0.032755348831415176,
        0.06132006272673607,
        -0.231230691075325,
        -0.823625922203064,
        -0.20343655347824097,
        -0.21282722055912018,
        -0.1216040700674057,
        0.04390329495072365,
        -0.2305290400981903,
        0.0024052674416452646,
        0.03835375979542732,
        -0.039491280913352966,
        0.00895456038415432,
        0.018173841759562492,
        -0.15726958215236664,
        0.06364215910434723,
        -0.08724159747362137,
        -0.1916167438030243,
        0.14933642745018005,
        0.07614167779684067,
        0.020629368722438812,
        0.06604471057653427,
        -0.06463699787855148,
        0.302818238735199,
        0.028441188856959343,
        -0.07891565561294556,
        0.10792559385299683,
        -0.019229818135499954,
        -0.059009019285440445,
        0.06885746121406555,
        -0.09273222833871841,
        -0.4325322210788727,
        -0.08566776663064957,
        -0.3563545346260071,
        -0.0292790699750185,
        0.0705953910946846,
        0.016642341390252113,
        0.25239577889442444,
        -0.035656582564115524,
        -0.28328457474708557,
        0.0808996707201004,
        -0.12940865755081177,
        -0.2672111690044403,
        -0.29206693172454834,
        -0.07103218883275986,
        -0.16766999661922455,
        0.09006545692682266,
        0.05136164650321007,
        0.07357446849346161,
        -0.09902453422546387,
        0.22283883392810822,
        -0.12517710030078888,
        -0.24737009406089783,
        -0.09016269445419312,
        -0.04438056796789169,
        0.022566022351384163,
        -0.01055363193154335,
        -0.3173866868019104,
        0.0653175562620163,
        -0.0021735643967986107,
        0.015511108562350273,
        0.010113053023815155,
        0.049525998532772064,
        -0.043682608753442764,
        -0.146709606051445,
        -0.007971329614520073,
        0.0627778023481369,
        0.02130500227212906,
        0.33504077792167664,
        0.1018388420343399,
        0.15822066366672516,
        -0.05343632772564888,
        -0.15146753191947937,
        -0.01597118005156517,
        -0.10929742455482483,
        0.18323521316051483,
        0.08877021074295044,
        -0.16940124332904816,
        -0.08391070365905762,
        0.14739371836185455,
        -0.2810606360435486,
        0.016868026927113533,
        0.07552983611822128,
        -0.002313174307346344,
        0.08029426634311676,
        0.04156568646430969,
        0.12257378548383713,
        0.06421466916799545,
        0.08553766459226608,
        0.11651444435119629,
        0.03891870379447937,
        -0.17447490990161896,
        0.029865281656384468,
        0.009616050869226456,
        -0.6410512924194336,
        -0.11436358839273453,
        0.14625155925750732,
        0.05067504197359085,
        0.06647486239671707,
        -0.08266489207744598,
        0.08556494861841202,
        0.1514970362186432,
        -0.37121713161468506,
        -0.1558450311422348,
        -0.07846082746982574,
        0.04460406303405762,
        -0.11940685659646988,
        -0.009375964291393757,
        -0.0738275870680809,
        -0.36996445059776306,
        -0.25408852100372314,
        0.021022886037826538,
        0.04613132402300835,
        0.11136122047901154,
        0.07759692519903183,
        -0.15587079524993896,
        -0.47125959396362305,
        -0.02939601056277752,
        0.08923948556184769,
        0.06952735036611557,
        -0.029567407444119453,
        0.1215931847691536,
        0.02973286062479019,
        0.05918928608298302,
        0.08580932021141052,
        0.03461012244224548,
        0.006043747067451477,
        0.004140234086662531,
        -0.10324372351169586,
        -0.29372498393058777,
        -0.24786096811294556,
        -0.07322559505701065,
        0.5344814658164978,
        0.06904967129230499,
        -0.15846091508865356,
        -0.21506273746490479,
        0.12167129665613174,
        -0.05635746195912361,
        0.017267629504203796,
        -0.012248657643795013,
        0.14024028182029724,
        0.12589985132217407,
        -0.1550421267747879,
        0.14459148049354553,
        -0.09196819365024567,
        -0.03466821834445,
        -0.057822324335575104,
        -0.0992819219827652,
        -0.04204276204109192,
        -0.017700448632240295,
        0.05713263899087906,
        0.019013412296772003,
        0.07072402536869049,
        0.031007057055830956,
        -0.3153631389141083,
        -0.03133895993232727,
        -0.12220237404108047,
        -0.2855152189731598,
        -0.08986659348011017,
        0.07019177079200745,
        -0.031325921416282654,
        -0.07699356973171234,
        -0.18210820853710175,
        -0.07860787212848663,
        0.18885061144828796,
        0.005424885544925928,
        0.13523975014686584,
        -0.11884398013353348,
        -0.13180063664913177,
        -0.040123555809259415,
        -0.16771629452705383,
        -0.2718759775161743,
        -0.10465457290410995,
        -0.10453691333532333,
        0.28285178542137146,
        -0.0689660981297493,
        -0.18731136620044708,
        -0.018648086115717888,
        0.09469713270664215,
        -0.02359466627240181,
        0.04054069146513939,
        -0.05489575117826462,
        0.2816939055919647,
        0.12390322238206863,
        0.08161082863807678,
        0.06009344756603241,
        -0.15703414380550385,
        -0.031951773911714554,
        0.06303884834051132,
        0.08607196062803268,
        0.06499427556991577,
        0.4295647442340851,
        0.012866858392953873,
        -0.014561230316758156,
        0.04704058915376663,
        0.3964614272117615,
        0.008548012934625149,
        -0.07220041751861572,
        0.023264314979314804,
        0.03386477008461952,
        -0.011205299757421017,
        -0.250865638256073,
        -0.03601556643843651,
        0.062294330447912216,
        0.014615049585700035,
        -0.2044387012720108,
        0.0015498199500143528,
        0.0060648731887340546,
        0.0638037696480751,
        0.02227514609694481,
        0.0097123421728611,
        -0.09919314831495285,
        0.028623102232813835,
        0.05881091579794884,
        -0.043301813304424286,
        0.131007581949234,
        0.6712349057197571,
        0.0252726748585701,
        -0.0947493463754654,
        -0.1670812964439392,
        0.12970232963562012,
        0.07220445573329926,
        0.07771158218383789,
        -0.021471140906214714,
        0.06352565437555313,
        -0.03033027984201908,
        -0.07679520547389984,
        -0.038084931671619415,
        0.15629348158836365,
        0.0178049448877573,
        -0.1937822848558426,
        -0.009785674512386322,
        -0.36689943075180054,
        -0.10353287309408188,
        -0.6980109810829163,
        -0.49253398180007935,
        -0.10552694648504257,
        0.1058511883020401,
        -0.17640911042690277,
        -0.038979217410087585,
        -0.005498927086591721,
        0.09574437886476517,
        -0.12870123982429504,
        -0.019873829558491707,
        -0.10523851215839386,
        0.051914654672145844,
        -0.07594713568687439,
        -0.0837668925523758,
        -0.04799146577715874,
        -0.5491350293159485,
        -0.31845641136169434,
        -0.07683736085891724,
        -0.19712845981121063,
        -0.07160717248916626,
        -0.03660799562931061,
        0.05967554822564125,
        -0.01296721026301384,
        -0.06971176713705063,
        0.06625375151634216,
        -0.1965799182653427,
        0.09993469715118408,
        0.036832600831985474,
        -0.3091352581977844,
        -0.2847427427768707,
        0.06944447755813599,
        -0.010639367625117302,
        0.0847683697938919,
        0.0869179517030716,
        -0.44061410427093506,
        0.07799083739519119,
        0.04127604514360428,
        0.15221835672855377,
        0.03395741805434227,
        -0.02449236810207367,
        0.020061925053596497,
        -0.15333585441112518,
        -0.43397456407546997,
        -0.5073651075363159,
        0.04846414178609848,
        0.27654150128364563,
        -0.08649048954248428,
        -0.2764261066913605,
        -0.1662476658821106,
        0.05170472338795662,
        -0.053685061633586884,
        -0.06714744865894318,
        -0.10472074151039124,
        -0.07338967174291611,
        0.18983982503414154,
        -0.09186486899852753,
        -0.33714884519577026,
        0.13668155670166016,
        -0.15864001214504242,
        0.047302424907684326,
        -0.12655983865261078,
        -0.29964181780815125,
        0.06507883220911026,
        0.02172413095831871,
        0.07189998775720596,
        0.03250652924180031,
        0.04796011373400688,
        0.010841435752809048,
        0.050684571266174316,
        0.36091169714927673,
        -0.05478756129741669,
        0.11247284710407257,
        0.1338455229997635,
        0.0208609439432621,
        0.059933677315711975,
        -0.05679904296994209,
        0.015488993376493454,
        -0.11371877044439316,
        0.030229613184928894,
        0.14851601421833038,
        0.01686497963964939,
        -0.01731995865702629,
        -0.03196944668889046,
        0.0026568365283310413,
        -0.15308533608913422,
        -0.4178619086742401,
        -0.19525420665740967,
        0.056173451244831085,
        0.07648583501577377,
        -0.09711571037769318,
        0.07104432582855225,
        -0.513993501663208,
        -0.10952136665582657,
        -0.04685453698039055,
        -0.36367061734199524,
        0.03401578590273857,
        0.0035481173545122147,
        -0.005372403655201197,
        0.02141670510172844,
        0.014661561697721481,
        0.02200585976243019,
        0.01340881921350956,
        0.047506071627140045,
        -0.022105546668171883,
        0.07127568870782852,
        0.03336252644658089,
        -0.05176042392849922,
        0.04992051050066948,
        -0.03933856636285782,
        -0.08608871698379517,
        -0.02784062549471855,
        -0.06838403642177582,
        -0.007716497406363487,
        -0.06275022029876709,
        0.19993336498737335,
        -0.0671861320734024,
        -0.036423634737730026,
        0.0852573812007904,
        0.014464082196354866,
        -0.03870699927210808,
        -0.049490783363580704,
        -0.7411065697669983,
        -0.1801714301109314,
        -0.08540709316730499,
        -0.24038508534431458,
        0.06632238626480103,
        0.005866008345037699,
        0.028879765421152115,
        -0.1647183746099472,
        0.06323154270648956,
        0.040791336447000504,
        0.1935829073190689,
        -0.09598954766988754,
        0.0852370336651802,
        0.15167829394340515,
        -0.011747046373784542,
        -0.07313015311956406,
        0.1377684473991394,
        -0.004386988002806902,
        0.11085387319326401,
        0.02753525786101818,
        0.35700854659080505,
        0.10738831758499146,
        0.07022800296545029,
        0.0026627101469784975,
        0.0010087101254612207,
        -0.02043420448899269,
        -0.008062192238867283,
        -0.03045806661248207,
        -0.012248844839632511,
        -0.010167193599045277,
        0.12181034684181213,
        -0.025187304243445396,
        -0.05369199067354202,
        0.015520837157964706,
        -0.27704060077667236,
        0.20858927071094513,
        -0.11367465555667877,
        0.22911731898784637,
        -0.10340943932533264,
        -0.006967158522456884,
        -0.020693467929959297,
        0.11959963291883469,
        -0.424121618270874,
        -0.031607747077941895,
        0.02085401490330696,
        0.09832411259412766,
        -0.04150744900107384,
        -0.5957114696502686,
        0.007962841540575027,
        0.03565032407641411,
        0.014064784161746502,
        0.018088405951857567,
        -0.045560043305158615,
        -0.06357124447822571,
        0.003119469853118062,
        -0.2216838002204895,
        -0.2149071842432022,
        -0.23623642325401306,
        0.06126407906413078,
        0.19729134440422058,
        0.12456773966550827,
        0.09149035066366196,
        -0.20659148693084717,
        -0.09512953460216522,
        -0.02410518378019333,
        0.026600079610943794,
        0.0862155333161354,
        0.6101265549659729,
        0.001577278831973672,
        0.013562340289354324,
        0.05680565908551216,
        0.519097626209259,
        0.08679275214672089,
        0.10893828421831131,
        0.09267434477806091,
        0.0004613100318238139,
        0.05367418751120567,
        0.03777493163943291,
        -0.02966199815273285,
        -0.011917189694941044,
        -0.13845142722129822,
        -0.04352712631225586,
        0.10757552832365036,
        0.21408353745937347,
        0.15566568076610565,
        0.06595180183649063,
        -0.10365187376737595,
        -0.027587637305259705,
        -0.11546635627746582,
        -0.11266962438821793,
        0.05484086647629738,
        -0.019668251276016235,
        0.07643004506826401,
        0.41837790608406067,
        -0.22233566641807556,
        -0.12727858126163483,
        -0.029539747163653374,
        -0.22855904698371887,
        -0.019067978486418724,
        -0.13109970092773438,
        0.13803309202194214,
        0.006796717178076506,
        0.053759004920721054,
        -0.031119568273425102,
        -0.18813398480415344,
        -0.055538076907396317,
        -0.19230696558952332,
        -0.16283449530601501,
        0.0656842589378357,
        -0.033301107585430145,
        -0.4651324152946472,
        -0.2423284649848938,
        -0.25143489241600037,
        -0.0469527393579483,
        0.0839337408542633,
        0.02531273663043976,
        -0.06173067167401314,
        0.08003992587327957,
        0.1997508406639099,
        0.0027304498944431543,
        0.22238345444202423,
        -0.04887617379426956,
        0.08775930851697922,
        -0.023346588015556335,
        0.012459180317819118,
        -0.2959573566913605,
        -0.5010101795196533,
        0.010829927399754524,
        -0.013888532295823097,
        0.17838449776172638,
        -0.004158651456236839,
        -0.07862919569015503,
        0.007470507640391588,
        -0.12083131074905396,
        -0.038762886077165604,
        0.020546728745102882,
        0.09331013262271881,
        -0.04440423846244812,
        -0.08597370982170105,
        -0.5407711863517761,
        -0.12672314047813416,
        -0.04535708576440811,
        0.1664137840270996,
        0.10710199922323227,
        0.2764817178249359,
        0.007084224838763475,
        -0.06990690529346466,
        -0.06319563835859299,
        0.03321985527873039,
        0.02804967388510704,
        -0.1302616000175476,
        0.5369450449943542,
        -0.028143834322690964,
        0.0662582591176033,
        -0.07169477641582489,
        0.08242937177419662,
        -0.05040407180786133,
        0.08814989030361176,
        0.064354807138443,
        -0.00985622126609087,
        0.15209107100963593,
        -0.6224361062049866,
        0.003235780168324709,
        0.03478384390473366,
        -0.07243132591247559,
        -0.04353588446974754,
        0.03705567866563797,
        0.018634166568517685,
        -0.015011194162070751,
        0.09214969724416733,
        0.07175396382808685,
        0.12949752807617188,
        0.029008235782384872,
        -0.004732254892587662,
        0.012559235095977783,
        -0.08619750291109085,
        -0.019947998225688934,
        -0.04650108143687248,
        0.00014404910325538367,
        -0.016276923939585686,
        -0.8459249138832092,
        -0.09271460771560669,
        -0.5108941793441772,
        0.11826346069574356,
        -0.09010721743106842,
        -0.05663390830159187,
        -0.07490003108978271,
        0.0476706437766552,
        -0.08450287580490112,
        -0.04842880368232727,
        0.10679446905851364,
        0.06351431459188461,
        0.016167335212230682,
        0.009949641302227974,
        -0.01893150433897972,
        -0.060556888580322266,
        -0.1771814376115799,
        -0.02429082617163658,
        -0.036548860371112823,
        -0.07045980542898178,
        -0.0960392877459526,
        -1.1311347484588623,
        -0.10035114735364914,
        -0.10922089219093323,
        0.1299615353345871,
        -0.025338025763630867,
        -0.029719360172748566,
        -0.30560025572776794,
        0.024957654997706413,
        -0.05946320295333862,
        -0.23257248103618622,
        0.02454230561852455,
        -0.26888275146484375,
        0.0019285447197034955,
        -0.05258806422352791,
        -0.08841808140277863,
        -0.04605612903833389,
        -0.36224842071533203,
        -0.0697879046201706,
        -0.03937748074531555,
        0.4442433714866638,
        -0.15737882256507874,
        0.13012631237506866,
        0.11568587273359299,
        -0.0011820857180282474,
        0.14982500672340393,
        0.21422909200191498,
        -0.020327750593423843,
        0.0652666762471199,
        -0.4421212077140808,
        0.059011686593294144,
        -0.11534861475229263,
        0.10384411364793777,
        0.2054067701101303,
        -0.10511767119169235,
        -0.008614017628133297,
        0.11040180921554565,
        -0.015128480270504951,
        0.1228245347738266,
        0.08403360098600388,
        0.13947656750679016,
        0.05098113790154457,
        0.2883129417896271,
        -0.02838318981230259,
        -0.013889852911233902,
        -0.1404210925102234,
        0.13743701577186584,
        0.18265649676322937,
        -0.014026904478669167,
        0.04107647016644478,
        0.09680910408496857,
        0.18227265775203705,
        0.15444129705429077,
        -0.19427084922790527,
        0.07074642181396484,
        -0.00016680490807630122,
        -0.061420880258083344,
        0.012231155298650265,
        -0.3629806637763977,
        -0.06638342142105103,
        -0.04084080457687378,
        -0.0024016513489186764,
        0.600549042224884,
        -0.0034432527609169483,
        -0.053528934717178345,
        -0.2982958257198334,
        -0.02164692059159279,
        -0.01789061166346073,
        0.2218744456768036,
        -0.09519374370574951,
        -0.03463970869779587,
        0.03579026833176613,
        -0.1400839239358902,
        0.012196267955005169,
        -0.005137303378432989,
        -0.14167512953281403,
        0.0031004927586764097,
        0.006665367167443037,
        0.05933435261249542,
        -0.019907239824533463,
        -0.04576694965362549,
        -0.13844212889671326,
        0.1708441972732544,
        0.707770824432373,
        0.005432527046650648,
        0.08022704720497131,
        -0.2983323931694031,
        -0.21407751739025116,
        0.0481487475335598,
        0.16264668107032776,
        -0.021023288369178772,
        0.05590130761265755,
        -0.5301440358161926,
        -0.10542099922895432,
        0.009591602720320225,
        -0.014617119915783405,
        -0.03449907526373863,
        -0.012574631720781326,
        -0.05322829261422157,
        -0.035901959985494614,
        -0.021528832614421844,
        -0.04203248396515846,
        0.10447384417057037,
        0.10427149385213852,
        0.1934310346841812,
        -0.009944332763552666,
        -0.08795148134231567,
        0.17128922045230865,
        -0.6496178507804871,
        0.038955628871917725,
        0.07694654911756516,
        -0.0641331896185875,
        -0.006872477009892464,
        0.060189150273799896,
        0.04982749745249748,
        -0.01190872397273779,
        -0.0516236312687397,
        0.002741564530879259,
        0.07403133064508438,
        0.03212689980864525,
        0.06154758855700493,
        0.07707921415567398,
        0.012015117332339287,
        -0.3314875066280365,
        0.08179182559251785,
        -0.07740288227796555,
        0.1160731166601181,
        0.04477621242403984,
        -0.17583434283733368,
        -0.026934612542390823,
        0.1357111632823944,
        -0.009574216790497303,
        0.1068292036652565,
        -0.3432962894439697,
        0.03266766667366028,
        -0.08490739017724991,
        0.08118364214897156,
        0.16597069799900055,
        -0.09515964239835739,
        0.012000382877886295,
        -0.30330657958984375,
        -0.35890838503837585,
        -0.23991592228412628,
        0.022770920768380165,
        -0.0007387083023786545,
        0.0015991502441465855,
        -0.1327219307422638,
        -0.14987711608409882,
        0.0017832688754424453,
        0.06315204501152039,
        -0.09400320798158646,
        -0.05829824507236481,
        -0.031978949904441833,
        0.1786288619041443,
        -0.03972208872437477,
        -0.0890999585390091,
        0.17433378100395203,
        -0.148422509431839,
        -0.012682946398854256,
        0.03344069793820381,
        0.1168096736073494,
        0.05578518286347389,
        0.0419129878282547,
        0.0555289089679718,
        -0.014992233365774155,
        0.08176914602518082,
        -0.08405950665473938,
        0.05605724826455116,
        0.3699551224708557,
        -0.18839089572429657,
        0.10749547183513641,
        -0.46520596742630005,
        0.03576226904988289,
        0.09799066931009293,
        -0.05481768026947975,
        -0.1290208399295807,
        -0.015059522353112698,
        -0.06130988895893097,
        0.09541583806276321,
        0.03986519202589989,
        -0.28919079899787903,
        -0.003432832658290863,
        -0.002922170329838991,
        0.1353445202112198,
        0.03933258727192879,
        -0.027543222531676292,
        -0.24855561554431915,
        0.0511646494269371,
        0.021774858236312866,
        -0.036661624908447266,
        -0.015334198251366615,
        -0.387693852186203,
        -0.3102741241455078,
        0.20242372155189514,
        -0.005403285380452871,
        0.09762344509363174,
        0.008897723630070686,
        -0.2559839189052582,
        -0.012610029429197311,
        -0.06744509190320969,
        0.06136501580476761,
        0.23732690513134003,
        0.18692968785762787,
        0.07930923998355865,
        0.08002889156341553,
        -0.13220714032649994,
        0.20314747095108032,
        0.32630762457847595,
        0.13175249099731445,
        -0.06446139514446259,
        0.17068083584308624,
        -0.004034510347992182,
        0.022128360345959663,
        0.05270632728934288,
        -0.09906547516584396,
        0.1261305958032608,
        0.13320419192314148,
        0.08415264636278152,
        0.11411351710557938,
        -0.07930916547775269,
        -0.2936290502548218,
        -0.17092950642108917,
        -0.1480916291475296,
        0.11633358150720596,
        -0.1514647752046585,
        -0.0967898815870285,
        -0.03315068781375885,
        -0.3161352574825287,
        -0.14853204786777496,
        0.13589422404766083,
        0.09529920667409897,
        -0.01035310234874487,
        0.07132777571678162,
        -0.31563708186149597,
        -0.03675992041826248,
        -0.01476710382848978,
        -0.04758182540535927,
        0.22310900688171387,
        -0.06951207667589188,
        0.1577008217573166,
        0.11979593336582184,
        -0.29734569787979126,
        -0.15970994532108307,
        -0.15807899832725525,
        -0.33220621943473816,
        -0.0019807047210633755,
        0.07630100101232529,
        0.08404180407524109,
        -0.1200253814458847,
        -0.1740378886461258,
        0.010427198372781277,
        0.12111660838127136,
        -0.260479599237442,
        0.09385647624731064,
        -0.04365144670009613,
        -0.12277954816818237,
        -0.14218732714653015,
        0.03788198158144951,
        0.12084859609603882,
        -0.012248510494828224,
        0.028467634692788124,
        0.049467042088508606,
        0.05758311226963997,
        0.015639664605259895,
        0.11997033655643463,
        -0.008527821861207485,
        0.03846883401274681,
        0.031175702810287476,
        0.0033349974546581507,
        0.12608353793621063,
        0.04673631489276886,
        -0.11108618974685669,
        -0.18122516572475433,
        0.047638189047575,
        -0.19355225563049316,
        -0.18200580775737762,
        0.2386234551668167,
        -0.09717676788568497,
        -0.09220410138368607,
        0.0062021720223128796,
        -0.1310458779335022,
        0.03747283294796944,
        -0.1591988205909729,
        0.08925453573465347,
        -0.015885666012763977,
        -0.15249884128570557,
        -0.06892312318086624,
        -0.08025411516427994,
        -0.09746047109365463,
        0.02276669256389141,
        0.09475158900022507,
        0.16080480813980103,
        -0.022586874663829803,
        -0.061505574733018875,
        -0.32930517196655273,
        0.03048696741461754,
        0.02781066857278347,
        -0.13493265211582184,
        0.2311340868473053,
        -0.21334592998027802,
        0.1902679204940796,
        -0.04865243658423424,
        -0.06992971897125244,
        0.022780748084187508,
        -0.1948915421962738,
        -0.42986127734184265,
        0.08067483454942703,
        0.032568253576755524,
        0.055942341685295105,
        -0.02820196934044361,
        0.12397594749927521,
        -0.055878181010484695,
        0.0642196387052536,
        0.04465353116393089,
        0.14783625304698944,
        0.039694953709840775,
        0.060648974031209946,
        -0.4068387746810913,
        -0.23989827930927277,
        0.08761729300022125,
        0.12727433443069458,
        -0.1219799593091011,
        0.054171476513147354,
        0.016595102846622467,
        0.19534696638584137,
        -0.021120380610227585,
        -0.01669273152947426,
        0.0068131741136312485,
        -0.09084093570709229,
        0.2569502890110016,
        0.05642494559288025,
        -0.04735869541764259,
        0.07902761548757553,
        -0.25161319971084595,
        -0.0041207922622561455,
        0.3482361435890198,
        0.010962453670799732,
        0.16649334132671356,
        -0.24859602749347687,
        0.13602440059185028,
        -0.11442457139492035,
        -0.11044905334711075,
        0.06413857638835907,
        -0.12986008822917938,
        -0.6907203793525696,
        -0.3350965678691864,
        0.1006416380405426,
        0.04241541400551796,
        0.17389950156211853,
        0.0027027097530663013,
        0.024656478315591812,
        -0.03355889767408371,
        -0.0016083475202322006,
        0.09241197258234024,
        0.04595904052257538,
        0.010372831486165524,
        0.12953555583953857,
        0.05114078149199486,
        -0.08558066189289093,
        0.03207021206617355,
        0.0545002780854702,
        -0.06512171030044556,
        0.09386862814426422,
        0.09320584684610367,
        0.18615539371967316,
        -0.026480751112103462,
        -0.12993203103542328,
        -0.004477739799767733,
        0.18693514168262482,
        -0.08539114147424698,
        -0.14426927268505096,
        -0.12109681963920593,
        -0.20903311669826508,
        0.11982906609773636,
        0.0904107317328453,
        0.10614676028490067,
        -0.1630786806344986,
        -0.1849503517150879,
        0.18744109570980072,
        0.10345518589019775,
        0.12392185628414154,
        -0.5437278151512146,
        -0.1371816098690033,
        -0.022745292633771896,
        -0.02789856307208538,
        -0.032641973346471786,
        0.07086261361837387,
        -0.1960441619157791,
        -0.1396356076002121,
        0.14866134524345398,
        0.023924414068460464,
        -0.05491331219673157,
        -0.015944240614771843,
        -0.019405504688620567,
        0.02155333012342453,
        -0.0159881841391325,
        0.017644615843892097,
        0.41467487812042236,
        0.12407885491847992,
        0.09567229449748993,
        -0.191477432847023,
        -0.27870288491249084,
        -0.09321693331003189,
        -0.1550980657339096,
        0.17157046496868134,
        0.07185288518667221,
        0.00028748108888976276,
        -0.22076663374900818,
        -0.17148908972740173,
        -0.18363377451896667,
        -0.21753418445587158,
        -0.044212762266397476,
        -0.08046308159828186,
        -0.021170305088162422,
        0.03764073923230171,
        -0.19104667007923126,
        -0.21075768768787384,
        0.03418793901801109,
        0.07971818745136261,
        0.012594412080943584,
        -0.07904615253210068,
        -0.1904856264591217,
        0.2611704170703888,
        -0.027918625622987747,
        0.19713692367076874,
        -0.06047035753726959,
        0.030766190961003304,
        0.05182874947786331,
        -0.003651134204119444,
        0.03165356069803238,
        0.06916637718677521,
        -0.05682038888335228,
        0.05989597737789154,
        0.19786235690116882,
        -0.028011590242385864,
        0.0748298242688179,
        0.09705426543951035,
        0.5390312075614929,
        0.10882586240768433,
        -0.05034620314836502,
        0.09651783108711243,
        -0.021572699770331383,
        -0.08875332027673721,
        -0.149225115776062,
        0.1116534024477005,
        -0.020052606239914894,
        -0.18455541133880615,
        -0.07625661790370941,
        -0.08201151341199875,
        0.044417545199394226,
        -0.004855981562286615,
        0.08076508343219757,
        -0.23793435096740723,
        -0.040405407547950745,
        -0.1405397206544876,
        -0.10203833878040314,
        -0.04918071627616882,
        -0.236384317278862,
        -0.2221381515264511,
        -0.01662345416843891,
        -0.1263524442911148,
        -0.04901200160384178,
        0.26379039883613586,
        0.018459780141711235,
        -0.13349004089832306,
        0.08847558498382568,
        -0.11117111891508102,
        -0.07951321452856064,
        0.20454373955726624,
        0.0695229023694992,
        0.09259145706892014,
        0.13072441518306732,
        -0.12572838366031647,
        -0.3877704441547394,
        0.1049124002456665,
        -0.009997261688113213,
        -0.010009891353547573,
        0.07932479679584503,
        -0.23639893531799316,
        0.06533148884773254,
        -0.056924786418676376,
        -0.02450544200837612,
        0.03618648648262024,
        -0.2105226069688797,
        0.0952877476811409,
        -0.16010071337223053,
        -0.21593137085437775,
        -0.3082665801048279,
        0.015583592467010021,
        0.03916064649820328,
        0.2899780571460724,
        0.06754892319440842,
        0.2143680602312088,
        -0.09263650327920914,
        -0.3374611735343933,
        -0.003836736548691988,
        0.014287350699305534,
        -0.08059369772672653,
        -0.30314546823501587,
        -0.45301195979118347,
        -0.24624620378017426,
        -0.011599555611610413,
        0.12741564214229584,
        0.050044238567352295,
        0.033462509512901306,
        -0.00793401151895523,
        -0.2301894724369049,
        -0.0054132891818881035,
        0.03331124782562256,
        0.11266489326953888,
        0.02824266068637371,
        -0.015220731496810913,
        0.04087982326745987,
        0.18896986544132233,
        0.1176585853099823,
        0.029196446761488914,
        0.06048757955431938,
        0.10239169746637344,
        -0.22104714810848236,
        -0.5192164182662964,
        -0.2686440944671631,
        -0.018392225727438927,
        -0.023169714957475662,
        0.15974415838718414,
        -0.28224727511405945,
        -0.12143250554800034,
        0.02646615356206894,
        -0.08673331886529922,
        -0.20179322361946106,
        0.11147841811180115,
        0.012433218769729137,
        -0.03277880698442459,
        -0.04710347205400467,
        -0.04725134000182152,
        -0.1128031462430954,
        0.10193158686161041,
        0.033364661037921906,
        0.038122743368148804,
        0.12813611328601837,
        0.011569109745323658,
        0.047031573951244354,
        -0.07466660439968109,
        0.03449350595474243,
        -0.013290788978338242,
        -0.07373002171516418,
        -0.045304931700229645,
        0.06264543533325195,
        -1.0602563619613647,
        -0.19533982872962952,
        0.052400801330804825,
        0.027809634804725647,
        -0.005078628193587065,
        0.012016277760267258,
        -0.010322351939976215,
        -0.23590245842933655,
        0.14001822471618652,
        -0.06810402870178223,
        -0.07526125758886337,
        0.005858380347490311,
        0.11750189960002899,
        0.030811389908194542,
        -0.00724597554653883,
        -0.07321138679981232,
        -0.08307959884405136,
        0.13820649683475494,
        0.08470262587070465,
        -0.030186526477336884,
        0.1718742400407791,
        -0.16385076940059662,
        0.10600396245718002,
        -0.4379836618900299,
        0.07733500003814697,
        0.09199255704879761,
        -0.10368381440639496,
        -0.0240803100168705,
        -0.17859305441379547,
        -0.04416579380631447,
        -0.036152418702840805,
        -0.03659706190228462,
        0.12233737111091614,
        0.19717197120189667,
        0.2651354670524597,
        -0.019669750705361366,
        -0.028072264045476913,
        -0.09755929559469223,
        0.050766050815582275,
        0.1511838585138321,
        -0.09597142040729523,
        -0.2860187888145447,
        -0.5760549902915955,
        -0.06324557960033417,
        -0.12827973067760468,
        0.09083007276058197,
        0.011361991055309772,
        0.10648910701274872,
        0.04283664748072624,
        0.04280548542737961,
        -0.6708390116691589,
        -0.03515399247407913,
        0.015436552464962006,
        -0.038215309381484985,
        0.03934880718588829,
        -0.04748527333140373,
        -0.1332356482744217,
        0.022542010992765427,
        -0.07730501145124435,
        0.03201473504304886,
        -0.0317678265273571,
        0.016729822382330894,
        0.05119707062840462,
        0.05665818974375725,
        -0.2155786007642746,
        0.01624409295618534,
        -0.06137332320213318,
        -0.07061821967363358,
        0.30118975043296814,
        0.08794046193361282,
        0.0731346383690834,
        -0.04539717733860016,
        0.014476034790277481,
        -0.004702477250248194,
        -0.11986174434423447,
        0.06741305440664291,
        -0.06777825951576233,
        -0.03859824314713478,
        0.05498957633972168,
        -0.1368623822927475,
        -0.03999555483460426,
        0.002184201031923294,
        0.32256075739860535,
        -0.17480328679084778,
        -0.020459476858377457,
        0.07776381075382233,
        -0.767553448677063,
        0.12309131026268005,
        0.15864470601081848,
        0.09056814759969711,
        0.14297610521316528,
        0.07278437912464142,
        -0.6092559099197388,
        -0.08885450661182404,
        -0.04607817158102989,
        -0.01953737437725067,
        -0.3132748305797577,
        0.00010982839739881456,
        0.034074731171131134,
        -0.3671732246875763,
        -0.166522815823555,
        0.022820990532636642,
        0.05523822456598282,
        0.16358493268489838,
        -0.042978961020708084,
        0.04870577156543732,
        -0.4841414988040924,
        0.007798185106366873,
        0.1625976264476776,
        0.03539659082889557,
        0.09888172894716263,
        0.2555059492588043,
        -0.03378671780228615,
        0.12601414322853088,
        -0.11055498570203781,
        -0.16754847764968872,
        -0.3551167845726013,
        0.1780739575624466,
        -0.1378379911184311,
        -0.2972252070903778,
        0.01794617623090744,
        -0.19218817353248596,
        0.0386119969189167,
        0.26378732919692993,
        -0.06292913109064102,
        -0.10825374722480774,
        0.0030335215851664543,
        -0.1543245017528534,
        0.01771470159292221,
        -0.13898371160030365,
        -0.14198368787765503,
        0.1310080587863922,
        -0.019365200772881508,
        -0.00105066888500005,
        -0.4899689257144928,
        -0.25140154361724854,
        0.03929661959409714,
        0.10035143792629242,
        -0.07725519686937332,
        -0.026714881882071495,
        -0.3048706352710724,
        -0.38669976592063904,
        0.03287486359477043,
        -0.012027021497488022,
        0.12154314666986465,
        0.12095267325639725,
        0.005983744282275438,
        0.022269316017627716,
        -0.4611484110355377,
        0.027861008420586586,
        -0.1556999385356903,
        0.18652695417404175,
        0.07410001754760742,
        0.2263624370098114,
        0.04772501066327095,
        -0.23851801455020905,
        -0.05415917560458183,
        0.04279608279466629,
        0.17865008115768433,
        0.11096112430095673,
        0.10524330288171768,
        0.033110637217760086,
        -0.04909863322973251,
        -0.13991378247737885,
        0.05458652973175049,
        -0.08079350739717484,
        -0.00422940356656909,
        -0.09884350746870041,
        0.04424137622117996,
        0.13281796872615814,
        -0.6671798825263977,
        -0.1427863985300064,
        0.06463680416345596,
        0.006326414179056883,
        0.15054838359355927,
        0.010001072660088539,
        -0.08428844064474106,
        -0.2989429235458374,
        -0.17885275185108185,
        -0.16875652968883514,
        -0.1401357352733612,
        -0.023177310824394226,
        -0.06981192529201508,
        -0.3605216443538666,
        -0.30614662170410156,
        0.03323778882622719,
        0.028456801548600197,
        0.1868656575679779,
        -0.17818474769592285,
        0.10977312177419662,
        0.19527031481266022,
        -0.061810996383428574,
        0.15151387453079224,
        0.08367777615785599,
        -0.01938590034842491,
        -0.15107223391532898,
        -0.40422171354293823,
        -0.20436881482601166,
        0.05743293836712837,
        0.007829713635146618,
        0.13102774322032928,
        -0.08493688702583313,
        0.24880573153495789,
        -0.1311575472354889,
        0.1376129388809204,
        0.009952994994819164,
        0.11419734358787537,
        0.07086578011512756,
        0.1820407211780548,
        0.11660345643758774,
        -0.038462188094854355,
        0.16826075315475464,
        -0.27403151988983154,
        -0.04723158851265907,
        0.16060896217823029,
        -0.10158061236143112,
        -0.32882967591285706,
        0.09415386617183685,
        0.018398627638816833,
        0.01623208448290825,
        0.011727631092071533,
        -0.056965943425893784,
        -0.17293153703212738,
        -0.16533035039901733,
        -0.2707444727420807,
        -0.35649362206459045,
        -0.49300816655158997,
        -0.07780774682760239,
        -0.07970702648162842,
        -0.003252544207498431,
        0.01379336602985859,
        0.06657040864229202,
        0.015395751222968102,
        0.01608513854444027,
        -0.12368144094944,
        0.06624966114759445,
        -0.2582768201828003,
        -0.0671791061758995,
        0.014825682155787945,
        -0.1398753821849823,
        -0.17427214980125427,
        -0.0615718849003315,
        -0.07027500122785568,
        -0.031404122710227966,
        -0.07933680713176727,
        -0.028256986290216446,
        0.04550999402999878,
        -0.5115779638290405,
        -0.03569336608052254,
        -0.04722195118665695,
        -0.017562679946422577,
        -0.10108184814453125,
        0.0464792437851429,
        0.3403012156486511,
        -0.00920186284929514,
        0.09100813418626785,
        -0.019320109859108925,
        0.02944878488779068,
        0.022895416244864464,
        0.10097923874855042,
        -0.08819122612476349,
        -0.18972697854042053,
        -0.16289083659648895,
        -0.23481231927871704,
        -0.17132341861724854,
        0.022233758121728897,
        0.02584921382367611,
        -0.10213930904865265,
        -0.4397439658641815,
        0.06336301565170288,
        0.1632733792066574,
        0.49652495980262756,
        -0.04009021073579788,
        -0.015472879633307457,
        0.030163800343871117,
        -0.017647158354520798,
        0.09993400424718857,
        0.2245670109987259,
        0.09482301771640778,
        0.017701908946037292,
        -0.1246674656867981,
        0.21590085327625275,
        0.11688835918903351,
        0.08525216579437256,
        0.07163793593645096,
        -0.1002153530716896,
        0.04213372617959976,
        0.021236425265669823,
        -0.1545393317937851,
        -0.05052721127867699,
        0.007742947433143854,
        0.045366667211055756,
        0.0318865068256855,
        0.03464553505182266,
        -0.2581512928009033,
        -0.29095399379730225,
        0.2484152913093567,
        -0.07878383994102478,
        0.02705411985516548,
        0.032162874937057495,
        -0.09090760350227356,
        -0.5603938698768616,
        0.14458610117435455,
        -0.25390973687171936,
        0.01767030730843544,
        -0.12663574516773224,
        -0.21480581164360046,
        -0.055216703563928604,
        -0.010757185518741608,
        0.02593855746090412,
        -0.11110594123601913,
        -0.18873007595539093,
        0.0494137778878212,
        0.03071936033666134,
        0.09132526069879532,
        -0.011810390278697014,
        -0.11679769307374954,
        -0.007976029068231583,
        -0.10984793305397034,
        0.1591198891401291,
        -0.21923981606960297,
        0.021633878350257874,
        0.1204105019569397,
        -0.04899221286177635,
        0.08010215312242508,
        0.06289488077163696,
        -0.04479720816016197,
        -0.015646230429410934,
        -0.05294438451528549,
        -0.08394503593444824,
        0.013003830797970295,
        -0.19269084930419922,
        0.019226621836423874,
        0.02852584794163704,
        -0.1041291132569313,
        -0.19674092531204224,
        0.05279248207807541,
        -0.015511917881667614,
        0.3622666001319885,
        -0.06937903165817261,
        0.016520578414201736,
        0.09152819216251373,
        -0.02646534889936447,
        0.07318750023841858,
        -0.023757772520184517,
        0.04460447281599045,
        0.08018241822719574,
        0.10053812712430954,
        0.12793506681919098,
        -0.05436612293124199,
        -0.029356762766838074,
        0.005414669867604971,
        -0.4170707166194916,
        0.021800823509693146,
        -0.06302136182785034,
        -0.019720667973160744,
        0.03774988278746605,
        -0.5799146294593811,
        -0.12037336826324463,
        -0.15200687944889069,
        0.14333535730838776,
        -0.0886971727013588,
        0.054519303143024445,
        -0.08125383406877518,
        0.030930209904909134,
        0.045534033328294754,
        0.14874988794326782,
        -0.21158592402935028,
        -0.20343008637428284,
        0.15745294094085693,
        -0.19287090003490448,
        -0.26385965943336487,
        -0.55030357837677,
        0.0850035697221756,
        -0.004599256906658411,
        0.04571482166647911,
        -0.13484448194503784,
        -0.15763914585113525,
        0.09707032144069672,
        -0.06087906286120415,
        -0.03733823075890541,
        -0.36196860671043396,
        -0.05050747096538544,
        0.11243268847465515,
        0.04809911176562309,
        0.023408940061926842,
        -0.21957111358642578,
        -0.36996033787727356,
        -0.10226039588451385,
        -0.016823748126626015,
        0.060916636139154434,
        0.03841955214738846,
        -0.05737226828932762,
        -0.008553285151720047,
        -0.03217052295804024,
        -0.0357147715985775,
        0.22103911638259888,
        0.0846947431564331,
        -0.010788333602249622,
        -0.04750693216919899,
        -0.6910104751586914,
        -0.15247327089309692,
        -0.04566005617380142,
        0.09558156132698059,
        0.022334568202495575,
        0.07029698044061661,
        -0.032271258533000946,
        -0.2958659827709198,
        -0.2100365161895752,
        -0.15227243304252625,
        -0.028093749657273293,
        0.04471423104405403,
        0.030537446960806847,
        -0.031069021672010422,
        -0.2071710228919983,
        -0.2556983530521393,
        -0.02500411681830883,
        0.03678911551833153,
        0.09172626584768295,
        0.09393575042486191,
        -0.2649393677711487,
        -0.18999280035495758,
        -0.059312332421541214,
        0.07436669617891312,
        -0.11929735541343689,
        0.21072766184806824,
        -0.008093771524727345,
        0.09858477115631104,
        -0.21418632566928864,
        0.03963346406817436,
        -0.26586660742759705,
        -0.2210802435874939,
        0.19559568166732788,
        0.060980282723903656,
        0.06743031740188599,
        0.13586577773094177,
        0.07452600449323654,
        0.016447270289063454,
        -0.3638466000556946,
        0.04228035733103752,
        0.07187717407941818,
        -0.36936837434768677,
        -0.24434936046600342,
        0.02338198944926262,
        -0.14214003086090088,
        -0.05860862880945206,
        -0.03957565128803253,
        -0.02991100400686264,
        0.053004682064056396,
        -0.1643083095550537,
        -0.18571870028972626,
        -0.1636049896478653,
        -0.05811163783073425,
        0.02365357242524624,
        -0.02730022557079792,
        -0.01664486899971962,
        -0.07647112011909485,
        -0.16716845333576202,
        -0.010016786865890026,
        0.22357185184955597,
        -0.04641401767730713,
        -0.27248507738113403,
        0.04963468760251999,
        0.24188503623008728,
        -0.05876454338431358,
        0.21462178230285645,
        -0.10955303907394409,
        0.15733960270881653,
        0.27322155237197876,
        0.030073590576648712,
        -0.11828875541687012,
        -0.21109552681446075,
        -0.26278871297836304,
        0.011445287615060806,
        -0.0877082496881485,
        -0.07373698055744171,
        -0.17419900000095367,
        -0.12511172890663147,
        -0.3398670256137848,
        0.03960169479250908,
        0.00855516642332077,
        -0.0953189954161644,
        -0.1538286954164505,
        0.00686795124784112,
        0.31884950399398804,
        -0.006840849760919809,
        -0.027254503220319748,
        -0.0635557547211647,
        0.14136481285095215,
        0.2719499468803406,
        -0.04030507057905197,
        0.15191228687763214,
        0.0007096294430084527,
        0.12664015591144562,
        0.06623697280883789,
        -0.09260562062263489,
        0.07715042680501938,
        0.04742670804262161,
        0.030463339760899544,
        0.2995608150959015,
        0.014140921644866467,
        0.09828732162714005,
        0.08218774944543839,
        0.08062376827001572,
        -0.05095085874199867,
        -0.16241435706615448,
        0.1729971021413803,
        -0.0552479512989521,
        0.06392887234687805,
        0.07304809987545013,
        -0.168742373585701,
        0.11572761833667755,
        -0.0455966480076313,
        0.0670696347951889,
        -0.03397873044013977,
        -0.010132942348718643,
        -0.020436685532331467,
        -0.014569618739187717,
        0.027575280517339706,
        0.10861771553754807,
        0.036215703934431076,
        0.12538190186023712,
        -0.2652924954891205,
        -0.08071582764387131,
        -0.4121544361114502,
        0.1329185515642166,
        0.11548089236021042,
        0.11479026824235916,
        0.1365431547164917,
        0.031842365860939026,
        0.047536738216876984,
        0.12069191038608551,
        0.1007208600640297,
        -0.1386880874633789,
        -0.04489666596055031,
        0.31002241373062134,
        0.057690031826496124,
        -0.04368447884917259,
        -0.002880282001569867,
        0.06979892402887344,
        -0.15042772889137268,
        -0.11945011466741562,
        -0.018038589507341385,
        -0.11246033012866974,
        -0.07041515409946442,
        -0.13867686688899994,
        0.08519899845123291,
        -0.014779736287891865,
        -0.6671421527862549,
        -0.07248549163341522,
        0.16389276087284088,
        0.027658702805638313,
        -0.25601500272750854,
        0.08408943563699722,
        0.012052510865032673,
        0.13807319104671478,
        -0.06905306130647659,
        0.05523698031902313,
        0.04769308120012283,
        -0.16986946761608124,
        -0.22048482298851013,
        -0.30541253089904785,
        -0.19106391072273254,
        -0.0762426108121872,
        0.04296547546982765,
        -0.1093650609254837,
        0.14666953682899475,
        0.20169998705387115,
        -0.07221265137195587,
        0.1606668382883072,
        0.11516810208559036,
        -0.01791737601161003,
        -0.0170928742736578,
        0.08978607505559921,
        -0.4999445080757141,
        -0.014019723050296307,
        -0.052651382982730865,
        -0.006650545634329319,
        0.11294543743133545,
        0.18680314719676971,
        0.3851722478866577,
        0.08294226229190826,
        -0.0624254010617733,
        -0.03589067608118057,
        -0.07843416929244995,
        0.15288878977298737,
        -0.13541509211063385,
        0.06795545667409897,
        -0.45799997448921204,
        0.10234434902667999,
        -0.005152469966560602,
        0.09962034970521927,
        0.015095815062522888,
        0.03788004815578461,
        -0.04828561097383499,
        -0.04795171320438385,
        0.09856624156236649,
        -0.04879099875688553,
        -0.05424414575099945,
        -0.03681381419301033,
        -0.07079539448022842,
        -0.10392117500305176,
        -0.4813929498195648,
        -0.09850265085697174,
        -0.24656546115875244,
        0.011911340989172459,
        0.022315330803394318,
        -0.009686383418738842,
        0.12116798758506775,
        -0.36604705452919006,
        -0.0765359029173851,
        -0.08868961781263351,
        -0.25149160623550415,
        0.029157010838389397,
        -0.0181647390127182,
        0.020600194111466408,
        -0.7975066304206848,
        -0.02305498719215393,
        0.00762531254440546,
        0.09153623133897781,
        0.1250811219215393,
        -0.04041619226336479,
        0.06275099515914917,
        -0.0568024218082428,
        -0.08026528358459473,
        -0.0022394065745174885,
        0.22465863823890686,
        0.011783015914261341,
        -0.07463551312685013,
        0.0862080529332161,
        -0.116340272128582,
        0.09303035587072372,
        -0.002569039585068822,
        -0.016178971156477928,
        0.10920722782611847,
        0.10966401547193527,
        0.08577312529087067,
        0.039564430713653564,
        0.21065878868103027,
        -0.04360906034708023,
        -0.0039453948847949505,
        0.0809294581413269,
        -0.14565783739089966,
        -0.05275743827223778,
        -0.12407338619232178,
        -0.058604929596185684,
        -0.07751293480396271,
        0.30219095945358276,
        0.07573875784873962,
        0.00041570336907170713,
        -0.2120811939239502,
        0.1408190280199051,
        -0.3078913688659668,
        -0.012243734672665596,
        -0.018561892211437225,
        0.23943784832954407,
        0.0920146107673645,
        -0.037391673773527145,
        0.18846996128559113,
        0.05386556684970856,
        0.03219372034072876,
        0.12144347280263901,
        -0.0034662054385989904,
        -0.07296966016292572,
        -0.11410555243492126,
        -0.14093057811260223,
        -0.004450686741620302,
        0.06924483925104141,
        -0.05420641973614693,
        0.07422338426113129,
        0.16954323649406433,
        0.10869678854942322,
        -0.38031142950057983,
        -0.11163017898797989,
        -0.28341734409332275,
        -0.35880541801452637,
        0.08893240243196487,
        -0.09382475167512894,
        -0.15560223162174225,
        0.1498226821422577,
        0.02831454761326313,
        -0.16249608993530273,
        0.1827905774116516,
        -0.06183694675564766,
        0.030419854447245598,
        -0.013955327682197094,
        -0.036900538951158524,
        0.08473654836416245,
        0.0037870367523282766,
        -0.3936525881290436,
        0.08429675549268723,
        -0.03952613100409508,
        0.001240140525624156,
        -0.05992898717522621,
        0.014325039461255074,
        0.02863818220794201,
        -0.02085917443037033,
        0.06446602195501328,
        -0.025935152545571327,
        -0.06078755855560303,
        0.023692956194281578,
        -0.2532601058483124,
        0.001697878586128354,
        0.0419081412255764,
        -0.038456421345472336,
        0.1883157193660736,
        0.6544379591941833,
        -0.003850032575428486,
        0.04427334666252136,
        0.09267416596412659,
        0.34023961424827576,
        0.008146307431161404,
        -0.011038778349757195,
        0.047072529792785645,
        0.015964705497026443,
        -0.0006262097740545869,
        0.11084441840648651,
        -0.1352369338274002,
        -0.08154016733169556,
        -0.15296074748039246,
        -0.23353560268878937,
        0.09204615652561188,
        0.08404111117124557,
        -0.14173917472362518,
        -0.11233744025230408,
        -0.0346856452524662,
        -0.014958931133151054,
        -0.09040233492851257,
        -0.4752803444862366,
        -0.44106578826904297,
        0.029481571167707443,
        0.1525246500968933,
        -0.0501040518283844,
        -0.058278631418943405,
        -0.18828648328781128,
        0.0905863493680954,
        -0.1768089383840561,
        0.014478370547294617,
        -0.34737807512283325,
        0.1642548143863678,
        -0.00510329520329833,
        0.009921318851411343,
        -0.2086186707019806,
        0.12726463377475739,
        -0.07812631875276566,
        -0.09638725221157074,
        -0.1634129136800766,
        -0.11400777101516724,
        -0.09983687102794647,
        -0.005046212580054998,
        -0.12087886780500412,
        -0.3199754059314728,
        -0.037253741174936295,
        0.049568820744752884,
        0.0659778043627739,
        0.062053147703409195,
        -0.5673392415046692,
        -0.09165557473897934,
        -0.09965488314628601,
        -0.08919999748468399,
        -0.0503128282725811,
        -0.07267811894416809,
        0.11232918500900269,
        -0.028848927468061447,
        -0.06755275279283524,
        -0.14991170167922974,
        0.04624687507748604,
        -0.021781224757432938,
        0.016929173842072487,
        0.5169457197189331,
        -0.034418731927871704,
        -0.13770140707492828,
        -0.015822945162653923,
        0.13944855332374573,
        0.03573116660118103,
        0.015074137598276138,
        0.1638588011264801,
        -0.07203187793493271,
        0.19481100142002106,
        -0.618625819683075,
        -0.07394289970397949,
        -0.0067030503414571285,
        -0.09617462009191513,
        0.1461978256702423,
        0.06052304804325104,
        0.1109260842204094,
        -0.487011581659317,
        -0.21550911664962769,
        -0.0287803765386343,
        0.17203839123249054,
        -0.08646463602781296,
        -0.44608205556869507,
        -0.3606567978858948,
        0.061600636690855026,
        0.051446158438920975,
        0.15642419457435608,
        -0.006008510943502188,
        -0.12906642258167267,
        -0.012538895942270756,
        -0.10250487923622131,
        -0.10567370802164078,
        -0.037076786160469055,
        0.08608578145503998,
        -0.018528157845139503,
        -0.15381695330142975,
        0.06447140872478485,
        -0.10024838894605637,
        -0.3528362214565277,
        0.11131520569324493,
        0.1616424322128296,
        -0.11406978219747543,
        0.04010734707117081,
        -0.020298726856708527,
        -0.060133595019578934,
        -0.16117548942565918,
        0.03334394097328186,
        0.11602374911308289,
        0.07476997375488281,
        0.049523718655109406,
        -0.42737287282943726,
        -0.2701028883457184,
        -0.06625079363584518,
        0.013296962715685368,
        0.26160991191864014,
        -0.03659088537096977,
        0.014704950153827667,
        0.23009544610977173,
        0.0893780067563057,
        0.06680294126272202,
        0.1927189826965332,
        0.07189049571752548,
        -0.13159969449043274,
        -0.13674147427082062,
        -0.10562911629676819,
        -0.0376475527882576,
        0.056076984852552414,
        -0.17326977849006653,
        0.10311542451381683,
        -0.03214741870760918,
        0.07262849062681198,
        0.14799818396568298,
        -0.20125621557235718,
        -0.43174779415130615,
        0.054000698029994965,
        0.10242722928524017,
        -0.021084003150463104,
        0.029063543304800987,
        -0.36672574281692505,
        -0.2725958526134491,
        0.05229560285806656,
        -0.015088052488863468,
        0.24304968118667603,
        0.04132793843746185,
        0.0004425147199071944,
        0.049678388983011246,
        0.03290737420320511,
        0.12015892565250397,
        0.06794080883264542,
        -0.20165249705314636,
        -0.008229376748204231,
        -0.09670578688383102,
        -0.08835256844758987,
        0.0135142020881176,
        -0.4425615072250366,
        -0.06115538254380226,
        0.03126194328069687,
        -0.11035235971212387,
        0.023990249261260033,
        -0.07179214805364609,
        -0.036558374762535095,
        -0.39969539642333984,
        -0.05567939952015877,
        -0.10087086260318756,
        -0.011227896437048912,
        -0.17414440214633942,
        -0.6005021929740906,
        0.04177667945623398,
        0.06841655820608139,
        -0.008613423444330692,
        -0.1846507489681244,
        -0.1345946192741394,
        -0.045120496302843094,
        0.09637263417243958,
        0.00874938815832138,
        0.010180197656154633,
        0.01882944256067276,
        0.07025488466024399,
        0.2291959822177887,
        0.19911468029022217,
        -0.08284369111061096,
        -0.23000599443912506,
        -0.04167304188013077,
        0.11943276971578598,
        0.30122262239456177,
        0.007090302184224129,
        0.10276569426059723,
        0.12510398030281067,
        -0.022455183789134026,
        0.04363677278161049,
        0.0795704796910286,
        -0.3061385750770569,
        -0.24734410643577576,
        -0.11871027946472168,
        -0.045567430555820465,
        0.12914767861366272,
        0.06726625561714172,
        -0.046834658831357956,
        -0.020180443301796913,
        0.0688241720199585,
        0.1442815512418747,
        0.13562656939029694,
        0.18234771490097046,
        0.1809675097465515,
        -0.14703163504600525,
        -0.31942346692085266,
        -0.020423145964741707,
        -0.07179730385541916,
        0.06440827250480652,
        0.015090910717844963,
        -0.053995463997125626,
        -0.16390788555145264,
        0.033449117094278336,
        -0.018721815198659897,
        -0.09569628536701202,
        0.05738973990082741,
        -0.2914292514324188,
        -0.41762298345565796,
        -0.0773521214723587,
        -0.03858716040849686,
        -0.0025269840843975544,
        -0.1754155457019806,
        -0.2982439696788788,
        -0.13894647359848022,
        0.016796885058283806,
        0.051860660314559937,
        0.2016288787126541,
        0.1182684600353241,
        -0.04755866527557373,
        0.0999995619058609,
        0.05311193689703941,
        0.27573853731155396,
        0.11742158979177475,
        -0.12087029218673706,
        0.060124874114990234,
        -0.011164918541908264,
        -0.27402016520500183,
        -0.04819044470787048,
        0.15933246910572052,
        0.05044420063495636,
        0.08261561393737793,
        0.023238422349095345,
        0.13757507503032684,
        0.07256247848272324,
        -0.1516394168138504,
        -0.1409444510936737,
        -0.2255355566740036,
        -0.06226915866136551,
        -0.08741766214370728,
        0.021853197365999222,
        -0.021984627470374107,
        -0.19889122247695923,
        -0.31974518299102783,
        0.02343679405748844,
        0.10766246914863586,
        -0.030295610427856445,
        -0.33761921525001526,
        0.021335838362574577,
        0.24632498621940613,
        0.00038924807449802756,
        0.10882727056741714,
        -0.04032984375953674,
        0.01888170838356018,
        0.14893406629562378,
        0.07539261132478714,
        0.2277684509754181,
        -0.22193333506584167,
        0.03639231622219086,
        -0.20155036449432373,
        -0.0009927776409313083,
        0.0357767753303051,
        0.09940937161445618,
        0.05406554043292999,
        0.11067759245634079,
        -0.1686752587556839,
        -0.033521998673677444,
        -0.028134308755397797,
        -0.09389104694128036,
        0.15269947052001953,
        -0.2390429973602295,
        -0.40271106362342834,
        -0.1640578806400299,
        0.05909024551510811,
        0.07454299926757812,
        -0.0936913937330246,
        0.047519002109766006,
        0.1322023868560791,
        -0.005277667194604874,
        -0.2207377552986145,
        -0.19906161725521088,
        -0.018818721175193787,
        -0.026374835520982742,
        0.07049180567264557,
        -0.19571493566036224,
        -0.07814974337816238,
        -0.12389584630727768,
        -0.04065502807497978,
        0.05205009877681732,
        -0.020714575424790382,
        0.1416405439376831,
        -0.4153904318809509,
        -0.4335585832595825,
        0.09623510390520096,
        -0.11675729602575302,
        0.09475284069776535,
        -0.027400461956858635,
        -0.11965033411979675,
        -0.06627124547958374,
        0.01411029789596796,
        0.11560757458209991,
        0.11509641259908676,
        -0.06963041424751282,
        0.03925102576613426,
        -0.025079043582081795,
        -0.1956203281879425,
        0.059355370700359344,
        0.47678524255752563,
        0.03935593366622925,
        -0.07748856395483017,
        -0.2445368617773056,
        0.02730497717857361,
        0.08919892460107803,
        0.03809475526213646,
        0.03650525212287903,
        0.06794113665819168,
        0.03509369120001793,
        0.11597263813018799,
        -0.3274458050727844,
        -0.01439348328858614,
        -0.011746011674404144,
        -0.058554138988256454,
        -0.01103896927088499,
        -0.13982416689395905,
        -0.07731267064809799,
        -0.365200012922287,
        -0.3092585504055023,
        -0.32492566108703613,
        0.012248313054442406,
        0.06827586889266968,
        -0.019563980400562286,
        0.028455467894673347,
        -0.36127692461013794,
        -0.023466721177101135,
        -0.05371294543147087,
        0.13173647224903107,
        0.06143806129693985,
        -0.02037673257291317,
        -0.026289861649274826,
        0.10029757022857666,
        -0.18724125623703003,
        -0.09383434057235718,
        0.16806931793689728,
        0.07576201111078262,
        0.07447723299264908,
        0.07102468609809875,
        0.07733538001775742,
        0.03588645160198212,
        -0.08725444972515106,
        0.5317744612693787,
        -0.07813724875450134,
        -0.007600205484777689,
        0.08840389549732208,
        0.02079198695719242,
        -0.04830767959356308,
        -0.03812561556696892,
        -0.04203340411186218,
        0.13181129097938538,
        0.15489402413368225,
        0.09637553244829178,
        0.019328055903315544,
        -0.04370642825961113,
        -0.08802670240402222,
        0.08163060247898102,
        0.06692246347665787,
        -0.011709817685186863,
        0.023502284660935402,
        -0.6577901840209961,
        0.08094986528158188,
        -0.05077183246612549,
        -0.052413210272789,
        0.012573881074786186,
        -0.30316951870918274,
        -0.09404000639915466,
        0.06415862590074539,
        -0.007726337760686874,
        -0.13532692193984985,
        0.062226105481386185,
        -0.22475430369377136,
        0.30585038661956787,
        -0.0009431581711396575,
        0.028012553229928017,
        -0.17180871963500977,
        -0.23833973705768585,
        -0.16909605264663696,
        -0.06183169037103653,
        -0.03600011765956879,
        0.010984263382852077,
        -0.021106481552124023,
        0.10555266588926315,
        -0.27223145961761475,
        0.00976377259939909,
        -0.014295998960733414,
        0.09436409175395966,
        -0.1556871086359024,
        0.07319188863039017,
        0.14781871438026428,
        0.261656790971756,
        0.13160642981529236,
        0.20306073129177094,
        -0.03814024105668068,
        0.2177964746952057,
        0.13452982902526855,
        -0.052426718175411224,
        0.05617266520857811,
        0.019312741234898567,
        -0.042114727199077606,
        0.006089635193347931,
        0.05154988542199135,
        -0.3248571455478668,
        -0.12251279503107071,
        0.07219050079584122,
        -0.036330267786979675,
        -0.3058297038078308,
        0.036850668489933014,
        -0.3098872900009155,
        -0.04832592234015465,
        -0.03914831578731537,
        -0.1991911679506302,
        -0.11493800580501556,
        0.16154009103775024,
        -0.07649814337491989,
        -0.0018688994459807873,
        -0.032302454113960266,
        0.0014376257313415408,
        0.10114453732967377,
        0.006916493643075228,
        -0.11647889763116837,
        -0.0548318549990654,
        -0.05338606238365173,
        0.03572891652584076,
        0.03599334880709648,
        0.28460073471069336,
        -0.02451428212225437,
        -0.05351657420396805,
        -0.035949163138866425,
        -0.03941889479756355,
        -0.04044785350561142,
        -0.11571554839611053,
        0.18100938200950623,
        -0.14193782210350037,
        -0.04708145558834076,
        0.11566796153783798,
        -0.01982652209699154,
        0.04115964472293854,
        -0.09875664114952087,
        -0.10768331587314606,
        -0.020920133218169212,
        -0.05737452581524849,
        -0.22369496524333954,
        -0.08922193944454193,
        -0.032914429903030396,
        -0.05103040114045143,
        -0.3219562768936157,
        0.06308285892009735,
        0.11552596092224121,
        -0.03312616050243378,
        -0.4402541518211365,
        0.06944835186004639,
        0.17952710390090942,
        -0.05017707124352455,
        0.11262530088424683,
        -0.04652266949415207,
        0.15406294167041779,
        0.01829621009528637,
        0.11130539327859879,
        0.06386342644691467,
        0.29996269941329956,
        -0.2243860512971878,
        -0.12954400479793549,
        -0.04086006060242653,
        -0.02298983931541443,
        -0.035337287932634354,
        -0.15987037122249603,
        0.04948776215314865,
        -0.12766671180725098,
        0.19632288813591003,
        0.100189208984375,
        -0.018441133201122284,
        0.12001467496156693,
        -0.23851068317890167,
        -0.2650638818740845,
        0.10452882945537567,
        -0.12163949012756348,
        -0.0278371199965477,
        0.07626193761825562,
        0.08652779459953308,
        -0.03658796474337578,
        0.04481804370880127,
        0.025512075051665306,
        0.034365177154541016,
        0.11982190608978271,
        -0.055078402161598206,
        -0.8163296580314636,
        -0.45172104239463806,
        -0.4993409216403961,
        -0.06552474945783615,
        -0.01881011389195919,
        -0.0848880484700203,
        -0.036755096167325974,
        -0.03834444284439087,
        0.0031017973087728024,
        0.02432781085371971,
        0.12278664112091064,
        -0.04918515309691429,
        0.07083176076412201,
        -0.06302037090063095,
        -0.4353232681751251,
        0.009671535342931747,
        -0.140717014670372,
        0.0015360639663413167,
        -0.06818187981843948,
        -0.28370726108551025,
        -0.028388265520334244,
        0.08060953766107559,
        0.06428534537553787,
        -0.05345632880926132,
        0.034323662519454956,
        0.10106959939002991,
        -0.069368876516819,
        0.2427634298801422,
        -0.07281345874071121,
        0.19384810328483582,
        -0.4371645748615265,
        0.010921891778707504,
        0.019879257306456566,
        -0.0745575800538063,
        0.11958371102809906,
        0.053818199783563614,
        0.26914864778518677,
        -0.021709783002734184,
        -0.4015914499759674,
        -0.03759941831231117,
        -0.10678762197494507,
        -0.06504295021295547,
        -0.22813239693641663,
        -0.5478567481040955,
        -0.03521764278411865,
        -0.008330749347805977,
        -0.09060864895582199,
        0.06220826134085655,
        -0.08598347753286362,
        0.0829065591096878,
        -0.18500402569770813,
        -0.299949049949646,
        -0.03630848228931427,
        0.17465849220752716,
        -0.04634540155529976,
        -0.04327843338251114,
        0.05735190957784653,
        -0.08451907336711884,
        0.0316711962223053,
        -0.020111115649342537,
        -0.054344311356544495,
        0.02435128018260002,
        -0.15142062306404114,
        0.051565591245889664,
        0.057490602135658264,
        0.20971572399139404,
        0.03976680338382721,
        0.003898144932463765,
        -0.06233905255794525,
        -0.01590351015329361,
        -0.21895566582679749,
        -0.20463739335536957,
        0.20186065137386322,
        -0.04186924174427986,
        -0.07341592013835907,
        -0.021248923614621162,
        -0.12954537570476532,
        -0.5734214186668396,
        -0.04827868193387985,
        -0.09770991653203964,
        -0.028144221752882004,
        0.07856106013059616,
        -0.12424823641777039,
        0.07010620832443237,
        -0.010051460936665535,
        0.059242334216833115,
        0.08031845837831497,
        -0.002975948853418231,
        0.2350528985261917,
        0.10374931246042252,
        0.07487205415964127,
        -0.037781015038490295,
        0.17444604635238647,
        0.092035673558712,
        -0.25851714611053467,
        0.17110925912857056,
        -0.17300161719322205,
        -0.08284315466880798,
        -0.02218594215810299,
        -0.23546598851680756,
        -0.2533266544342041,
        -0.22029341757297516,
        -0.10337232053279877,
        -0.20240822434425354,
        -0.009775529615581036,
        0.01941104792058468,
        -0.006614466197788715,
        -0.19144874811172485,
        0.07697539031505585,
        -0.2866126000881195,
        -0.020454050973057747,
        0.04736833646893501,
        -0.2074206918478012,
        -0.4884653687477112,
        -0.11352309584617615,
        0.07905200868844986,
        0.04782823473215103,
        0.020961269736289978,
        0.027021335437893867,
        0.04953060671687126,
        -0.4120648503303528,
        -0.007473645266145468,
        0.05595539137721062,
        0.20726031064987183,
        0.05726790428161621,
        -0.04651055112481117,
        0.01087934896349907,
        -0.06817405670881271,
        -0.1537141501903534,
        -0.006041454616934061,
        0.04638742282986641,
        0.06299019604921341,
        0.20784245431423187,
        -0.39148572087287903,
        -0.2020837515592575,
        -0.012415939942002296,
        -0.0076170433312654495,
        0.010111169889569283,
        0.08270316570997238,
        -0.06291177123785019,
        -0.07775433361530304,
        0.015161742456257343,
        0.01710694096982479,
        -0.07549405843019485,
        0.0015847488539293408,
        0.10085918009281158,
        -0.01991945505142212,
        0.03785529360175133,
        0.06547326594591141,
        0.20577594637870789,
        -0.03086051158607006,
        -0.019860122352838516,
        0.0016850305255502462,
        -0.1990012377500534,
        -0.423260897397995,
        -0.18628880381584167,
        -0.358751505613327,
        -0.06631991267204285,
        0.05542157217860222,
        -0.04630732908844948,
        0.013117680326104164,
        -0.27914997935295105,
        -0.08801575750112534,
        -0.1920921504497528,
        -0.17295560240745544,
        0.02655874378979206,
        -0.24247057735919952,
        -0.09035209566354752,
        -0.4732803702354431,
        -0.5538454651832581,
        -0.14896900951862335,
        0.012607541866600513,
        0.07502209395170212,
        0.022095130756497383,
        0.132053405046463,
        -0.28900718688964844,
        -0.0018352298066020012,
        0.023426339030265808,
        0.12469742447137833,
        0.08932160586118698,
        -0.12549899518489838
      ]
    },
    {
      "architecture": "normalization",
      "bias": [
        -0.02588554657995701,
        -0.1015940010547638,
        -0.1333136409521103,
        -0.127456396818161,
        -0.009055852890014648,
        -0.08409975469112396,
        -0.003369562327861786,
        -0.08365736901760101,
        -0.09660059958696365,
        -0.17203834652900696,
        -0.07494724541902542,
        -0.08334679901599884,
        -0.08216729015111923,
        -0.1899862438440323,
        -0.07865291833877563,
        -0.05146797001361847,
        -0.002480028197169304,
        -0.032510001212358475,
        -0.010140713304281235,
        -0.30568957328796387,
        -0.1127273216843605,
        -0.03263406082987785,
        -0.03991587087512016,
        -0.11120681464672089,
        -0.054336342960596085,
        0.003977101296186447,
        -0.08063828200101852,
        -0.13826097548007965,
        -0.08062337338924408,
        -0.05533091723918915,
        -0.0739118754863739,
        -0.0216971468180418,
        -0.044106341898441315,
        -0.04316619038581848,
        -0.05908579379320145,
        -0.14833076298236847,
        -0.06375762820243835,
        -0.1463715136051178,
        -0.02401087060570717,
        -0.11247417330741882,
        -0.18269585072994232,
        -0.020663931965827942,
        0.009335048496723175,
        -0.06746971607208252,
        -0.1458653062582016,
        -0.15154384076595306,
        -0.17044271528720856,
        -0.07985004037618637,
        -0.024057840928435326,
        -0.012064184062182903,
        -0.12543363869190216,
        -0.12449879944324493,
        -0.1399545669555664,
        -0.12278160452842712,
        -0.0060342708602547646,
        -0.010548742488026619,
        -0.17514409124851227,
        -0.05264877527952194,
        -0.05119630694389343,
        -0.14818084239959717,
        -0.08084529638290405,
        -0.13119946420192719,
        -0.01920592039823532,
        -0.047031838446855545,
        -0.05475331097841263,
        -0.09215620160102844,
        -0.08758145570755005,
        -0.09527747333049774,
        -0.03316601365804672,
        -0.07050789892673492,
        -0.06392928957939148,
        -0.1178421601653099,
        -0.26319947838783264,
        -0.07920224964618683,
        -0.06670333445072174,
        -0.01982484944164753,
        -0.08460976183414459,
        -0.072834312915802,
        -0.14186681807041168,
        -0.05519451946020126,
        -0.14754649996757507,
        -0.06629182398319244,
        -0.11033111065626144,
        -0.017315534874796867,
        -0.06227065250277519,
        -0.030909035354852676,
        -0.16358616948127747,
        -0.08179470151662827,
        -0.14994971454143524,
        -0.14963559806346893,
        -0.09837590157985687,
        -0.1400335431098938,
        -0.016805510967969894,
        -0.016474515199661255,
        -0.013675354421138763,
        -0.05007252097129822,
        -0.07287344336509705,
        -0.1263459175825119,
        -0.12492258846759796,
        -0.08643621951341629,
        -0.07283800840377808,
        -0.026744499802589417,
        -0.10123351961374283,
        -0.061672404408454895,
        -0.090547576546669,
        -0.21395978331565857,
        -0.20123636722564697,
        -0.06239527463912964,
        -0.10362550616264343,
        -0.10401929914951324,
        -0.10640221834182739,
        -0.06371697038412094,
        -0.03334939852356911,
        -0.01831287331879139,
        -0.04540093243122101,
        -0.0009098704904317856,
        -0.037479400634765625,
        -0.036862362176179886,
        -0.11233148723840714,
        -0.17425325512886047,
        -0.08237989991903305,
        -0.08634058386087418,
        -0.009094063192605972,
        -0.19516810774803162,
        -0.14848780632019043,
        -0.034362003207206726,
        -0.08447781205177307,
        -0.09770906716585159
      ],
      "weights": [
        6.473162651062012,
        3.7742269039154053,
        3.7729430198669434,
        2.7767395973205566,
        6.085236549377441,
        3.803494930267334,
        3.707514524459839,
        3.881169319152832,
        3.6794705390930176,
        2.3057754039764404,
        3.42270827293396,
        2.6252546310424805,
        2.772541046142578,
        1.7342954874038696,
        3.8143415451049805,
        4.3841400146484375,
        9.24514389038086,
        2.8875439167022705,
        13.604945182800293,
        1.9084707498550415,
        2.917280673980713,
        4.801937103271484,
        4.122085094451904,
        3.7621490955352783,
        4.868756294250488,
        6.58953857421875,
        5.368690013885498,
        3.262883424758911,
        5.1277666091918945,
        4.119746208190918,
        3.667340040206909,
        5.060744762420654,
        3.2302918434143066,
        5.198673248291016,
        5.185194492340088,
        2.9352025985717773,
        3.3203608989715576,
        1.9512619972229004,
        7.703455448150635,
        3.5569615364074707,
        3.4134600162506104,
        6.202249050140381,
        8.509846687316895,
        3.6535298824310303,
        2.9719784259796143,
        1.7653177976608276,
        2.461578130722046,
        4.544797897338867,
        4.004959583282471,
        8.515230178833008,
        2.3215463161468506,
        2.605032205581665,
        2.772542715072632,
        2.890789270401001,
        10.493698120117188,
        11.831777572631836,
        1.4850749969482422,
        5.443175792694092,
        5.167638301849365,
        3.3453829288482666,
        3.187209367752075,
        2.75055193901062,
        7.422955513000488,
        3.5983855724334717,
        9.461133003234863,
        4.815552234649658,
        3.723430633544922,
        3.3173060417175293,
        5.218457221984863,
        3.79488205909729,
        3.7325689792633057,
        3.045320749282837,
        1.7927523851394653,
        3.467357635498047,
        4.560824394226074,
        4.2604217529296875,
        3.422532081604004,
        2.5361173152923584,
        4.088494777679443,
        4.563216209411621,
        2.6079013347625732,
        6.778953552246094,
        3.68306040763855,
        6.1077141761779785,
        5.429673194885254,
        2.486896276473999,
        2.8860690593719482,
        4.258552551269531,
        2.169265031814575,
        3.1808207035064697,
        4.009104251861572,
        3.0910468101501465,
        9.165572166442871,
        7.0429816246032715,
        6.95141077041626,
        4.219367504119873,
        4.126733779907227,
        3.5394482612609863,
        4.5826568603515625,
        4.275173664093018,
        5.140171527862549,
        2.082878828048706,
        3.8397417068481445,
        4.171383857727051,
        3.8011913299560547,
        2.296163320541382,
        1.5067532062530518,
        3.8094005584716797,
        3.320004940032959,
        3.454939842224121,
        3.6268177032470703,
        4.654684066772461,
        5.557953357696533,
        7.467315196990967,
        2.072547674179077,
        8.147238731384277,
        4.4763875007629395,
        6.080032825469971,
        2.832245349884033,
        3.0079591274261475,
        4.033663272857666,
        3.663536787033081,
        3.6850528717041016,
        2.5165388584136963,
        2.1365482807159424,
        13.023862838745117,
        3.405344247817993,
        3.2781002521514893
      ]
    },
    {
      "activation": "rectified",
      "architecture": "dense",
      "bias": [
        -0.10148248076438904,
        -0.28242915868759155,
        -0.16563314199447632,
        -0.11210880428552628,
        -0.08091268688440323,
        -0.17591512203216553,
        -0.17381715774536133,
        -0.023967552930116653,
        -0.33676499128341675,
        -0.15426938235759735,
        -0.33169621229171753,
        -0.004112571477890015,
        -0.2130277156829834,
        -0.2363169640302658,
        -0.08269559592008591,
        -0.42442962527275085,
        -0.36104923486709595,
        -0.0783810168504715,
        -0.07598427683115005,
        -0.19677114486694336,
        -0.11802040785551071,
        -0.06666451692581177,
        -0.07275744527578354,
        -0.2788133919239044,
        -0.1919056475162506,
        -0.28906798362731934,
        -0.0913001000881195,
        -0.05678388848900795,
        0.12716050446033478,
        -0.13088363409042358,
        -0.2000686377286911,
        -0.2676526606082916,
        -0.16227987408638,
        -0.3448082506656647,
        -0.27652058005332947,
        -0.13944679498672485,
        -0.25870221853256226,
        -0.19984020292758942,
        -0.13974234461784363,
        -0.11859142035245895,
        -0.10238683968782425,
        -0.015149099752306938,
        0.010599557310342789,
        -0.0778132751584053,
        -0.04428941011428833,
        -0.0569503977894783,
        -0.10024195909500122,
        -0.093001589179039,
        -0.16876927018165588,
        -0.043529611080884933,
        -0.5661658048629761,
        -0.15681317448616028,
        -0.07327506691217422,
        -0.1043715700507164,
        -0.18471966683864594,
        -0.14224426448345184,
        -0.09847338497638702,
        -0.1842615008354187,
        -0.04366558790206909,
        -0.32592377066612244,
        -0.1967490017414093,
        -0.15549832582473755,
        -0.21650026738643646,
        -0.21977852284908295,
        -0.14268746972084045,
        -0.02632894366979599,
        -0.2433793842792511,
        -0.05543508753180504,
        -0.022484581917524338,
        -0.08303692191839218,
        -0.17369548976421356,
        -0.034371715039014816,
        0.0010949663119390607,
        -0.20989543199539185,
        -0.09460128843784332,
        -0.024757981300354004,
        -0.25537925958633423,
        -0.15794841945171356,
        -0.17963016033172607,
        -0.3270886242389679,
        -0.041208527982234955,
        -0.1090158149600029,
        -0.07183226197957993,
        -0.239373579621315,
        -0.04910164326429367,
        -0.2080024778842926,
        -0.07397163659334183,
        -0.16427551209926605,
        -0.1098138689994812,
        -0.19772668182849884,
        -0.20653481781482697,
        -0.40251946449279785,
        -0.12485960870981216,
        0.022879188880324364,
        -0.2066846489906311,
        -0.23000821471214294,
        -0.29762643575668335,
        -0.13484936952590942,
        -0.2869453430175781,
        -0.3672042191028595,
        0.043524958193302155,
        -0.28980743885040283,
        -0.0802714005112648,
        -0.16434292495250702,
        -0.1771257072687149,
        -0.42249929904937744,
        -0.050654564052820206,
        -0.12519364058971405,
        -0.14805243909358978,
        -0.02236957661807537,
        -0.10170824080705643,
        -0.06349917501211166,
        -0.2746027708053589,
        -0.1667688637971878,
        0.009782598353922367,
        0.045846112072467804,
        0.011110170744359493,
        -0.1336774379014969,
        -0.062223803251981735,
        -0.18682806193828583,
        0.15947693586349487,
        -0.19416463375091553,
        -0.23457476496696472,
        -0.2571127414703369,
        -0.1896236687898636,
        -0.16393199563026428,
        -0.11468197405338287,
        -0.28826117515563965
      ],
      "weights": [
        0.19021673500537872,
        0.011108382605016232,
        0.024890750646591187,
        0.15324565768241882,
        0.042170919477939606,
        -0.018949532881379128,
        0.07680831849575043,
        0.16776759922504425,
        0.021027281880378723,
        0.16227516531944275,
        -0.030820423737168312,
        0.020971115678548813,
        -0.3389371633529663,
        -0.03279701992869377,
        0.27874159812927246,
        -0.38793936371803284,
        -0.189423605799675,
        -0.13501869142055511,
        0.24248257279396057,
        -0.3114326000213623,
        0.16896359622478485,
        0.20392630994319916,
        -0.06786645948886871,
        -0.23857755959033966,
        0.013511312194168568,
        -0.14929039776325226,
        0.018012451007962227,
        -0.02396593987941742,
        0.27284371852874756,
        0.05936378613114357,
        0.1606648564338684,
        0.2556324899196625,
        0.12910096347332,
        0.003795550437644124,
        0.0076300944201648235,
        0.0661507397890091,
        -0.10380731523036957,
        -0.05795055627822876,
        0.01368080172687769,
        0.031333666294813156,
        0.18373288214206696,
        0.03600484877824783,
        -0.1205514669418335,
        -0.0659496858716011,
        -0.06251394748687744,
        0.006795643828809261,
        0.21888823807239532,
        -0.07407702505588531,
        -0.28501424193382263,
        -0.24652040004730225,
        0.28134769201278687,
        0.05613207072019577,
        0.15157610177993774,
        0.053637366741895676,
        0.05929569527506828,
        0.15681643784046173,
        -0.4075873792171478,
        0.06445025652647018,
        -0.0945887342095375,
        0.08242226392030716,
        0.1761305183172226,
        0.005434154532849789,
        0.13423629105091095,
        0.05751439929008484,
        0.09349606186151505,
        -0.04711788520216942,
        0.16500325500965118,
        0.2925511300563812,
        0.28043895959854126,
        0.026401760056614876,
        0.07207372784614563,
        0.10963117331266403,
