{
  "defaults": {},
  "inputs": [
    {
      "name": "ph_pt_0",
      "offset": 0,
      "scale": 1
    },
    {
      "name": "ph_pt_1",
      "offset": 0,
      "scale": 1
    },
    {
      "name": "ph_phi_0",
      "offset": 0,
      "scale": 1
    },
    {
      "name": "ph_phi_1",
      "offset": 0,
      "scale": 1
    },
    {
      "name": "ph_e_0",
      "offset": 0,
      "scale": 1
    },
    {
      "name": "ph_e_1",
      "offset": 0,
      "scale": 1
    },
    {
      "name": "jet_pt_0",
      "offset": 0,
      "scale": 1
    },
    {
      "name": "jet_pt_1",
      "offset": 0,
      "scale": 1
    },
    {
      "name": "jet_pt_2",
      "offset": 0,
      "scale": 1
    },
    {
      "name": "jet_pt_3",
      "offset": 0,
      "scale": 1
    },
    {
      "name": "jet_pt_4",
      "offset": 0,
      "scale": 1
    },
    {
      "name": "jet_pt_5",
      "offset": 0,
      "scale": 1
    },
    {
      "name": "jet_eta_0",
      "offset": 0,
      "scale": 1
    },
    {
      "name": "jet_eta_1",
      "offset": 0,
      "scale": 1
    },
    {
      "name": "jet_eta_2",
      "offset": 0,
      "scale": 1
    },
    {
      "name": "jet_eta_3",
      "offset": 0,
      "scale": 1
    },
    {
      "name": "jet_eta_4",
      "offset": 0,
      "scale": 1
    },
    {
      "name": "jet_eta_5",
      "offset": 0,
      "scale": 1
    },
    {
      "name": "jet_phi_0",
      "offset": 0,
      "scale": 1
    },
    {
      "name": "jet_phi_1",
      "offset": 0,
      "scale": 1
    },
    {
      "name": "jet_phi_2",
      "offset": 0,
      "scale": 1
    },
    {
      "name": "jet_phi_3",
      "offset": 0,
      "scale": 1
    },
    {
      "name": "jet_phi_4",
      "offset": 0,
      "scale": 1
    },
    {
      "name": "jet_phi_5",
      "offset": 0,
      "scale": 1
    },
    {
      "name": "jet_e_0",
      "offset": 0,
      "scale": 1
    },
    {
      "name": "jet_e_1",
      "offset": 0,
      "scale": 1
    },
    {
      "name": "jet_e_2",
      "offset": 0,
      "scale": 1
    },
    {
      "name": "jet_e_3",
      "offset": 0,
      "scale": 1
    },
    {
      "name": "jet_e_4",
      "offset": 0,
      "scale": 1
    },
    {
      "name": "jet_e_5",
      "offset": 0,
      "scale": 1
    },
    {
      "name": "jet_mv2c10_0",
      "offset": 0,
      "scale": 1
    },
    {
      "name": "jet_mv2c10_1",
      "offset": 0,
      "scale": 1
    },
    {
      "name": "jet_mv2c10_2",
      "offset": 0,
      "scale": 1
    },
    {
      "name": "jet_mv2c10_3",
      "offset": 0,
      "scale": 1
    },
    {
      "name": "jet_mv2c10_4",
      "offset": 0,
      "scale": 1
    },
    {
      "name": "jet_mv2c10_5",
      "offset": 0,
      "scale": 1
    },
    {
      "name": "met_met",
      "offset": 0,
      "scale": 1
    },
    {
      "name": "met_phi",
      "offset": 0,
      "scale": 1
    },
    {
      "name": "ph_HFT_MVA_0",
      "offset": 0,
      "scale": 1
    },
    {
      "name": "ph_caloEta_0",
      "offset": 0,
      "scale": 1
    },
    {
      "name": "ph_caloEta_1",
      "offset": 0,
      "scale": 1
    },
    {
      "name": "ph_drleadjet_0",
      "offset": 0,
      "scale": 1
    },
    {
      "name": "ph_drleadjet_1",
      "offset": 0,
      "scale": 1
    },
    {
      "name": "ph_drlept_0",
      "offset": 0,
      "scale": 1
    },
    {
      "name": "ph_drlept_1",
      "offset": 0,
      "scale": 1
    },
    {
      "name": "ph_mgammalept_0",
      "offset": 0,
      "scale": 1
    },
    {
      "name": "ph_mgammalept_1",
      "offset": 0,
      "scale": 1
    },
    {
      "name": "ph_mgammaleptlept_0",
      "offset": 0,
      "scale": 1
    },
    {
      "name": "ph_mgammaleptlept_1",
      "offset": 0,
      "scale": 1
    },
    {
      "name": "event_HT",
      "offset": 0,
      "scale": 1
    },
    {
      "name": "event_mll",
      "offset": 0,
      "scale": 1
    },
    {
      "name": "event_mwt",
      "offset": 0,
      "scale": 1
    },
    {
      "name": "event_njets",
      "offset": 0,
      "scale": 1
    },
    {
      "name": "event_nbjets77",
      "offset": 0,
      "scale": 1
    }
  ],
  "layers": [
    {
      "activation": "rectified",
      "architecture": "dense",
      "bias": [
        -0.11001447588205338,
        -0.3353401720523834,
        0.026693876832723618,
        0.24758394062519073,
        0.08089932054281235,
        0.12382009625434875,
        0.1773650199174881,
        -0.03756241127848625,
        0.08202957361936569,
        -0.010617198422551155,
        0.11075922101736069,
        0.03096109628677368,
        0.1362547129392624,
        -0.015603090636432171,
        0.037089403718709946,
        0.0501784086227417,
        0.015780245885252953,
        0.13516399264335632,
        0.017428969964385033,
        0.003390215104445815,
        -0.030296145007014275,
        0.08029164373874664,
        -0.07434900850057602,
        -0.010598787106573582,
        0.1098155677318573,
        -0.033758051693439484,
        0.1602340042591095,
        0.1452033370733261,
        -0.002450627973303199,
        0.027795983478426933,
        -0.015214614570140839,
        0.039125196635723114,
        -0.07007427513599396,
        -0.04038707911968231,
        -0.05440926551818848,
        -1.6319788755936315e-06,
        0.20323319733142853,
        0.16267232596874237,
        -0.018700644373893738,
        -0.2189074158668518,
        0.13013313710689545,
        0.0020419207867234945,
        0.004371806979179382,
        0.025630487129092216,
        0.025766907259821892,
        -0.05104011297225952,
        0.020805424079298973,
        0.07496210932731628,
        -0.16477207839488983,
        0.07379301637411118,
        0.28114020824432373,
        0.11819137632846832,
        0.002498939400538802,
        0.01563316024839878,
        0.012916437350213528,
        0.13243962824344635,
        0.23753826320171356,
        -0.07076973468065262,
        0.08505065739154816,
        -0.06499572843313217,
        -0.03514203801751137,
        -0.03955951705574989,
        0.13179537653923035,
        -0.011543815955519676
      ],
      "weights": [
        0.06256590038537979,
        0.03864813596010208,
        -0.25010308623313904,
        -0.23143944144248962,
        -0.10439170897006989,
        -0.09937974810600281,
        0.027217991650104523,
        0.034286633133888245,
        -0.01774410717189312,
        0.03259272873401642,
        0.05365823209285736,
        -0.008698180317878723,
        -0.09971148520708084,
        0.026250416412949562,
        -0.049040790647268295,
        -0.12268856912851334,
        -0.10100558400154114,
        -0.015306606888771057,
        0.006097251549363136,
        -0.09715944528579712,
        0.10362071543931961,
        -0.12136015295982361,
        0.0709490105509758,
        0.07498999685049057,
        0.00045850398601032794,
        -0.001072900602594018,
        -0.0018964674090966582,
        0.06456831842660904,
        0.08423011749982834,
        -0.018396781757473946,
        3.6945278644561768,
        2.5423154830932617,
        1.1765108108520508,
        0.19655436277389526,
        -0.03332120180130005,
        -0.06798826903104782,
        -0.1532333344221115,
        0.008762299083173275,
        1.3471298217773438,
        -0.03371209651231766,
        -0.02519104816019535,
        -0.005776198115199804,
        0.025787971913814545,
        0.009227676317095757,
        0.08112213015556335,
        0.09427143633365631,
        -0.04427053779363632,
        0.06846481561660767,
        -0.010982691310346127,
        0.08177532255649567,
        0.003556516021490097,
        0.03519151732325554,
        -0.06764226406812668,
        3.1134755611419678,
        -0.01786441169679165,
        0.0034555960446596146,
        0.08044759929180145,
        0.17926257848739624,
        -0.01838633604347706,
        -0.04124227911233902,
        0.02898436412215233,
        0.05745336040854454,
        0.042577117681503296,
        0.056245651096105576,
        0.02423800900578499,
        0.027057653293013573,
        -0.03183672949671745,
        -0.2501409351825714,
        0.21046878397464752,
        -0.21744929254055023,
        0.02934102714061737,
        -0.03661377355456352,
        -0.013798871077597141,
        0.0003022797463927418,
        0.02456091158092022,
        0.011921251192688942,
        -0.09845418483018875,
        0.04316103458404541,
        0.002951845759525895,
        -0.0218660905957222,
        0.006503562908619642,
        0.012501707300543785,
        0.010145832784473896,
        -0.004045877605676651,
        3.2214553356170654,
        2.6786975860595703,
        1.265956997871399,
        0.5288402438163757,
        0.13544298708438873,
        0.18785500526428223,
        0.05915407836437225,
        0.24974587559700012,
        0.3732120394706726,
        -0.06533421576023102,
        -0.17971189320087433,
        -0.18915030360221863,
        -0.19239553809165955,
        -0.18453480303287506,
        -0.1670706570148468,
        -0.14512351155281067,
        -0.12864862382411957,
        0.04592403396964073,
        0.0957302451133728,
        -0.0629885122179985,
        0.2810741066932678,
        -0.07075806707143784,
        -0.26844874024391174,
        2.7970008850097656,
        0.10113844275474548,
        -0.17401672899723053,
        -0.11814271658658981,
        -0.03711821883916855,
        -0.0006430148496292531,
        -0.21025273203849792,
        -0.06120406463742256,
        -0.12924428284168243,
        -0.10122120380401611,
        0.021531233564019203,
        -0.038909345865249634,
        -0.018594441935420036,
        0.029460381716489792,
        -0.054707810282707214,
        0.03700566291809082,
        0.006227562204003334,
        0.021315038204193115,
        0.023066634312272072,
        0.04805666208267212,
        0.06368675827980042,
        -0.04504157975316048,
        -0.06601139158010483,
        0.051231756806373596,
        0.044060833752155304,
        -0.04719681292772293,
        -0.1332027018070221,
        -0.07955611497163773,
        0.031053783372044563,
        -0.06568988412618637,
        -0.02508518472313881,
        -1.3057056665420532,
        -0.09410262107849121,
        0.051827095448970795,
        -0.005354427732527256,
        -0.027931947261095047,
        0.03022158518433571,
        -0.06625206023454666,
        0.06645750254392624,
        -0.31072938442230225,
        0.2519475221633911,
        -0.06302280724048615,
        -0.09307841211557388,
        0.11283991485834122,
        -0.07895907014608383,
        0.1716565489768982,
        -0.10645244270563126,
        -0.07207177579402924,
        -0.03541962802410126,
        -0.03060152940452099,
        -0.03231635317206383,
        0.0564216710627079,
        0.09878562390804291,
        -0.11471180617809296,
        -0.9093635678291321,
        0.07683175802230835,
        0.13984639942646027,
        -0.1706806719303131,
        -0.05397079512476921,
        -0.009214168414473534,
        -0.014932760037481785,
        -0.08955013006925583,
        0.09011923521757126,
        0.13296473026275635,
        0.14689481258392334,
        -0.01337414514273405,
        0.006817227695137262,
        -0.021111074835062027,
        0.05132376775145531,
        0.051901716738939285,
        -0.027783997356891632,
        -0.04962967708706856,
        0.11526124179363251,
        0.007192842196673155,
        -0.08698476850986481,
        0.030486786738038063,
        -0.24469870328903198,
        0.04678674787282944,
        0.0240690466016531,
        0.005875664297491312,
        -0.03224561735987663,
        -0.024782540276646614,
        -0.05144663155078888,
        0.020680002868175507,
        -0.04422962665557861,
        4.691132068634033,
        4.180271625518799,
        2.8177027702331543,
        1.1524051427841187,
        0.32658651471138,
        -0.031905319541692734,
        0.11485123634338379,
        0.14152151346206665,
        2.664245367050171,
        0.082184337079525,
        0.07234866172075272,
        -0.22455410659313202,
        0.009628650732338428,
        -0.21629031002521515,
        0.012294779531657696,
        0.03601262345910072,
        0.036495767533779144,
        -0.029288019984960556,
        -0.009615692310035229,
        0.06112087517976761,
        -0.3011571168899536,
        0.03752654790878296,
        -0.06695451587438583,
        4.523153781890869,
        0.22070613503456116,
        0.05994775518774986,
        -0.15921244025230408,
        0.030406204983592033,
        -0.019706038758158684,
        -0.05663575977087021,
        -0.09495438635349274,
        -0.057096853852272034,
        -0.042210523039102554,
        -0.0060872891917824745,
        -0.023429695516824722,
        0.01980724185705185,
        -0.06869261711835861,
        -0.07620031386613846,
        0.04351477324962616,
        -0.0013105146354064345,
        -0.08246654272079468,
        -0.01994047313928604,
        -0.03372504562139511,
        0.11306719481945038,
        -0.09879150241613388,
        -0.05839637666940689,
        -0.05421999469399452,
        -0.05966807156801224,
        -0.042027730494737625,
        0.011521118693053722,
        0.014505415223538876,
        0.09172053635120392,
        0.04075139760971069,
        -0.03139834105968475,
        -0.8768465518951416,
        -0.033046480268239975,
        -0.11854555457830429,
        -0.09182026237249374,
        -0.010913548059761524,
        -0.05581825599074364,
        0.02553398720920086,
        0.019642626866698265,
        -0.0788092240691185,
        0.17425158619880676,
        -0.07132399082183838,
        -0.11046592146158218,
        0.1633995622396469,
        -0.06810451298952103,
        0.07180240750312805,
        0.014310781843960285,
        0.11278283596038818,
        -0.10890448093414307,
        -0.025067264214158058,
        -0.02085115946829319,
        -0.013211878947913647,
        0.0508493036031723,
        -0.06702292710542679,
        -0.6000450253486633,
        0.08488589525222778,
        0.059466563165187836,
        -0.29620376229286194,
        0.01599973626434803,
        0.024741709232330322,
        0.002171002561226487,
        -0.05355050787329674,
        0.1173664778470993,
        0.02551678940653801,
        0.03313300013542175,
        0.015749821439385414,
        0.011401540599763393,
        0.13154566287994385,
        0.31147417426109314,
        0.22100941836833954,
        -0.005602357909083366,
        -0.18177954852581024,
        -0.1431787610054016,
        0.17872916162014008,
        -0.05854945629835129,
        0.055649109184741974,
        -0.003380007343366742,
        -0.040748510509729385,
        -0.019797489047050476,
        -0.006544045638293028,
        0.011030688881874084,
        0.0008287307573482394,
        0.0029352004639804363,
        -0.03925289958715439,
        -0.007422603201121092,
        4.081212043762207,
        3.5498526096343994,
        2.213712215423584,
        0.9349688291549683,
        0.20146070420742035,
        0.2676466703414917,
        -0.05395935848355293,
        0.02581767551600933,
        1.1296943426132202,
        0.11039736866950989,
        0.07260584086179733,
        -0.19690507650375366,
        0.09278769791126251,
        -0.1670074611902237,
        0.08817616105079651,
        -0.29978126287460327,
        -0.061839595437049866,
        -0.3085726797580719,
        -0.03295623138546944,
        0.03207235410809517,
        -0.29618075489997864,
        -0.009877662174403667,
        -0.02821820229291916,
        3.803615093231201,
        0.2123592495918274,
        -0.32378271222114563,
        0.20760206878185272,
        -0.04566603899002075,
        0.03245696425437927,
        -0.2620593011379242,
        0.05308375880122185,
        0.041500113904476166,
        -0.2304302155971527,
        -0.2748783528804779,
        -0.19432079792022705,
        -0.16388466954231262,
        0.053659532219171524,
        0.11371836811304092,
        -0.07422443479299545,
        -0.028696289286017418,
        -0.0294222142547369,
        -0.12674054503440857,
        0.03759205713868141,
        0.08658038824796677,
        -0.12709026038646698,
        0.13021214306354523,
        0.012529580853879452,
        0.2403891682624817,
        0.007736157160252333,
        0.010629335418343544,
        -0.02246221899986267,
        -0.030145887285470963,
        -0.044273823499679565,
        0.016658969223499298,
        -5.521444797515869,
        -5.214913368225098,
        -3.487982749938965,
        -1.7533427476882935,
        -0.7235788702964783,
        -0.1759825348854065,
        -0.04890190064907074,
        -0.15811368823051453,
        -1.9846802949905396,
        0.07759887725114822,
        -0.11805517226457596,
        -0.03696828335523605,
        -0.19332179427146912,
        -0.051048558205366135,
        -0.11146168410778046,
        0.031040839850902557,
        -0.3319304585456848,
        -0.012145141139626503,
        0.09186578541994095,
        -0.018284454941749573,
        -0.16240063309669495,
        -0.07418786734342575,
        -0.06654432415962219,
        -5.394775390625,
        0.07006841897964478,
        -0.027779819443821907,
        -0.06739382445812225,
        0.14581336081027985,
        0.042458660900592804,
        -0.03181074559688568,
        -0.16949717700481415,
        -0.11781197041273117,
        0.0028957973700016737,
        0.009332409128546715,
        -0.0280112624168396,
        -0.020286809653043747,
        -0.008651560172438622,
        -0.09256052225828171,
        0.0224960558116436,
        0.04517979547381401,
        0.019142858684062958,
        0.041424039751291275,
        -0.049811042845249176,
        -0.013552826829254627,
        -0.02010912075638771,
        0.00929203536361456,
        -0.060665179044008255,
        0.047278992831707,
        -0.11710438132286072,
        -0.1487836092710495,
        0.007173888850957155,
        -0.05522472411394119,
        -0.07790772616863251,
        0.03444407880306244,
        -0.14834007620811462,
        -0.05820313096046448,
        -0.0393737331032753,
        -0.05643758922815323,
        0.029133977368474007,
        0.034904781728982925,
        -0.05887621268630028,
        0.11320073157548904,
        -0.05039054527878761,
        -0.017661910504102707,
        -0.15977957844734192,
        -0.01770361140370369,
        0.14034497737884521,
        0.060614585876464844,
        0.08734860271215439,
        -0.10928845405578613,
        -0.047366466373205185,
        -0.03794536367058754,
        -0.047480255365371704,
        -0.06554795801639557,
        0.014131921343505383,
        0.002815323183313012,
        -0.1022530272603035,
        -0.14708006381988525,
        -0.05493009090423584,
        0.09264006465673447,
        -0.08694126456975937,
        -0.2237134873867035,
        0.025358693674206734,
        -0.006151278503239155,
        0.22806861996650696,
        -0.03544224053621292,
        -0.08207864314317703,
        0.032561834901571274,
        -0.03553162142634392,
        -0.11057871580123901,
        -0.10649271309375763,
        0.016020573675632477,
        0.011447339318692684,
        -0.030428806319832802,
        -0.018664374947547913,
        -0.12412596493959427,
        -0.15112826228141785,
        -0.021532582119107246,
        0.07481881976127625,
        -0.05343448370695114,
        0.030299074947834015,
        0.004378932993859053,
        -0.03580304607748985,
        -0.007830343209207058,
        -0.015498231165111065,
        -0.05321024730801582,
        0.01225709356367588,
        -0.08340246230363846,
        4.14537239074707,
        2.652801513671875,
        1.1041842699050903,
        0.33223968744277954,
        0.042220138013362885,
        -0.004867773037403822,
        0.013084230944514275,
        0.19733892381191254,
        1.8928977251052856,
        -0.19147102534770966,
        0.04503525048494339,
        -0.06831004470586777,
        -0.0903652235865593,
        -0.08095218986272812,
        -0.06191369146108627,
        -0.007182668894529343,
        0.03821480646729469,
        -0.12073870748281479,
        0.022491753101348877,
        0.19489775598049164,
        0.08118787407875061,
        0.028158949688076973,
        -0.09168298542499542,
        3.389672040939331,
        -0.08762243390083313,
        0.08563229441642761,
        -0.05099035054445267,
        -0.11054099351167679,
        0.07835561037063599,
        0.025332290679216385,
        0.05065318942070007,
        0.3376137316226959,
        -0.0019462778000161052,
        -0.11228596419095993,
        -0.03804232180118561,
        -0.004691826179623604,
        -0.12192555516958237,
        -0.15737491846084595,
        -0.10137808322906494,
        -0.08076497912406921,
        -0.12987656891345978,
        0.05482613295316696,
        -0.09119146317243576,
        -0.025051435455679893,
        0.08308984339237213,
        -0.02648569829761982,
        -0.2809743583202362,
        -0.0211411751806736,
        -0.003054446540772915,
        -0.008736036717891693,
        -0.0008416026830673218,
        0.02098468877375126,
        0.05716552957892418,
        0.02135980874300003,
        4.5362114906311035,
        1.4477276802062988,
        -1.4981995820999146,
        -1.6252198219299316,
        -0.8663011789321899,
        -0.35247957706451416,
        0.0742672011256218,
        -0.04870215430855751,
        -0.2584734261035919,
        -0.13043370842933655,
        0.09919873625040054,
        -0.09871475398540497,
        -0.04691973328590393,
        -0.10724872350692749,
        0.010319280438125134,
        0.00036956131225451827,
        0.043479073792696,
        0.03233025223016739,
        0.02075769007205963,
        0.010403966531157494,
        0.1501057744026184,
        0.06704464554786682,
        -0.058960847556591034,
        2.8476321697235107,
        -0.007801210507750511,
        0.122663713991642,
        -0.19149857759475708,
        -0.03435415402054787,
        -0.002934929681941867,
        0.13638685643672943,
        -0.03209168091416359,
        0.012789510190486908,
        0.10530336201190948,
        -0.009820806793868542,
        0.03204565867781639,
        -0.030577518045902252,
        -0.06276620924472809,
        0.04892733693122864,
        -0.09961865842342377,
        -0.010376778431236744,
        -0.06509276479482651,
        -0.0832701250910759,
        0.22895866632461548,
        -0.10260703414678574,
        -0.06854052096605301,
        0.1878732442855835,
        -0.06383077800273895,
        0.05657831206917763,
        -0.014843358658254147,
        -0.013552824035286903,
        0.07629534602165222,
        -0.00548475980758667,
        0.014697627164423466,
        0.03105994500219822,
        -2.5480525493621826,
        -1.9554723501205444,
        -1.3550232648849487,
        -0.9000552296638489,
        -0.4360135495662689,
        -0.14798615872859955,
        -0.20567627251148224,
        -0.2583310902118683,
        -0.1952217072248459,
        -0.029400445520877838,
        0.008624295704066753,
        0.052590712904930115,
        0.09923701733350754,
        -0.001749407616443932,
        0.09552192687988281,
        -0.1095263808965683,
        0.12020424753427505,
        0.0607396699488163,
        -0.009051240980625153,
        0.1020970270037651,
        -0.02490134723484516,
        0.017710767686367035,
        0.04148619994521141,
        -2.5058841705322266,
        -0.1979125291109085,
        0.17364715039730072,
        -0.1633024364709854,
        -0.016586273908615112,
        0.002749047940596938,
        0.053110696375370026,
        0.014286314137279987,
        0.15463484823703766,
        0.11084584891796112,
        -0.0022170746233314276,
        0.04913981631398201,
        0.14861534535884857,
        -0.09817497432231903,
        -0.2681332230567932,
        0.04730299860239029,
        -0.15721933543682098,
        -0.04379306733608246,
        0.03621712327003479,
        -0.12396028637886047,
        0.021075258031487465,
        0.045895759016275406,
        -0.0931885689496994,
        -0.2961410880088806,
        -0.1750134825706482,
        0.011557604186236858,
        -0.014630148187279701,
        0.005534799303859472,
        0.014765246771275997,
        0.03625473752617836,
        0.08912113308906555,
        5.483537673950195,
        4.4173054695129395,
        1.7235947847366333,
        0.09194823354482651,
        -0.030270680785179138,
        -0.023962711915373802,
        0.15276266634464264,
        0.16107651591300964,
        1.0744080543518066,
        -0.05791115760803223,
        0.13905589282512665,
        -0.23703919351100922,
        -0.10795161873102188,
        -0.1351582556962967,
        -0.105187326669693,
        0.02251407317817211,
        0.032639279961586,
        -0.009250657632946968,
        0.028552282601594925,
        -0.009196823462843895,
        0.1644386351108551,
        0.1952681839466095,
        0.03368483483791351,
        5.052220821380615,
        0.10419667512178421,
        -0.18250226974487305,
        0.11694154143333435,
        0.014384755864739418,
        0.031480222940444946,
        -0.09880534559488297,
        -0.05907348170876503,
        -0.11927877366542816,
        -0.09661712497472763,
        -0.03773767128586769,
        -0.02818998508155346,
        -0.05090446025133133,
        0.012087401002645493,
        -0.04350494220852852,
        0.016770247370004654,
        -0.008958874270319939,
        0.007094883359968662,
        -0.08977950364351273,
        0.07064960151910782,
        -0.07975656539201736,
        -0.16484051942825317,
        0.16470101475715637,
        -0.11327654123306274,
        0.015720775350928307,
        0.0254595298320055,
        -0.00707643898203969,
        0.05080452933907509,
        0.054840754717588425,
        -0.008540193550288677,
        -0.018892694264650345,
        -4.47409725189209,
        -3.5956196784973145,
        -2.1664602756500244,
        -1.0526245832443237,
        -0.27029818296432495,
        -0.015653759241104126,
        -0.10769292712211609,
        -0.1738094836473465,
        -1.7436457872390747,
        0.16605247557163239,
        -0.004471349064260721,
        -0.07238874584436417,
        -0.05095287412405014,
        -0.11597033590078354,
        0.018232109025120735,
        0.09048159420490265,
        0.03236957639455795,
        -0.006263979710638523,
        -0.015197796747088432,
        -0.05680974945425987,
        0.04921500384807587,
        0.14646375179290771,
        -0.02180856093764305,
        -4.097545146942139,
        0.21713930368423462,
        -0.2666473388671875,
        0.2073628455400467,
        -0.1392681896686554,
        0.04226997494697571,
        -0.08201570063829422,
        0.01603148877620697,
        -0.0635635182261467,
        -0.16643035411834717,
        -0.23285266757011414,
        -0.1765235960483551,
        -0.2713305354118347,
        -0.06072117015719414,
        -0.11387338489294052,
        -0.07018199563026428,
        -0.06555470824241638,
        -0.14594285190105438,
        -0.07300611585378647,
        0.06719085574150085,
        0.05745580047369003,
        -0.006398340687155724,
        0.16218039393424988,
        -0.038128532469272614,
        0.1835005134344101,
        -0.016184866428375244,
        -0.011936548165977001,
        0.02945423498749733,
        -0.020864659920334816,
        -0.010383776389062405,
        -0.05931682884693146,
        -5.413503646850586,
        -5.180415630340576,
        -3.8825607299804688,
        -2.182706594467163,
        -0.9855070114135742,
        -0.2895233929157257,
        -0.10848027467727661,
        -0.17332425713539124,
        -2.4380738735198975,
        -0.06971949338912964,
        -0.06073620170354843,
        0.07261566817760468,
        -0.004822092596441507,
        0.05268578603863716,
        0.07745842635631561,
        -0.07868833094835281,
        -0.17369899153709412,
        0.11931521445512772,
        0.11348193883895874,
        0.05426796153187752,
        0.01962774060666561,
        -0.011676162481307983,
        -0.1247631162405014,
        -5.419200897216797,
        0.07636601477861404,
        -0.12820447981357574,
        0.05594448745250702,
        0.016150828450918198,
        0.08493530005216599,
        -0.12867437303066254,
        -0.01613910309970379,
        -0.08843528479337692,
        0.03518019616603851,
        0.011781739071011543,
        0.004712559282779694,
        0.0967874825000763,
        -0.18092100322246552,
        -0.17703086137771606,
        0.008202418684959412,
        0.09557616710662842,
        -0.011279281228780746,
        0.06723039597272873,
        -0.06769532710313797,
        -0.12757086753845215,
        -0.01484988909214735,
        -0.061319269239902496,
        -0.13343144953250885,
        0.026484109461307526,
        0.031622178852558136,
        -0.012134278193116188,
        0.03748049959540367,
        0.03592545911669731,
        0.016970431432127953,
        -0.024888906627893448,
        -0.6734817624092102,
        -1.1550090312957764,
        -1.1927129030227661,
        -1.0359536409378052,
        -0.46488481760025024,
        -0.31684672832489014,
        0.04956363886594772,
        -0.12495323270559311,
        -1.4042694568634033,
        -0.2136862426996231,
        0.018526002764701843,
        -0.09867646545171738,
        -0.03558087721467018,
        -0.07028153538703918,
        -0.07665988057851791,
        0.14723215997219086,
        0.027496229857206345,
        0.12560677528381348,
        -0.04972468316555023,
        0.0077500296756625175,
        0.0005985961761325598,
        0.08020655810832977,
        -0.03853461891412735,
        -1.2905186414718628,
        -0.11228012293577194,
        0.030437247827649117,
        0.01090802438557148,
        0.05334792286157608,
        0.00034210708690807223,
        0.02305743843317032,
        -0.04117848351597786,
        0.11115838587284088,
        0.07803590595722198,
        -0.038832906633615494,
        0.010838458314538002,
        0.07102898508310318,
        -0.07074633240699768,
        -0.18034616112709045,
        -0.030034948140382767,
        0.012330099008977413,
        -0.04968637228012085,
        0.08993843197822571,
        0.0001874036097433418,
        0.041936177760362625,
        -0.008885782212018967,
        0.03851954638957977,
        -0.17344772815704346,
        -0.06480736285448074,
        0.043596748262643814,
        0.02884760871529579,
        0.017118265852332115,
        -0.022692713886499405,
        0.03596777468919754,
        0.058521170169115067,
        0.3949097990989685,
        -0.242445707321167,
        -0.9690740704536438,
        -0.8335103988647461,
        -0.32684293389320374,
        -0.1559108942747116,
        0.04705400764942169,
        -0.10349317640066147,
        -0.7523416876792908,
        -0.08076294511556625,
        0.08562245219945908,
        -0.0533771850168705,
        0.024222996085882187,
        -0.05504601448774338,
        0.04450322687625885,
        0.16546721756458282,
        0.013973108492791653,
        0.09839154779911041,
        0.032869309186935425,
        -0.041533470153808594,
        0.05320286750793457,
        -0.05904155224561691,
        -0.0015686015831306577,
        -0.3558339476585388,
        0.07318361103534698,
        0.0906071588397026,
        -0.18138976395130157,
        -0.20987090468406677,
        0.09769424051046371,
        0.07057823985815048,
        0.06758740544319153,
        0.1856946498155594,
        0.09840614348649979,
        0.08975289762020111,
        0.00042688599205575883,
        -0.008369894698262215,
        -0.07338832318782806,
        0.035127803683280945,
        0.026405243203043938,
        -0.015571917407214642,
        -0.07619103789329529,
        0.049876630306243896,
        -0.10625123232603073,
        -0.06185246258974075,
        0.05881635099649429,
        -0.1332852989435196,
        0.07254637032747269,
        0.01267818734049797,
        -0.014227437786757946,
        -0.0006255767657421529,
        -0.0063920579850673676,
        -0.018617916852235794,
        0.001990291755646467,
        -0.03707384318113327,
        5.104595184326172,
        4.564937114715576,
        3.058375120162964,
        1.4517245292663574,
        0.5195195078849792,
        0.18476885557174683,
        0.17198915779590607,
        0.19112451374530792,
        3.0397727489471436,
        -0.12534596025943756,
        0.049895141273736954,
        -0.06846751272678375,
        -0.04739238694310188,
        -0.1077931746840477,
        -0.015140979550778866,
        -0.05199817195534706,
        0.04450125992298126,
        -0.045997124165296555,
        0.04739822447299957,
        0.0848822221159935,
        0.03736349195241928,
        0.04987270385026932,
        0.009655711241066456,
        4.953641414642334,
        0.16803932189941406,
        0.2378942221403122,
        -0.3016839325428009,
        -0.08223358541727066,
        0.012352838180959225,
        -0.0011973063228651881,
        0.07831306755542755,
        -0.07290470600128174,
        0.03606116771697998,
        0.10092630982398987,
        0.026898398995399475,
        -0.07613444328308105,
        -0.08600755035877228,
        0.06382384151220322,
        0.08450961858034134,
        -0.03448719531297684,
        -0.2299373745918274,
        -0.1487334966659546,
        0.053473807871341705,
        -0.11834480613470078,
        0.0579623207449913,
        -0.2083766907453537,
        0.1937892884016037,
        -0.03078676573932171,
        0.04028109088540077,
        0.026952598243951797,
        0.046227771788835526,
        -0.02090366743505001,
        -0.008924069814383984,
        -0.0803903266787529,
        5.748218536376953,
        5.241628170013428,
        3.7297000885009766,
        2.0067355632781982,
        0.8159049153327942,
        0.4357011318206787,
        0.020814938470721245,
        0.1927276849746704,
        3.5329067707061768,
        -0.024194760248064995,
        0.08395331352949142,
        -0.2816811501979828,
        -0.0624166876077652,
        -0.20219407975673676,
        -0.03571508824825287,
        -0.018346119672060013,
        -0.008987345732748508,
        -0.43930989503860474,
        -0.11096024513244629,
        0.0531347319483757,
        -0.4624810814857483,
        -0.04707648977637291,
        -0.008895051665604115,
        5.71970272064209,
        -0.06498967856168747,
        0.0074084484949707985,
        -0.14528562128543854,
        -0.24589155614376068,
        0.03395067900419235,
        0.07512365281581879,
        0.19447585940361023,
        0.049772799015045166,
        -0.07057581096887589,
        -0.13584794104099274,
        -0.1559591293334961,
        -0.05000706762075424,
        -0.14445796608924866,
        0.012258621864020824,
        -0.10344432294368744,
        0.012154931202530861,
        -0.10823802649974823,
        -0.00839926302433014,
        -0.15320758521556854,
        0.044012680649757385,
        0.08455269783735275,
        -0.015381031669676304,
        -0.17304004728794098,
        -0.00800758320838213,
        0.06179289519786835,
        -0.022986480966210365,
        -0.04306413233280182,
        -0.04106498882174492,
        -0.10116726905107498,
        -0.06302306801080704,
        3.7501814365386963,
        1.8247950077056885,
        -0.39932379126548767,
        -0.9631836414337158,
        -0.5900773406028748,
        -0.1796339452266693,
        0.07351285219192505,
        0.1346541792154312,
        1.2997766733169556,
        -0.23754757642745972,
        0.02111411653459072,
        0.06448221951723099,
        -0.08599311113357544,
        0.05738219991326332,
        -0.12294664233922958,
        0.07977578043937683,
        -0.08785219490528107,
        0.05923013016581535,
        0.04715164378285408,
        0.07114914804697037,
        0.0606570728123188,
        0.006338124629110098,
        -0.15604615211486816,
        2.630213737487793,
        -0.03506901487708092,
        0.015314592979848385,
        -0.03752393275499344,
        -0.019247734919190407,
        -0.018583102151751518,
        0.013845239765942097,
        -0.05726383626461029,
        -0.07837408781051636,
        -0.059377942234277725,
        -0.045470915734767914,
        -0.03342777490615845,
        0.001468788948841393,
        -0.02166941948235035,
        -0.009974111802875996,
        0.020368626341223717,
        0.004382235463708639,
        0.030500343069434166,
        -0.034274809062480927,
        0.0234394334256649,
        -0.023044660687446594,
        -0.05308949574828148,
        0.06232640892267227,
        0.023100880905985832,
        -0.03698436915874481,
        -0.04648962989449501,
        -0.03524576127529144,
        -0.04108971729874611,
        -0.0308925062417984,
        0.00189288763795048,
        0.04057112708687782,
        0.011874151416122913,
        -0.014384800568223,
        0.025554995983839035,
        -0.019776972010731697,
        0.03520163148641586,
        0.04216761142015457,
        -0.0831274464726448,
        -0.013333450071513653,
        0.030175406485795975,
        0.0069865635596215725,
        0.006057401187717915,
        -0.05076262727379799,
        0.006768341641873121,
        0.0317368246614933,
        0.07175339758396149,
        -0.0635182186961174,
        0.029599187895655632,
        -0.055894993245601654,
        0.04793928191065788,
        0.006518865469843149,
        -0.004702671431005001,
        -0.06841099262237549,
        -0.04383052513003349,
        -0.024642301723361015,
        0.04947594180703163,
        0.01519531849771738,
        0.021045101806521416,
        -0.05978533253073692,
        0.01648709736764431,
        0.05603508651256561,
        0.03067733906209469,
        0.022977903485298157,
        0.003321214346215129,
        -0.09795767068862915,
        0.0018456625984981656,
        0.06135604530572891,
        -0.11021868139505386,
        -0.1585765779018402,
        -0.0942285805940628,
        0.03548961505293846,
        0.0561363585293293,
        -0.07400503009557724,
        -0.07120398432016373,
        0.04644426330924034,
        0.01585076004266739,
        0.08295778930187225,
        -0.14236153662204742,
        0.1623433232307434,
        0.008210916072130203,
        0.05650712177157402,
        0.02477961592376232,
        -0.061882078647613525,
        -0.058975424617528915,
        0.039887141436338425,
        -0.9077196717262268,
        -1.4639967679977417,
        -0.7466474175453186,
        -0.5536990165710449,
        -0.2662624418735504,
        0.037281788885593414,
        0.032051052898168564,
        0.08061213046312332,
        -0.3627608120441437,
        -0.12076066434383392,
        -0.03387002274394035,
        0.10610495507717133,
        -0.09535646438598633,
        0.10205506533384323,
        -0.0653967559337616,
        -0.11447760462760925,
        0.07587463408708572,
        0.1032903641462326,
        0.008035094477236271,
        0.006467742845416069,
        0.09916506707668304,
        -0.17654632031917572,
        -0.0280158594250679,
        -1.317961573600769,
        -0.07338234037160873,
        -0.03517460823059082,
        0.22613103687763214,
        -0.00406678905710578,
        0.11721481382846832,
        -0.035424232482910156,
        -0.0433628223836422,
        0.12755633890628815,
        0.012122447602450848,
        -0.0850239023566246,
        -0.010036958381533623,
        -0.025813881307840347,
        -0.010790403001010418,
        -0.1760735958814621,
        -0.031393684446811676,
        -0.04244864359498024,
        0.08904467523097992,
        0.03312385827302933,
        -0.08440416306257248,
        0.037706486880779266,
        -0.04536961391568184,
        0.0068531399592757225,
        -0.06518648564815521,
        -0.02475552074611187,
        0.03381989151239395,
        0.07303432375192642,
        0.05955560877919197,
        0.04415470361709595,
        0.04713322967290878,
        0.002980198012664914,
        -3.404980421066284,
        -3.5100884437561035,
        -2.5157649517059326,
        -1.4963204860687256,
        -0.6110062003135681,
        -0.30292123556137085,
        -0.0032289314549416304,
        -0.10403364151716232,
        -1.6341062784194946,
        -0.1727754771709442,
        0.008415145799517632,
        0.08224604278802872,
        -0.025036951526999474,
        0.03180410712957382,
        -0.04526205733418465,
        0.06981534510850906,
        -0.005528735928237438,
        -0.046878524124622345,
        0.006913685705512762,
        -0.020092958584427834,
        -0.10789168626070023,
        -0.14461882412433624,
        0.00912364013493061,
        -3.76537823677063,
        0.020454656332731247,
        0.1844739317893982,
        -0.25180014967918396,
        -0.10906732082366943,
        -0.14373844861984253,
        0.1324632614850998,
        0.0005290744593366981,
        0.2631976902484894,
        0.10879771411418915,
        -0.024091139435768127,
        -0.026837194338440895,
        -0.010014963336288929,
        0.05863988399505615,
        0.0778387263417244,
        0.053828924894332886,
        -0.17001600563526154,
        -0.08400026708841324,
        0.044136397540569305,
        0.025507844984531403,
        0.03996667265892029,
        0.1632262021303177,
        -0.1870613843202591,
        -0.016246864572167397,
        0.04870251566171646,
        -0.002078031189739704,
        -0.007547976914793253,
        0.018057087436318398,
        -0.024591363966464996,
        0.099986232817173,
        0.0254561398178339,
        4.4332990646362305,
        3.9638290405273438,
        2.430328845977783,
        1.1033352613449097,
        0.41427168250083923,
        0.31595155596733093,
        0.052542544901371,
        0.09942930191755295,
        1.4224604368209839,
        0.24784578382968903,
        -0.00446766521781683,
        -0.13464803993701935,
        0.1177678182721138,
        0.07302090525627136,
        0.07884610444307327,
        0.044248610734939575,
        0.07866912335157394,
        -0.051170673221349716,
        -0.13854172825813293,
        0.04306921362876892,
        -0.06287279725074768,
        -0.07811839133501053,
        -0.012503259815275669,
        4.277724742889404,
        0.08916153758764267,
        -0.0743066594004631,
        0.06393171846866608,
        0.10555991530418396,
        0.041858822107315063,
        0.0011692142579704523,
        0.09677549451589584,
        -0.1217806488275528,
        -0.0981454849243164,
        -0.10670945048332214,
        -0.0791328176856041,
        -0.13071893155574799,
        -0.002382135484367609,
        0.0032279782462865114,
        0.002222626470029354,
        0.02425858937203884,
        -0.001005337806418538,
        0.04719562456011772,
        -0.08381394296884537,
        0.06167302280664444,
        0.020564956590533257,
        -0.024577299132943153,
        -0.0054812440648674965,
        0.017828937619924545,
        0.0011803451925516129,
        -0.03537159785628319,
        -0.030518915504217148,
        -0.05486831068992615,
        -0.0881015807390213,
        -0.06810823082923889,
        -1.476946473121643,
        -1.065878987312317,
        -0.5462316870689392,
        -0.1675240397453308,
        -0.06321035325527191,
        0.028939513489603996,
        0.06680142134428024,
        0.0018796264193952084,
        -0.2629576623439789,
        0.09018556028604507,
        -0.1334662288427353,
        0.0495201013982296,
        -0.0025264841970056295,
        0.016204439103603363,
        -0.0286764744669199,
        -0.027029449120163918,
        -0.0655670315027237,
        -0.06626178324222565,
        0.031061716377735138,
        -0.04045333340764046,
        -0.0044809686951339245,
        -0.09376624971628189,
        -0.08642736077308655,
        -1.343780279159546,
        0.10933243483304977,
        0.22514857351779938,
        -0.05530206859111786,
        0.2087157517671585,
        0.02012312225997448,
        0.040329769253730774,
        -0.06766597181558609,
        -0.22540190815925598,
        -0.21382920444011688,
        -0.09434694051742554,
        0.1319538652896881,
        0.0432111956179142,
        -0.1488979160785675,
        -0.07995409518480301,
        0.11259487271308899,
        -0.03295765817165375,
        0.09666676074266434,
        -0.0661066323518753,
        -0.0380510613322258,
        -0.019239263609051704,
        -0.10905381292104721,
        0.08296165615320206,
        -0.06310535222291946,
        0.08980774134397507,
        -0.0015528859803453088,
        -0.06006354093551636,
        -0.04713112488389015,
        -0.05928017944097519,
        0.06741420924663544,
        0.01910395361483097,
        -2.2728397846221924,
        -1.352372646331787,
        -0.4604400396347046,
        -0.14350131154060364,
        -0.1438228189945221,
        -0.001848071813583374,
        -0.1130572035908699,
        -0.09946037828922272,
        0.06845137476921082,
        -0.13508053123950958,
        0.03256014734506607,
        -0.14077770709991455,
        0.06860366463661194,
        -0.2137158066034317,
        0.047393620014190674,
        -0.029719412326812744,
        0.11100227385759354,
        -0.02245052345097065,
        -0.15519750118255615,
        0.02526693604886532,
        0.1334691196680069,
        -0.05174105614423752,
        -0.13679637014865875,
        -1.9293169975280762,
        0.13988719880580902,
        -0.20938965678215027,
        0.2298663854598999,
        0.059224531054496765,
        0.081522636115551,
        -0.1292526125907898,
        0.030352260917425156,
        0.034020569175481796,
        -0.1503700166940689,
        -0.1573830097913742,
        -0.12527711689472198,
        -0.12427672743797302,
        -0.05275547131896019,
        -0.0625113695859909,
        -0.24914176762104034,
        -0.012131196446716785,
        -0.08758334070444107,
        -0.005699632689356804,
        -0.12494087219238281,
        0.04942222312092781,
        0.07083084434270859,
        0.16368815302848816,
        -0.2026582807302475,
        0.042530789971351624,
        -0.000401208468247205,
        -0.012201692909002304,
        0.028930988162755966,
        0.05121445655822754,
        -0.04847172647714615,
        -0.05148256942629814,
        -4.084718704223633,
        -4.69868803024292,
        -3.588731288909912,
        -2.31168532371521,
        -1.1245049238204956,
        -0.4189999997615814,
        0.021545883268117905,
        0.1288079470396042,
        -2.1271936893463135,
        -0.20281507074832916,
        -0.023623136803507805,
        -0.01452709548175335,
        -0.13458633422851562,
        -0.10890472680330276,
        -0.047941867262125015,
        -0.11517976224422455,
        -0.1428520530462265,
        0.007877808064222336,
        0.004190077073872089,
        0.054899122565984726,
        0.041334159672260284,
        -0.3183057904243469,
        -0.2638617157936096,
        -4.912312984466553,
        -0.04562889412045479,
        0.0022842898033559322,
        0.021574340760707855,
        0.001453077420592308,
        0.06819169968366623,
        0.04501861333847046,
        0.07377012073993683,
        -0.0046835290268063545,
        -0.1299734115600586,
        -0.1438893973827362,
        -0.05694916471838951,
        0.004525150638073683,
        -0.12889191508293152,
        -0.1399218589067459,
        -0.04715008661150932,
        -0.03886866196990013,
        -0.10477852076292038,
        -0.03429068997502327,
        -0.1912602335214615,
        -0.09307268261909485,
        -0.06035850942134857,
        0.027265798300504684,
        -0.11010926216840744,
        -0.010966953821480274,
        0.04055672511458397,
        -0.0006654646713286638,
        0.061990052461624146,
        0.06066114455461502,
        0.004963353741914034,
        -0.017111068591475487,
        -3.147111177444458,
        -3.5070247650146484,
        -2.8288257122039795,
        -1.9664325714111328,
        -0.743487536907196,
        -0.3578151762485504,
        0.08175063878297806,
        0.1343696564435959,
        -1.740310549736023,
        -0.09062132239341736,
        -0.06392998993396759,
        -0.16638198494911194,
        -0.22708909213542938,
        -0.24799664318561554,
        -0.15923887491226196,
        0.08611544966697693,
        -0.08284348994493484,
        -0.1668824851512909,
        0.03876581788063049,
        0.012812558561563492,
        -0.2614172399044037,
        -0.09043538570404053,
        -0.061341628432273865,
        -3.96685528755188,
        0.08471072465181351,
        -0.007450357545167208,
        0.10857228189706802,
        0.0286135021597147,
        0.02413060888648033,
        0.051619794219732285,
        0.036577288061380386,
        -0.37089160084724426,
        -0.25964394211769104,
        -0.12982194125652313,
        -0.23042523860931396,
        -0.1975375860929489,
        -0.10705389082431793,
        -0.09186261147260666,
        -0.059360358864068985,
        -0.043562404811382294,
        0.0460813082754612,
        0.0358293354511261,
        -0.15032650530338287,
        0.04605000838637352,
        -0.1834442913532257,
        -0.006727008149027824,
        0.05105596408247948,
        0.06630168855190277,
        0.0018361530965194106,
        -0.12399964034557343,
        0.028812896460294724,
        -0.03800622373819351,
        -0.06774061173200607,
        -0.04512202739715576,
        -4.379384517669678,
        -3.061009168624878,
        -1.638888955116272,
        -0.5681953430175781,
        -0.11433901637792587,
        0.053040970116853714,
        0.04739343747496605,
        0.11085377633571625,
        -0.4183198809623718,
        -0.25141194462776184,
        -0.09757465124130249,
        -0.09297763556241989,
        0.07624873518943787,
        -0.07256793230772018,
        0.0280033927410841,
        -0.0060681067407131195,
        -0.03767865151166916,
        -0.10915447771549225,
        -0.01868196204304695,
        0.04777216911315918,
        -0.0002486906014382839,
        -0.013027530163526535,
        -0.06345932930707932,
        -3.9479587078094482,
        0.014386748895049095,
        0.13480035960674286,
        -0.10102131962776184,
        -0.18495142459869385,
        0.03554797172546387,
        0.14450407028198242,
        -0.022724702954292297,
        -0.037138402462005615,
        -0.09891379624605179,
        -0.17301176488399506,
        -0.09334110468626022,
        0.08788642287254333,
        -0.12500692903995514,
        -0.013231630437076092,
        -0.10129757225513458,
        -0.18378669023513794,
        -0.0264453012496233,
        0.04158667102456093,
        -0.07435266673564911,
        -0.01385472808033228,
        -0.03457110375165939,
        0.0055771879851818085,
        0.0256060641258955,
        -0.023303082212805748,
        -0.020838091149926186,
        -0.030013779178261757,
        0.05787494778633118,
        -0.01541611086577177,
        0.05755270645022392,
        0.03337202966213226,
        1.4359676837921143,
        -0.10259542614221573,
        -0.7820335030555725,
        -0.7784467935562134,
        -0.4062921404838562,
        -0.2349274903535843,
        -0.04331381246447563,
        -0.22515712678432465,
        0.5974436402320862,
        -0.245027557015419,
        0.03936712443828583,
        -0.0833095982670784,
        -0.037592459470033646,
        -0.10935015976428986,
        -0.030129501596093178,
        0.13862596452236176,
        0.017426872625947,
        -0.02828206866979599,
        -0.07865022122859955,
        0.16318105161190033,
        0.04290887713432312,
        0.019348403438925743,
        -0.20120841264724731,
        0.3878295421600342,
        -0.1927335411310196,
        -0.016628285869956017,
        -0.18990378081798553,
        0.04649552330374718,
        0.021983560174703598,
        -0.024371013045310974,
        0.1823299527168274,
        0.06598342210054398,
        -0.020025014877319336,
        -0.04107632860541344,
        -0.027798699215054512,
        0.03923371806740761,
        0.03064037673175335,
        -0.0700138658285141,
        -0.032848525792360306,
        -0.044835224747657776,
        -0.18968406319618225,
        0.0018949087243527174,
        -0.08592028170824051,
        0.01248683501034975,
        0.08090979605913162,
        -0.02368682622909546,
        -0.29474207758903503,
        -0.002444603480398655,
        -0.006643985398113728,
        -0.02452271617949009,
        -0.03737930953502655,
        0.02336638979613781,
        -0.08181844651699066,
        0.04495454579591751,
        4.404888153076172,
        2.2876875400543213,
        -0.3158971667289734,
        -0.8620926737785339,
        -0.49755480885505676,
        -0.1691390573978424,
        0.2828381359577179,
        0.16303201019763947,
        0.3559652864933014,
        -0.0607915073633194,
        -0.09091166406869888,
        -0.12070002406835556,
        -0.15319471061229706,
        -0.04254010692238808,
        -0.1726231575012207,
        0.034301746636629105,
        -0.03733237832784653,
        -0.002510343911126256,
        0.03559446334838867,
        -0.049174316227436066,
        0.08550886064767838,
        -0.06637581437826157,
        -0.02004404552280903,
        3.3149123191833496,
        0.058197855949401855,
        0.1509494185447693,
        -0.22848814725875854,
        -0.007373882923275232,
        -0.22614240646362305,
        -0.04082082211971283,
        0.08960548043251038,
        0.06241346523165703,
        0.12648659944534302,
        0.14030878245830536,
        0.06468095630407333,
        0.07265498489141464,
        0.04886605218052864,
        0.02180352993309498,
        0.06518840789794922,
        -0.10370905697345734,
        -0.07120037823915482,
        -0.13444718718528748,
        0.10329491645097733,
        -0.050691429525613785,
        0.004854018799960613,
        -0.012680724263191223,
        0.16085012257099152,
        -0.005059648305177689,
        -0.003946446813642979,
        -0.021883981302380562,
        0.016595255583524704,
        0.049862612038850784,
        -0.05213054269552231,
        0.03937649354338646,
        4.874636650085449,
        4.6983137130737305,
        3.188359260559082,
        1.667197585105896,
        0.6226366758346558,
        0.36269307136535645,
        0.060012541711330414,
        0.20258954167366028,
        2.386693000793457,
        0.1920546591281891,
        -0.028326304629445076,
        0.035439591854810715,
        0.16457442939281464,
        0.13481348752975464,
        0.16464763879776,
        0.07950487732887268,
        -0.026337232440710068,
        0.0912567600607872,
        -0.04121004045009613,
        0.0226148571819067,
        -0.05501313507556915,
        0.03357487916946411,
        0.059570375829935074,
        5.116181373596191,
        -0.011139148846268654,
        -0.028013015165925026,
        0.04578161984682083,
        -0.02700980380177498,
        0.01483204122632742,
        -0.0029098764061927795,
        0.0027311674784868956,
        -0.10990999639034271,
        -0.09155392646789551,
        -0.026052504777908325,
        -0.028327127918601036,
        -0.10297224670648575,
        -0.08145961910486221,
        -0.042976927012205124,
        0.013688529841601849,
        0.0023161505814641714,
        0.027215464040637016,
        -0.005879941396415234,
        -0.06671006232500076,
        -0.17375995218753815,
        0.07155373692512512,
        -0.0377097949385643,
        -0.03984344005584717,
        0.07795383781194687,
        -0.054669350385665894,
        -0.004720111843198538,
        -0.012910508550703526,
        -0.04151427373290062,
        -0.055920474231243134,
        -0.07302968204021454,
        -0.06512555480003357,
        -0.2601490914821625,
        -0.13847988843917847,
        0.02270355075597763,
        0.036021437495946884,
        0.027147626504302025,
        -0.05315377935767174,
        -0.02359160967171192,
        0.03440399095416069,
        -0.08480215817689896,
        -0.01155002135783434,
        -0.14811091125011444,
        -0.009559402242302895,
        -0.2099076807498932,
        0.04228263720870018,
        -0.06879376620054245,
        -0.00015686369442846626,
        -0.0010149433510378003,
        0.052743472158908844,
        0.019351541996002197,
        0.071711964905262,
        -0.05674238130450249,
        -0.076411671936512,
        -0.11305567622184753,
        -0.045579828321933746,
        -0.1011984646320343,
        0.0482521653175354,
        -0.2114054411649704,
        0.018813161179423332,
        0.025964323431253433,
        -0.06879626214504242,
        0.014075566083192825,
        -0.013884847983717918,
        -0.11840652674436569,
        -0.08223997056484222,
        -0.10060667991638184,
        0.073557548224926,
        0.11851639300584793,
        -0.1192382276058197,
        -0.07648370414972305,
        0.02998487465083599,
        0.11079403758049011,
        -0.02205614559352398,
        0.030742432922124863,
        0.08807755261659622,
        0.14821358025074005,
        -0.001025861012749374,
        0.010876492597162724,
        -0.004073355346918106,
        -0.0021710949949920177,
        0.007589426822960377,
        0.018351329490542412,
        0.015242280438542366,
        -0.08282878994941711,
        -4.4906816482543945,
        -4.142455577850342,
        -2.805467128753662,
        -1.5343616008758545,
        -0.7101259827613831,
        -0.37631016969680786,
        -0.3365475833415985,
        -0.22168174386024475,
        -1.2139110565185547,
        0.07979051768779755,
        0.15163184702396393,
        0.0019782669842243195,
        0.0804818645119667,
        -0.023739764466881752,
        0.09468470513820648,
        -0.08972973376512527,
        -0.000540195731446147,
        0.06924892216920853,
        0.0017924440326169133,
        0.07219900190830231,
        0.20259766280651093,
        0.07052778452634811,
        -0.1701221913099289,
        -4.298649787902832,
        -0.013480598106980324,
        0.031108886003494263,
        -0.04596089944243431,
        -0.0405326783657074,
        -0.012404162436723709,
        -0.0033227379899472,
        -0.047021567821502686,
        0.08577581495046616,
        0.2035437524318695,
        0.11640022695064545,
        0.2008739858865738,
        0.12201087921857834,
        0.027927177026867867,
        -0.06514746695756912,
        0.05930210277438164,
        0.06716381758451462,
        -0.04448360949754715,
        0.10343888401985168,
        -0.003952255472540855,
        0.023106174543499947,
        -0.046568404883146286,
        -0.03455551341176033,
        0.07316821068525314,
        -0.0004737921990454197,
        0.0051877195946872234,
        0.02448706515133381,
        0.037790484726428986,
        0.033426433801651,
        0.06214456260204315,
        0.11114257574081421,
        2.1686995029449463,
        1.6217397451400757,
        0.5620672106742859,
        0.029895951971411705,
        -0.01963145285844803,
        -0.1150166466832161,
        -0.05708346143364906,
        -0.06357154250144958,
        0.05874379724264145,
        -0.05949006602168083,
        0.006731129717081785,
        -0.14622388780117035,
        -0.04768722131848335,
        0.019692227244377136,
        -0.06449609249830246,
        0.04449009895324707,
        0.09072808176279068,
        0.029896002262830734,
        0.05923262983560562,
        0.05987868085503578,
        -0.1839887499809265,
        -0.16852664947509766,
        0.12570926547050476,
        1.8549050092697144,
        0.3191148042678833,
        -0.01858966052532196,
        -0.053935904055833817,
        0.0626353770494461,
        -0.010093402117490768,
        -0.055585358291864395,
        0.08360455185174942,
        0.02646765112876892,
        0.11695019900798798,
        0.036986593157052994,
        -0.0374968945980072,
        0.04458387568593025,
        -0.15670505166053772,
        -0.09015201777219772,
        0.04958433657884598,
        -0.05911048501729965,
        -0.2455589920282364,
        -0.10421939939260483,
        0.09938842803239822,
        -0.11134910583496094,
        -0.05979233980178833,
        -0.17424720525741577,
        -0.10548713803291321,
        -0.08312297612428665,
        -0.004600951913744211,
        -0.037298738956451416,
        0.031025074422359467,
        -0.007823342457413673,
        0.01017113495618105,
        0.0038143012207001448,
        4.39934778213501,
        3.7399227619171143,
        2.3373730182647705,
        0.841577410697937,
        0.11612647026777267,
        0.05033647641539574,
        0.12027674168348312,
        0.1417694389820099,
        2.025867223739624,
        0.05826975405216217,
        0.03004476986825466,
        -0.14374007284641266,
        -0.052030615508556366,
        -0.11901962757110596,
        -0.12627620995044708,
        0.05705022066831589,
        -0.09532911330461502,
        0.06677589565515518,
        -0.0735027864575386,
        -0.027392417192459106,
        0.0441548116505146,
        0.04323602095246315,
        -0.10323570668697357,
        4.0204176902771,
        -0.03596905618906021,
        0.010501504875719547,
        0.013349342159926891,
        0.03389435261487961,
        -0.024024665355682373,
        -0.03736754506826401,
        0.0009367202292196453,
        -0.00506669981405139,
        -0.03582082316279411,
        0.03687382489442825,
        0.02716357819736004,
        0.019267167896032333,
        -0.01591186597943306,
        -0.0027789303567260504,
        -0.0057676443830132484,
        -0.0389188677072525,
        -0.045669324696063995,
        0.010650550946593285,
        -0.005308888852596283,
        0.004772927612066269,
        0.03317096456885338,
        -0.049106381833553314,
        -0.03332908824086189,
        -0.012066689319908619,
        -0.020311614498496056,
        -0.04606720060110092,
        0.01180622074753046,
        0.03343452513217926,
        7.925407408038154e-05,
        -0.02738805115222931,
        -0.022297509014606476,
        0.041517388075590134,
        -0.0460968017578125,
        0.0014940733090043068,
        0.023755071684718132,
        -0.004587172530591488,
        -0.00973741989582777,
        0.03806668519973755,
        -0.02929762750864029,
        -0.008908510208129883,
        -0.005141957197338343,
        -0.025625457987189293,
        0.019843317568302155,
        0.027881652116775513,
        0.008072571828961372,
        -0.019818825647234917,
        0.011766670271754265,
        -0.025495080277323723,
        -0.0031015747226774693,
        -0.05651526898145676,
        -0.01115762535482645,
        -0.019323181360960007,
        -0.030612299218773842,
        -0.027611220255494118,
        -0.03568379953503609,
        -0.29240065813064575,
        0.16951464116573334,
        -0.20697999000549316,
        0.003892200067639351,
        -0.245307058095932,
        0.0002113174123223871,
        -0.19603759050369263,
        -0.12865395843982697,
        -0.14956547319889069,
        -0.10877573490142822,
        -0.06933597475290298,
        0.10254187881946564,
        0.07770135998725891,
        -0.2324833869934082,
        0.014737301506102085,
        0.17577940225601196,
        0.05576192960143089,
        0.012961271218955517,
        -0.02358248271048069,
        -0.11870510876178741,
        0.20294353365898132,
        0.13169117271900177,
        0.17111560702323914,
        0.01455009263008833,
        0.04763162508606911,
        -0.04275504872202873,
        0.015489351935684681,
        -0.015468544326722622,
        -0.021496126428246498,
        -5.456945896148682,
        -5.014410018920898,
        -3.6104161739349365,
        -1.9637342691421509,
        -0.682745099067688,
        -0.4471386969089508,
        -0.2241365909576416,
        -0.1982603222131729,
        -2.4942097663879395,
        -0.10844942182302475,
        0.003514584619551897,
        0.1193801611661911,
        0.07580056041479111,
        0.03625674173235893,
        0.05319103226065636,
        0.06479240208864212,
        -0.26914674043655396,
        0.026698751375079155,
        -0.07907338440418243,
        0.06937743723392487,
        -0.05300617218017578,
        0.11779830604791641,
        -0.01938507705926895,
        -5.39400053024292,
        0.03765871748328209,
        -0.12729400396347046,
        0.058833204209804535,
        0.004809447098523378,
        0.032691776752471924,
        -0.08115993440151215,
        -0.1159558892250061,
        -0.11956778913736343,
        -0.13695815205574036,
        -0.0321250781416893,
        -0.07637891918420792,
        0.0549207404255867,
        -0.02606823481619358,
        0.039033155888319016,
        0.06413406878709793,
        -0.09560395032167435,
        0.035121820867061615,
        -0.043179772794246674,
        0.09312036633491516,
        -0.11296691745519638,
        -0.15816494822502136,
        0.007816120982170105,
        -0.017158834263682365,
        0.11091749370098114,
        -0.06081874668598175,
        0.01939346268773079,
        -0.09076116234064102,
        0.0029264220502227545,
        0.035079579800367355,
        0.05041924864053726,
        -3.1212151050567627,
        -1.715393304824829,
        -0.599229097366333,
        -0.1982986181974411,
        0.026179766282439232,
        0.05459175258874893,
        0.06519477069377899,
        0.029966743662953377,
        -0.4130667746067047,
        0.14859050512313843,
        -0.1619805097579956,
        -0.19435563683509827,
        0.02093036100268364,
        -0.15568113327026367,
        0.033007554709911346,
        0.04499763622879982,
        -0.23254360258579254,
        -0.06608261168003082,
        0.0169364120811224,
        -0.0915636345744133,
        -0.13439922034740448,
        0.0762396827340126,
        0.03500640019774437,
        -2.4494569301605225,
        -0.04071083292365074,
        -0.011645124293863773,
        0.03445456176996231,
        -0.03983411565423012,
        -0.06320308148860931,
        0.028359893709421158,
        -0.04908565431833267,
        -0.0069590904749929905,
        0.011133757419884205,
        0.05103956535458565,
        0.022888150066137314,
        0.009045359678566456,
        0.00046095583820715547,
        -0.027898352593183517,
        -0.04191218316555023,
        0.030732113867998123,
        0.04815329611301422,
        0.03270956873893738,
        0.03936472907662392,
        0.01574990153312683,
        0.03030719794332981,
        -0.017595700919628143,
        -0.004823251161724329,
        -0.03444425389170647,
        -0.03813229873776436,
        -0.01561349630355835,
        -0.01741025783121586,
        0.029800590127706528,
        0.021800938993692398,
        0.0004177880473434925,
        0.01448876317590475,
        -0.04730731248855591,
        0.02595341205596924,
        0.02819080278277397,
        0.037968605756759644,
        0.029746664687991142,
        -0.047111328691244125,
        -0.010363648645579815,
        0.01168306078761816,
        0.006958564277738333,
        -0.003151870099827647,
        -0.017563829198479652,
        0.03874131292104721,
        -0.06407450139522552,
        -0.029201382771134377,
        -0.01943434774875641,
        0.009553562849760056,
        0.02690194547176361,
        0.05802178010344505,
        -0.051970161497592926,
        -0.0424671545624733,
        -0.020289329811930656,
        -0.013204451650381088,
        0.011723575182259083,
        0.2758629024028778,
        0.08567735552787781,
        -0.23316292464733124,
        -0.060780417174100876,
        -0.12251372635364532,
        -0.052296724170446396,
        0.08762171864509583,
        0.06435433030128479,
        0.06687404960393906,
        0.12387142330408096,
        0.054282765835523605,
        0.14078418910503387,
        0.12467785179615021,
        -0.05473776161670685,
        0.14235572516918182,
        -0.05322800949215889,
        -0.1809181123971939,
        -0.09361916780471802,
        -0.043941956013441086,
        -0.06045060604810715,
        0.04793200641870499,
        -0.13294193148612976,
        -0.0021821160335093737,
        0.0988469049334526,
        -0.05017517879605293,
        -0.014205874875187874,
        -0.00975280161947012,
        0.005196262151002884,
        0.0861717015504837,
        0.039547570049762726,
        5.396781921386719,
        4.65817928314209,
        3.1963729858398438,
        1.7712527513504028,
        0.715164303779602,
        0.4084084928035736,
        0.11193238198757172,
        0.17617957293987274,
        2.6842238903045654,
        0.06668223440647125,
        -0.047152694314718246,
        -0.09423581510782242,
        0.06706178933382034,
        -0.13448241353034973,
        0.08404558897018433,
        -0.033919043838977814,
        -0.017868798226118088,
        -0.010948016308248043,
        0.041145045310258865,
        -0.008484515361487865,
        0.04997814819216728,
        0.009282441809773445,
        -0.07522611320018768,
        5.265780925750732,
        0.1659497767686844,
        -0.31461745500564575,
        0.10327758640050888,
        0.000876022910233587,
        0.015042309649288654,
        -0.2793208956718445,
        0.009208500385284424,
        -0.024749379605054855,
        -0.29078519344329834,
        -0.225192129611969,
        -0.11810921877622604,
        -0.1280793398618698,
        -0.029129449278116226,
        -0.08805380761623383,
        -0.17449963092803955,
        -0.11322839558124542,
        -0.0831843689084053,
        -0.07108117640018463,
        -0.06994860619306564,
        -0.08598338812589645,
        -0.06288406252861023,
        0.1722504049539566,
        -0.017960499972105026,
        0.03665769100189209,
        -0.012128821574151516,
        0.0007586820283904672,
        -0.04213558882474899,
        -0.012568341568112373,
        -0.006523855030536652,
        -0.006523350719362497,
        -4.5972394943237305,
        -4.481625080108643,
        -3.0089757442474365,
        -1.622941493988037,
        -0.7865687608718872,
        -0.22895734012126923,
        0.04040646553039551,
        0.12076187133789062,
        -1.7991855144500732,
        -0.10490880906581879,
        -0.13000430166721344,
        -0.036101698875427246,
        -0.173630028963089,
        -0.14785312116146088,
        -0.1795390546321869,
        -0.02971109189093113,
        -0.17459481954574585,
        -0.14810095727443695,
        -0.04375069960951805,
        0.021737059578299522,
        -0.004060620907694101,
        -0.08621543645858765,
        -0.21680471301078796,
        -4.508831024169922,
        0.02255207486450672,
        0.09660173952579498,
        0.014366633258759975,
        0.10900495946407318,
        0.04331353306770325,
        0.06705623120069504,
        -0.17155063152313232,
        -0.15023943781852722,
        -0.11058533191680908,
        -0.030380303040146828,
        -0.07383638620376587,
        0.017628930509090424,
        -0.013453044928610325,
        -0.1533859223127365,
        -0.02515653520822525,
        0.01583751104772091,
        0.013425813987851143,
        0.03126957267522812,
        -0.008128266781568527,
        0.07734773308038712,
        -0.15283110737800598,
        0.011022413149476051,
        0.0496973842382431,
        -0.004788990132510662,
        -0.1387234479188919,
        -0.13066375255584717,
        -0.07718011736869812,
        -0.0003726156719494611,
        -0.0650428831577301,
        0.04196421802043915,
        -1.6684238910675049,
        -0.7338777184486389,
        -0.17513681948184967,
        -0.047539085149765015,
        -0.0412241667509079,
        0.025791462510824203,
        -0.043165381997823715,
        -0.006870512384921312,
        -0.08014721423387527,
        -0.0917666107416153,
        -0.10268227010965347,
        -0.07650237530469894,
        -0.10805308818817139,
        -0.010360563173890114,
        -0.07407950609922409,
        0.03507651016116142,
        -0.008808723650872707,
        -0.006301899906247854,
        0.07622256129980087,
        -0.06209283694624901,
        -0.10599242895841599,
        -0.020011309534311295,
        -0.11932940781116486,
        -1.2889093160629272,
        0.118349090218544,
        0.17799600958824158,
        0.03956831246614456,
        0.018871748819947243,
        0.02040468342602253,
        0.07608863711357117,
        -0.0940653383731842,
        0.07358971238136292,
        -0.08775918930768967,
        -0.07658585906028748,
        0.024334676563739777,
        -0.04548763483762741,
        0.025010015815496445,
        -0.19324855506420135,
        0.08201577514410019,
        -0.07786766439676285,
        -0.09572121500968933,
        -0.014786397106945515,
        -0.05599518120288849,
        -0.06045728176832199,
        0.12926018238067627,
        0.0035893430467694998,
        0.010120199993252754,
        -0.04593278095126152,
        -0.004780502058565617,
        -0.010312751866877079,
        -0.06479280441999435,
        -0.08501814305782318,
        -0.022981885820627213,
        -0.03197591006755829,
        4.598830223083496,
        3.3444178104400635,
        0.9506703615188599,
        0.23433494567871094,
        -0.033189207315444946,
        0.07025448977947235,
        0.1948596090078354,
        0.26704850792884827,
        0.9062254428863525,
        -0.25283798575401306,
        -0.0020942194387316704,
        -0.08661305904388428,
        -0.08570415526628494,
        -0.11450420320034027,
        -0.06546685844659805,
        -0.13234999775886536,
        -0.0470988005399704,
        0.09751006960868835,
        0.006421440280973911,
        0.003048620419576764,
        0.052095890045166016,
        -0.0041107130236923695,
        -0.10017269104719162,
        3.644436836242676,
        -0.02772613801062107,
        0.2969580888748169,
        -0.22254760563373566,
        -0.08706861734390259,
        -0.040078092366456985,
        0.07977313548326492,
        -0.12031258642673492,
        0.12762750685214996,
        0.16853128373622894,
        0.12252229452133179,
        -0.004803130403161049,
        -0.0899900570511818,
        -0.1263301521539688,
        -0.004511444829404354,
        0.11499197781085968,
        -0.180720254778862,
        -0.237709179520607,
        -0.036752913147211075,
        0.04734796658158302,
        -0.016461515799164772,
        0.028376378118991852,
        -0.30180197954177856,
        0.003487273585051298,
        0.009596395306289196,
        -0.004301683511584997,
        -0.009572743438184261,
        0.01591848023235798,
        -0.011236241087317467,
        -0.02439122274518013,
        -0.033590711653232574,
        5.937831401824951,
        5.499487400054932,
        3.932255268096924,
        1.750154972076416,
        0.468145489692688,
        0.28490158915519714,
        0.22789794206619263,
        0.11756648868322372,
        3.574082851409912,
        -0.07100605964660645,
        0.06150026619434357,
        -0.18955554068088531,
        -0.03895272687077522,
        -0.07263856381177902,
        0.007948118261992931,
        0.11756167560815811,
        0.07896644622087479,
        0.12122088670730591,
        -0.017973674461245537,
        0.00749922962859273,
        0.0010899764019995928,
        0.03738163411617279,
        -0.004199508111923933,
        5.8195319175720215,
        0.19815875589847565,
        0.10130177438259125,
        -0.26905587315559387,
        -0.1658172756433487,
        -0.05196702852845192,
        -0.0054657128639519215,
        0.20630697906017303,
        0.05536714941263199,
        -0.02359808050096035,
        0.03827635571360588,
        -0.04106736555695534,
        -0.047339096665382385,
        -0.07475358992815018,
        0.07593733817338943,
        0.11620727926492691,
        -0.028250278905034065,
        -0.1346791386604309,
        -0.12043853104114532,
        0.024126427248120308,
        0.014294982887804508,
        -0.07520052790641785,
        -0.0062962681986391544,
        0.11488046497106552,
        0.06520094722509384,
        0.013651948422193527,
        0.015502424910664558,
        0.02075052075088024,
        0.04769417643547058,
        0.02301030047237873,
        -0.03300432860851288,
        5.47544527053833,
        4.884739398956299,
        3.401829719543457,
        1.6775522232055664,
        0.6544822454452515,
        0.32338979840278625,
        0.15556755661964417,
        0.36544176936149597,
        3.3739163875579834,
        0.03940654173493385,
        -0.09808472543954849,
        -0.13553644716739655,
        -0.04166364669799805,
        -0.08909014612436295,
        -0.027947882190346718,
        -0.08900289237499237,
        0.007144423667341471,
        -0.028985874727368355,
        0.00032517098588868976,
        0.006534480024129152,
        0.10274503380060196,
        -0.07180176675319672,
        -0.1285407692193985,
        5.21201753616333,
        0.20319226384162903,
        -0.0687234103679657,
        0.1347203403711319,
        -0.08286362886428833,
        0.21738401055335999,
        0.001721555832773447,
        -0.0011577371042221785,
        0.043949611485004425,
        -0.020773274824023247,
        -0.07782847434282303,
        -0.022575879469513893,
        0.011418505571782589,
        -0.1696312427520752,
        -0.20120969414710999,
        -0.14826665818691254,
        -0.010960981249809265,
        -0.0875096470117569,
        -0.0018953970866277814,
        -0.14077642560005188,
        0.05979272350668907,
        -0.06443002074956894,
        -0.00548002403229475,
        -0.10616228729486465,
        0.053044140338897705,
        -0.0220212209969759,
        -0.02095968648791313,
        -0.02741842158138752,
        0.031829725950956345,
        0.03586076200008392,
        0.03710370510816574,
        -0.9601569771766663,
        -2.275287628173828,
        -1.9710272550582886,
        -1.4162403345108032,
        -0.7159578204154968,
        -0.17597055435180664,
        0.02872505784034729,
        0.07710988074541092,
        -1.5560368299484253,
        -0.22831043601036072,
        0.018113384023308754,
        -0.06785180419683456,
        -0.15437957644462585,
        -0.08657795935869217,
        -0.15289238095283508,
        0.06339471787214279,
        -0.09748145192861557,
        0.06437046825885773,
        0.042426157742738724,
        -0.01013804879039526,
        0.15177157521247864,
        -0.015092684887349606,
        -0.24339044094085693,
        -2.2708849906921387,
        0.07163633406162262,
        0.1912437379360199,
        -0.22468499839305878,
        -0.06089939922094345,
        0.06447036564350128,
        0.030046699568629265,
        0.0067364610731601715,
        0.09399949014186859,
        0.23034733533859253,
        0.15384024381637573,
        0.0705370083451271,
        0.05441861227154732,
        -0.08054927736520767,
        -0.05798827111721039,
        0.14426766335964203,
        -0.03301069140434265,
        -0.15523484349250793,
        -0.035907041281461716,
        -0.04880322143435478,
        0.02920263633131981,
        -0.021150605753064156,
        -0.18387112021446228,
        -0.08729416131973267,
        -0.08888299763202667,
        0.025998065248131752,
        0.06029627099633217,
        0.0196731835603714,
        0.016450945287942886,
        -0.0208722073584795,
        -0.034403204917907715,
        5.449520111083984,
        5.158988952636719,
        3.548027753829956,
        1.6339536905288696,
        0.3854542374610901,
        0.1977359503507614,
        0.2079884558916092,
        0.10771101713180542,
        2.9216809272766113,
        -0.07898542284965515,
        0.1510254442691803,
        -0.11504916846752167,
        -0.010551412589848042,
        -0.011240765452384949,
        -0.028793927282094955,
        -0.031484074890613556,
        0.08490902930498123,
        0.034611206501722336,
        -0.0022131474688649178,
        -0.008770639076828957,
        0.10748749226331711,
        0.09867747873067856,
        0.02345266379415989,
        5.430006504058838,
        0.043143775314092636,
        -0.0722607746720314,
        0.04459761455655098,
        -0.10619404911994934,
        0.06735444813966751,
        0.024925151839852333,
        0.07124217599630356,
        -0.12110632658004761,
        -0.14313523471355438,
        -0.17367343604564667,
        -0.07403413206338882,
        0.036052703857421875,
        -0.007304712664335966,
        0.06882032752037048,
        -0.12727539241313934,
        0.10368071496486664,
        -0.023055678233504295,
        -0.054509494453668594,
        0.0806155800819397,
        0.08083149790763855,
        -0.13192491233348846,
        0.1170002743601799,
        -0.05532398447394371,
        0.08407198637723923,
        -0.02482966147363186,
        -0.04009932279586792,
        -0.03683663532137871,
        -0.017959989607334137,
        0.028088167309761047,
        0.019590862095355988,
        -4.1592864990234375,
        -3.586158037185669,
        -2.273808002471924,
        -1.062501311302185,
        -0.3682660758495331,
        -0.14426526427268982,
        -0.018442384898662567,
        -0.13375841081142426,
        -1.1786208152770996,
        -0.06180277466773987,
        0.007982322946190834,
        -0.0387984998524189,
        -0.16507892310619354,
        -0.06260228902101517,
        -0.14620009064674377,
        0.07116837054491043,
        -0.1716431975364685,
        0.15749108791351318,
        -0.001705538248643279,
        -0.0002865652786567807,
        0.1526542752981186,
        0.0321306511759758,
        -0.07381191104650497,
        -4.034804821014404,
        0.014774350449442863,
        0.15332315862178802,
        -0.2152090072631836,
        -0.2216249704360962,
        -0.0754055306315422,
        0.0571342408657074,
        0.06268773972988129,
        0.09581668674945831,
        -0.06078849360346794,
        0.02219027280807495,
        0.013849159702658653,
        -0.04357128590345383,
        -0.019299743697047234,
        0.0865296795964241,
        -0.10040093213319778,
        -0.07540673017501831,
        -0.26712676882743835,
        0.029626084491610527,
        0.07200442254543304,
        -0.06716260313987732,
        0.011009592562913895,
        -0.19572408497333527,
        -0.03369767218828201,
        0.08906149119138718,
        -0.06323583424091339,
        -0.006856143474578857,
        -0.013578761368989944,
        -0.0064983428455889225,
        0.0562940314412117,
        -0.04858778044581413,
        4.798752307891846,
        3.649470329284668,
        1.6025829315185547,
        -0.018904559314250946,
        -0.301077663898468,
        -0.12501107156276703,
        -0.022587653249502182,
        0.024661848321557045,
        1.4641811847686768,
        0.1485249400138855,
        0.05567781627178192,
        -0.16894009709358215,
        -0.08736324310302734,
        -0.10732028633356094,
        -0.009721391834318638,
        0.18166561424732208,
        -0.03716323524713516,
        -0.048506028950214386,
        -0.04817964509129524,
        0.04826372116804123,
        -0.1388508528470993,
        -0.12379283457994461,
        -0.28108254075050354,
        4.273776054382324,
        0.006536109372973442,
        0.28731900453567505,
        -0.14030803740024567,
        -0.04314107447862625,
        -0.039031509310007095,
        0.0730157345533371,
        0.0937115028500557,
        0.04234594479203224,
        0.193090558052063,
        0.13863927125930786,
        0.032101888209581375,
        -0.06873448193073273,
        -0.029544856399297714,
        -0.005383480340242386,
        0.0696476548910141,
        -0.1246134489774704,
        -0.09010698646306992,
        -0.011068148538470268,
        0.010455966927111149,
        -0.027919234707951546,
        -0.04190082475543022,
        -0.18845944106578827,
        0.14415423572063446,
        -0.015502004884183407,
        0.028371654450893402,
        0.023914098739624023,
        -0.010730627924203873,
        -0.0075565180741250515,
        -0.010072021745145321,
        -0.046024683862924576,
        5.076833724975586,
        4.658880233764648,
        3.420050621032715,
        1.8299143314361572,
        0.6705027222633362,
        0.3740123212337494,
        0.16777412593364716,
        0.135877788066864,
        3.4465267658233643,
        -0.005980935413390398,
        0.03264157474040985,
        -0.1712963730096817,
        0.0408889576792717,
        -0.07773926854133606,
        0.030940476804971695,
        -0.015540347434580326,
        0.12167438119649887,
        -0.02052670530974865,
        0.035145603120326996,
        0.07205504924058914,
        0.0914413332939148,
        0.06061768904328346,
        0.1043800339102745,
        4.971850395202637,
        0.0398017056286335,
        0.13196948170661926,
        -0.20338530838489532,
        -0.11658787727355957,
        0.015039876103401184,
        0.04131188616156578,
        -0.006405369844287634,
        0.11216018348932266,
        0.3604884147644043,
        0.23858004808425903,
        0.11641840636730194,
        0.0613376647233963,
        -0.01675988733768463,
        0.06783203035593033,
        0.14886552095413208,
        0.2015785574913025,
        -0.1396162211894989,
        0.022817479446530342,
        0.15521933138370514,
        -0.0046128565445542336,
        0.13245590031147003,
        -0.1633501648902893,
        0.1611144095659256,
        -0.1344130039215088,
        0.013004734180867672,
        -0.021742546930909157,
        -0.00805576704442501,
        0.0006902951863594353,
        -0.012655491940677166,
        0.07620269060134888,
        5.745405673980713,
        5.311972141265869,
        4.088164806365967,
        2.351573944091797,
        1.0536991357803345,
        0.34840813279151917,
        0.008099296130239964,
        0.02460789866745472,
        3.081139087677002,
        0.17097178101539612,
        0.09831906855106354,
        -0.21612191200256348,
        0.016513004899024963,
        -0.19821524620056152,
        0.03948049247264862,
        -0.013825218193233013,
        0.04470611736178398,
        -0.34710901975631714,
        -0.10517816990613937,
        0.030662793666124344,
        -0.43331071734428406,
        0.0879458636045456,
        0.2171814888715744,
        5.646110534667969,
        0.1932803988456726,
        0.07648015022277832,
        -0.2548374533653259,
        -0.13716070353984833,
        -0.06470149010419846,
        0.02040806971490383,
        -0.007416656240820885,
        0.05539671331644058,
        -0.031118305400013924,
        -0.006965009495615959,
        0.010178249329328537,
        0.00249864743091166,
        -0.06235262379050255,
        0.05017665773630142,
        0.002408134052529931,
        0.025926250964403152,
        -0.11324763298034668,
        -0.05899582803249359,
        0.053293898701667786,
        -0.029401427134871483,
        0.017877060920000076,
        -0.017097193747758865,
        0.19713161885738373,
        0.09219969063997269,
        0.03204454854130745,
        0.049783430993556976,
        0.017094215378165245,
        -0.0007206688751466572,
        0.03602128475904465,
        -0.021442480385303497,
        4.90097188949585,
        4.115439414978027,
        2.4615070819854736,
        1.139251470565796,
        0.2708927392959595,
        0.21279719471931458,
        0.10716436803340912,
        0.1445072442293167,
        2.778765916824341,
        0.014817447401583195,
        0.001216069096699357,
        -0.18766316771507263,
        -0.007380305323749781,
        -0.10070648789405823,
        0.01195340696722269,
        -7.485087553504854e-05,
        -0.027261881157755852,
        -0.027717987075448036,
        0.014679432846605778,
        0.025000479072332382,
        -0.3434944748878479,
        0.0423404760658741,
        -0.16461291909217834,
        4.502853870391846,
        0.1052033007144928,
        -0.0850207656621933,
        -0.02489922195672989,
        0.04283064231276512,
        0.02255876734852791,
        -0.11443004757165909,
        -0.08904586732387543,
        -0.03868842497467995,
        -0.006648092996329069,
        -0.02120104245841503,
        0.03065742366015911,
        -0.09158895909786224,
        -0.004070507828146219,
        0.06067407876253128,
        0.0076989964582026005,
        0.0008486292790621519,
        -0.019057264551520348,
        -0.016537874937057495,
        -0.05757951736450195,
        -0.03069501370191574,
        0.04598250612616539,
        0.01488911546766758,
        -0.06153922528028488,
        0.020918793976306915,
        -0.12346052378416061,
        -0.08857502043247223,
        -0.060283783823251724,
        -0.044755447655916214,
        -0.0019201018149033189,
        -0.045405738055706024,
        -0.08172206580638885,
        0.04030720889568329,
        -0.07196005433797836,
        -0.05495745316147804,
        -0.014494472183287144,
        0.028881235048174858,
        -0.11301741003990173,
        0.10499625653028488,
        0.02626245655119419,
        0.002664098283275962,
        -0.021020103245973587,
        -0.024080513045191765,
        0.10353226214647293,
        -0.07020649313926697,
        0.16616228222846985,
        -0.10780919343233109,
        0.022669415920972824,
        -0.04560566321015358,
        0.028995567932724953,
        0.00819753110408783,
        -0.001139395055361092,
        -0.07374553382396698,
        -0.09614704549312592,
        -0.17230519652366638,
        0.4233737885951996,
        0.06946267187595367,
        0.02938157320022583,
        -0.1455383598804474,
        -0.041497740894556046,
        -0.010381621308624744,
        0.02562955766916275,
        -0.003138100728392601,
        -0.06308116763830185,
        -0.05676042288541794,
        -0.13842836022377014,
        -0.18511995673179626,
        -0.1781732589006424,
        -0.03091115690767765,
        -0.01630735583603382,
        -0.1106068417429924,
        -0.08802705258131027,
        -0.2165612131357193,
        0.04305487871170044,
        0.004669377580285072,
        -0.07330252230167389,
        -0.0024294795002788305,
        -0.07178554683923721,
        0.010224935598671436,
        0.005790128838270903,
        0.0031289560720324516,
        -0.031451690942049026,
        0.0420258529484272,
        0.03037964552640915,
        0.012263105250895023,
        0.8913213014602661,
        -0.2742622196674347,
        -0.5218499898910522,
        -0.8340344429016113,
        -0.4681338965892792,
        -0.019305799156427383,
        -0.05268385633826256,
        0.05845014005899429,
        0.9042145609855652,
        -0.19603945314884186,
        -0.03006586618721485,
        -0.1317429095506668,
        -0.11597539484500885,
        -0.15209165215492249,
        -0.1720990091562271,
        -0.011544480919837952,
        -0.0556318499147892,
        0.05405239015817642,
        0.10342176258563995,
        -0.037519555538892746,
        0.0012871063081547618,
        0.07723622024059296,
        -0.18303586542606354,
        0.06458413600921631,
        0.06019195541739464,
        0.09139434248209,
        -0.19697485864162445,
        -0.22923262417316437,
        0.02940630167722702,
        0.051806651055812836,
        0.13836979866027832,
        0.08965671062469482,
        0.03429720178246498,
        -0.037824127823114395,
        -0.007269867695868015,
        0.030814912170171738,
        -0.10240442305803299,
        0.06928703188896179,
        -0.10917966067790985,
        -0.026003064587712288,
        -0.06701362133026123,
        0.04778895154595375,
        -0.12248726934194565,
        0.01432553119957447,
        0.06667278707027435,
        -0.08456769585609436,
        0.02019474282860756,
        0.09655295312404633,
        -0.05640112981200218,
        -0.006648426875472069,
        -0.04032614454627037,
        -0.032754216343164444,
        0.05056759715080261,
        -0.010775052942335606,
        5.457927227020264,
        4.442174434661865,
        2.1521928310394287,
        0.5164780020713806,
        -0.056615766137838364,
        -0.08159825950860977,
        0.0244399793446064,
        0.1536618173122406,
        2.752126455307007,
        -0.1789233535528183,
        0.045792967081069946,
        -0.10388465225696564,
        -0.03931427374482155,
        -0.11595296859741211,
        -0.023598846048116684,
        -0.08703852444887161,
        0.09470636397600174,
        0.011873109266161919,
        -0.0221224594861269,
        0.22138233482837677,
        0.01520679984241724,
        -0.009946253150701523,
        -0.10703657567501068,
        5.13601016998291,
        0.025837060064077377,
        -0.09919802099466324,
        0.0367145799100399,
        -0.08735455572605133,
        0.011794735677540302,
        -0.0009011467918753624,
        0.10996261239051819,
        -0.1172114759683609,
        -0.20471906661987305,
        -0.06811579316854477,
        -0.01913468912243843,
        -0.02131115272641182,
        -0.12069430202245712,
        -0.019818667322397232,
        -0.17875012755393982,
        -0.03156286105513573,
        0.015066670253872871,
        -0.08340449631214142,
        -0.17201517522335052,
        -0.021115349605679512,
        -0.0004481314681470394,
        0.14960190653800964,
        -0.10623440146446228,
        0.09181606024503708,
        0.0006549216341227293,
        0.008684912696480751,
        0.025112150236964226,
        0.010774027556180954,
        0.046490512788295746,
        0.01821274124085903,
        -2.8584368228912354,
        -2.8762190341949463,
        -1.8980940580368042,
        -1.029510736465454,
        -0.324832946062088,
        -0.07638809829950333,
        0.033151775598526,
        0.2924094498157501,
        -0.8613020181655884,
        -0.30974632501602173,
        -0.09525546431541443,
        0.0009033461101353168,
        0.09668790549039841,
        -0.02437048777937889,
        0.02061106450855732,
        -0.17928707599639893,
        0.024087002500891685,
        -0.0755421444773674,
        0.007178999949246645,
        0.07599285244941711,
        0.10883408784866333,
        0.004915756639093161,
        -0.1317334771156311,
        -2.9385194778442383,
        0.17906628549098969,
        0.1365709900856018,
        -0.21208824217319489,
        -0.27386149764060974,
        -0.0017060794634744525,
        0.023583970963954926,
        -0.07665325701236725,
        0.10679347813129425,
        0.056739937514066696,
        -0.013271861709654331,
        -0.0358143113553524,
        -0.059203702956438065,
        -0.0363675095140934,
        -0.02961636893451214,
        -0.031134964898228645,
        -0.05642203241586685,
        -0.22352933883666992,
        0.0568714402616024,
        -0.030158858746290207,
        0.019444864243268967,
        0.04761640354990959,
        -0.19625906646251678,
        0.21774174273014069,
        0.053422994911670685,
        0.015318488702178001,
        -0.015118030831217766,
        -0.027293095365166664,
        -0.05066051706671715,
        0.017779700458049774,
        -0.03539542108774185,
        5.9341044425964355,
        5.013641357421875,
        3.1260597705841064,
        1.1660587787628174,
        0.20747151970863342,
        0.05434517189860344,
        0.1500501185655594,
        0.16479986906051636,
        3.741543769836426,
        -0.09749387949705124,
        0.1130749061703682,
        -0.1858205497264862,
        -0.07427764683961868,
        -0.11259828507900238,
        -0.033002641052007675,
        -0.06254926323890686,
        0.06870505213737488,
        0.046046242117881775,
        0.06400153785943985,
        0.06527910381555557,
        -0.3619493246078491,
        0.011195918545126915,
        -0.17391672730445862,
        5.671243667602539,
        -0.09121625125408173,
        -6.028829011484049e-05,
        0.056718286126852036,
        -0.036671966314315796,
        0.026137925684452057,
        0.0004621008411049843,
        -0.04169536009430885,
        0.0001362067268928513,
        -0.020935002714395523,
        -0.026471586897969246,
        -0.022656232118606567,
        -0.016059935092926025,
        -0.03032602369785309,
        -0.08098667114973068,
        0.02421804890036583,
        -0.00461087329313159,
        0.007240925915539265,
        0.005225470755249262,
        0.01068895123898983,
        0.02000419795513153,
        -0.012268994003534317,
        0.006076248362660408,
        0.04291104897856712,
        -0.009542704559862614,
        -0.002123116282746196,
        -0.0035651682410389185,
        -0.1033523827791214,
        -0.008911694400012493,
        -0.029030820354819298,
        -0.008094371296465397,
        0.1884453445672989,
        0.07811473309993744,
        -0.12824372947216034,
        -0.04418879747390747,
        0.05581776797771454,
        0.029463130980730057,
        -0.03905970975756645,
        0.0762249231338501,
        0.006139528006315231,
        -0.08295298367738724,
        0.1353435218334198,
        0.06931226700544357,
        -0.04188288003206253,
        0.0905260518193245,
        -0.05387430638074875,
        -0.0857040286064148,
        -0.012352531775832176,
        -0.026174716651439667,
        0.02933582291007042,
        -0.0826902687549591,
        0.021038372069597244,
        -0.0076051028445363045,
        -0.03946742042899132,
        0.10045012086629868,
        0.10039345175027847,
        0.010772477835416794,
        -0.04483366012573242,
        -0.05455214902758598,
        0.021682554855942726,
        0.05093567445874214,
        -0.07082858681678772,
        -0.085111103951931,
        -0.1939578503370285,
        -0.11891189217567444,
        -0.16210727393627167,
        -0.14409638941287994,
        0.04048299789428711,
        0.1594482660293579,
        -0.2030046284198761,
        0.004754592198878527,
        0.12807691097259521,
        0.0012282609241083264,
        -0.09547039121389389,
        0.12743476033210754,
        0.011659991927444935,
        0.11365802586078644,
        0.026712268590927124,
        0.06060129776597023,
        0.01900707557797432,
        -0.002436265582218766,
        -0.02011285535991192,
        -0.02471241168677807,
        -0.05796997994184494,
        -0.03410175070166588,
        -5.0326762199401855,
        -4.509790420532227,
        -2.8293514251708984,
        -1.3686065673828125,
        -0.3237777650356293,
        -0.16648490726947784,
        -0.2875716984272003,
