{
  "defaults": {},
  "inputs": [
    {
      "name": "ph_phi_0",
      "offset": 0,
      "scale": 1
    },
    {
      "name": "ph_e_0",
      "offset": 0,
      "scale": 1
    },
    {
      "name": "jet_pt_0",
      "offset": 0,
      "scale": 1
    },
    {
      "name": "jet_pt_1",
      "offset": 0,
      "scale": 1
    },
    {
      "name": "jet_pt_2",
      "offset": 0,
      "scale": 1
    },
    {
      "name": "jet_pt_3",
      "offset": 0,
      "scale": 1
    },
    {
      "name": "jet_pt_4",
      "offset": 0,
      "scale": 1
    },
    {
      "name": "jet_tagWeightBin_0",
      "offset": 0,
      "scale": 1
    },
    {
      "name": "jet_tagWeightBin_1",
      "offset": 0,
      "scale": 1
    },
    {
      "name": "met_met",
      "offset": 0,
      "scale": 1
    },
    {
      "name": "ph_HFT_MVA_0",
      "offset": 0,
      "scale": 1
    },
    {
      "name": "ph_drleadjet_0",
      "offset": 0,
      "scale": 1
    },
    {
      "name": "ph_drsubljet_0",
      "offset": 0,
      "scale": 1
    },
    {
      "name": "ph_drlept_0",
      "offset": 0,
      "scale": 1
    },
    {
      "name": "ph_mgammalept_0",
      "offset": 0,
      "scale": 1
    },
    {
      "name": "event_HT",
      "offset": 0,
      "scale": 1
    },
    {
      "name": "event_mll",
      "offset": 0,
      "scale": 1
    },
    {
      "name": "event_mwt",
      "offset": 0,
      "scale": 1
    },
    {
      "name": "event_njets",
      "offset": 0,
      "scale": 1
    },
    {
      "name": "event_nbjets77",
      "offset": 0,
      "scale": 1
    }
  ],
  "layers": [
    {
      "architecture": "normalization",
      "bias": [
        -0.008352681994438171,
        -120076.3828125,
        -157598.125,
        -95889.78125,
        -60227.21875,
        -43314.98828125,
        -19398.259765625,
        -2.5102357864379883,
        -2.4174997806549072,
        -76158.609375,
        -0.7388879060745239,
        -2.30786395072937,
        -2.2053117752075195,
        -1.8764615058898926,
        -115077.6015625,
        -438793.71875,
        -9748.548828125,
        -66772.578125,
        -4.734481334686279,
        -1.4825071096420288
      ],
      "weights": [
        0.4635150730609894,
        7.401837592624361e-06,
        8.891362995200325e-06,
        1.4860116607451346e-05,
        2.9234486646601e-05,
        4.498833368415944e-05,
        4.0545219235355034e-05,
        0.528544545173645,
        0.52203768491745,
        1.8076840206049383e-05,
        4.24905252456665,
        1.072893500328064,
        1.0302588939666748,
        1.0861248970031738,
        1.0640736036293674e-05,
        4.244756382831838e-06,
        2.9831424399162643e-05,
        1.9911698473151773e-05,
        0.8473560214042664,
        1.657138466835022
      ]
    },
    {
      "activation": "rectified",
      "architecture": "dense",
      "bias": [
        -0.08335533738136292,
        -0.059989579021930695,
        -0.0606028214097023,
        -0.0655067041516304,
        -0.02965863235294819,
        0.05034509673714638,
        -0.02952181175351143,
        -0.04918959364295006,
        0.021103128790855408,
        -0.003577850293368101,
        -0.067508265376091,
        -0.09266679733991623,
        -0.05348167195916176,
        0.017354846000671387,
        -0.06159470975399017,
        -0.0837009996175766,
        0.02276158519089222,
        -0.09294646233320236,
        -0.026418399065732956,
        0.001972337020561099,
        -0.07699592411518097,
        -0.053145769983530045,
        0.029911503195762634,
        -0.0663493201136589,
        0.007798394188284874,
        0.07333698868751526,
        -0.022823821753263474,
        0.03265117108821869,
        -0.08046461641788483,
        0.001969574950635433,
        -0.022463176399469376,
        -0.028407033532857895,
        0.05969683825969696,
        -0.1372208446264267,
        -0.008134223520755768,
        0.0013653886271640658,
        -0.08541158586740494,
        0.0011220286833122373,
        -0.028492623940110207,
        0.0024859157856553793,
        -0.037107061594724655,
        0.05562508478760719,
        -0.04759924113750458,
        -0.029538508504629135,
        -0.08685948699712753,
        -0.03917238488793373,
        0.0153583362698555,
        -0.06700368970632553,
        -0.0630069300532341,
        -0.02150213159620762,
        -0.039932142943143845,
        0.06285466253757477,
        0.026684679090976715,
        -0.08205971121788025,
        -0.06216244399547577,
        -0.06557012349367142,
        -0.05398332700133324,
        -0.07201196998357773,
        0.008397264406085014,
        -0.05680111050605774,
        -0.06315772980451584,
        -0.017915397882461548,
        -0.0698469802737236,
        -0.02806628867983818
      ],
      "weights": [
        0.024287831038236618,
        0.02105575054883957,
        -0.06626470386981964,
        -0.11108946055173874,
        -0.1060151681303978,
        -0.026131965219974518,
        -0.016011470928788185,
        -0.0054199425503611565,
        -0.031455036252737045,
        -0.0458630733191967,
        0.017098568379878998,
        -0.031713344156742096,
        0.01072208397090435,
        0.058936916291713715,
        0.037652209401130676,
        -0.07244451344013214,
        0.053703710436820984,
        -0.018994497135281563,
        0.044166285544633865,
        0.021591614931821823,
        -0.028340239077806473,
        0.04593709483742714,
        0.14010179042816162,
        0.07066646218299866,
        -0.0804971233010292,
        -0.01635916158556938,
        -0.01732606068253517,
        0.0113597447052598,
        0.011221014894545078,
        -0.007738678716123104,
        0.022131500765681267,
        0.06407824903726578,
        -0.03586959466338158,
        -0.08731912076473236,
        -0.025985483080148697,
        0.00479406351223588,
        -0.03892723098397255,
        -0.03755664452910423,
        0.0023396548349410295,
        -0.016802648082375526,
        -0.07160426676273346,
        -0.13736094534397125,
        0.025810126215219498,
        -0.030798349529504776,
        0.022110937163233757,
        0.02390407584607601,
        0.014532945118844509,
        -0.03556288778781891,
        0.03746672719717026,
        0.04740385338664055,
        0.054285068064928055,
        0.02607361227273941,
        -0.03133167326450348,
        0.017276542261242867,
        0.027986718341708183,
        0.03749701753258705,
        -0.045686621218919754,
        0.02386389672756195,
        -0.05237090587615967,
        0.04610235616564751,
        0.027660993859171867,
        0.0008559992420487106,
        -0.009365607053041458,
        -0.02983812615275383,
        -0.09845424443483353,
        0.0019278466934338212,
        0.05347546562552452,
        0.03757939487695694,
        -0.030565209686756134,
        -0.09288334846496582,
        0.008505886420607567,
        0.01293671689927578,
        0.028984716162085533,
        -0.08059956133365631,
        0.031072057783603668,
        0.03951171040534973,
        0.05346040800213814,
        0.0646560788154602,
        -0.015399456024169922,
        -0.0254041850566864,
        -0.020597172901034355,
        0.03866489604115486,
        -0.10342002660036087,
        0.029131120070815086,
        -0.011113717220723629,
        0.053697261959314346,
        0.03256121277809143,
        0.05037543550133705,
        0.10396173596382141,
        -0.030778301879763603,
        0.06489497423171997,
        -0.07042065262794495,
        -0.07386352866888046,
        -0.02335726097226143,
        0.02311389520764351,
        -0.008253205567598343,
        -0.09902378916740417,
        -0.024975677952170372,
        -0.02630511298775673,
        -0.013389329425990582,
        0.014327452518045902,
        0.03679664433002472,
        0.02824161946773529,
        -0.023436225950717926,
        0.04163901507854462,
        0.034883659332990646,
        -0.048493657261133194,
        -0.015337364748120308,
        0.061271242797374725,
        -0.13990969955921173,
        0.032756030559539795,
        -0.0034574931487441063,
        -0.025226954370737076,
        -0.09345214068889618,
        0.035835154354572296,
        0.024865446612238884,
        0.010457989759743214,
        0.0595909021794796,
        -0.049279507249593735,
        0.0175002571195364,
        0.08779210597276688,
        -0.046389225870370865,
        0.04531782492995262,
        -0.013767903670668602,
        -0.03156955912709236,
        -0.011680358089506626,
        0.07049866020679474,
        -0.05283031240105629,
        0.031927093863487244,
        0.01668851263821125,
        0.010400858707726002,
        -0.02043312042951584,
        0.01723838597536087,
        0.10796213895082474,
        0.06927941739559174,
        0.05464817211031914,
        -0.0546182282269001,
        0.009990783408284187,
        -0.06592206656932831,
        -0.05535284802317619,
        0.04760550707578659,
        0.04779738187789917,
        0.03985264524817467,
        0.06775892525911331,
        -0.021822744980454445,
        -0.00023730238899588585,
        -0.06485429406166077,
        0.03985306993126869,
        -0.009468162432312965,
        0.03914034366607666,
        -0.05946965888142586,
        -0.015588760375976562,
        -0.019014645367860794,
        -0.014822538010776043,
        0.09999576210975647,
        -0.05593227595090866,
        -0.03943430632352829,
        -0.033563390374183655,
        0.04379711672663689,
        0.05148470401763916,
        0.03258783742785454,
        -0.1113104373216629,
        -0.03708266094326973,
        0.020638447254896164,
        -0.01979869045317173,
        0.026227576658129692,
        0.09277912974357605,
        0.033430662006139755,
        -0.10078650712966919,
        0.008556557819247246,
        0.05601218342781067,
        0.03535718843340874,
        -0.029727879911661148,
        0.00819399580359459,
        -0.06174769252538681,
        0.04625468701124191,
        0.031899433583021164,
        0.0068098702467978,
        0.07003362476825714,
        0.041624393314123154,
        -0.020896065980196,
        -0.0021465898025780916,
        0.03706035763025284,
        0.03939630836248398,
        0.010775085538625717,
        -0.059759821742773056,
        -0.03138703852891922,
        -0.008705568499863148,
        -0.03881210833787918,
        -0.1186123639345169,
        -0.01572670042514801,
        -0.03871236741542816,
        0.010886549949645996,
        -0.018302036449313164,
        -0.09996604919433594,
        -0.047007005661726,
        0.011547081172466278,
        -0.1258978247642517,
        0.0014585905009880662,
        -0.0955190509557724,
        -0.015176123939454556,
        0.014135943725705147,
        -0.04302682355046272,
        0.06320895999670029,
        -0.03896721825003624,
        0.02472127228975296,
        -0.009595837444067001,
        -0.02591819502413273,
        0.018106920644640923,
        -0.01992495357990265,
        0.08034860342741013,
        -0.06374676525592804,
        0.122470922768116,
        -0.020825598388910294,
        0.0434420146048069,
        0.014650216326117516,
        0.050993967801332474,
        -0.014306893572211266,
        -0.007691089995205402,
        -0.12005778402090073,
        -0.004525913391262293,
        -0.03569549694657326,
        0.026361355558037758,
        0.01945621147751808,
        -0.1462666541337967,
        -0.1181931421160698,
        -0.02526232600212097,
        0.010537582449615002,
        0.028258444741368294,
        0.034084223210811615,
        0.03451048955321312,
        -0.012213381007313728,
        0.039110589772462845,
        0.041849397122859955,
        -8.724373765289783e-05,
        -0.09585658460855484,
        -0.018737129867076874,
        -0.030554356053471565,
        -0.01996668614447117,
        -0.01993637904524803,
        0.03934265673160553,
        0.06908007711172104,
        0.012417426332831383,
        0.02414882369339466,
        0.0756610557436943,
        0.023259758949279785,
        -0.027298003435134888,
        -0.050875406712293625,
        0.010245727375149727,
        -0.00370964827015996,
        -0.09602353721857071,
        0.06240464374423027,
        -0.02244950272142887,
        0.008038507774472237,
        -0.05594789981842041,
        -0.02675643377006054,
        -0.05339858680963516,
        0.06163397803902626,
        -0.011408618651330471,
        -0.026839137077331543,
        0.09158934652805328,
        -0.12012653052806854,
        -0.023296134546399117,
        0.042990680783987045,
        0.05408328026533127,
        0.05329444259405136,
        0.02213992550969124,
        -0.051542267203330994,
        0.07923151552677155,
        -0.017919450998306274,
        0.018827931955456734,
        -0.027018830180168152,
        0.05952795222401619,
        -0.06661760807037354,
        -0.03680288791656494,
        0.032073479145765305,
        -0.01167051587253809,
        0.017096946015954018,
        -0.010996023193001747,
        -0.015101520344614983,
        0.020932121202349663,
        -0.174386665225029,
        0.02067907340824604,
        -0.053227730095386505,
        0.0174921415746212,
        0.02889815904200077,
        -0.033040668815374374,
        -0.0032188298646360636,
        0.00574748357757926,
        0.02006911113858223,
        0.13069088757038116,
        -0.006599208805710077,
        -0.036662258207798004,
        0.03042745590209961,
        -0.09912952780723572,
        -0.038410481065511703,
        0.06726764142513275,
        -0.020108943805098534,
        -0.03491251543164253,
        -0.040637314319610596,
        -0.022911127656698227,
        -0.048909302800893784,
        -0.09393943101167679,
        -0.05285082757472992,
        0.04120517894625664,
        -0.0473686046898365,
        -0.01238221861422062,
        -0.014159172773361206,
        -0.010251547209918499,
        -0.08155162632465363,
        -0.00554280262440443,
        -0.04491190239787102,
        0.025168387219309807,
        0.09376011788845062,
        -0.04932975769042969,
        0.018848072737455368,
        0.0724947452545166,
        -0.004205069504678249,
        0.01812373660504818,
        -0.012014376930892467,
        -0.013462156988680363,
        -0.018768977373838425,
        0.1345515102148056,
        0.028356419876217842,
        -0.00819567870348692,
        -0.05507222190499306,
        -0.07108278572559357,
        -0.02178466133773327,
        -0.012806485407054424,
        -0.08818420767784119,
        0.01582871377468109,
        -0.02848869189620018,
        -0.06272967904806137,
        -0.04594910144805908,
        0.027709288522601128,
        0.013330339454114437,
        0.11571506410837173,
        -0.006958838552236557,
        0.004519482608884573,
        -0.0002544686140026897,
        0.04595097899436951,
        -0.028028376400470734,
        -0.041309066116809845,
        0.04261256754398346,
        0.026085665449500084,
        0.05947708338499069,
        -0.02516240067780018,
        -0.0206754133105278,
        0.0047965445555746555,
        0.06574760377407074,
        0.032343510538339615,
        0.008196507580578327,
        0.05946466326713562,
        0.05939459428191185,
        -0.026746340095996857,
        -0.06676732003688812,
        0.12394294142723083,
        0.013344204053282738,
        0.06538941711187363,
        0.04498730227351189,
        -0.08958087116479874,
        -0.009410190396010876,
        -0.008712830021977425,
        -0.001470938790589571,
        0.050241462886333466,
        -0.023284737020730972,
        -0.009062374010682106,
        -0.036206066608428955,
        -0.011021202430129051,
        -0.033455852419137955,
        -0.005916189402341843,
        0.07133698463439941,
        0.007457515690475702,
        -0.05398629605770111,
        -0.12918266654014587,
        -0.09883728623390198,
        -0.02167634293437004,
        0.006464493926614523,
        0.024095138534903526,
        0.006796158850193024,
        -0.03501077741384506,
        0.003644536016508937,
        0.07878872007131577,
        -0.0025678568053990602,
        0.010400691069662571,
        -0.05198235064744949,
        0.0012313466286286712,
        0.012544951401650906,
        0.005368039943277836,
        0.047728221863508224,
        -0.07845699042081833,
        -0.03340940177440643,
        0.07926537096500397,
        0.1256854236125946,
        0.019634107127785683,
        0.0566706545650959,
        -0.13945209980010986,
        0.038212843239307404,
        0.04556689411401749,
        -0.0027610091492533684,
        -0.0012724589323624969,
        0.06179008632898331,
        0.023414263501763344,
        -0.06895739585161209,
        -0.0037111258134245872,
        0.046039827167987823,
        0.02573210932314396,
        -0.015167184174060822,
        -0.03237378969788551,
        0.05931821092963219,
        0.16945421695709229,
        0.014480398036539555,
        0.011428487487137318,
        0.07892176508903503,
        0.028596626594662666,
        -0.009084594435989857,
        -0.11424234509468079,
        -0.014068114571273327,
        -0.0006370695773512125,
        0.01249273493885994,
        0.0038890610449016094,
        -0.0869571715593338,
        0.052326831966638565,
        0.06537102162837982,
        -0.008470369502902031,
        -0.006116648204624653,
        0.06218067556619644,
        0.039423417299985886,
        -0.046723924577236176,
        0.06207183003425598,
        0.026739757508039474,
        -0.022240741178393364,
        0.042249806225299835,
        -0.10594341158866882,
        -0.06506949663162231,
        -0.03766493499279022,
        0.09785163402557373,
        0.01905212737619877,
        0.006313280668109655,
        0.028969354927539825,
        -0.0420159287750721,
        0.019037963822484016,
        0.0015419797273352742,
        0.021008485928177834,
        0.06558267027139664,
        0.032930705696344376,
        -0.057274844497442245,
        -0.04354376718401909,
        0.037644244730472565,
        -0.01242603175342083,
        -0.09872070699930191,
        -0.006610858719795942,
        -0.0964488610625267,
        0.03826803341507912,
        0.02038740925490856,
        -0.06699269264936447,
        0.0692075565457344,
        -0.005450262688100338,
        0.018283046782016754,
        0.04400506243109703,
        0.011992386542260647,
        0.004266961943358183,
        0.009532637894153595,
        -0.026633044704794884,
        -0.010509545914828777,
        -0.00307040149345994,
        0.03192998096346855,
        0.08359047025442123,
        0.056486330926418304,
        0.008645143359899521,
        0.1552480012178421,
        -0.003644061740487814,
        0.042548153549432755,
        0.060053709894418716,
        0.056474458426237106,
        0.007572201546281576,
        0.034947142004966736,
        -0.00573078915476799,
        0.06317227333784103,
        0.05255758762359619,
        0.014157939702272415,
        0.027543067932128906,
        0.05301244556903839,
        -0.061571698635816574,
        0.019133199006319046,
        -0.07313188910484314,
        0.029983626678586006,
        0.029251569882035255,
        -0.038813572376966476,
        -0.004729381296783686,
        0.06797197461128235,
        0.10585381090641022,
        -0.04522467404603958,
        -0.03824789077043533,
        -0.059498224407434464,
        -0.06652932614088058,
        -0.007541737984865904,
        -0.08909274637699127,
        0.025861408561468124,
        -0.0389181450009346,
        0.04237648472189903,
        0.025467034429311752,
        0.03685077652335167,
        -0.00035865919198840857,
        0.020086636766791344,
        -0.07014736533164978,
        0.016874540597200394,
        0.07031049579381943,
        0.005976568907499313,
        0.018453985452651978,
        0.033711228519678116,
        -0.07591719180345535,
        -0.03377330303192139,
        -0.02681192196905613,
        -0.07398601621389389,
        0.07473427802324295,
        -0.06849277019500732,
        -0.09855417162179947,
        0.002075457014143467,
        -0.050780799239873886,
        -0.027803786098957062,
        -0.05288666859269142,
        -0.0050516631454229355,
        0.04709916561841965,
        0.051353324204683304,
        0.02741141803562641,
        -0.04946693405508995,
        0.08366566151380539,
        -0.0887853354215622,
        -0.047053489834070206,
        0.04454495757818222,
        -0.04198265075683594,
        -0.02338843047618866,
        -0.02593650296330452,
        0.05333656072616577,
        0.0340464785695076,
        0.09028972685337067,
        0.04305901750922203,
        -0.0747508779168129,
        0.03794970363378525,
        -0.014262032695114613,
        -0.14378149807453156,
        -0.009345697239041328,
        -0.03147798404097557,
        0.01078181341290474,
        -0.029080476611852646,
        -0.016100149601697922,
        0.0402015820145607,
        -0.04998593032360077,
        -0.06591690331697464,
        -0.0006822944851592183,
        -0.006020000670105219,
        -0.050480153411626816,
        0.06019151583313942,
        -0.025532539933919907,
        0.04683476686477661,
        -0.060711320489645004,
        -0.013996940106153488,
        -0.03655106574296951,
        -0.014136896468698978,
        -0.03527092561125755,
        0.0316581167280674,
        -0.02292839251458645,
        0.05972924083471298,
        -0.022990133613348007,
        0.015965353697538376,
        -0.007238747086375952,
        0.017088089138269424,
        0.037862200289964676,
        0.09366957098245621,
        -0.017143618315458298,
        -0.06406877189874649,
        -0.026019422337412834,
        -0.019993344321846962,
        -0.03160445764660835,
        -0.06553035229444504,
        0.11416442692279816,
        -0.017670074477791786,
        0.007188130170106888,
        0.08195394277572632,
        -0.07989991456270218,
        0.09466461092233658,
        -0.02278014086186886,
        0.025584310293197632,
        0.03370271250605583,
        0.058210719376802444,
        -0.01659298688173294,
        -0.0407928004860878,
        -0.052196744829416275,
        -0.02524184063076973,
        0.06480231881141663,
        0.07226572185754776,
        -0.01899684965610504,
        0.006867459509521723,
        0.022723188623785973,
        -0.0932423323392868,
        0.0458637997508049,
        -0.028636833652853966,
        0.010953247547149658,
        -0.03530862182378769,
        -0.02439780905842781,
        0.06284558027982712,
        0.005879099015146494,
        0.03699193894863129,
        0.02983796037733555,
        -0.06618321686983109,
        -0.03227361664175987,
        0.05525157228112221,
        -0.047921646386384964,
        0.06129758805036545,
        0.04328778013586998,
        0.036501944065093994,
        -0.020382437855005264,
        -0.025463739410042763,
        0.02391665242612362,
        -0.07119805365800858,
        0.08305907249450684,
        0.050969257950782776,
        -0.0036446568556129932,
        -0.053989604115486145,
        -0.020513569936156273,
        -0.009842217899858952,
        0.007626314181834459,
        0.04587499424815178,
        -0.1334877461194992,
        -0.1790829300880432,
        -0.027515802532434464,
        -0.04425057768821716,
        -0.024421710520982742,
        -0.07000646740198135,
        -0.04052114486694336,
        0.015079726465046406,
        -0.02376200258731842,
        -0.08029025793075562,
        0.059912413358688354,
        0.04085826873779297,
        -0.011602752842009068,
        0.031578950583934784,
        -0.026908062398433685,
        0.03365591540932655,
        -0.01528108213096857,
        -0.059625059366226196,
        -0.08471529930830002,
        0.01957111433148384,
        0.023281117901206017,
        -0.0004937000339850783,
        -0.03886205330491066,
        -0.11182215809822083,
        -0.00410512974485755,
        0.0023163564037531614,
        -0.007456433027982712,
        -0.07247563451528549,
        0.041928645223379135,
        -0.03738976642489433,
        -0.027661463245749474,
        0.09356281161308289,
        -0.008258288726210594,
        -0.012252621352672577,
        -0.02064633183181286,
        0.053928542882204056,
        -0.01297908928245306,
        -0.035516779869794846,
        -0.012395472265779972,
        -0.07592358440160751,
        -0.02437310293316841,
        0.04391831159591675,
        0.021976806223392487,
        -0.020246261730790138,
        -0.028396254405379295,
        -0.07940671592950821,
        0.016563164070248604,
        -0.023464281111955643,
        0.0010709238704293966,
        -0.09799953550100327,
        -0.14919671416282654,
        -0.013185504823923111,
        -0.04191555082798004,
        -0.0020747457165271044,
        -0.0334976464509964,
        -0.005299969110637903,
        0.006882986985146999,
        -0.03996311128139496,
        0.025121131911873817,
        -0.06659973412752151,
        0.07121016085147858,
        0.06279182434082031,
        -0.02815968729555607,
        0.04930465668439865,
        0.03382454067468643,
        0.07028437405824661,
        -0.08964066207408905,
        -0.03613987937569618,
        0.06373181939125061,
        -0.0038375994190573692,
        0.011539087630808353,
        -0.02156697027385235,
        0.010968910530209541,
        0.03732951730489731,
        0.019063390791416168,
        0.033841975033283234,
        -0.022328320890665054,
        0.06566428393125534,
        -0.005008404608815908,
        0.02378031797707081,
        -0.1394466608762741,
        -0.11288641393184662,
        0.05412086471915245,
        -0.012569068931043148,
        -0.025351054966449738,
        0.01964251510798931,
        -0.03617134317755699,
        0.012194165959954262,
        0.00015337998047471046,
        -0.04983982443809509,
        0.017592282965779305,
        0.01033833622932434,
        0.11878262460231781,
        0.019411616027355194,
        0.024571644142270088,
        -0.09581314027309418,
        -0.06349872052669525,
        0.05033270642161369,
        -0.0009573881980031729,
        0.030076373368501663,
        0.027554521337151527,
        -0.015669483691453934,
        0.007945213466882706,
        -0.019704896956682205,
        0.05444468557834625,
        0.060378629714250565,
        0.02790961042046547,
        -0.00706829596310854,
        0.05583079904317856,
        0.003818679368123412,
        -0.0016086121322587132,
        -0.04675738140940666,
        -0.06841854751110077,
        -0.06486549228429794,
        0.06575466692447662,
        -0.02883814461529255,
        0.039771586656570435,
        -0.02754249796271324,
        -0.04280741140246391,
        -0.09516968578100204,
        -0.07253791391849518,
        -0.05984458327293396,
        0.0058461506851017475,
        0.0072923642583191395,
        -0.0026708650402724743,
        -0.08842436969280243,
        -0.05900454893708229,
        0.06085171550512314,
        -0.05287645012140274,
        0.023483779281377792,
        -0.005405188072472811,
        0.020084142684936523,
        0.09855671226978302,
        0.04082990810275078,
        0.03175383806228638,
        0.0073959301225841045,
        -0.02528144046664238,
        0.03395218774676323,
        0.07037641853094101,
        -0.09733111411333084,
        -0.16394926607608795,
        -0.03760227560997009,
        -0.026470007374882698,
        -0.009764296002686024,
        0.03171075880527496,
        0.047139089554548264,
        -0.0985802412033081,
        -0.0023699067533016205,
        0.05411500483751297,
        0.025490395724773407,
        -0.006504635326564312,
        -0.02568657323718071,
        -0.010049325414001942,
        -0.04246705025434494,
        -0.00045738855260424316,
        0.005592657253146172,
        -0.05216372385621071,
        -0.06437303125858307,
        -0.13624021410942078,
        0.03094814345240593,
        -0.03955075889825821,
        0.003103848546743393,
        -0.0629960298538208,
        0.06134948134422302,
        0.005991936195641756,
        0.02813221514225006,
        0.04625409469008446,
        -0.01332712359726429,
        0.01753000169992447,
        0.018647469580173492,
        0.01632608473300934,
        0.02506670542061329,
        -0.11506693810224533,
        0.037317533046007156,
        -0.07993214577436447,
        -0.013868364505469799,
        -0.00011673549306578934,
        0.05818108096718788,
        0.04715390503406525,
        -0.08137606084346771,
        0.009666341356933117,
        0.005323301535099745,
        -0.059171874076128006,
        -0.02364283986389637,
        -0.01988937333226204,
        0.06748085469007492,
        -0.029233289882540703,
        0.02003980241715908,
        -0.08684363216161728,
        -0.026243865489959717,
        -0.07155536115169525,
        -0.05783860757946968,
        0.0550333634018898,
        0.05286398157477379,
        -0.0023266379721462727,
        -0.0854295864701271,
        -0.011518624611198902,
        -0.19680726528167725,
        -0.009105312637984753,
        -0.002236392814666033,
        -0.032970309257507324,
        0.021684428676962852,
        0.011689344421029091,
        -0.040070995688438416,
        -0.05003070831298828,
        -0.032152481377124786,
        0.010725890286266804,
        0.010677354410290718,
        -0.02917284145951271,
        -0.015987638384103775,
        -0.07055742293596268,
        0.03419981524348259,
        -0.21794569492340088,
        -0.0011152720544487238,
        0.0360298790037632,
        -0.007297773379832506,
        0.02284609153866768,
        0.04565340280532837,
        -0.0010159325320273638,
        -0.13097815215587616,
        -0.037984661757946014,
        -0.027762901037931442,
        0.03351091593503952,
        0.012193284928798676,
        0.037506405264139175,
        -0.03943411633372307,
        -0.055243998765945435,
        -0.007330725900828838,
        0.013377204537391663,
        -0.06294694542884827,
        0.05676446110010147,
        -0.07939260452985764,
        -0.006106232292950153,
        0.08348681032657623,
        -0.07407646626234055,
        -0.06479396671056747,
        -0.0031324278097599745,
        -0.0008903059642761946,
        -0.05151522159576416,
        0.050139475613832474,
        0.05152107775211334,
        0.030776888132095337,
        0.021658092737197876,
        0.0509093776345253,
        -0.012566553428769112,
        -0.10204581916332245,
        -0.10416480898857117,
        0.0473666787147522,
        -0.033247824758291245,
        0.02628835290670395,
        0.014359117485582829,
        0.046299345791339874,
        0.041964538395404816,
        0.05007345974445343,
        -0.0022741546854376793,
        -0.03354889899492264,
        -0.005441639572381973,
        0.03273793309926987,
        -0.03827275335788727,
        0.04858651012182236,
        0.013264639303088188,
        0.04206026345491409,
        -0.04167954623699188,
        0.10373066365718842,
        -0.034477755427360535,
        0.03234937787055969,
        -0.022887615486979485,
        -0.09104066342115402,
        -0.003957333043217659,
        -0.08329913765192032,
        -0.09054798632860184,
        -0.08753009140491486,
        0.033931322395801544,
        0.0459638349711895,
        -0.0012952126562595367,
        0.005114537198096514,
        0.02266467921435833,
        -0.14781081676483154,
        0.05982658639550209,
        -0.029105577617883682,
        0.029576793313026428,
        -0.03251590207219124,
        -0.03944623842835426,
        0.046596769243478775,
        -0.01171928457915783,
        0.005218392703682184,
        -0.01186828687787056,
        0.002390386536717415,
        0.0005420775269158185,
        0.0788477435708046,
        0.04322778433561325,
        0.0729159414768219,
        0.061334770172834396,
        0.009200031869113445,
        0.006650617811828852,
        0.0034150423016399145,
        -0.04824038967490196,
        0.020664330571889877,
        0.02304392121732235,
        -0.06160331144928932,
        0.05256015434861183,
        -0.023869706317782402,
        -0.08039828389883041,
        0.012357139959931374,
        0.06145048141479492,
        0.015004082582890987,
        0.011020790785551071,
        -0.05393604189157486,
        -0.009712215512990952,
        0.09544093906879425,
        -0.0026603583246469498,
        -0.05762112885713577,
        -0.11925601959228516,
        -0.026171928271651268,
        -0.030135340988636017,
        0.03435634821653366,
        0.07145059108734131,
        -0.07375039160251617,
        0.06746766716241837,
        -0.010860624723136425,
        -0.04109847918152809,
        0.039628274738788605,
        0.022901976481080055,
        0.00019586068810895085,
        0.07814650982618332,
        0.025942644104361534,
        -0.041442811489105225,
        -0.017139548435807228,
        -0.10519273579120636,
        0.013633509166538715,
        0.05696495994925499,
        0.08339677006006241,
        0.048077791929244995,
        -0.04818747565150261,
        0.04076841101050377,
        0.001169982017017901,
        -0.01796893961727619,
        -0.021694384515285492,
        0.03575688600540161,
        -0.019031252712011337,
        0.020665453746914864,
        -0.010222314856946468,
        0.02396058663725853,
        -0.051438719034194946,
        -0.1007821187376976,
        -0.05892332270741463,
        0.12642984092235565,
        0.044338908046483994,
        -0.016718441620469093,
        -0.056294482201337814,
        0.02679004706442356,
        0.0031056529842317104,
        -0.008912818506360054,
        0.002658122219145298,
        -0.01917983405292034,
        -0.11007265001535416,
        -0.04276782274246216,
        0.033986397087574005,
        -0.08928189426660538,
        0.0057457201182842255,
        -0.006352088414132595,
        -0.07122313231229782,
        0.05732116103172302,
        -0.009823101572692394,
        -0.03319942206144333,
        -0.17985978722572327,
        0.018152359873056412,
        0.028061168268322945,
        0.018966151401400566,
        -0.016433043405413628,
        0.033310964703559875,
        0.06590091437101364,
        0.01755117066204548,
        0.03648501634597778,
        -0.02086988463997841,
        0.02471158467233181,
        0.014322015456855297,
        0.04792335629463196,
        0.025704024359583855,
        0.04694449529051781,
        0.014869931153953075,
        -0.0686785876750946,
        -0.007891649380326271,
        0.02348087914288044,
        -0.053517382591962814,
        0.042763255536556244,
        0.004359206650406122,
        -0.004335741046816111,
        0.015964895486831665,
        -0.08544256538152695,
        0.06939981877803802,
        -0.025471152737736702,
        -0.029336323961615562,
        -0.09183371067047119,
        0.02707972750067711,
        -0.09138265997171402,
        -0.06636501848697662,
        -0.14064809679985046,
        -0.04508807510137558,
        -0.05248790979385376,
        0.017286742106080055,
        0.006850680336356163,
        -0.03407973423600197,
        0.012011454440653324,
        0.03002980537712574,
        0.03697959706187248,
        0.002198193222284317,
        0.02176208794116974,
        -0.008666404522955418,
        -0.061713989824056625,
        -0.06965429335832596,
        0.04291795566678047,
        -0.20281317830085754,
        0.006661936175078154,
        -9.519513696432114e-05,
        0.004113787319511175,
        0.04328715801239014,
        -0.11617686599493027,
        -0.003857861738651991,
        -0.01341620460152626,
        0.007031231187283993,
        0.05661749467253685,
        -0.0023872205056250095,
        0.11830251663923264,
        -0.05288568139076233,
        0.022758372128009796,
        -0.009907319210469723,
        -0.06371238827705383,
        -0.023196889087557793,
        0.014687562361359596,
        -0.015140708535909653,
        0.011192884296178818,
        -0.11737075448036194,
        -0.07969538867473602,
        0.04953105002641678,
        -0.028372609987854958,
        0.04493088647723198,
        0.018191907554864883,
        0.0015235773753374815,
        0.0053415559232234955,
        -0.08312185108661652,
        -0.013384373858571053,
        0.01191510260105133,
        -0.0025000344030559063,
        -0.028632523491978645,
        0.06315053999423981,
        0.04901554435491562,
        -0.0373542346060276,
        0.014640696346759796,
        0.08884435147047043,
        -0.04443131014704704,
        -0.045020941644907,
        -0.07697879523038864,
        -0.005764493253082037,
        0.0053676278330385685,
        0.06052616611123085,
        0.014612041413784027,
        0.04928618296980858,
        0.045552823692560196,
        -0.02599228173494339,
        -0.014128572307527065,
        0.01267862506210804,
        -0.013134130276739597,
        0.014949819073081017,
        -0.016310224309563637,
        -0.11640536040067673,
        0.016839032992720604,
        -0.08140010386705399,
        0.04318971186876297,
        -0.01418374478816986,
        -0.04584459587931633,
        0.06396033614873886,
        0.07103955745697021,
        0.025412842631340027,
        0.009602194651961327,
        -0.05784496292471886,
        0.01713866926729679,
        0.08102815598249435,
        -0.0029407613910734653,
        -0.0208414476364851,
        0.0016804030165076256,
        -0.00887343194335699,
        -0.012363451533019543,
        0.06525497883558273,
        -0.04822499677538872,
        0.02734576351940632,
        0.12276456505060196,
        -0.009628232568502426,
        -0.02899003028869629,
        -0.06919440627098083,
        0.10430493950843811,
        0.01998130977153778,
        0.025280198082327843,
        0.0038969849701970816,
        -0.008737519383430481,
        -0.0021423976868391037,
        0.027184028178453445,
        -0.060846149921417236,
        -0.031188085675239563,
        0.012854420579969883,
        0.03520095720887184,
        0.015874840319156647,
        0.050201911479234695,
        0.06255557388067245,
        -0.06304601579904556,
        0.03134490177035332,
        0.06128770858049393,
        -0.036961764097213745,
        0.11665921658277512,
        -0.038787659257650375,
        -0.03799182176589966,
        -0.026614762842655182,
        -0.07343360036611557,
        -0.02267380617558956,
        0.011237580329179764,
        0.024003200232982635,
        -0.030346309766173363,
        -0.008917275816202164,
        0.027010351419448853,
        0.03518369421362877,
        -0.017323102802038193,
        0.006970832124352455,
        0.001005791244097054,
        0.020906962454319,
        -0.04114019498229027,
        0.013788615353405476,
        -0.03450034186244011,
        0.029674554243683815,
        0.024792106822133064,
        0.03348776698112488,
        0.14535073935985565,
        -0.003624859731644392,
        0.013138880953192711,
        0.05752657726407051,
        0.04366036131978035,
        -0.022034086287021637,
        0.04244337975978851,
        0.05371682345867157,
        -0.021447204053401947,
        0.001619613729417324,
        0.03131428733468056,
        -0.008867557160556316,
        0.0298942681401968,
        0.10852709412574768,
        -0.03483424335718155,
        -0.06552916020154953,
        0.0625419020652771,
        -0.012752583250403404,
        0.038275495171546936,
        -0.02257002331316471,
        0.013666687533259392,
        -0.031424667686223984,
        -0.1662067472934723,
        0.06905733793973923,
        0.0276125967502594,
        0.06443531066179276,
        -0.017247619107365608,
        0.08362455666065216,
        -0.018659234046936035,
        0.032549090683460236,
        0.011422064155340195,
        0.01993059366941452,
        -0.002061049221083522,
        0.035052768886089325,
        -0.030707186087965965,
        0.012729967013001442,
        0.05214628577232361,
        -0.02224837988615036,
        -0.040751904249191284,
        -0.04020218178629875,
        0.11196695268154144,
        0.04290299117565155,
        -0.01840929314494133,
        -0.03143291920423508,
        -0.03120747208595276,
        -0.13471387326717377,
        0.07673196494579315,
        0.035058606415987015,
        0.06214568018913269,
        -0.031332239508628845,
        -0.01096437033265829,
        0.0026974864304065704,
        0.08171582967042923,
        -0.06660489737987518,
        0.016621649265289307,
        0.06357572972774506,
        -0.05781826749444008,
        0.06822621077299118,
        0.0046674394980072975,
        0.013195430859923363,
        -0.02175787277519703,
        0.038822662085294724,
        -0.11833946406841278,
        -0.06454674899578094,
        0.06723128259181976,
        0.053870659321546555,
        -0.012615895830094814,
        -0.1142890453338623,
        0.031981099396944046,
        -0.00591198680922389,
        -0.0071625118143856525,
        0.0020538335666060448,
        -0.040366705507040024,
        -0.03941788896918297,
        0.027409043163061142,
        -0.0716584324836731,
        -0.041308335959911346,
        -0.04372134804725647,
        -0.07156308740377426,
        -0.05134928971529007,
        -0.1492691934108734,
        -0.024952968582510948,
        0.04738433659076691,
        0.01699836738407612,
        -0.028685830533504486,
        -0.0031685088761150837,
        -0.051436543464660645,
        0.048057351261377335,
        0.030656766146421432,
        0.0747094675898552,
        -0.005270485766232014,
        -0.02584000490605831,
        0.021254947409033775,
        0.06336213648319244,
        -0.05589792877435684,
        -0.024119801819324493,
        -0.11058367788791656,
        -0.0454280711710453,
        0.008358028717339039,
        0.020768705755472183,
        0.02780483104288578,
        -0.022077402099967003,
        0.02341492287814617,
        0.011686996556818485,
        -0.056536927819252014,
        0.02597513049840927,
        -0.06828539073467255,
        0.059054117649793625,
        -0.014740779995918274,
        -0.024251220747828484,
        0.052896514534950256,
        0.044914767146110535,
        -0.022598203271627426,
        -0.0027787701692432165,
        -0.0010087210685014725,
        -0.01745683141052723,
        0.0612746924161911,
        -0.0031014808919280767,
        0.03478359058499336,
        -0.10827385634183884,
        0.07871919870376587,
        -0.028445862233638763,
        0.07530023157596588,
        0.05577291175723076,
        0.0032970947213470936,
        -0.04961533844470978
      ]
    },
    {
      "architecture": "normalization",
      "bias": [
        -0.06936953961849213,
        -0.06364723294973373,
        -0.048721857368946075,
        -0.037078045308589935,
        -0.05593167245388031,
        -0.1172829419374466,
        -0.07093439996242523,
        -0.04134981334209442,
        -0.10225503891706467,
        -0.09563813358545303,
        -0.05359075963497162,
        -0.04901842400431633,
        -0.06062621623277664,
        -0.1187179833650589,
        -0.0605766624212265,
        -0.04632982611656189,
        -0.09327436983585358,
        -0.030127713456749916,
        -0.07364421337842941,
        -0.11023537069559097,
        -0.06250204145908356,
        -0.05910145118832588,
        -0.0948982760310173,
        -0.06005559116601944,
        -0.09120666980743408,
        -0.11905258893966675,
        -0.07185634970664978,
        -0.09694080799818039,
        -0.03319109231233597,
        -0.08373253792524338,
        -0.06769274920225143,
        -0.0750255137681961,
        -0.11058357357978821,
        -0.0490945503115654,
        -0.07893887162208557,
        -0.09388110041618347,
        -0.02736004814505577,
        -0.109498992562294,
        -0.08948912471532822,
        -0.10384996235370636,
        -0.06558721512556076,
        -0.15765653550624847,
        -0.07067125290632248,
        -0.08500943332910538,
        -0.04698192700743675,
        -0.058051541447639465,
        -0.09530822932720184,
        -0.057495683431625366,
        -0.0546332485973835,
        -0.06424012035131454,
        -0.04993031173944473,
        -0.16197365522384644,
        -0.11247576028108597,
        -0.030396897345781326,
        -0.04434696212410927,
        -0.06846091896295547,
        -0.05289061367511749,
        -0.0448945090174675,
        -0.09414996206760406,
        -0.07689447700977325,
        -0.0757092610001564,
        -0.10472353547811508,
        -0.04719490557909012,
        -0.06253208965063095
      ],
      "weights": [
        9.196015357971191,
        7.080835819244385,
        9.771533012390137,
        11.476755142211914,
        10.37574291229248,
        7.363406181335449,
        7.747118949890137,
        8.676370620727539,
        6.573902130126953,
        7.81705379486084,
        9.311309814453125,
        10.524434089660645,
        9.023898124694824,
        6.351785659790039,
        9.852339744567871,
        11.405173301696777,
        5.705463409423828,
        8.865154266357422,
        9.62967586517334,
        6.281686782836914,
        7.598667621612549,
        7.040795803070068,
        7.7302961349487305,
        8.32160472869873,
        8.630269050598145,
        7.065488815307617,
        6.6785712242126465,
        8.478256225585938,
        8.815999031066895,
        6.91741943359375,
        7.651073932647705,
        9.48116683959961,
        8.102400779724121,
        11.863840103149414,
        7.84763240814209,
        6.366541862487793,
        13.003251075744629,
        6.831934452056885,
        8.13241958618164,
        7.769547462463379,
        8.347183227539062,
        7.127270698547363,
        9.147850036621094,
        7.209296703338623,
        9.628029823303223,
        9.126498222351074,
        7.5226240158081055,
        7.18873405456543,
        9.844575881958008,
        9.61632251739502,
        9.031590461730957,
        7.029067516326904,
        6.999313831329346,
        12.835526466369629,
        9.20099925994873,
        7.161339282989502,
        9.493844985961914,
        6.838669300079346,
        7.798703670501709,
        6.264019012451172,
        6.782637596130371,
        6.850087642669678,
        10.269355773925781,
        7.386571407318115
      ]
    },
    {
      "activation": "rectified",
      "architecture": "dense",
      "bias": [
        -0.07957959175109863,
        0.004959497135132551,
        -0.014142329804599285,
        -0.05448484048247337,
        -0.017046969383955002,
        -0.0664033591747284,
        0.00017329305410385132,
        -0.0377378948032856,
        -0.05695166811347008,
        -0.03141843527555466,
        -0.01843995600938797,
        -0.04049419239163399,
        0.08121827989816666,
        0.0030733547173440456,
        -0.033557262271642685,
        -0.018173186108469963,
        0.01590421050786972,
        0.05016482248902321,
        -0.03155238553881645,
        -0.015535011887550354,
        -0.0018268701387569308,
        -0.03412463888525963,
        0.02515633963048458,
        -0.0513366274535656,
        0.05583565682172775,
        -0.06930649280548096,
        -0.04210074245929718,
        -0.006007752846926451,
        -0.029209941625595093,
        -0.04427071288228035,
        -0.07004260271787643,
        0.026398494839668274,
        -0.026156432926654816,
        0.030043086037039757,
        -0.004664137028157711,
        0.008150680921971798,
        0.015690678730607033,
        -0.015408099628984928,
        -0.08343612402677536,
        -0.011510607786476612,
        0.029110321775078773,
        0.01938575506210327,
        -0.08311095088720322,
        0.0401432178914547,
        0.02118736505508423,
        -0.017999714240431786,
        0.017818467691540718,
        -0.04697990417480469,
        -0.036957692354917526,
        -0.021192705258727074,
        -0.06912470608949661,
        0.052784740924835205,
        -0.03808595985174179,
        0.015475787222385406,
        -0.016992278397083282,
        -0.02975187823176384,
        -0.03953526169061661,
        -0.010603896342217922,
        -0.04944204166531563,
        -0.007951433770358562,
        0.006229252554476261,
        0.003367186523973942,
        -0.029023179784417152,
        0.004935534205287695
      ],
      "weights": [
        -0.08737894892692566,
        -0.05654921382665634,
        -0.0704859122633934,
        -0.17805519700050354,
        -0.13231192529201508,
        -0.12200053036212921,
        -0.22666268050670624,
        -0.08718572556972504,
        -0.05371458828449249,
        -0.013316069729626179,
        0.11586592346429825,
        -0.18500083684921265,
        0.09543216228485107,
        -0.10497491806745529,
        0.12873946130275726,
        0.1694662719964981,
        0.20703715085983276,
        -0.12865036725997925,
        0.11982835829257965,
        -0.06927856802940369,
        0.21593305468559265,
        0.1522439420223236,
        0.046620383858680725,
        -0.15126833319664001,
        0.14871861040592194,
        0.10924390703439713,
        -0.10716740787029266,
        -0.10034475475549698,
        -0.078200563788414,
        0.08255607634782791,
        -0.0774451196193695,
        0.07432130724191666,
        -0.1849534809589386,
        -0.2286510467529297,
        -0.1751565933227539,
        -0.2661091387271881,
        0.19588196277618408,
        0.08785729110240936,
        0.13751839101314545,
        -0.15039947628974915,
        -0.017638074234128,
        -0.08183056116104126,
        0.047562990337610245,
        -0.18605515360832214,
        -0.08010318875312805,
        -0.1797042042016983,
        -0.03216172754764557,
        -0.11417285352945328,
        -0.06513306498527527,
        -0.04265010356903076,
        -0.10377033799886703,
        0.09680724889039993,
        -0.05423284322023392,
        -0.05782487615942955,
        -0.160888209939003,
        0.13985104858875275,
        -0.13000287115573883,
        -0.14992868900299072,
        0.2864472568035126,
        0.018667150288820267,
        -0.14479155838489532,
        -0.20233163237571716,
        0.12600639462471008,
        0.19279637932777405,
        -0.08586636930704117,
        -0.21399284899234772,
        0.1779266744852066,
        -0.0014026970602571964,
        -0.19572189450263977,
        -0.11527684330940247,
        0.16766466200351715,
        0.1374140828847885,
        -0.0070912204682827,
        0.1156359612941742,
        0.11523035168647766,
        -0.14999833703041077,
        -0.06486408412456512,
        -0.006591395009309053,
        0.18230003118515015,
        -0.11773356050252914,
        -0.051240429282188416,
        0.06352540105581284,
        -0.2008226215839386,
        -0.24017761647701263,
        -0.18053583800792694,
        0.15786202251911163,
        -0.23289628326892853,
        0.22578343749046326,
        0.17712634801864624,
        -0.1028062179684639,
        0.21167242527008057,
        -0.1354864239692688,
        0.17699478566646576,
        0.06422800570726395,
        -0.0190308578312397,
        -0.009379835799336433,
        0.21331265568733215,
        0.016697535291314125,
        -0.0788297951221466,
        -0.0006130741676315665,
        0.01515921764075756,
        -0.006175472401082516,
        0.09208326786756516,
        0.1743684560060501,
        -0.06438156217336655,
        -0.1500348150730133,
        -0.028507888317108154,
        0.20431047677993774,
        -0.1763640195131302,
        0.06381000578403473,
        -0.21560737490653992,
        -0.09176550060510635,
        0.09495282918214798,
        0.055405281484127045,
        -0.03860405832529068,
        -0.15615518391132355,
        -0.02707800269126892,
        -0.10927717387676239,
        -0.19102317094802856,
        -0.16307073831558228,
        -0.12678810954093933,
        0.03441346064209938,
        0.006481992546468973,
        -0.06841734051704407,
        -0.031213298439979553,
        -0.0834733247756958,
        -0.04513726010918617,
        -0.1789463460445404,
        0.04618160426616669,
        0.013516238890588284,
        0.18786311149597168,
        0.08726999163627625,
        -0.19910122454166412,
        0.043936166912317276,
        0.0948832705616951,
        -0.017140479758381844,
        -0.2140716314315796,
        0.02290640026330948,
        0.08375787734985352,
        0.1355983018875122,
        -0.06319479644298553,
        -0.1500510275363922,
        0.04480772092938423,
        -0.16332991421222687,
        -0.05526898801326752,
        -0.10564330220222473,
        -0.09969484806060791,
        0.2550499141216278,
        0.10850898176431656,
        -0.10974077880382538,
        0.13944175839424133,
        0.12159152328968048,
        0.1262381374835968,
        0.21532006561756134,
        0.16752038896083832,
        -0.25059226155281067,
        -0.10004992038011551,
        0.17345798015594482,
        0.04716624319553375,
        0.11872047185897827,
        -0.019478004425764084,
        -0.0631173700094223,
        0.17406614124774933,
        -0.1956515908241272,
        -0.10717027634382248,
        -0.07169989496469498,
        0.31606176495552063,
        0.03852169215679169,
        -0.21016879379749298,
        -0.24454085528850555,
        -0.02086624875664711,
        -0.06616469472646713,
        0.010698460042476654,
        -0.03816801309585571,
        -0.0013612640323117375,
        0.142786905169487,
        -0.21696019172668457,
        -0.04682867228984833,
        -0.01397551316767931,
        0.0010908569674938917,
        0.07637535035610199,
        0.15476149320602417,
        -0.20212452113628387,
        -0.048322245478630066,
        -0.03066466748714447,
        -0.18549153208732605,
        0.11983853578567505,
        0.16878622770309448,
        0.18259261548519135,
        -0.03724987059831619,
        0.18288712203502655,
        -0.08053092658519745,
        0.02755952812731266,
        0.07162030041217804,
        -0.09306823462247849,
        0.19307954609394073,
        0.09289304167032242,
        0.041005972772836685,
        0.21846243739128113,
        -0.04267829656600952,
        0.21705038845539093,
        -0.19039282202720642,
        -0.15263795852661133,
        0.11442021280527115,
        -9.505345951765776e-05,
        0.2450442612171173,
        -0.11282846331596375,
        0.1346540004014969,
        0.1331440508365631,
        0.2585963010787964,
        0.18260270357131958,
        -0.03291337937116623,
        -0.14217111468315125,
        0.06339313834905624,
        0.0777812972664833,
        -0.07842221111059189,
        -0.08175808191299438,
        0.043315984308719635,
        -0.08462446928024292,
        -0.02123362384736538,
        -0.17626044154167175,
        0.042556650936603546,
        0.0409979522228241,
        0.08429213613271713,
        0.013520654290914536,
        0.04570360854268074,
        0.026262423023581505,
        0.08991427719593048,
        -0.002345046494156122,
        -0.06546823680400848,
        0.15693555772304535,
        0.2071094661951065,
        -0.05097000300884247,
        0.017673922702670097,
        0.09505439549684525,
        -0.042040951550006866,
        0.1235998198390007,
        0.14689646661281586,
        0.11523783951997757,
        -0.10819490253925323,
        0.1315871775150299,
        -0.2087024748325348,
        -0.07098934054374695,
        0.20936615765094757,
        0.03605099767446518,
        0.0543149895966053,
        0.09613028168678284,
        0.14429934322834015,
        0.12052284926176071,
        -0.21320873498916626,
        -0.013206911273300648,
        -0.07276836782693863,
        -0.19608090817928314,
        -0.016380514949560165,
        -0.0019952869042754173,
        0.07988607883453369,
        -0.16115587949752808,
        0.17269082367420197,
        -0.051500458270311356,
        -0.19423148036003113,
        0.15385787189006805,
        0.13879816234111786,
        -0.1362900286912918,
        0.12768617272377014,
        0.016219668090343475,
        0.05842447653412819,
        -0.15564106404781342,
        0.0031679386738687754,
        -0.07606635987758636,
        0.012161483988165855,
        -0.15175917744636536,
        -0.20119541883468628,
        0.05771605297923088,
        -0.11872150003910065,
        0.19308413565158844,
        -0.2609015107154846,
        -0.11645378172397614,
        0.04434739053249359,
        -0.15871082246303558,
        0.15935321152210236,
        0.12196629494428635,
        -0.023337604478001595,
        -0.145436093211174,
        -0.268129825592041,
        0.021638931706547737,
        0.18694961071014404,
        -0.0024478277191519737,
        -0.04120906442403793,
        0.08958636969327927,
        0.22431473433971405,
        0.12996962666511536,
        0.14048010110855103,
        0.05767359957098961,
        -0.17988675832748413,
        0.14779618382453918,
        0.18872110545635223,
        -0.0422411747276783,
        -0.09241985529661179,
        0.011108933947980404,
        0.03074166364967823,
        0.13520999252796173,
        0.10316576063632965,
        0.18549345433712006,
        -0.031079325824975967,
        -0.0679265484213829,
        -0.21346479654312134,
        -0.12461303919553757,
        0.1508464515209198,
        -0.27250924706459045,
        -0.0030110408551990986,
        -0.11897456645965576,
        0.2244802713394165,
        -0.09037553519010544,
        0.1255480945110321,
        -0.015516302548348904,
        -0.023186495527625084,
        -0.13450485467910767,
        0.18896885216236115,
        -0.19048401713371277,
        0.19934049248695374,
        0.03320300206542015,
        0.16464537382125854,
        -0.1123567745089531,
        0.07731150835752487,
        0.042179957032203674,
        0.0016359761357307434,
        -0.28399428725242615,
        0.12148848176002502,
        -0.20505763590335846,
        0.006505956873297691,
        0.1843564808368683,
        -0.26033589243888855,
        0.10559089481830597,
        -0.18688641488552094,
        -0.1314588338136673,
        0.18848028779029846,
        0.23607349395751953,
        -0.03800932690501213,
        -0.15021578967571259,
        -0.09069322794675827,
        -0.038221172988414764,
        -0.18660493195056915,
        0.07362356036901474,
        0.1802898794412613,
        0.08078836649656296,
        -0.15568265318870544,
        -0.08611328154802322,
        -0.05215707793831825,
        -0.043930403888225555,
        -0.07651212066411972,
        -0.02317313849925995,
        0.05457736924290657,
        -0.027066605165600777,
        0.020587028935551643,
        -0.015413285233080387,
        0.13367296755313873,
        0.08661842346191406,
        0.0979001522064209,
        -0.09138235449790955,
        0.09701989591121674,
        -0.1441841870546341,
        0.15079304575920105,
        0.052079495042562485,
        0.20783700048923492,
        -0.1857737898826599,
        0.07986065000295639,
        -0.006512110587209463,
        0.10045156627893448,
        -0.01168668270111084,
        0.11261837929487228,
        -0.09342654794454575,
        0.1497078835964203,
        -0.16344860196113586,
        -0.03350509703159332,
        0.18308597803115845,
        0.20267492532730103,
        -0.20454075932502747,
        -0.11191516369581223,
        0.23700997233390808,
        0.103933185338974,
        -0.2523270547389984,
        0.009703085757791996,
        0.07690723985433578,
        -0.03947540372610092,
        -0.05945143103599548,
        0.16314750909805298,
        -0.06353435665369034,
        -0.0727529227733612,
        -0.0309856329113245,
        0.0880659893155098,
        0.1914597898721695,
        0.051229823380708694,
        0.10660231113433838,
        -0.22967398166656494,
        0.05084136128425598,
        -0.013294117525219917,
        0.152096226811409,
        -0.19524095952510834,
        -0.20420201122760773,
        -0.054783016443252563,
        -0.19095900654792786,
        -0.09868601709604263,
        -0.21197564899921417,
        -0.029402200132608414,
        -0.030218299478292465,
        -0.07207568734884262,
        -0.14558741450309753,
        -0.10224145650863647,
        0.12772704660892487,
        -0.20545554161071777,
        -0.32281428575515747,
        0.051228538155555725,
        0.17246073484420776,
        -0.048339858651161194,
        0.08081572502851486,
        0.06732112914323807,
        -0.15052975714206696,
        -0.09751425683498383,
        0.12495572119951248,
        -0.01090875081717968,
        -0.10941118746995926,
        -0.09980610013008118,
        0.06897477060556412,
        -0.06020904704928398,
        0.053802240639925,
        -0.1407175213098526,
        0.15687277913093567,
        0.15557856857776642,
        0.10926143079996109,
        -0.2007342427968979,
        0.14864252507686615,
        -0.011484510265290737,
        0.024383073672652245,
        -0.07081258296966553,
        0.17370353639125824,
        -0.01725533790886402,
        -0.259998083114624,
        -0.048460010439157486,
        -0.013453146442770958,
        0.1674344390630722,
        -0.05274871364235878,
        -0.07601285725831985,
        0.17179927229881287,
        0.08359014242887497,
        0.15430478751659393,
        -0.1668560951948166,
        0.005003747995942831,
        -0.20039711892604828,
        -0.02594183199107647,
        -0.05353976786136627,
        0.26407769322395325,
        0.15072378516197205,
        -0.19344261288642883,
        0.1714150607585907,
        -0.11279753595590591,
        -0.20097941160202026,
        -0.05319869518280029,
        -0.16232702136039734,
        -0.13520696759223938,
        -0.14088766276836395,
        -0.018405431881546974,
        0.10458125919103622,
        0.1218823492527008,
        0.19117939472198486,
        -0.12625615298748016,
        0.10202617198228836,
        0.12517979741096497,
        -0.06509844958782196,
        0.05414360761642456,
        -0.08974385261535645,
        -0.07407556474208832,
        0.07923535257577896,
        -0.00013788614887744188,
        -0.05267293378710747,
        -0.09153013676404953,
        0.1187291070818901,
        0.1538255363702774,
        -0.10141091048717499,
        -0.16499458253383636,
        0.10557661205530167,
        -0.06864888966083527,
        0.2396364063024521,
        -0.1658322811126709,
        0.029657531529664993,
        0.003171676304191351,
        0.1762019246816635,
        0.20802488923072815,
        0.19606271386146545,
        0.08347680419683456,
        -0.1187082827091217,
        0.17921043932437897,
        0.13830526173114777,
        -0.028811313211917877,
        0.13712084293365479,
        0.25190308690071106,
        0.02956586517393589,
        0.10900674015283585,
        0.24819542467594147,
        -0.14095602929592133,
        -0.05677534639835358,
        -0.13300298154354095,
        0.03557993099093437,
        0.09346894174814224,
        0.19550266861915588,
        -0.12910579144954681,
        0.21590562164783478,
        -0.011932560242712498,
        0.04054107889533043,
        -0.04098406806588173,
        -0.19024662673473358,
        -0.09958963096141815,
        -0.12790566682815552,
        -0.1410888433456421,
        -0.012302777729928493,
        -0.16884340345859528,
        0.030761780217289925,
        -0.0637880340218544,
        -0.19377601146697998,
        0.0029626430477946997,
        0.08960632979869843,
        0.013177003711462021,
        0.07059451192617416,
        -0.06683444231748581,
        0.04422830417752266,
        0.07866965234279633,
        0.08995606005191803,
        0.10695727914571762,
        -0.24923820793628693,
        0.1735839545726776,
        0.11613048613071442,
        0.1349930763244629,
        0.13513535261154175,
        -0.1664615422487259,
        -0.0178002268075943,
        0.04569337144494057,
        0.0494738444685936,
        0.10910853743553162,
        -0.11728116869926453,
        -0.06957688927650452,
        0.025697022676467896,
        0.12314053624868393,
        0.12047392874956131,
        0.24488520622253418,
        -0.1828344315290451,
        0.14216649532318115,
        -0.0762634351849556,
        0.12606167793273926,
        0.05723763257265091,
        -0.14994634687900543,
        0.05599899962544441,
        0.001399169908836484,
        0.1546895056962967,
        -0.08808988332748413,
        0.04227790981531143,
        0.03379816934466362,
        -0.150093212723732,
        0.022565344348549843,
        0.012670432217419147,
        0.023455919697880745,
        -0.08147761970758438,
        0.12458433955907822,
        -0.18679019808769226,
        0.05153537914156914,
        -0.003649359103292227,
        -0.08881576359272003,
        -0.18503259122371674,
        0.0694642886519432,
        0.22441673278808594,
        -0.08342981338500977,
        -0.1299780309200287,
        0.05364486575126648,
        0.23010565340518951,
        -0.15793852508068085,
        0.03604729101061821,
        -0.13609948754310608,
        -0.16776613891124725,
        -0.0965067520737648,
        0.04470086470246315,
        -0.19524917006492615,
        0.07426981627941132,
        -0.1696201115846634,
        0.021695660427212715,
        -0.0849945992231369,
        0.14282621443271637,
        -0.06524453312158585,
        -0.12173769623041153,
        -0.04933295398950577,
        -0.04665405675768852,
        -0.0912204161286354,
        0.04508581757545471,
        0.15925662219524384,
        -0.08634623140096664,
        0.17322486639022827,
        0.061215151101350784,
        -0.21646162867546082,
        -0.19017557799816132,
        -0.17671379446983337,
        0.09479956328868866,
        -0.18236488103866577,
        0.04297276958823204,
        -0.1552475094795227,
        0.15236252546310425,
        0.22659535706043243,
        -0.12568965554237366,
        0.18062818050384521,
        0.2722555696964264,
        0.05030550807714462,
        -0.03838286176323891,
        0.07564175873994827,
        0.03595895320177078,
        -0.16605427861213684,
        0.06979206204414368,
        0.005406003445386887,
        -0.038412172347307205,
        0.029670746996998787,
        0.17414715886116028,
        -0.008011482656002045,
        -0.00848780944943428,
        0.008093038573861122,
        0.220351442694664,
        -0.035585299134254456,
        0.19535906612873077,
        0.012262662872672081,
        0.18418647348880768,
        -0.056151412427425385,
        -0.129526287317276,
        -0.05207457020878792,
        0.06365454196929932,
        -0.07910745590925217,
        -0.044216569513082504,
        0.18687215447425842,
        -0.08937332779169083,
        -0.2532399594783783,
        -0.08824842423200607,
        -0.2034430205821991,
        -0.07118505984544754,
        0.007382876705378294,
        0.1506718546152115,
        0.10499031096696854,
        0.2674907147884369,
        -0.18625470995903015,
        -0.15898184478282928,
        -0.2094935178756714,
        -0.05392461642622948,
        0.22687335312366486,
        -0.15297125279903412,
        -0.04758927971124649,
        -0.13387884199619293,
        -0.10247929394245148,
        -0.1030396893620491,
        -0.021163709461688995,
        -0.14102813601493835,
        -0.12094242870807648,
        0.1505393087863922,
        0.16633491218090057,
        -0.2337247133255005,
        -0.056303299963474274,
        -0.11093612760305405,
        -0.04339579492807388,
        0.14017045497894287,
        0.05239515006542206,
        -0.1118902787566185,
        -0.1663583219051361,
        -0.023733098059892654,
        -0.0005063934950158,
        -0.004149959422647953,
        0.10819701105356216,
        0.14593400061130524,
        -0.06254951655864716,
        0.07601135969161987,
        0.00011197838466614485,
        -0.12887877225875854,
        0.1464046835899353,
        0.15207627415657043,
        -0.08929657191038132,
        0.11198213696479797,
        -0.11738403886556625,
        0.2958017885684967,
        0.22125008702278137,
        -0.15352341532707214,
        -0.12639974057674408,
        -0.17324529588222504,
        -0.096040740609169,
        0.17373692989349365,
        -0.13288505375385284,
        -0.0421440564095974,
        -0.16913831233978271,
        -0.18879008293151855,
        -0.08163248747587204,
        -0.09104359894990921,
        -0.2037099003791809,
        0.12126604467630386,
        0.029879197478294373,
        -0.09353727847337723,
        -0.18386603891849518,
        0.06055453419685364,
        0.038854699581861496,
        0.1867867112159729,
        -0.05646336078643799,
        0.13817134499549866,
        0.043570831418037415,
        0.0024622054770588875,
        0.044137999415397644,
        -0.07079143822193146,
        0.08672761172056198,
        -0.049374282360076904,
        -0.060466159135103226,
        0.02577962353825569,
        -0.1474418044090271,
        0.09256383031606674,
        -0.19927948713302612,
        0.08647411316633224,
        -0.24054521322250366,
        -0.09690167009830475,
        0.008046385832130909,
        -0.10772482305765152,
        -0.08878254890441895,
        0.07182038575410843,
        0.22232136130332947,
        -0.05054493248462677,
        0.2267778217792511,
        0.16987766325473785,
        0.07368382811546326,
        -0.20045021176338196,
        0.09054413437843323,
        0.21151459217071533,
        0.09925204515457153,
        -0.056315962225198746,
        0.11547388136386871,
        0.007906200364232063,
        0.06957679241895676,
        0.03186015412211418,
        0.121993787586689,
        -0.09266660362482071,
        -0.09788486361503601,
        -0.26572185754776,
        -0.0875495970249176,
        -0.17799867689609528,
        0.23271453380584717,
        0.18526841700077057,
        -0.15566757321357727,
        -0.14192423224449158,
        0.013698151335120201,
        -0.1598895639181137,
        0.12172117829322815,
        -0.17301689088344574,
        -0.04559759423136711,
        -0.18857727944850922,
        0.28117498755455017,
        0.0959160327911377,
        -0.11987879127264023,
        0.12837529182434082,
        0.0147132258862257,
        0.05130942165851593,
        -0.1693841516971588,
        -0.1249135211110115,
        0.2122894823551178,
        -0.21255365014076233,
        -0.15410025417804718,
        -0.17801889777183533,
        0.03637365251779556,
        -0.26339611411094666,
        -0.024690302088856697,
        -0.15702775120735168,
        -0.030232343822717667,
        0.02064693160355091,
        -0.14326250553131104,
        0.13954076170921326,
        0.03560999408364296,
        0.12315593659877777,
        -0.08929010480642319,
        0.1552945077419281,
        -0.0729902908205986,
        -0.19100446999073029,
        -0.07396302372217178,
        -0.013246576301753521,
        0.1710352748632431,
        -0.04995780810713768,
        -0.08794309943914413,
        0.2097388207912445,
        -0.1182941123843193,
        0.1565241813659668,
        0.012849186547100544,
        0.18308864533901215,
        -0.053354546427726746,
        0.2395213544368744,
        -0.055949095636606216,
        0.052905138581991196,
        -0.13574974238872528,
        0.1655053198337555,
        0.13366438448429108,
        0.17511500418186188,
        0.18938139081001282,
        0.053450435400009155,
        0.016446378082036972,
        0.22607380151748657,
        -0.013142597861588001,
        0.016565551981329918,
        0.24028661847114563,
        0.12010417133569717,
        0.1178133562207222,
        -0.2347799390554428,
        -0.11153676360845566,
        0.22471891343593597,
        -0.020449353381991386,
        0.20315389335155487,
        0.04531066119670868,
        -0.19799016416072845,
        0.05166478827595711,
        0.1388232558965683,
        0.08489269018173218,
        0.2065403312444687,
        0.005047325510531664,
        0.23789727687835693,
        -0.16600793600082397,
        -0.006818002089858055,
        0.03053257241845131,
        -0.004368304740637541,
        -0.09169884771108627,
        0.22727231681346893,
        0.04595594480633736,
        0.2887108027935028,
        -0.0290431696921587,
        -0.3058661222457886,
        0.19541692733764648,
        -0.055828243494033813,
        0.018516840413212776,
        -0.2889302670955658,
        0.014437185600399971,
        -0.0341898649930954,
        -0.1402505338191986,
        0.09842394292354584,
        -0.16039671003818512,
        -0.019827567040920258,
        -0.07807023823261261,
        -0.08856958150863647,
        -0.09226720780134201,
        -0.11131420731544495,
        0.29698416590690613,
        0.17847062647342682,
        -0.10429689288139343,
        0.1795734018087387,
        -0.1999199092388153,
        0.22398267686367035,
        -0.012483909726142883,
        -0.213764950633049,
        -0.04051167145371437,
        -0.07874814420938492,
        -0.08075272291898727,
        -0.09426958113908768,
        -0.05481919273734093,
        0.12290601432323456,
        -0.06145158037543297,
        -0.0029363706707954407,
        0.12107141315937042,
        -0.050927113741636276,
        0.24452446401119232,
        0.02454269677400589,
        -0.15588785707950592,
        -0.12750951945781708,
        0.011497953906655312,
        0.1423620879650116,
        -0.008652271702885628,
        -0.03143979609012604,
        -0.07900780439376831,
        0.10665685683488846,
        -0.08256503939628601,
        0.19326861202716827,
        -0.024571726098656654,
        -0.018419627100229263,
        0.21938388049602509,
        -0.05135437101125717,
        0.12937115132808685,
        0.016213921830058098,
        -0.11027097702026367,
        -0.04446368291974068,
        -0.1652468740940094,
        -0.09018076211214066,
        -0.009135511703789234,
        0.060148414224386215,
        -0.15146751701831818,
        0.12928460538387299,
        -0.0661834329366684,
        -0.23696480691432953,
        -0.1799270361661911,
        -0.190654918551445,
        -0.15546579658985138,
        -0.03400319442152977,
        0.1321450173854828,
        0.07482032477855682,
        -0.18852515518665314,
        0.04130488261580467,
        0.012511464767158031,
        -0.11038009077310562,
        -0.23257307708263397,
        0.09764362871646881,
        0.08834756165742874,
        -0.07715760171413422,
        0.17705167829990387,
        -0.10918872803449631,
        0.040808986872434616,
        0.17150990664958954,
        0.18993473052978516,
        -0.2148023098707199,
        0.24063053727149963,
        -0.08491349220275879,
        0.036190215498209,
        -0.15712778270244598,
        0.04587985947728157,
        0.22933362424373627,
        0.10490220040082932,
        -0.062429506331682205,
        0.24721811711788177,
        -0.13395370543003082,
        -0.06959753483533859,
        0.1951960027217865,
        -0.15157769620418549,
        0.09164640307426453,
        0.008547956123948097,
        -0.09983379393815994,
        -0.010973503813147545,
        0.22078965604305267,
        0.14319664239883423,
        -0.014448657631874084,
        0.2677052915096283,
        -0.039301883429288864,
        0.019511042162775993,
        0.044327981770038605,
        0.0721832662820816,
        -0.12846069037914276,
        0.0333123654127121,
        0.0027598473243415356,
        -0.17717550694942474,
        0.05208510905504227,
        0.11601435393095016,
        0.12576763331890106,
        0.21964001655578613,
        -0.02090219408273697,
        -0.10065443813800812,
        0.0013633074704557657,
        0.07795356214046478,
        -0.0006474502733908594,
        0.019790159538388252,
        0.11438756436109543,
        0.16900768876075745,
        -0.18733324110507965,
        -0.03468888998031616,
        -0.13432331383228302,
        0.11468875408172607,
        -0.12446660548448563,
        -0.12812472879886627,
        -0.22691047191619873,
        0.0020915339700877666,
        -0.12344016134738922,
        0.04773454740643501,
        -0.10342741012573242,
        0.15585117042064667,
        -0.1448756605386734,
        -0.00409986125305295,
        0.09221895784139633,
        0.2565162479877472,
        0.05235755071043968,
        -0.1265197992324829,
        0.09220898896455765,
        0.06695554405450821,
        0.1213570162653923,
        -0.10070931166410446,
        -0.02024896815419197,
        0.15746456384658813,
        0.1785067915916443,
        -0.08907340466976166,
        0.127922922372818,
        0.1666552871465683,
        -0.003953270148485899,
        -0.08265294134616852,
        0.18605977296829224,
        0.11931629478931427,
        -0.019232720136642456,
        0.07269454747438431,
        -0.20116335153579712,
        0.0045263017527759075,
        -0.0681123286485672,
        -0.05476420372724533,
        -0.0437331423163414,
        0.23197057843208313,
        -0.14998823404312134,
        0.12441914528608322,
        -0.1277448982000351,
        -0.0011100100819021463,
        0.18166929483413696,
        -0.019801924005150795,
        -0.02852795086801052,
        -0.07725892961025238,
        -0.063998743891716,
        0.0036721057258546352,
        -0.12095043063163757,
        0.1369858682155609,
        0.13462449610233307,
        0.23402228951454163,
        -0.2147231101989746,
        0.0920482650399208,
        -0.0066246166825294495,
        -0.049085624516010284,
        -0.08672700822353363,
        0.019923647865653038,
        0.07313714176416397,
        -0.06707969307899475,
        -0.027993589639663696,
        0.0777764767408371,
        -0.20869967341423035,
        0.17312893271446228,
        0.16034488379955292,
        0.1994306594133377,
        -0.042623426765203476,
        0.2063470482826233,
        0.25115635991096497,
        -0.08541321754455566,
        -0.059083763509988785,
        -0.04700479656457901,
        0.234087273478508,
        0.23125223815441132,
        -0.10594230890274048,
        -0.16971629858016968,
        0.12226967513561249,
        -0.11385637521743774,
        -0.09322817623615265,
        -0.17878949642181396,
        0.17478618025779724,
        -0.0021270900033414364,
        -0.1463962197303772,
        -0.0457218773663044,
        -0.013515819795429707,
        0.2101011723279953,
        -0.1097530797123909,
        -0.14104710519313812,
        0.19500775635242462,
        0.04517073184251785,
        -0.0780753493309021,
        0.20659436285495758,
        0.15139074623584747,
        -0.11422044038772583,
        0.20886535942554474,
        0.0005080520058982074,
        0.04036683589220047,
        0.15976372361183167,
        0.1512657105922699,
        0.2323814481496811,
        0.0591772198677063,
        0.13045482337474823,
        -0.21590057015419006,
        0.01702193357050419,
        0.07098215818405151,
        0.2333965003490448,
        -0.1114075779914856,
        0.05371062085032463,
        0.07422153651714325,
        0.12624558806419373,
        -0.19611260294914246,
        -0.1611466407775879,
        0.18919163942337036,
        0.19253453612327576,
        -0.1470237523317337,
        -0.21235179901123047,
        -0.11360511928796768,
        0.019987747073173523,
        0.1469799280166626,
        -0.09672308713197708,
        -0.2457943707704544,
        0.09401286393404007,
        -0.11255289614200592,
        0.13783742487430573,
        -0.0645260438323021,
        -0.11197879910469055,
        -0.1090039387345314,
        -0.19041241705417633,
        0.1433458775281906,
        0.11974049359560013,
        0.04506966844201088,
        0.20568077266216278,
        0.06008520349860191,
        -0.0004275576211512089,
        0.037593573331832886,
        0.030455101281404495,
        -0.0009357783710584044,
        0.10642660409212112,
        -0.05983946472406387,
        -0.16187161207199097,
        0.16855457425117493,
        -0.20022358000278473,
        -0.20240294933319092,
        -0.109540194272995,
        -0.020339762791991234,
        -0.06617657095193863,
        -0.06628003716468811,
        0.18249982595443726,
        -0.03809809684753418,
        -0.15426205098628998,
        -0.0686006098985672,
        -0.20845411717891693,
        -0.16946399211883545,
        0.21461963653564453,
        -0.04131824150681496,
        -0.14482317864894867,
        -0.18412593007087708,
        -0.0377318412065506,
        0.07520385086536407,
        -0.09699492156505585,
        -0.16139504313468933,
        0.12546467781066895,
        -0.20966029167175293,
        -0.05972784757614136,
        0.19120360910892487,
        -0.06123922020196915,
        -0.21993055939674377,
        -0.09129589796066284,
        -0.03903307020664215,
        -0.04845708608627319,
        -0.1349775195121765,
        0.026222368702292442,
        0.07216119021177292,
        -0.06523653119802475,
        0.07148036360740662,
        0.19199566543102264,
        -0.06420283019542694,
        0.14782842993736267,
        0.10922695696353912,
        -0.2606361210346222,
        0.15513959527015686,
        -0.03249603509902954,
        -0.05634712055325508,
        0.24461226165294647,
        0.09430764615535736,
        -0.12811414897441864,
        0.008402766659855843,
        0.1545453667640686,
        -0.1075851172208786,
        -0.14372500777244568,
        -0.18669086694717407,
        -0.09997331351041794,
        0.19234506785869598,
        -0.15181483328342438,
        -0.23885422945022583,
        -0.1793089061975479,
        0.07005573809146881,
        0.1336020678281784,
        0.11515393853187561,
        -0.012583130039274693,
        0.17090241611003876,
        0.023185759782791138,
        0.09977833926677704,
        -0.08142713457345963,
        -0.13160517811775208,
        0.13156265020370483,
        -0.007345987018197775,
        -0.22969728708267212,
        -0.05829570069909096,
        0.023902608081698418,
        -0.00892480369657278,
        0.03503410145640373,
        0.08206631243228912,
        0.04403509572148323,
        -0.09696643799543381,
        -0.08065900206565857,
        0.21211311221122742,
        -0.19640737771987915,
        0.16814067959785461,
        -0.018616769462823868,
        -0.16806365549564362,
        -0.17731745541095734,
        0.16736386716365814,
        0.0599152073264122,
        0.1486930102109909,
        0.22779375314712524,
        0.1604548841714859,
        -0.01853175088763237,
        0.1978248953819275,
        0.23070566356182098,
        0.07990314811468124,
        -0.0853477418422699,
        0.039189379662275314,
        -0.06486580520868301,
        0.17507505416870117,
        -0.1581498086452484,
        -0.21256820857524872,
        -0.0279619749635458,
        0.15387719869613647,
        -0.19236528873443604,
        -0.2122383862733841,
        0.189164400100708,
        -0.22036497294902802,
        0.1581444889307022,
        -0.1856381744146347,
        -0.1280708760023117,
        -0.15632204711437225,
        -0.02866021916270256,
        -0.11738495528697968,
        0.06963790953159332,
        0.10661416500806808,
        -0.10319014638662338,
        -0.28519555926322937,
        0.12148842960596085,
        0.20889243483543396,
        -0.17013022303581238,
        0.11171435564756393,
        -0.019483759999275208,
        0.04047791287302971,
        -0.2547333538532257,
        0.1214606985449791,
        0.15226943790912628,
        -0.16411855816841125,
        -0.12580695748329163,
        0.16721144318580627,
        -0.06637728214263916,
        0.030896246433258057,
        -0.05905832350254059,
        0.030276862904429436,
        0.11862260103225708,
        -0.15962903201580048,
        0.1125221699476242,
        -0.09589596092700958,
        -0.12778939306735992,
        -0.0590234249830246,
        -0.14692290127277374,
        -0.0038791801780462265,
        -0.2320336401462555,
        0.09325570613145828,
        0.05960022658109665,
        0.013915409334003925,
        0.10414259135723114,
        -0.14236484467983246,
        -0.05044297128915787,
        -0.1106567457318306,
        -0.15547078847885132,
        0.21414850652217865,
        0.19155457615852356,
        0.24389566481113434,
        0.04213280603289604,
        -0.012203174643218517,
        -0.08270327001810074,
        -0.05430527776479721,
        -0.16319769620895386,
        0.023390747606754303,
        0.2255357950925827,
        -0.21293391287326813,
        -0.02091076225042343,
        -0.09706307202577591,
        0.25270041823387146,
        -0.11337225884199142,
        -0.07333512604236603,
        0.03786323964595795,
        0.035290420055389404,
        0.0538971833884716,
        -0.0062385727651417255,
        0.09719543159008026,
        0.21174439787864685,
        0.19999177753925323,
        0.05623273923993111,
        -0.23954544961452484,
        -0.11252085119485855,
        0.041288118809461594,
        -0.10728977620601654,
        0.1546308696269989,
        0.17121532559394836,
        0.006504958961158991,
        -0.009666090831160545,
        -0.03437211737036705,
        0.15942761301994324,
        0.2267114371061325,
        0.177525132894516,
        -0.09025323390960693,
        0.042572543025016785,
        -0.252526193857193,
        0.09396378695964813,
        0.1768782138824463,
        0.22249875962734222,
        0.09527640044689178,
        0.03274072706699371,
        0.0068400767631828785,
        0.25739234685897827,
        0.0664801374077797,
        -0.06724067032337189,
        -0.14503663778305054,
        -0.04164660722017288,
        0.10879439860582352,
        0.21157921850681305,
        0.017588140442967415,
        0.1328999251127243,
        -0.23900632560253143,
        0.1444159597158432,
        -0.06441975384950638,
        0.09762956202030182,
        -0.11685726046562195,
        -0.12231631577014923,
        0.01808289811015129,
        -0.18524038791656494,
        0.18057075142860413,
        -0.2477554976940155,
        -0.1794300377368927,
        0.030553892254829407,
        0.15432234108448029,
        -0.08416125178337097,
        -0.029943807050585747,
        -0.18217526376247406,
        -0.026441212743520737,
        0.15493154525756836,
        0.1473933756351471,
        -0.12313538789749146,
        -0.007785995956510305,
        -0.12818877398967743,
        0.027631675824522972,
        -0.053619951009750366,
        0.11440524458885193,
        0.05021341145038605,
        0.13162581622600555,
        -0.0775723084807396,
        0.14703987538814545,
        -0.2844667136669159,
        -0.1877041459083557,
        0.0617888905107975,
        -0.0122273750603199,
        -0.034362342208623886,
        -0.022558340802788734,
        0.1148572787642479,
        -0.16242504119873047,
        -0.002927724737673998,
        -0.07178440690040588,
        -0.061040788888931274,
        0.16721050441265106,
        -0.15844161808490753,
        -0.050048671662807465,
        0.10957300662994385,
        0.1561097502708435,
        0.044891852885484695,
        0.05686710402369499,
        0.08254298567771912,
        0.08342679589986801,
        0.26449280977249146,
        -0.18494462966918945,
        0.02850855328142643,
        0.003232419490814209,
        0.05587560310959816,
        0.09485422074794769,
        0.1245645210146904,
        -0.0846758484840393,
        -0.1696716994047165,
        -0.1335037648677826,
        -0.046516053378582,
        0.16726334393024445,
        -0.09278056025505066,
        0.14591772854328156,
        -0.01699584536254406,
        -0.16688098013401031,
        0.20069792866706848,
        -0.022705473005771637,
        -0.060286495834589005,
        -0.07646441459655762,
        -0.06531409174203873,
        0.15716613829135895,
        -0.03992012143135071,
        0.12220441550016403,
        0.15122853219509125,
        -0.02855147421360016,
        0.17484210431575775,
        -0.04437195509672165,
        0.19319523870944977,
        -0.10940146446228027,
        -0.10056006163358688,
        0.16939911246299744,
        -0.220870703458786,
        0.03054795227944851,
        0.014897883869707584,
        -0.02355094626545906,
        -0.23422075808048248,
        -0.05750969424843788,
        0.09319674223661423,
        0.22743676602840424,
        -0.13570967316627502,
        -0.11557794362306595,
        -0.06108531728386879,
        0.15126053988933563,
        -0.05731239914894104,
        0.14543463289737701,
        -0.10829422622919083,
        0.027587011456489563,
        -0.22213558852672577,
        -0.17465192079544067,
        -0.12794199585914612,
        0.06622069329023361,
        -0.05829884111881256,
        0.110341876745224,
        -0.19475792348384857,
        -0.17012691497802734,
        0.1416434794664383,
        0.08748839050531387,
        -0.0054404414258897305,
        -0.20033906400203705,
        -0.027060212567448616,
        -0.017660781741142273,
        0.014729758724570274,
        -0.022451812401413918,
        -0.20437532663345337,
        0.016551055014133453,
        -0.06725791096687317,
        0.18877415359020233,
        -0.23864030838012695,
        0.17375338077545166,
        -0.125754714012146,
        0.1588209867477417,
        -0.11244062334299088,
        -0.1314208209514618,
        0.11107485741376877,
        0.025728903710842133,
        -0.04809025675058365,
        0.07346147298812866,
        -0.036840759217739105,
        -0.23505540192127228,
        0.07014661282300949,
        -0.17292095720767975,
        -0.18728847801685333,
        -0.029319707304239273,
        -0.08167944103479385,
        0.14974382519721985,
        0.08042307943105698,
        -0.1379556953907013,
        0.031505171209573746,
        -0.11157084256410599,
        0.1880689114332199,
        -0.24905921518802643,
        -0.10768480598926544,
        0.09541364759206772,
        0.15827029943466187,
        -0.19485235214233398,
        -0.07180523127317429,
        -0.10736455023288727,
        0.023597477003932,
        -0.1479562669992447,
        -0.012303325347602367,
        -0.011726857163012028,
        0.14992067217826843,
        -0.016506798565387726,
        -0.0803762748837471,
        -0.20292502641677856,
        -0.06788012385368347,
        -0.03929080069065094,
        -0.26736772060394287,
        0.2399037778377533,
        0.08138253539800644,
        -0.12384498119354248,
        -0.06011653691530228,
        0.12511283159255981,
        0.12959882616996765,
        -0.15704163908958435,
        0.04072312265634537,
        0.2037394642829895,
        -0.07728735357522964,
        0.12094676494598389,
        -0.0862574428319931,
        -0.2073822319507599,
        0.10130985826253891,
        0.18241310119628906,
        -0.018953654915094376,
        -0.134700208902359,
        0.10622813552618027,
        0.03741474822163582,
        0.2440807968378067,
        -0.04920763522386551,
        0.05616220459342003,
        -0.17273767292499542,
        -0.1374855488538742,
        0.1754133254289627,
        0.05384375900030136,
        0.20195358991622925,
        -0.041300494223833084,
        -0.0048082019202411175,
        0.11673887819051743,
        -0.025827432051301003,
        0.12401901185512543,
        -0.0018225153908133507,
        0.08561363816261292,
        0.08424614369869232,
        -0.11330249905586243,
        -0.18522308766841888,
        0.1820390224456787,
        -0.0791388675570488,
        0.1692301630973816,
        0.11367032676935196,
        0.11659163236618042,
        -0.0002452466869726777,
        0.03242892399430275,
        -0.06994324922561646,
        -0.008919650688767433,
        -0.034817200154066086,
        0.19527564942836761,
        0.059393852949142456,
        -0.20497965812683105,
        -0.005532780196517706,
        -0.14807862043380737,
        0.12001621723175049,
        -0.20942836999893188,
        0.07184029370546341,
        -0.04287014156579971,
        -0.1271597146987915,
        0.035911016166210175,
        0.04386114701628685,
        -0.01692834496498108,
        0.10121120512485504,
        0.18696565926074982,
        0.1736530065536499,
        0.22279593348503113,
        -0.14371269941329956,
        0.14112091064453125,
        -0.21387939155101776,
        -0.12721534073352814,
        -0.18336594104766846,
        0.1697756052017212,
        0.01932632178068161,
        -0.11357737332582474,
        0.1325295865535736,
        -0.19881747663021088,
        -0.1921922117471695,
        -0.154813751578331,
        0.16306065022945404,
        -0.15362241864204407,
        0.051310379058122635,
        -0.03279253467917442,
        0.19931389391422272,
        0.14417310059070587,
        -0.0324900858104229,
        -0.11504019796848297,
        -0.11729927361011505,
        -0.14073477685451508,
        0.0030666696839034557,
        0.11498871445655823,
        -0.15084773302078247,
        -0.15139319002628326,
        0.0174165777862072,
        -0.20774169266223907,
        -0.13668106496334076,
        0.05999927222728729,
        0.24970711767673492,
        -0.09521224349737167,
        -0.12906448543071747,
        0.15587185323238373,
        -0.06289786100387573,
        0.10051083564758301,
        -0.18020476400852203,
        -0.11702857166528702,
        0.11049168556928635,
        -0.1151939183473587,
        0.04354800283908844,
        -0.07901915162801743,
        -0.04811578243970871,
        -0.17440326511859894,
        0.09419766813516617,
        0.0961751863360405,
        0.13973566889762878,
        -0.041351042687892914,
        -0.21380077302455902,
        0.030706224963068962,
        -0.04620989412069321,
        0.19891774654388428,
        0.025119829922914505,
        0.19333495199680328,
        -0.01598571427166462,
        0.10299676656723022,
        -0.05220697447657585,
        0.022869765758514404,
        0.2556665241718292,
        0.06404155492782593,
        0.09008145332336426,
        -0.095657579600811,
        -0.26126888394355774,
        -0.21462485194206238,
        0.11669906228780746,
        0.056514427065849304,
        -0.06877713650465012,
        -0.07538697123527527,
        0.06280791759490967,
        0.03818245604634285,
        0.11397850513458252,
        0.03613460436463356,
        0.11010352522134781,
        -0.21498921513557434,
        0.13581116497516632,
        0.22567036747932434,
        0.15878556668758392,
        0.13513632118701935,
        0.2156556099653244,
        -0.14786909520626068,
        -0.06566577404737473,
        -0.05208682268857956,
        -0.0494791641831398,
        -0.06786753982305527,
        0.11488647758960724,
        -0.006086991634219885,
        0.041588328778743744,
        0.018056362867355347,
        -0.13169260323047638,
        -0.06331893801689148,
        -0.0057630231603980064,
        0.08565086126327515,
        -0.016062555834650993,
        -0.10818333923816681,
        0.076786108314991,
        0.1172194629907608,
        -0.03709501400589943,
        0.05038096010684967,
        -0.16112826764583588,
        -0.03284474462270737,
        -0.17156252264976501,
        0.0013386972714215517,
        -0.17618609964847565,
        -0.13758835196495056,
        0.08832899481058121,
        0.03161899745464325,
        0.1768006980419159,
        -0.19453677535057068,
        0.05487384274601936,
        -0.04506675899028778,
        0.04143115505576134,
        0.028263146057724953,
        -0.06500692665576935,
        -0.03336368873715401,
        0.011810468509793282,
        0.21902692317962646,
        0.025884533300995827,
        0.10153408348560333,
        0.054652515798807144,
        -0.11659996211528778,
        0.049353402107954025,
        -0.2396060675382614,
        -0.18192389607429504,
        -0.1681256741285324,
        -0.22858476638793945,
        0.16111105680465698,
        0.1926109492778778,
        0.058015599846839905,
        -0.06552626192569733,
        -0.14156529307365417,
        0.0421999990940094,
        -0.06722704321146011,
        -0.011247232556343079,
        0.04066860303282738,
        0.1461310088634491,
        -0.07799778133630753,
        -0.09909714758396149,
        -0.13464075326919556,
        -0.12003222107887268,
        -0.13237833976745605,
        0.0926474779844284,
        0.15977603197097778,
        0.06490161269903183,
        0.1412784308195114,
        0.11019831895828247,
        -0.07298633456230164,
        -0.047021444886922836,
        0.17158551514148712,
        0.17583893239498138,
        -0.10774848610162735,
        0.23181816935539246,
        -0.004721435718238354,
        0.0418391190469265,
        -0.08494555205106735,
        -0.1807052046060562,
        -0.11864303052425385,
        -0.15031547844409943,
        0.13976866006851196,
        -0.05298459902405739,
        0.0059750983491539955,
        -0.129209503531456,
        -0.0877721756696701,
        -0.08939876407384872,
        -0.0818646028637886,
        -0.08132936805486679,
        0.19965502619743347,
        -0.1035495400428772,
        -0.13418027758598328,
        0.27109771966934204,
        0.06479156762361526,
        -0.08539332449436188,
        0.18237699568271637,
        0.23752233386039734,
        -0.22045734524726868,
        -0.016430344432592392,
        -0.1096879243850708,
        0.04192381352186203,
        0.025897320359945297,
        -0.21616245806217194,
        0.09331449121236801,
        0.07243839651346207,
        0.10111396759748459,
        -0.2152578979730606,
        0.036971770226955414,
        0.10285501182079315,
        0.20627431571483612,
        0.2289535403251648,
        0.049485478550195694,
        -0.06564819067716599,
        0.1106230616569519,
        0.05530630424618721,
        0.13808673620224,
        -0.030328037217259407,
        -0.05462070554494858,
        -0.18219199776649475,
        -0.005309531465172768,
        -0.060629911720752716,
        0.10535323619842529,
        -0.12027692794799805,
        0.11088962107896805,
        -0.02026211842894554,
        0.03982746601104736,
        0.08958681672811508,
        -0.312272846698761,
        -0.18548475205898285,
        0.01145649142563343,
        0.12068336457014084,
        -0.09161188453435898,
        -0.1512453258037567,
        0.01805483177304268,
        -0.1331760138273239,
        0.013367867097258568,
        -0.007932433858513832,
        -0.05133342742919922,
        -0.10736571997404099,
        -0.10771193355321884,
        -0.1465098261833191,
        0.1439407467842102,
        0.20859535038471222,
