{
  "defaults": {},
  "inputs": [
    {
      "name": "ph_phi_0",
      "offset": 0,
      "scale": 1
    },
    {
      "name": "ph_e_0",
      "offset": 0,
      "scale": 1
    },
    {
      "name": "jet_pt_0",
      "offset": 0,
      "scale": 1
    },
    {
      "name": "jet_pt_1",
      "offset": 0,
      "scale": 1
    },
    {
      "name": "jet_pt_2",
      "offset": 0,
      "scale": 1
    },
    {
      "name": "jet_pt_3",
      "offset": 0,
      "scale": 1
    },
    {
      "name": "jet_pt_4",
      "offset": 0,
      "scale": 1
    },
    {
      "name": "jet_tagWeightBin_leading",
      "offset": 0,
      "scale": 1
    },
    {
      "name": "jet_tagWeightBin_subleading",
      "offset": 0,
      "scale": 1
    },
    {
      "name": "jet_tagWeightBin_subsubleading",
      "offset": 0,
      "scale": 1
    },
    {
      "name": "met_met",
      "offset": 0,
      "scale": 1
    },
    {
      "name": "ph_HFT_MVA_0",
      "offset": 0,
      "scale": 1
    },
    {
      "name": "ph_drleadjet_0",
      "offset": 0,
      "scale": 1
    },
    {
      "name": "ph_drsubljet_0",
      "offset": 0,
      "scale": 1
    },
    {
      "name": "ph_drlept_0",
      "offset": 0,
      "scale": 1
    },
    {
      "name": "ph_mgammalept_0",
      "offset": 0,
      "scale": 1
    },
    {
      "name": "event_HT",
      "offset": 0,
      "scale": 1
    },
    {
      "name": "event_mll",
      "offset": 0,
      "scale": 1
    },
    {
      "name": "event_mwt",
      "offset": 0,
      "scale": 1
    },
    {
      "name": "event_njets",
      "offset": 0,
      "scale": 1
    },
    {
      "name": "event_nbjets77",
      "offset": 0,
      "scale": 1
    }
  ],
  "layers": [
    {
      "architecture": "normalization",
      "bias": [
        0.011591995134949684,
        -93209.125,
        -98531.109375,
        -45576.484375,
        -26041.12890625,
        -13520.3076171875,
        -5495.8583984375,
        -4.587130069732666,
        -1.6521728038787842,
        -1.0003573894500732,
        -51578.35546875,
        -0.7292149662971497,
        -2.4415335655212402,
        21.522907257080078,
        -1.902174472808838,
        -87816.375,
        -250610.921875,
        -14773.5322265625,
        -60638.88671875,
        -2.887178897857666,
        -1.3472929000854492
      ],
      "weights": [
        0.35421222448349,
        7.737765372439753e-06,
        1.0858820132852998e-05,
        1.7278891391470097e-05,
        2.5304301743744873e-05,
        3.467141868895851e-05,
        5.409093137132004e-05,
        1.188204050064087,
        0.6577902436256409,
        2.0112006664276123,
        2.149302963516675e-05,
        3.5516459941864014,
        0.8080688714981079,
        0.02047327347099781,
        0.9358013272285461,
        1.119769240176538e-05,
        5.669953225151403e-06,
        2.7437366952653974e-05,
        1.61468269652687e-05,
        0.5211802124977112,
        1.5266520977020264
      ]
    },
    {
      "activation": "rectified",
      "architecture": "dense",
      "bias": [
        -0.14130322635173798,
        -0.10000111162662506,
        -0.2176012098789215,
        -0.04054221883416176,
        -0.1264413446187973,
        0.03172141686081886,
        -0.16649498045444489,
        -0.02331049181520939,
        -0.06458312273025513,
        -0.0787837952375412,
        -0.22876638174057007,
        -0.20596206188201904,
        -0.07805155962705612,
        -0.050913482904434204,
        -0.2949438989162445,
        -0.04671666398644447,
        -0.06598981469869614,
        -0.08782228082418442,
        -0.023475240916013718,
        -0.15751135349273682,
        -0.1082267090678215,
        -0.127421572804451,
        -0.041818615049123764,
        -0.14118322730064392,
        -0.0530441477894783,
        -0.18896891176700592,
        -0.08379901945590973,
        0.005354666151106358,
        -0.06809723377227783,
        -0.16189567744731903,
        -0.029336540028452873,
        -0.19290901720523834,
        -0.1691555380821228,
        -0.04374103620648384,
        -0.3771231770515442,
        -0.0726168304681778,
        -0.11918585747480392,
        -0.18022997677326202,
        -0.0021853577345609665,
        -0.060901299118995667,
        -0.07029639929533005,
        -0.16315105557441711,
        -0.16172517836093903,
        -0.10880934447050095,
        -0.20193108916282654,
        -0.14502538740634918,
        0.008409476839005947,
        -0.09471162408590317,
        -0.08453219383955002,
        -0.08594930171966553,
        -0.3195006549358368,
        -0.41397953033447266,
        -0.04820306599140167,
        0.0072852387093007565,
        -0.09761392325162888,
        -0.046663422137498856,
        -0.13432998955249786,
        -0.053781382739543915,
        -0.09281150251626968,
        -0.17428897321224213,
        -0.2878965437412262,
        -0.030914638191461563,
        -0.07350650429725647,
        0.007130023092031479,
        -0.196861132979393,
        -0.13072612881660461,
        -0.07315853238105774,
        -0.12385278940200806,
        -0.12308529019355774,
        -0.11061877757310867,
        -0.08090148866176605,
        -0.08844316005706787,
        -0.07715011388063431,
        -0.21354663372039795,
        -0.05241851881146431,
        -0.17470866441726685,
        -0.17046543955802917,
        -0.12020470201969147,
        -0.11234806478023529,
        -0.16871675848960876,
        -0.11701880395412445,
        -0.06512760370969772,
        -0.15011891722679138,
        -0.05580083280801773,
        -0.10721093416213989,
        -0.06339824199676514,
        -0.1188381239771843,
        -0.35225510597229004,
        -0.21830880641937256,
        -0.12428274750709534,
        -0.06679245084524155,
        -0.15024617314338684,
        -0.014094352722167969,
        -0.03346196934580803,
        0.03489634394645691,
        -0.11312835663557053,
        -0.4179309010505676,
        -0.15782524645328522,
        -0.2639157772064209,
        -0.1386760026216507,
        -0.16286976635456085,
        -0.1548159122467041,
        -0.06289765983819962,
        -0.24555885791778564,
        -0.09383266419172287,
        -0.09921547025442123,
        -0.05511392652988434,
        -0.07774496078491211,
        -0.06456993520259857,
        -0.1143970638513565,
        -0.08777950704097748,
        -0.2468903660774231,
        -0.16021603345870972,
        -0.12614388763904572,
        -0.11599202454090118,
        -0.0031642145477235317,
        -0.34308135509490967,
        -0.08214636147022247,
        -0.160438671708107,
        -0.06315239518880844,
        -0.12273559719324112,
        -0.08182337880134583,
        -0.014899615198373795,
        -0.007083028554916382,
        -0.26137349009513855,
        -0.10640360414981842,
        0.06152646243572235,
        -0.24109695851802826
      ],
      "weights": [
        -0.01889028400182724,
        -0.002271157456561923,
        -0.0651170015335083,
        0.04277466610074043,
        0.0073104314506053925,
        -0.035004034638404846,
        0.0053946105763316154,
        -0.00959459412842989,
        0.027456998825073242,
        0.015233799815177917,
        0.17603227496147156,
        0.029375789687037468,
        0.0015215907478705049,
        0.01636209897696972,
        0.09289353340864182,
        -0.15539731085300446,
        -0.086204893887043,
        0.10763335227966309,
        -0.030319079756736755,
        -0.06878626346588135,
        -0.004134237766265869,
        0.001831801375374198,
        0.011155896820127964,
        -0.034677211195230484,
        -0.0743570402264595,
        -0.06448165327310562,
        0.004682889673858881,
        -0.06408210098743439,
        -0.02236209250986576,
        -0.09251350909471512,
        -0.04744371771812439,
        -0.15134532749652863,
        0.11167387664318085,
        0.0409884937107563,
        -0.07478009909391403,
        -0.12917481362819672,
        0.05410013347864151,
        0.15091314911842346,
        0.002059156307950616,
        0.06030048057436943,
        0.04427117109298706,
        0.08063933998346329,
        0.01184038259088993,
        0.04869747534394264,
        -0.00569525733590126,
        -0.07251571863889694,
        0.043467070907354355,
        0.028004949912428856,
        -0.004131828900426626,
        0.07102014869451523,
        0.010901378467679024,
        -0.018215879797935486,
        0.06631562113761902,
        -0.1405632495880127,
        0.07745609432458878,
        0.043461307883262634,
        0.08078064024448395,
        0.07120055705308914,
        -0.02145751379430294,
        -0.007856610231101513,
        0.0267717856913805,
        -0.013941192999482155,
        0.016567673534154892,
        0.007956276647746563,
        0.07509201020002365,
        -0.17215506732463837,
        -0.01417833287268877,
        -0.07565849274396896,
        0.010930969379842281,
        0.026630423963069916,
        -0.0030059288255870342,
        -0.007076632231473923,
        -0.08598019182682037,
        -0.01947556808590889,
        0.025257596746087074,
        0.0878455638885498,
        0.0401315838098526,
        0.013485696166753769,
        -0.07484594732522964,
        -0.1762649565935135,
        -0.08652946352958679,
        0.02343466877937317,
        0.01609603501856327,
        -0.002860291162505746,
        0.007847906090319157,
        0.020056573674082756,
        -0.007023164536803961,
        0.0052237617783248425,
        -0.0315801165997982,
        0.010628394782543182,
        -0.005638948641717434,
        -0.029080187901854515,
        -0.01104681845754385,
        -0.04812394455075264,
        -0.05424561724066734,
        -0.0039798058569431305,
        0.022118180990219116,
        0.028052717447280884,
        0.0746847540140152,
        0.04726921766996384,
        -0.005840398371219635,
        0.12790650129318237,
        -0.008236130699515343,
        -0.03536665439605713,
        0.012938613072037697,
        0.007383154239505529,
        -0.07301479578018188,
        -0.11781942844390869,
        -0.04677032679319382,
        -0.1111418828368187,
        -0.001024469849653542,
        -0.043527983129024506,
        -0.017415393143892288,
        -0.022617580369114876,
        0.013627822510898113,
        -0.051496025174856186,
        0.018291231244802475,
        0.016838759183883667,
        0.026577511802315712,
        0.00033271280699409544,
        0.015617427416145802,
        -0.14711590111255646,
        -0.07872617989778519,
        0.025182407349348068,
        -0.013792258687317371,
        -0.0108265969902277,
        0.03408495709300041,
        -0.12593600153923035,
        -0.04831942915916443,
        -0.10879829525947571,
        -0.036390677094459534,
        0.011171244084835052,
        0.02640974149107933,
        -0.011119025759398937,
        -0.19607670605182648,
        -0.043373674154281616,
        -0.1645437479019165,
        0.02515309303998947,
        0.013301041908562183,
        -0.005486791487783194,
        0.04283236339688301,
        -0.18525251746177673,
        0.03827274963259697,
        -0.0159455519169569,
        0.04348381981253624,
        0.017901107668876648,
        0.04237731546163559,
        0.00754859484732151,
        0.004498803522437811,
        0.07134485244750977,
        -0.028407009318470955,
        -0.14150403439998627,
        -0.03673846274614334,
        -0.04251399636268616,
        0.0029969587922096252,
        -0.010265620425343513,
        -0.0485820397734642,
        -0.01857067085802555,
        -0.026964612305164337,
        0.013195507228374481,
        0.07199254631996155,
        -0.05808258801698685,
        0.10250446945428848,
        -0.1566023826599121,
        -0.14487949013710022,
        -0.014237639494240284,
        -0.025096943601965904,
        0.019260883331298828,
        0.04659628868103027,
        -0.12894003093242645,
        -0.10192488878965378,
        -0.16216793656349182,
        -0.1513906866312027,
        0.007134470622986555,
        0.006631652824580669,
        -0.06381269544363022,
        -0.0966583639383316,
        0.05429176986217499,
        0.06881560385227203,
        0.019876278936862946,
        -0.14116299152374268,
        -0.0252348855137825,
        0.1425134241580963,
        -0.14241807162761688,
        -0.1250196099281311,
        0.1721036285161972,
        -0.08442181348800659,
        -0.09769387543201447,
        -0.02199881337583065,
        -0.029295016080141068,
        0.01829472929239273,
        0.03341527655720711,
        -0.021929506212472916,
        -0.028024492785334587,
        0.015109706670045853,
        -0.020976562052965164,
        0.01812039315700531,
        -0.008679877035319805,
        0.005884754937142134,
        -0.10978283733129501,
        0.022054869681596756,
        0.009152629412710667,
        0.032420359551906586,
        -0.09576147794723511,
        0.020106855779886246,
        0.0029677152633666992,
        0.08332085609436035,
        0.05130891874432564,
        0.10247277468442917,
        -0.01723639853298664,
        -0.013293301686644554,
        0.013685883022844791,
        -0.1744086593389511,
        -0.08263476192951202,
        -0.05622069165110588,
        -0.038474030792713165,
        -0.005810818634927273,
        -0.011080635711550713,
        -0.041371796280145645,
        -0.04962984099984169,
        -0.13198816776275635,
        -0.010280770249664783,
        -0.01161318551748991,
        0.041127778589725494,
        0.06354095786809921,
        -0.18077567219734192,
        -0.07847976684570312,
        -0.07355574518442154,
        0.02688329853117466,
        -0.009952781721949577,
        0.023394519463181496,
        -0.005850146524608135,
        -0.019681716337800026,
        0.06779050081968307,
        -0.08898918330669403,
        -0.11089999973773956,
        -0.015606613829731941,
        0.025766154751181602,
        -0.032099418342113495,
        -0.14636969566345215,
        -0.09613093733787537,
        0.07320799678564072,
        0.023834064602851868,
        0.02559705078601837,
        -0.027668345719575882,
        -0.07708229869604111,
        0.07123148441314697,
        -0.06735844910144806,
        -0.1245182529091835,
        -0.09624772518873215,
        0.06009111553430557,
        0.051360324025154114,
        0.026431472972035408,
        0.045448195189237595,
        0.09136587381362915,
        0.027019217610359192,
        -0.011360318399965763,
        0.013281719759106636,
        -0.011577210389077663,
        0.02587713673710823,
        -0.0011576893739402294,
        -0.07575299590826035,
        0.025818457826972008,
        -0.12847012281417847,
        0.006624409928917885,
        0.057292643934488297,
        0.029263481497764587,
        0.11206585168838501,
        -0.11840897798538208,
        -0.09473627805709839,
        0.053955040872097015,
        0.008247226476669312,
        -0.0006445036851800978,
        -0.018672475591301918,
        0.059473443776369095,
        0.04290458559989929,
        0.0070613534189760685,
        -0.13673925399780273,
        -0.022890806198120117,
        0.017604563385248184,
        -0.08615858852863312,
        -0.04325925558805466,
        -0.034714579582214355,
        0.019286109134554863,
        0.12680843472480774,
        -0.005988124292343855,
        -0.008956891484558582,
        -0.09533382952213287,
        0.02355051599442959,
        -0.0595204159617424,
        -0.030513256788253784,
        -0.06661652773618698,
        0.037028804421424866,
        -0.03714615851640701,
        -0.009222709573805332,
        0.029052572324872017,
        -0.062150970101356506,
        0.004205677658319473,
        0.0745677500963211,
        0.04778040573000908,
        0.01304757222533226,
        0.17691057920455933,
        0.01886080391705036,
        0.010686238296329975,
        0.033581726253032684,
        0.2063291370868683,
        -0.03611527755856514,
        0.0007858110475353897,
        -0.021116051822900772,
        0.031514618545770645,
        -0.06165327504277229,
        -0.11194141209125519,
        0.009338614530861378,
        0.032039690762758255,
        0.002092564944177866,
        -0.04472888633608818,
        0.08158249408006668,
        -0.0092484625056386,
        0.035532645881175995,
        0.01808241568505764,
        0.00930720940232277,
        0.009881035424768925,
        -0.09487334638834,
        -0.1694110780954361,
        -0.06503364443778992,
        -0.0019236992811784148,
        0.012984505854547024,
        0.062254372984170914,
        -0.16288816928863525,
        -0.06943351030349731,
        0.07076652348041534,
        -0.0035992602352052927,
        -0.10334012657403946,
        -0.05291442200541496,
        -9.539021993987262e-05,
        -0.03700311481952667,
        0.0014261710457503796,
        -0.021987074986100197,
        -0.04768567159771919,
        -0.00039539713179692626,
        0.12161356955766678,
        0.004419201519340277,
        -0.07366136461496353,
        0.006628392729908228,
        -0.004098440054804087,
        -0.031072773039340973,
        0.03877270221710205,
        0.08191362768411636,
        0.03856879472732544,
        -0.011890281923115253,
        -0.006590906530618668,
        0.057025860995054245,
        0.06076925992965698,
        -0.1346929520368576,
        -0.027392636984586716,
        0.05587932839989662,
        0.03394569829106331,
        0.025364158675074577,
        0.04327135905623436,
        0.07739003002643585,
        -0.10729184001684189,
        -0.11052216589450836,
        -0.012915650382637978,
        -0.000366829102858901,
        -0.05456319823861122,
        -0.11993829905986786,
        -0.07086799293756485,
        -0.0117183867841959,
        -0.013576985336840153,
        0.04170159623026848,
        -0.028153687715530396,
        -0.04209093004465103,
        0.01064843125641346,
        -0.11852002888917923,
        -0.05552159622311592,
        -0.0699528232216835,
        0.018377048894762993,
        -0.012221867218613625,
        0.02147110179066658,
        0.0414913035929203,
        0.10896178334951401,
        -0.13566087186336517,
        -0.23519855737686157,
        -0.1347038894891739,
        -0.05213148146867752,
        0.05556178465485573,
        0.02206725999712944,
        -0.13336467742919922,
        -0.26506468653678894,
        -0.12163808196783066,
        0.03481779620051384,
        -0.014437198638916016,
        -0.03380097448825836,
        0.05843901261687279,
        0.03662058338522911,
        -0.09574907273054123,
        0.06602443754673004,
        0.003289696993306279,
        0.04125427082180977,
        -0.0009378146496601403,
        0.023219427093863487,
        -0.19910013675689697,
        -0.03581782430410385,
        0.016665223985910416,
        -0.04112672805786133,
        -0.031840309500694275,
        0.007282585371285677,
        -0.01010973285883665,
        -0.058100055903196335,
        -0.05376717075705528,
        -0.020645128563046455,
        0.025921305641531944,
        0.005304176360368729,
        0.0043166764080524445,
        0.022205712273716927,
        -0.18137408792972565,
        0.0017475798958912492,
        0.010475145652890205,
        0.028121987357735634,
        0.023649202659726143,
        -0.050231076776981354,
        -0.03300797939300537,
        0.045328304171562195,
        -0.07252652198076248,
        -0.06756869703531265,
        -8.699198224348947e-05,
        -0.038545962423086166,
        0.002518662018701434,
        0.015553819946944714,
        -0.004752422217279673,
        -0.19970305263996124,
        -0.014543622732162476,
        0.09336818754673004,
        -0.07333028316497803,
        0.014644723385572433,
        -0.10580479353666306,
        0.030322719365358353,
        -0.019685467705130577,
        -0.11233416944742203,
        0.005244231782853603,
        0.03316940739750862,
        -0.008421667851507664,
        0.011227757669985294,
        0.020269159227609634,
        0.03849735110998154,
        0.048421431332826614,
        -0.019189447164535522,
        0.025752881541848183,
        0.03951525315642357,
        -0.0127820810303092,
        -0.044999733567237854,
        0.009305443614721298,
        -0.12654629349708557,
        0.0023981600534170866,
        -0.02962397411465645,
        0.11558235436677933,
        -0.00945791881531477,
        -0.02544589340686798,
        0.027134327217936516,
        0.07427018135786057,
        -3.6513265513349324e-05,
        0.04037994146347046,
        0.03636673465371132,
        0.010998042300343513,
        -0.032110415399074554,
        0.09855465590953827,
        0.01946842670440674,
        0.0353383868932724,
        -0.004955761134624481,
        0.004724413156509399,
        0.019634133204817772,
        0.020569967105984688,
        0.02620578370988369,
        0.19917605817317963,
        -0.022944679483771324,
        0.00025009995442815125,
        -0.07110661268234253,
        0.04630105569958687,
        0.08035784959793091,
        0.04283038154244423,
        0.022810030728578568,
        0.02110629342496395,
        -0.026055051013827324,
        0.006119072902947664,
        0.03651846945285797,
        -0.02692047506570816,
        -0.028632434085011482,
        0.04626748338341713,
        0.014245943166315556,
        -0.02664186991751194,
        -0.06094973161816597,
        -0.1709575057029724,
        -0.019714128226041794,
        -0.15908844769001007,
        0.01113095972687006,
        -0.011788325384259224,
        -0.0945446565747261,
        -0.038132380694150925,
        -0.021399490535259247,
        0.08064472675323486,
        0.0014852196909487247,
        0.06506077945232391,
        -0.0014416729100048542,
        0.04646920785307884,
        -0.008128048852086067,
        -0.31145161390304565,
        -0.14919306337833405,
        -0.012050090357661247,
        0.0006869903299957514,
        0.01580384187400341,
        -0.04385187476873398,
        0.005299333017319441,
        -0.008797038346529007,
        -0.016794227063655853,
        0.04013926908373833,
        0.04634498432278633,
        0.0434889942407608,
        0.12123877555131912,
        0.01813383400440216,
        -0.06151499226689339,
        0.1873643845319748,
        -0.25572526454925537,
        -0.018229426816105843,
        0.04950070008635521,
        -0.011246534064412117,
        -0.01633559539914131,
        0.06255751848220825,
        0.049220938235521317,
        -0.3229524791240692,
        -0.09620565921068192,
        -0.0650860071182251,
        -0.018484121188521385,
        -0.03916279226541519,
        0.04731142148375511,
        -0.09338753670454025,
        -0.08317004889249802,
        -0.03568299114704132,
        0.012753946706652641,
        0.2175270915031433,
        -0.0342453233897686,
        -0.0066357883624732494,
        0.04045499116182327,
        -0.008575903251767159,
        -0.06746640056371689,
        0.03678746521472931,
        -0.04063726216554642,
        -0.0005082484567537904,
        -0.009005420841276646,
        -0.0023494060151278973,
        0.035345710813999176,
        0.026563381776213646,
        -0.0284565482288599,
        -0.018137536942958832,
        -0.01891644112765789,
        -0.03992544114589691,
        0.005440893117338419,
        0.0244294460862875,
        0.23668934404850006,
        -0.031574297696352005,
        -0.04822336137294769,
        -0.07460686564445496,
        0.059015944600105286,
        0.019990889355540276,
        0.013645919039845467,
        -0.0008179282885976136,
        0.06851702183485031,
        0.03747258707880974,
        -0.0035273022949695587,
        -0.2532923221588135,
        -0.07132021337747574,
        -0.039278771728277206,
        -0.02302483655512333,
        -0.051515351980924606,
        -0.014425471425056458,
        -0.0024435524828732014,
        -0.009722809307277203,
        -0.004763646516948938,
        -0.004130934830754995,
        0.0330350324511528,
        -0.018763046711683273,
        0.0784248560667038,
        0.022781556472182274,
        -0.06250501424074173,
        0.14251349866390228,
        -0.23509585857391357,
        0.0007212440250441432,
        0.022428154945373535,
        -0.01439724862575531,
        -0.0024396374356001616,
        0.022283250465989113,
        0.017123978585004807,
        -0.04252002760767937,
        -0.010210650973021984,
        -0.009977472014725208,
        -0.050536319613456726,
        -0.06039576977491379,
        -0.021662184968590736,
        -0.009820088744163513,
        -0.09023802727460861,
        0.041173242032527924,
        0.011337453499436378,
        -0.033446960151195526,
        -0.13181248307228088,
        0.07337529212236404,
        0.0909629613161087,
        0.09328332543373108,
        -0.005539093632251024,
        0.01745264045894146,
        0.019141683354973793,
        -0.0073928069323301315,
        -0.02113092876970768,
        -0.014583122916519642,
        0.019825639203190804,
        0.051991961896419525,
        0.018054915592074394,
        0.03816182538866997,
        -0.005265809595584869,
        0.010579864494502544,
        0.0165603905916214,
        -0.050132449716329575,
        -0.004171576350927353,
        0.0068390825763344765,
        -0.003992866259068251,
        -0.07789809256792068,
        -0.2905505299568176,
        -0.08146575838327408,
        -0.1792883425951004,
        0.03659278526902199,
        0.008298120461404324,
        -0.02119622938334942,
        -0.030798902735114098,
        0.005841672420501709,
        -0.07691501826047897,
        -0.061355315148830414,
        -0.011451911181211472,
        -0.07482811063528061,
        -0.031253136694431305,
        -0.0910646840929985,
        -0.04437416046857834,
        0.01951211877167225,
        -0.00017900633974932134,
        -0.011144213378429413,
        -0.028590431436896324,
        -0.025399766862392426,
        0.030160309746861458,
        0.05553736165165901,
        -0.07417029142379761,
        0.04288753867149353,
        -0.01136765256524086,
        -0.01404411531984806,
        -0.04787352681159973,
        -0.04220845550298691,
        -0.04285251721739769,
        0.012547409161925316,
        0.04918810352683067,
        0.013379091396927834,
        0.021042684093117714,
        0.0059024314396083355,
        -0.030171064659953117,
        0.03736291825771332,
        -0.0014780667843297124,
        0.1612807959318161,
        0.020934410393238068,
        -0.03681006655097008,
        -0.06984701007604599,
        0.007903609424829483,
        -0.09842846542596817,
        -0.050971005111932755,
        0.10756836086511612,
        -0.026869045570492744,
        -0.009818805381655693,
        0.014639236032962799,
        0.029307354241609573,
        -0.24795596301555634,
        0.08141923695802689,
        0.005987189710140228,
        -0.0008849463192746043,
        0.04766308143734932,
        0.021074140444397926,
        0.05984066426753998,
        0.03153742849826813,
        0.0008558316039852798,
        0.026437269523739815,
        0.15571939945220947,
        0.046803299337625504,
        0.06452890485525131,
        0.061781540513038635,
        -0.0018803385319188237,
        -0.03228211775422096,
        0.03912375867366791,
        -0.005234177224338055,
        -0.003416262334212661,
        -0.05130869522690773,
        0.04532048851251602,
        -0.017073947936296463,
        -0.011826112866401672,
        0.02224642224609852,
        0.04844602569937706,
        0.009090859442949295,
        0.014966756105422974,
        0.16616441309452057,
        0.011885169893503189,
        0.0656486302614212,
        0.026860708370804787,
        0.05805502459406853,
        -0.0268111489713192,
        0.026222743093967438,
        0.06269973516464233,
        -0.009397200308740139,
        -0.00014539650874212384,
        -0.10591911524534225,
        0.024377647787332535,
        -0.003494595643132925,
        -0.0026522758416831493,
        0.016479872167110443,
        0.04514774680137634,
        -0.2496201992034912,
        -0.1061972975730896,
        0.002264296170324087,
        -0.004049798473715782,
        -0.01779678836464882,
        0.016217395663261414,
        -0.013337432406842709,
        -0.01765381172299385,
        -0.13189955055713654,
        0.01126578077673912,
        -0.02539886347949505,
        0.028755029663443565,
        0.09367246180772781,
        -0.17154757678508759,
        -0.11087233573198318,
        -0.07738074660301208,
        0.025338927283883095,
        -0.04141070321202278,
        0.0424731969833374,
        -0.03002280555665493,
        -0.2840370833873749,
        -0.005074695218354464,
        -0.04704688861966133,
        0.01796143874526024,
        -0.01565549522638321,
        -0.03785981237888336,
        -0.019222037866711617,
        0.019561786204576492,
        -0.0035384728107601404,
        -0.011882863007485867,
        0.016919806599617004,
        0.060160454362630844,
        0.02585245668888092,
        0.06932788342237473,
        0.01994735561311245,
        0.08877747505903244,
        -0.13113290071487427,
        -0.044309165328741074,
        0.056664176285266876,
        0.003984067123383284,
        -0.03754350170493126,
        0.01962575502693653,
        0.07498881965875626,
        0.06001278758049011,
        -0.011735203675925732,
        0.01794867031276226,
        0.020059501752257347,
        -0.06215489283204079,
        -0.2001102864742279,
        -0.0834779292345047,
        0.024303706362843513,
        0.06073228642344475,
        -0.02124863862991333,
        -0.09524119645357132,
        -0.061734843999147415,
        0.046170685440301895,
        -0.09017644077539444,
        -0.08834957331418991,
        -0.05552837997674942,
        -0.01199587807059288,
        -0.0247141495347023,
        0.013355638831853867,
        -0.20993570983409882,
        -0.009477690793573856,
        -0.08512202650308609,
        -0.020760532468557358,
        0.022309446707367897,
        0.04470178857445717,
        0.05976750701665878,
        0.025695502758026123,
        -0.015940872952342033,
        -0.05374180153012276,
        0.06182234361767769,
        0.08933872729539871,
        -0.009691610001027584,
        0.15124060213565826,
        -0.02282221056520939,
        0.15464667975902557,
        -0.15564149618148804,
        -0.002984476275742054,
        0.0020547593012452126,
        -0.12378532439470291,
        0.015816744416952133,
        0.04828881844878197,
        -0.036754194647073746,
        -0.03603605180978775,
        -0.14415763318538666,
        -0.05909605696797371,
        -0.00665002828463912,
        -0.03896040469408035,
        -0.08196426928043365,
        -0.1084616482257843,
        -0.12189891189336777,
        -0.05041750892996788,
        0.036165378987789154,
        -0.047848548740148544,
        0.03137156367301941,
        0.02146095409989357,
        -0.15383169054985046,
        -0.04995586350560188,
        0.02796599455177784,
        0.03233158588409424,
        0.03406977280974388,
        0.0211722943931818,
        -0.006101199425756931,
        0.07408636808395386,
        0.0001496101904194802,
        -0.0019578137435019016,
        0.01269581913948059,
        -0.00888451561331749,
        -0.03007812239229679,
        -0.17617130279541016,
        -0.07495463639497757,
        -0.08698125183582306,
        0.06883739680051804,
        0.04151199012994766,
        -0.059656091034412384,
        -0.03533574938774109,
        -0.060269780457019806,
        -0.10770923644304276,
        0.01877131313085556,
        -0.18807758390903473,
        0.04184861108660698,
        0.04447546973824501,
        -0.027882589027285576,
        0.09705498069524765,
        -0.013675527647137642,
        0.14177657663822174,
        -0.10995294153690338,
        0.025769388303160667,
        0.0037034512497484684,
        -0.0697719007730484,
        -0.05204489454627037,
        -0.10607065260410309,
        -0.21172596514225006,
        -0.054058533161878586,
        -0.018727270886301994,
        -0.007055283058434725,
        0.07131355255842209,
        -0.0658428892493248,
        -0.014576240442693233,
        0.052460525184869766,
        -0.026327064260840416,
        0.017602257430553436,
        0.04037921875715256,
        -0.010962588712573051,
        -0.010103842243552208,
        -0.018471771851181984,
        0.015289115719497204,
        0.03816351667046547,
        0.012871676124632359,
        0.027073441073298454,
        -0.005471740383654833,
        0.009160109795629978,
        0.020506080240011215,
        -0.038021624088287354,
        0.002472310559824109,
        -0.018645843490958214,
        -0.010435382835566998,
        -0.05510929599404335,
        -0.2874867022037506,
        -0.061414387077093124,
        -0.17714184522628784,
        0.04419762268662453,
        -0.005121395457535982,
        -0.01507983822375536,
        0.0025945038069039583,
        0.09663113206624985,
        0.00532993208616972,
        -0.027926580980420113,
        -0.0055291177704930305,
        0.029810043051838875,
        0.017516719177365303,
        -0.05384594574570656,
        -0.19506269693374634,
        -0.027284089475870132,
        0.09548989683389664,
        -0.079683318734169,
        0.13597503304481506,
        -0.13953618705272675,
        -0.003204008797183633,
        -0.015326324850320816,
        -0.011480429209768772,
        -0.12820948660373688,
        0.038667842745780945,
        0.010963690467178822,
        -0.023451998829841614,
        -0.010259978473186493,
        -0.05965699627995491,
        0.04278811439871788,
        0.02180969901382923,
        -0.043653350323438644,
        -0.10072991997003555,
        0.03461841493844986,
        -0.04444355145096779,
        -0.016747934743762016,
        -0.004160060081630945,
        0.06777757406234741,
        -0.02204912342131138,
        0.014214466325938702,
        0.008553959429264069,
        0.09018250554800034,
        0.1133839413523674,
        -0.06084027141332626,
        -0.0473446287214756,
        0.004138640593737364,
        -0.042130641639232635,
        0.04989718645811081,
        0.016878915950655937,
        -0.06234359368681908,
        0.00239048944786191,
        0.02517692744731903,
        0.04225345700979233,
        0.02493646927177906,
        0.0011749487603083253,
        0.0054986621253192425,
        0.014093935489654541,
        -0.025579506531357765,
        -0.04988487437367439,
        0.01341527234762907,
        -0.002146113198250532,
        0.0037346426397562027,
        -0.12160451710224152,
        -0.24671383202075958,
        -0.07927253842353821,
        -0.211553692817688,
        0.035579849034547806,
        0.020078029483556747,
        -0.019288089126348495,
        -0.011033100076019764,
        0.009375672787427902,
        -0.004092413000762463,
        0.03363185003399849,
        -0.001919231959618628,
        0.02284201793372631,
        -0.004506927449256182,
        0.04252614080905914,
        0.08109542727470398,
        -0.008126693777740002,
        0.05157528072595596,
        -0.11360419541597366,
        0.01625516265630722,
        0.0670509859919548,
        0.08686751127243042,
        0.09881976991891861,
        -0.039674062281847,
        -0.13511110842227936,
        0.1507464200258255,
        0.03748944401741028,
        0.010174847207963467,
        0.055722326040267944,
        -0.051550667732954025,
        -0.0751473531126976,
        0.0712474063038826,
        0.001995852217078209,
        0.07915744185447693,
        0.03356090188026428,
        0.039081353694200516,
        0.0289828572422266,
        0.032751232385635376,
        0.08736056834459305,
        0.08052221685647964,
        -0.053099554032087326,
        0.01438061986118555,
        -0.048622362315654755,
        -0.10277745872735977,
        -0.10491938143968582,
        0.043799418956041336,
        0.020349761471152306,
        -0.015617135912179947,
        0.05235486105084419,
        0.02774021215736866,
        0.0015094578266143799,
        0.08823396265506744,
        0.019737228751182556,
        0.00801434088498354,
        -0.03610166907310486,
        -0.03383480757474899,
        -0.04476500302553177,
        -0.1087297797203064,
        -0.059289682656526566,
        -0.08738493919372559,
        0.157129168510437,
        0.0367438867688179,
        -0.04109589010477066,
        -0.08432158082723618,
        0.07784809172153473,
        -0.06687044352293015,
        0.00741881737485528,
        0.0038251597434282303,
        0.06736583262681961,
        0.05393979698419571,
        -0.012320460751652718,
        -0.18173566460609436,
        -0.08449985086917877,
        -0.010644519701600075,
        -0.002412408357486129,
        0.04839564859867096,
        0.06086265295743942,
        0.08054018765687943,
        0.005312921479344368,
        0.039391785860061646,
        0.044113241136074066,
        0.026688218116760254,
        0.06368900090456009,
        0.042082469910383224,
        0.04013558477163315,
        0.031219812110066414,
        0.036081064492464066,
        -0.12424347549676895,
        -0.02739962749183178,
        0.02702471800148487,
        -0.04686836898326874,
        -0.03674193471670151,
        0.10501139611005783,
        0.05694018304347992,
        0.052037667483091354,
        0.045163948088884354,
        0.021178392693400383,
        -0.030706563964486122,
        -0.07244160026311874,
        -0.022622762247920036,
        -0.03248016536235809,
        0.013094551861286163,
        -0.16833087801933289,
        0.06649944931268692,
        0.01906699128448963,
        0.07977369427680969,
        0.0735933929681778,
        0.006529323291033506,
        -0.030812915414571762,
        0.04527423158288002,
        -0.010742530226707458,
        -0.00016149146540556103,
        -0.016539450734853745,
        0.020514706149697304,
        -0.14687703549861908,
        -0.019651129841804504,
        0.04634041711688042,
        -0.023095598444342613,
        -0.018159668892621994,
        -0.03032209724187851,
        0.036121778190135956,
        0.005144825205206871,
        -0.12138339877128601,
        0.016279518604278564,
        0.1538684219121933,
        0.10105153173208237,
        0.08303326368331909,
        -0.11322033405303955,
        -0.09500903636217117,
        -0.017858434468507767,
        0.04880467429757118,
        0.010942215099930763,
        -0.048813026398420334,
        -0.07293988019227982,
        -0.06543605774641037,
        0.025268714874982834,
        0.03769391402602196,
        0.08631198853254318,
        -0.0010051724966615438,
        0.013053450733423233,
        0.03440903127193451,
        -0.11184768378734589,
        -0.011916943825781345,
        -0.033702749758958817,
        0.022025782614946365,
        -0.03176743909716606,
        0.03694875165820122,
        0.033174026757478714,
        0.03750521317124367,
        -0.13660547137260437,
        0.005857819225639105,
        -0.05383727326989174,
        0.02603268437087536,
        0.04779870808124542,
        0.018033571541309357,
        0.01610427536070347,
        0.03318501636385918,
        0.0752863809466362,
        0.07929902523756027,
        0.09926480054855347,
        0.021418491378426552,
        0.03386104479432106,
        0.10493256896734238,
        0.0019207193981856108,
        -0.14871253073215485,
        0.08602122962474823,
        0.09261740744113922,
        0.09376315027475357,
        -0.02973230741918087,
        0.06355299055576324,
        0.30295929312705994,
        -0.25408098101615906,
        0.03786366432905197,
        0.10340339690446854,
        -0.0027041940484195948,
        0.0055674840696156025,
        -0.13615433871746063,
        -0.02061782404780388,
        -0.014958891086280346,
        -0.020313242450356483,
        0.018626511096954346,
        0.04860693961381912,
        0.0008989936904981732,
        -0.018245311453938484,
        0.01319707278162241,
        -0.11426940560340881,
        -0.013308717869222164,
        0.016096927225589752,
        -0.03419414907693863,
        0.06487497687339783,
        -0.19911114871501923,
        0.01755877584218979,
        -0.013945422135293484,
        -0.014021015726029873,
        0.014481579884886742,
        0.05321783944964409,
        -0.01200476661324501,
        0.01063934713602066,
        0.0649736300110817,
        0.0015836934326216578,
        -0.13098742067813873,
        -0.0643063485622406,
        0.00044034741586074233,
        -0.019375862553715706,
        -0.02704009599983692,
        -0.01667970046401024,
        -0.13490387797355652,
        -0.0912245661020279,
        -0.030579008162021637,
        -0.06583265215158463,
        -0.005666108336299658,
        0.048026278614997864,
        -0.019482199102640152,
        -0.12271224707365036,
        -0.011477825231850147,
        -0.10933015495538712,
        0.06899759918451309,
        0.02281995676457882,
        0.048586491495370865,
        0.10953184217214584,
        0.08263380825519562,
        0.04079678654670715,
        -0.03819143399596214,
        0.0057742600329220295,
        -0.05895928665995598,
        -0.01607290282845497,
        -0.08149103820323944,
        -0.007549240719527006,
        -0.06048769876360893,
        -0.0069997599348425865,
        0.11086291074752808,
        -0.051083844155073166,
        0.08453787118196487,
        -0.19695667922496796,
        -0.04022808372974396,
        -0.05002572387456894,
        0.05851608142256737,
        -0.012005454860627651,
        -0.008870475925505161,
        0.049379270523786545,
        -0.04799835756421089,
        0.04776317626237869,
        -0.021524453535676003,
        0.0147438645362854,
        0.0063057029619812965,
        -0.049949049949645996,
        -0.20964784920215607,
        -0.022271761670708656,
        -0.19490453600883484,
        0.016471991315484047,
        -0.005312431138008833,
        -0.0908205583691597,
        -0.0018493634415790439,
        -0.024699939414858818,
        0.09088683873414993,
        0.02093500830233097,
        0.009901931509375572,
        -0.06138605251908302,
        0.06146784499287605,
        0.03580446541309357,
        0.008721929043531418,
        -0.11085334420204163,
        -0.0020282291807234287,
        -0.002921818755567074,
        0.0812581405043602,
        0.014226636849343777,
        0.06502711027860641,
        -0.029590830206871033,
        0.021572455763816833,
        0.005426074843853712,
        0.07158266007900238,
        -0.009601157158613205,
        0.03987441956996918,
        -0.06265148520469666,
        0.03587431460618973,
        0.0030388811137527227,
        -0.24154646694660187,
        -0.02357485517859459,
        0.07257668673992157,
        0.029230818152427673,
        -0.05227990448474884,
        -0.08739739656448364,
        -0.017533525824546814,
        0.01480825524777174,
        -0.028453150764107704,
        0.09499682486057281,
        0.048120107501745224,
        0.08177415281534195,
        0.08064792305231094,
        0.004243089817464352,
        0.049115754663944244,
        0.17895637452602386,
        -0.03850846365094185,
        0.016922596842050552,
        -0.05445626378059387,
        -0.0799088329076767,
        -0.013968605548143387,
        0.062139131128787994,
        -0.014159445650875568,
        0.10614475607872009,
        0.052123747766017914,
        -0.03544711321592331,
        -0.042910922318696976,
        0.017260977998375893,
        0.03949318826198578,
        0.01764976792037487,
        0.020970525220036507,
        0.014280227944254875,
        -0.0663987547159195,
        -0.2178940325975418,
        -0.09809909760951996,
        -0.18414361774921417,
        -0.01199821662157774,
        0.006338929757475853,
        -0.1524583399295807,
        -0.09373858571052551,
        0.08711263537406921,
        0.06674209982156754,
        -0.0014758126344531775,
        0.0393427312374115,
        0.02070515602827072,
        -0.021672789007425308,
        0.03467272222042084,
        -0.010233390145003796,
        0.0979284942150116,
        0.04359418526291847,
        0.012969856150448322,
        0.03811890631914139,
        -0.023900697007775307,
        -0.016559775918722153,
        0.03321028873324394,
        0.00845994520932436,
        0.12922516465187073,
        0.017907263711094856,
        -0.020058829337358475,
        -0.020500021055340767,
        0.019382081925868988,
        -0.09809062629938126,
        -0.10931967943906784,
        0.17817917466163635,
        -0.03572116047143936,
        0.02191230282187462,
        0.018510915338993073,
        0.015225166454911232,
        0.05223628878593445,
        -0.14043685793876648,
        -0.07414017617702484,
        -0.04715331271290779,
        -0.0731547474861145,
        -0.017433444038033485,
        0.03771162033081055,
        0.04525464028120041,
        0.019926071166992188,
        -0.16121253371238708,
        -0.10036792606115341,
        0.05261732265353203,
        0.08498512953519821,
        -0.043955959379673004,
        0.05201397091150284,
        -0.07926435023546219,
        0.017673565074801445,
        0.11902550607919693,
        0.04837547987699509,
        -0.06351125240325928,
        -0.008688722737133503,
        -0.20939268171787262,
        -0.02198362722992897,
        -0.07520586997270584,
        -0.012414451688528061,
        -0.035697177052497864,
        -0.03138591721653938,
        -0.013335376977920532,
        -0.006023054011166096,
        0.003761090338230133,
        -0.04247488081455231,
        0.0022552793379873037,
        0.054260704666376114,
        0.057364728301763535,
        0.06569670885801315,
        -0.03808794543147087,
        0.1707872450351715,
        -0.2381366491317749,
        0.011250861920416355,
        0.010044713504612446,
        -0.00654748547822237,
        -0.010298017412424088,
        -0.30838069319725037,
        -0.05086624622344971,
        -0.08138339966535568,
        0.008461701683700085,
        0.04659297317266464,
        -0.03787699714303017,
        -0.06087784841656685,
        0.026360120624303818,
        0.011875244788825512,
        0.03404713422060013,
        0.04049138352274895,
        0.02477717027068138,
        0.0039808196015655994,
        0.07404930889606476,
        -0.08982812613248825,
        0.1739976704120636,
        -0.1560828536748886,
        -0.016667459160089493,
        0.0678253322839737,
        -0.015590672381222248,
        -0.01969834789633751,
        -0.0027358513325452805,
        -0.14962691068649292,
        -0.11396300792694092,
        0.03647182881832123,
        0.030048882588744164,
        -0.0013886953238397837,
        -0.008552083745598793,
        -0.16965235769748688,
        -0.046011604368686676,
        -0.004045727662742138,
        0.07217975705862045,
        0.015561738051474094,
        0.009824441745877266,
        0.07450826466083527,
        -0.1557447761297226,
        -0.08743349462747574,
        0.013551954180002213,
        -0.12726424634456635,
        0.03170336037874222,
        0.01302803959697485,
        -0.014002053998410702,
        0.06007394194602966,
        0.0029923671390861273,
        -0.004679404199123383,
        -0.03199728950858116,
        0.013064279220998287,
        -0.0029114470817148685,
        -0.03411426767706871,
        -0.09364788234233856,
        0.0312504842877388,
        -0.09878484904766083,
        -0.1238674595952034,
        0.024970360100269318,
        -0.15422452986240387,
        0.009744711220264435,
        0.02150815539062023,
        0.05537334457039833,
        0.016728393733501434,
        0.022673485800623894,
        -0.01830434426665306,
        0.03362920507788658,
        0.041264794766902924,
        -0.0015441980212926865,
        0.04901662468910217,
        -0.2074839025735855,
        -0.10787413269281387,
        -0.047853969037532806,
        -0.014944339171051979,
        -0.01389092393219471,
        -0.07731908559799194,
        -0.07977201789617538,
        -0.11871065944433212,
        0.0001651071652304381,
        0.03960772603750229,
        0.04918045178055763,
        -0.03729074448347092,
        0.018950127065181732,
        0.023854650557041168,
        0.017962008714675903,
        -0.032332584261894226,
        0.05969347804784775,
        0.01419629342854023,
        -0.06302912533283234,
        -0.010582511313259602,
        -0.08364617824554443,
        -0.2549493908882141,
        -0.04107890650629997,
        -0.08656439185142517,
        -0.008882670663297176,
        -0.06423816829919815,
        -0.1777728646993637,
        -0.09084585309028625,
        -0.05340342968702316,
        0.029665345326066017,
        -0.038410574197769165,
        0.01584305614233017,
        -0.034390535205602646,
        0.10362037271261215,
        0.07772679626941681,
        -0.001163635984994471,
        0.0374164916574955,
        0.04357343167066574,
        -0.06442315131425858,
        0.0036898450925946236,
        -0.1030861884355545,
        -0.07852275669574738,
        0.03671634942293167,
        0.07236219197511673,
        0.07371269166469574,
        0.09707934409379959,
        -0.017072424292564392,
        0.055985141545534134,
        -0.02536952681839466,
        -0.021335039287805557,
        0.09619103372097015,
        -0.035485249012708664,
        -0.04665103182196617,
        0.026926660910248756,
        -0.12834928929805756,
        -0.11208242923021317,
        0.07983030378818512,
        -0.03052663244307041,
        0.036966171115636826,
        0.026645299047231674,
        -0.02576042152941227,
        0.015788374468684196,
        0.0804959386587143,
        -0.023827003315091133,
        -0.02016809955239296,
        -0.010914666578173637,
        -0.004937049932777882,
        -0.0268386397510767,
        -0.08022282272577286,
        -0.08131061494350433,
        0.014256881549954414,
        0.13927999138832092,
        0.03365454450249672,
        -0.061473093926906586,
        -0.06569169461727142,
        0.04360930621623993,
        -0.10173719376325607,
        -0.07981648296117783,
        -0.044625211507081985,
        0.057609621435403824,
        -0.011519077233970165,
        0.0032852247823029757,
        -0.14079874753952026,
        0.0559968501329422,
        0.0013566979905590415,
        0.01925342157483101,
        0.019517140462994576,
        -0.055687978863716125,
        0.06552553176879883,
        0.0417121946811676,
        0.02053896337747574,
        0.05658245086669922,
        0.07513196766376495,
        -0.07465061545372009,
        -0.03405815362930298,
        0.05545565113425255,
        -0.055452439934015274,
        -0.0038309083320200443,
        0.060883529484272,
        0.0023264605551958084,
        0.024139991030097008,
        0.01714334264397621,
        0.0009015873656608164,
        0.003862872254103422,
        -0.06670712679624557,
        -0.07981450110673904,
        -0.013397437520325184,
        0.024741439148783684,
        0.033897724002599716,
        -0.03821684047579765,
        -0.019062859937548637,
        -0.0259765163064003,
        0.023383621126413345,
        0.09239907562732697,
        0.02406851388514042,
        -0.0006242881063371897,
        0.07020118087530136,
        0.07811445742845535,
        0.01753815822303295,
        0.04526150971651077,
        -0.06520605087280273,
        0.01648247241973877,
        0.03763995319604874,
        0.002424713457003236,
        -0.04584646224975586,
        -0.017376475036144257,
        -0.06965166330337524,
        -0.06875614821910858,
        0.025632817298173904,
        -0.012204171158373356,
        -0.0342971496284008,
        -0.1889413595199585,
        -0.081204853951931,
        -0.13080823421478271,
        -0.02869431860744953,
        0.032444823533296585,
        0.031141526997089386,
        0.04443550854921341,
        -0.19339466094970703,
        0.014229031279683113,
        0.02614029310643673,
        -0.011287040077149868,
        -0.0005904898862354457,
        -0.01093172375112772,
        0.012888059951364994,
        -0.1951284110546112,
        0.043342214077711105,
        -0.02790839783847332,
        -0.010489612817764282,
        -0.0011645322665572166,
        -0.03525422513484955,
        0.1586117446422577,
        0.0054664951749145985,
        -0.026043571531772614,
        -0.07362205535173416,
        0.024678003042936325,
        0.0418202169239521,
        0.01580212451517582,
        0.00738062197342515,
        -0.08338087797164917,
        0.014635100960731506,
        -0.2100919783115387,
        0.03238890692591667,
        0.09368213266134262,
        0.04459274932742119,
        -0.0015598208410665393,
        0.043821848928928375,
        0.03130969777703285,
        0.07470457255840302,
        -0.01699117198586464,
        -0.016511887311935425,
        -0.008470217697322369,
        -0.05182059109210968,
        -0.1499604433774948,
        -0.049801912158727646,
        -0.11261630803346634,
        -0.0020456446800380945,
        0.03704860806465149,
        0.06443717330694199,
        -0.05541154369711876,
        0.025416459888219833,
        -0.07423607259988785,
        0.009854448027908802,
        -0.05556710436940193,
        0.06301494687795639,
        -0.018594948574900627,
        0.007637566886842251,
        0.0042478968389332294,
        -0.04322504624724388,
        -0.05450327694416046,
        -0.026332149282097816,
        -0.10636268556118011,
        -0.06809016317129135,
        -0.016059204936027527,
        -0.2110302895307541,
        -0.06220788508653641,
        -0.11343872547149658,
        -0.03055775724351406,
        0.00029089648160152137,
        0.005363937467336655,
        -0.020623618736863136,
        0.07661090046167374,
        -0.028655916452407837,
        0.009166042320430279,
        0.03168071433901787,
        -0.054447006434202194,
        0.07178812474012375,
        0.012083868496119976,
        0.036422763019800186,
        0.019018320366740227,
        0.026641659438610077,
        0.027233604341745377,
        0.0025096582248806953,
        0.031167753040790558,
        -0.005217859987169504,
        0.0065656425431370735,
        0.007101084105670452,
        0.17292913794517517,
        -0.003957723267376423,
        -0.011487753130495548,
        -0.01959383487701416,
        -0.05185285955667496,
        -0.030862336978316307,
        -0.08667566627264023,
        0.10330720245838165,
        -0.0066747586242854595,
        -0.05273068696260452,
        0.024855412542819977,
        -0.01443920936435461,
        0.02873852476477623,
        -0.06177324801683426,
        -0.13971585035324097,
        -0.04792681708931923,
        0.007589218206703663,
        -0.024242015555500984,
        -0.029358956962823868,
        -0.006738790310919285,
        -0.012946735136210918,
        -0.09381995350122452,
        0.02540748380124569,
        0.01569228060543537,
        0.03783306106925011,
        0.06052976846694946,
        -0.18189530074596405,
        -0.0825277790427208,
        0.011862377636134624,
        -0.06513401865959167,
        0.07251589745283127,
        5.48358766536694e-05,
        -0.002673216862604022,
        -0.15398511290550232,
        0.044272199273109436,
        0.005182059947401285,
        0.022044682875275612,
        0.06986146420240402,
        0.0009946885984390974,
        0.05517466738820076,
        -0.0022716654930263758,
        -0.005391289480030537,
        -0.03073292411863804,
        -0.004618945065885782,
        0.020079175010323524,
        0.002506739692762494,
        -0.060517918318510056,
        -0.17624413967132568,
        -0.02625630795955658,
        0.05106326937675476,
        0.03100135736167431,
        0.062030162662267685,
        0.042189888656139374,
        -0.005580602213740349,
        -0.01695740781724453,
        0.01656251773238182,
        0.012437769211828709,
        0.0069372146390378475,
        0.016284355893731117,
        0.010024666786193848,
        0.015196690335869789,
        -0.012237642891705036,
        -0.019790714606642723,
        0.08522126078605652,
        -0.0011433344334363937,
        -0.00766886817291379,
        0.0028703303541988134,
        0.046959441155195236,
        -0.0704338401556015,
        -0.05273355171084404,
        0.13603277504444122,
        -0.03299703076481819,
        -0.03121309168636799,
        0.029744908213615417,
        0.04435250908136368,
        -0.04763650521636009,
        0.12815746665000916,
        -0.022803962230682373,
        0.0006266307318583131,
        -0.05080728605389595,
        0.0012824608711525798,
        0.09188259392976761,
        0.07575090229511261,
        0.0013247928582131863,
        -0.11119689047336578,
        0.01862194389104843,
        0.10488951951265335,
        0.04504919424653053,
        0.10627449303865433,
        0.07755064219236374,
        0.1637628823518753,
        -0.13212355971336365,
        0.057420581579208374,
        0.16109953820705414,
        -0.018419772386550903,
        0.015922920778393745,
        0.049641791731119156,
        -0.11017213761806488,
        -0.11995822936296463,
        0.09572160243988037,
        -0.04579414427280426,
        0.008389686234295368,
        -0.031043710187077522,
        -0.2336094230413437,
        -0.001093160710297525,
        -0.1333824247121811,
        -0.03250431641936302,
        -0.00455633457750082,
        -0.12821783125400543,
        -0.10663536190986633,
        0.10364273935556412,
        0.2193206548690796,
        0.09598039835691452,
        0.11137880384922028,
        -0.04828231781721115,
        0.004735484719276428,
        0.006339991930872202,
        0.03507319092750549,
        -0.052009936422109604,
        0.030164368450641632,
        -0.006994203664362431,
        -0.029832718893885612,
        -0.00984088983386755,
        -0.06202416867017746,
        -0.14637398719787598,
        -0.07636570930480957,
        0.0024628136307001114,
        0.11976096779108047,
        0.0066232942044734955,
        -0.11344938725233078,
        -0.1623675376176834,
        0.11988253891468048,
        0.09209412336349487,
        -0.009144145995378494,
        -0.030557949095964432,
        0.015811573714017868,
        0.036793556064367294,
        -0.0012579091126099229,
        -0.00868292711675167,
        -0.06139511615037918,
        -0.09083157777786255,
        0.10038713365793228,
        0.06699731200933456,
        -0.012459663674235344,
        0.0006910937372595072,
        -0.01026209257543087,
        -0.02024451270699501,
        -0.0044474853202700615,
        0.06033987179398537,
        0.009190398268401623,
        -0.022165732458233833,
        0.1104864627122879,
        -0.03573188930749893,
        0.07685776799917221,
        -0.11825994402170181,
        -0.062292926013469696,
        0.042060039937496185,
        0.06835579127073288,
        0.009417098015546799,
        0.12010128796100616,
        0.06133125722408295,
        0.02286117896437645,
        0.06610465794801712,
        -0.008243978954851627,
        0.008835758082568645,
        -0.09164385497570038,
        -0.041646476835012436,
        0.028576558455824852,
        -0.2555449604988098,
        -0.0662197545170784,
        0.049126580357551575,
        -0.0016920006601139903,
        -0.09409414976835251,
        0.035565800964832306,
        -0.010315492749214172,
        0.06551828235387802,
        0.05787496641278267,
        0.034810855984687805,
        -0.012639480642974377,
        0.03300166875123978,
        -0.17404913902282715,
        0.03627615049481392,
        -0.03460449352860451,
        0.04699338600039482,
        -0.005826808512210846,
        -0.0038899139035493135,
        0.09430474787950516,
        0.0149382334202528,
        -0.014205179177224636,
        0.02247508242726326,
        0.007539713755249977,
        -0.012291005812585354,
        0.06621354818344116,
        0.09397702664136887,
        -0.05770651996135712,
        0.003917503170669079,
        -0.020541809499263763,
        0.018636027351021767,
        0.05950811877846718,
        0.017804671078920364,
        0.000501967326272279,
        0.03888308256864548,
        -0.13654761016368866,
        -0.10127795487642288,
        -0.0622248537838459,
        -0.04239065945148468,
        0.008219080977141857,
        -0.020525289699435234,
        0.015761716291308403,
        -0.0719410628080368,
        -0.16106566786766052,
        0.037566717714071274,
        0.01244268100708723,
        0.052655939012765884,
        -0.03560374677181244,
        0.03341791406273842,
        -0.15193620324134827,
        -0.002121983328834176,
        0.06362001597881317,
        0.09725063294172287,
        0.013802469708025455,
        0.008094483986496925,
        0.013561015017330647,
        0.0635511577129364,
        0.015402993187308311,
        0.022417783737182617,
        0.028310386463999748,
        -0.0017494549974799156,
        0.015321880578994751,
        0.0010866380762308836,
        0.015012027695775032,
        0.08453702926635742,
        0.008448136039078236,
        -0.018916558474302292,
        0.010601778514683247,
        -0.09735769778490067,
        0.027947386726737022,
        -0.12120351195335388,
        0.16219700872898102,
        -0.04895898699760437,
        -0.00615260936319828,
        0.007626112550497055,
        -0.016822360455989838,
        -0.007272032555192709,
        -0.07532570511102676,
        -0.10900323837995529,
        -0.040100324898958206,
        -0.02003413252532482,
        -0.039296794682741165,
        -0.01452136691659689,
        -0.012520529329776764,
        -0.01807379350066185,
        -0.17755815386772156,
        0.0576983243227005,
        0.05871591717004776,
        -0.011719371192157269,
        -0.17777222394943237,
        0.07268866896629333,
        0.13176977634429932,
        -0.0035156942903995514,
        0.07680795341730118,
        -0.02029550075531006,
        0.08591876924037933,
        -0.05690208449959755,
        -0.24637974798679352,
        -0.08856314420700073,
        0.014308602549135685,
        0.03674941509962082,
        0.05237377807497978,
        -0.0010288507910445333,
        -0.010391542688012123,
        -0.0005912777851335704,
        0.003464014967903495,
        0.05034368485212326,
        0.056864190846681595,
        -0.04249674454331398,
        -0.02644418738782406,
        -0.07834586501121521,
        0.0014132383512333035,
        0.06170037388801575,
        -0.1818556785583496,
        -0.00148954417090863,
        0.05220044404268265,
        0.024163085967302322,
        -0.022469351068139076,
        -0.11508084088563919,
        -0.14598754048347473,
        0.03317830711603165,
        0.039696477353572845,
        0.10670660436153412,
        0.032965365797281265,
        -0.01097347866743803,
        0.021774614229798317,
        0.01772957667708397,
        -0.03882867470383644,
        0.0775485560297966,
        0.00798968505114317,
        -0.043950263410806656,
        -0.07869024574756622,
        -0.03469868004322052,
        -0.06543266028165817,
        -0.3072625994682312,
        -0.037109073251485825,
        0.05496757850050926,
        -0.03466246277093887,
        0.04134240373969078,
        0.022146526724100113,
        -0.1416676640510559,
        -0.041979726403951645,
        -0.008511695079505444,
        0.07102229446172714,
        0.018707526847720146,
        0.02902396395802498,
        -0.04669951647520065,
        0.0263941939920187,
        -0.06263934820890427,
        -0.01671725884079933,
        0.015615006908774376,
        -0.014955137856304646,
        -0.0009290844900533557,
        0.0016254294896498322,
        -0.08592455834150314,
        -0.03327462449669838,
        -0.011409427970647812,
        -0.08307171612977982,
        0.07959333807229996,
        0.03292720392346382,
        0.08117041736841202,
        0.0317319855093956,
        0.05190446227788925,
        -0.0670311227440834,
        -0.0796322301030159,
        0.002044586930423975,
        -0.08074072748422623,
        -0.16351701319217682,
        -0.10943715274333954,
        -0.13379889726638794,
        0.05043980851769447,
        0.030842335894703865,
        0.01009315624833107,
        -0.0767521932721138,
        0.10302368551492691,
        -0.08669998496770859,
        0.013395069167017937,
        -0.035923488438129425,
        0.00584739726036787,
        -0.010232443921267986,
        0.009077499620616436,
        -0.07179927080869675,
        0.10405787825584412,
        -0.036154795438051224,
        -0.1583033949136734,
        -0.015261887572705746,
        -0.05654289945960045,
        -0.04750616475939751,
        -0.16729319095611572,
        -0.10527724027633667,
        -0.07040784507989883,
        -0.020297236740589142,
        0.006725508254021406,
        0.05724957957863808,
        -0.00810929387807846,
        0.004428524058312178,
        -0.09714074432849884,
        0.030042486265301704,
        -0.03772878646850586,
        0.07822553813457489,
        0.0051628234796226025,
        0.05778428167104721,
        0.0024893861263990402,
        0.02782934159040451,
        -0.07794278115034103,
        -0.11160305142402649,
        -0.12281211465597153,
        -0.10208842158317566,
        -0.01992381550371647,
        0.014463016763329506,
        0.002782718976959586,
        0.019602162763476372,
        -0.04666214436292648,
        0.12892496585845947,
        0.05024006590247154,
        -0.15451987087726593,
        -0.007898741401731968,
        -0.10173231363296509,
        -0.11049699038267136,
        -0.029793864116072655,
        -0.07508453726768494,
        -0.0681554526090622,
        -0.03542435169219971,
        0.029141249135136604,
        0.05353923887014389,
        0.0011625386541709304,
        0.03786921501159668,
        -0.07010076195001602,
        0.027232689782977104,
        0.15187335014343262,
        0.024935981258749962,
        0.025002116337418556,
        -0.008586578071117401,
        -0.09980158507823944,
        -0.02828148566186428,
        0.08048735558986664,
        0.02294885367155075,
        0.06001921370625496,
        -0.08642054349184036,
        -0.11161769181489944,
        0.02724059484899044,
        -0.07538281381130219,
        0.017283162102103233,
        -0.047394223511219025,
        -0.0515805147588253,
        -0.028378846123814583,
        0.09465895593166351,
        0.06981398165225983,
        0.010105091147124767,
        0.030206376686692238,
        0.016497211530804634,
        -0.07975789904594421,
        -0.009588000364601612,
        -0.026726342737674713,
        0.03787711262702942,
        -0.05810846760869026,
        0.03630197048187256,
        0.043165404349565506,
        -0.020114656537771225,
        -0.14559756219387054,
        0.010338726453483105,
        -0.06124620512127876,
        0.02761213295161724,
        0.027500100433826447,
        -0.0012874838430434465,
        -0.018209682777523994,
        -0.16774685680866241,
        -0.1360701471567154,
        -0.012664658017456532,
        0.001748198876157403,
        -0.010121699422597885,
        -0.0141048114746809,
        -0.15255975723266602,
        -0.014008782804012299,
        0.018277181312441826,
        0.02409028261899948,
        0.0164071936160326,
        0.010277412831783295,
        -0.01052395161241293,
        0.034177083522081375,
        -0.1569400578737259,
        4.793222251464613e-05,
        -0.052680179476737976,
        0.08268629014492035,
        0.08475559949874878,
        -0.013065971434116364,
        -0.03124675713479519,
        -0.22829194366931915,
        -0.13475705683231354,
        -0.01594509929418564,
        -0.004691009409725666,
        -0.0355391725897789,
        -0.008085855282843113,
        -0.012275842018425465,
        0.0166564229875803,
        -0.09308740496635437,
        0.004226486198604107,
        -0.001747781760059297,
        0.0138078099116683,
        0.07679791748523712,
        -0.18248003721237183,
        -0.0844513550400734,
        -0.0866895318031311,
        -0.0011889971792697906,
        0.020537173375487328,
        0.03362617641687393,
        0.050808705389499664,
        0.10040362924337387,
        0.059898365288972855,
        -0.013918743468821049,
        -0.029412655159831047,
        -0.018001891672611237,
        0.04922604560852051,
        0.009198557585477829,
        0.03677940368652344,
        0.019602475687861443,
        0.10024072229862213,
        -0.08400128036737442,
        0.016173724085092545,
        -0.024616800248622894,
        -0.031875431537628174,
        0.07980170100927353,
        -0.11839386075735092,
        -0.14536814391613007,
        -0.0654667466878891,
        -0.06591836363077164,
        0.042104948312044144,
        0.07066243141889572,
        0.002740178257226944,
        -0.04565705731511116,
        -0.10336005687713623,
        -0.12063039839267731,
        -0.03847188502550125,
        0.01734129525721073,
        -0.02240164764225483,
        -0.020210707560181618,
        -0.04407208040356636,
        -0.15059125423431396,
        0.008100411854684353,
        0.07156983017921448,
        0.001296366099268198,
        -0.16069036722183228,
        0.04417651146650314,
        0.1498640477657318,
        0.0023922426626086235,
        0.07209186255931854,
        -0.0010085194371640682,
        0.03475320339202881,
        0.021872257813811302,
        -0.029763180762529373,
        -0.20268654823303223,
        -0.13137176632881165,
        0.005412479396909475,
        -0.015528766438364983,
        0.021420730277895927,
        0.0003346503945067525,
        -0.02193114161491394,
        0.012817309238016605,
        -0.09274784475564957,
        0.021989814937114716,
        -0.002666711574420333,
        0.01103239692747593,
        -0.014565223827958107,
        -0.05730902776122093,
        -0.14366626739501953,
        -0.036349207162857056,
        -0.007290736306458712,
        0.01014749612659216,
        0.009318911470472813,
        0.008140909485518932,
        0.04582873359322548,
        0.10239680111408234,
        0.060783661901950836,
        -0.05405796691775322,
        -0.04583162069320679,
        0.0005401341477409005,
        -0.06538470834493637,
        -0.08044025301933289,
        -0.11536981910467148,
        0.010467545129358768,
        -0.04351180046796799,
        0.06147593632340431,
        -0.02403276599943638,
        0.012010712176561356,
        -0.025414234027266502,
        -0.1072855219244957,
        -0.10879606753587723,
        -0.10209980607032776,
        0.03311862051486969,
        0.03423517569899559,
        0.0006612515426240861,
        -0.004780576564371586,
        0.04584791138768196,
        0.04337132349610329,
        0.025465309619903564,
        0.025867193937301636,
        -0.006575318984687328,
        0.01098037138581276,
        0.04790707677602768,
        0.0032266259659081697,
        0.09283290058374405,
        -0.009220296517014503,
        -0.041807278990745544,
        -0.026608778163790703,
        0.0018180942861363292,
        -0.0602804496884346,
        -0.13239122927188873,
        0.1293540745973587,
        -0.028302673250436783,
        0.005709094926714897,
        -0.024613866582512856,
        0.04520373046398163,
        0.022934725508093834,
        0.05842483043670654,
        -0.04606594890356064,
        0.005465775728225708,
        -0.0035869816783815622,
        -0.0013907764805480838,
        0.14856664836406708,
        0.04856955632567406,
        -0.013919240795075893,
        -0.024288345128297806,
        -0.11465208232402802,
        0.04663805663585663,
        0.031177088618278503,
        0.054868802428245544,
        0.09716492891311646,
        -0.043984707444906235,
        -0.14545537531375885,
        0.08210352808237076,
        -0.0806950256228447,
        -0.002154802205041051,
        -0.016086019575595856,
        0.006983264349400997,
        -0.11988107115030289,
        -0.033546410501003265,
        0.03991486877202988,
        0.047911062836647034,
        0.03633551299571991,
        0.1321452111005783,
        0.02948918379843235,
        0.007300055120140314,
        -0.04478276148438454,
        0.10082307457923889,
        -0.028721751645207405,
        0.02487061731517315,
        0.09187060594558716,
        -0.0642295628786087,
        0.08203383535146713,
        -0.23734939098358154,
        -0.07818201184272766,
        -0.0392463244497776,
        -0.024891478940844536,
        -0.0020223704632371664,
        -0.07763945311307907,
        -0.07566139847040176,
        0.11981704831123352,
        0.0266630407422781,
        0.09923938661813736,
        0.047234319150447845,
        -0.04881219193339348,
        0.06199244409799576,
        0.0015798124950379133,
        0.10329820215702057,
        0.0019830295350402594,
        -0.02915353700518608,
        -0.061443012207746506,
        -0.03979981690645218,
        -0.056580204516649246,
        -0.1496032178401947,
        0.05514761805534363,
        -0.015042108483612537,
        0.023575203493237495,
        0.06781461089849472,
        0.0018107530195266008,
        0.1441619098186493,
        0.047428298741579056,
        0.055437710136175156,
        0.04277029260993004,
        -0.015624996274709702,
        -0.041301291435956955,
        -0.08115503937005997,
        -0.06917718797922134,
        -0.017305461689829826,
        0.012602302245795727,
        -0.08369192481040955,
        -0.004466572310775518,
        0.03660877048969269,
        -0.01843060739338398,
        0.04963622987270355,
        -0.05475162714719772,
        -0.03282563388347626,
        0.0036266709212213755,
        0.06715463101863861,
        0.007034392096102238,
        0.023011593148112297,
        -0.004604061134159565,
        -0.09081373363733292,
        -0.020029885694384575,
        0.013918684795498848,
        -0.004043822642415762,
        -0.026507342234253883,
        0.016586262732744217,
        0.00811986904591322,
        0.010151296854019165,
        -0.011688520200550556,
        0.038599852472543716,
        0.006916666869074106,
        0.02278023585677147,
        0.022736331447958946,
        -0.013754352927207947,
        0.16540271043777466,
        -0.23503227531909943,
        -0.003990638069808483,
        -0.008644810877740383,
        -0.016705218702554703,
        0.009574047289788723,
        -0.0739533007144928,
        -0.14013969898223877,
        -0.06324127316474915,
        -0.007505221292376518,
        0.036809854209423065,
        -0.017335938289761543,
        0.0037521927151829004,
        -0.12826673686504364,
        -0.04327981173992157,
        -0.006010891869664192,
        0.01277098711580038,
        0.0273907408118248,
        0.018738601356744766,
        0.05027611926198006,
        -0.14095115661621094,
        -0.14347293972969055,
        -0.020858943462371826,
        0.008569135330617428,
        0.02198226936161518,
        -0.010193093679845333,
        0.023448243737220764,
        -0.1727452278137207,
        -0.05565670505166054,
        -0.038013849407434464,
        -0.06581058353185654,
        0.004683635663241148,
        -0.03133567422628403,
        -0.014897942543029785,
        -0.04221886396408081,
        -0.0838482454419136,
        -0.18098703026771545,
        0.03548512980341911,
        0.044904112815856934,
        0.0007712687947787344,
        0.027974307537078857,
        -0.15126822888851166,
        0.0730535015463829,
        -0.012217074632644653,
        0.10334198921918869,
        -0.005711357109248638,
        0.017857782542705536,
        0.011755844578146935,
        0.02363697439432144,
        0.05475832521915436,
        0.07295629382133484,
        0.011095347814261913,
        0.005679822526872158,
        0.01113149244338274,
        -0.03692982345819473,
        -0.1236993670463562,
        -0.08003243058919907,
        0.055849332362413406,
        -0.018907152116298676,
        -0.025469141080975533,
        -0.12465491145849228,
        -0.11627859622240067,
        -0.022335024550557137,
        -0.08726576715707779,
        -0.017947696149349213,
        -0.1838587522506714,
        0.0627000480890274,
        0.07759743928909302,
        0.012980284169316292,
        -0.031591642647981644,
        0.007740998640656471,
        -0.005032787565141916,
        0.017320265993475914,
        0.035287272185087204,
        0.0031619961373507977,
        0.008893579244613647,
        -0.01548548974096775,
        -0.016083108261227608,
        -0.054694194346666336,
        0.006374436896294355,
        0.026952002197504044,
        -0.0004851590492762625,
        -0.14577004313468933,
        -0.11163672804832458,
        -0.0003825105377472937,
        -0.17478275299072266,
        0.028589826077222824,
        -0.02507752552628517,
        0.02862568199634552,
        -0.011243722401559353,
        0.082483671605587,
        -0.17826277017593384,
        -0.048979051411151886,
        -0.015627874061465263,
        -0.033087387681007385,
        -0.010664092376828194,
        0.007731019053608179,
        0.026227541267871857,
        -0.011283662170171738,
        -0.10693556070327759,
        -0.04886554554104805,
        0.019778979942202568,
        0.07689031958580017,
        -0.013897012919187546,
        -0.0004451616550795734,
        -0.08983991295099258,
        0.014637408778071404,
        0.0054227798245847225,
        0.06757476925849915,
        -0.015982018783688545,
        0.006085963454097509,
        0.04837647080421448,
        0.054378099739551544,
        -0.08592192828655243,
        -0.005134885199368,
        -0.02477569505572319,
        -0.0050039347261190414,
        0.08676492422819138,
        0.025035375729203224,
        0.0021247039549052715,
        -0.04042696952819824,
        0.08099791407585144,
        0.05486423149704933,
        0.04698945954442024,
        -0.009199026972055435,
        0.027056243270635605,
        0.033593885600566864,
        0.04423747584223747,
        -0.04148489609360695,
        0.007799227721989155,
        0.013458427973091602,
        0.01674223318696022,
        0.019021375104784966,
        0.022827964276075363,
        -0.034519847482442856,
        -0.07422160357236862,
        -0.016275113448500633,
        -0.013520967215299606,
        -0.050110481679439545,
        -0.2213391810655594,
        -0.09306515008211136,
        -0.16020376980304718,
        -0.027085406705737114,
        0.034393977373838425,
        -0.04482949152588844,
        0.03448032587766647,
        0.06369038671255112,
        0.003647430567070842,
        0.0293735321611166,
        0.02200355939567089,
        -0.0010943153174594045,
        -0.003048463724553585,
        0.012502817437052727,
        -0.011831332929432392,
        0.04245845228433609,
        0.016022464260458946,
        0.024203479290008545,
        0.016698285937309265,
        -0.02294520102441311,
        0.01533954031765461,
        -0.005559735000133514,
        -0.020343737676739693,
        0.04183119162917137,
        -0.006615482736378908,
        -0.007016186136752367,
        0.0005446032737381756,
        -0.04564739018678665,
        -0.01840953156352043,
        -0.041013363748788834,
        0.14943695068359375,
        -0.024891868233680725,
        -0.008666449226439,
        0.041613612323999405,
        -0.0016398500883951783,
        0.03821130096912384,
        -0.1211492046713829,
        -0.03488892689347267,
        0.12104061245918274,
        0.015078023076057434,
        0.03399230167269707,
        0.05633101612329483,
        0.0078584561124444,
        -0.0006857314147055149,
        -0.0822037011384964,
        0.07907954603433609,
        -0.031118134036660194,
        0.04276793450117111,
        0.03335390239953995,
        -0.03184112533926964,
        0.07944957911968231,
        -0.26240530610084534,
        -0.04669998586177826,
        -0.013725719414651394,
        -0.025432486087083817,
        -0.0008459968958050013,
        -0.10540930181741714,
        0.03751564770936966,
        0.012273109517991543,
        -0.12083616852760315,
        -0.03950336575508118,
        -0.0372651144862175,
        -0.017786860466003418,
        -0.0587751641869545,
        -0.07895522564649582,
        -0.03409867361187935,
        0.023645566776394844,
        0.0019025560468435287,
        0.08514329046010971,
        0.045067574828863144,
        -0.1456381231546402,
        -0.015605310909450054,
        -0.1229274645447731,
        -0.08347134292125702,
        0.048512138426303864,
        0.02406187355518341,
        -0.02369355596601963,
        -0.05805698782205582,
        -0.04138559848070145,
        -0.16756673157215118,
        -0.04773428291082382,
        -0.02228608913719654,
        -0.03453025594353676,
        -0.03124178759753704,
        -0.028841711580753326,
        -0.04298226162791252,
        -0.1598839908838272,
        0.0456656888127327,
        0.03748827800154686,
        0.05743476375937462,
        0.048081230372190475,
        -0.1418050229549408,
        0.08315401524305344,
        0.009171429090201855,
        0.016456862911581993,
        0.04704113304615021,
        -0.01122629176825285,
        0.0368068553507328,
        0.07699645310640335,
        0.0871608778834343,
        -0.0009616268798708916,
        -0.07242991775274277,
        -0.038242317736148834,
        -0.02153776027262211,
        -0.07446164637804031,
        -0.1408851593732834,
        -0.0485709086060524,
        0.02581636793911457,
        -0.032543811947107315,
        0.01745740696787834,
        -0.011409090831875801,
        -0.03676077350974083,
        -0.03832874819636345,
        -0.028161142021417618,
        -0.004587698262184858,
        -0.09068291634321213,
        0.0015763802221044898,
        -0.0023070694878697395,
        -0.02560700848698616,
        0.055558010935783386,
        -0.06718428432941437,
        -0.07829554378986359,
        -0.0138092627748847,
        -0.0667688250541687,
        0.016645096242427826,
        -0.0007976246415637434,
        -0.08513882756233215,
        -0.00629734992980957,
        -0.09204981476068497,
        -0.10040215402841568,
        0.07160098850727081,
        -0.05864099785685539,
        0.0026580430567264557,
        0.03839985653758049,
        -0.019148007035255432,
        0.005991198122501373,
        0.014206732623279095,
        0.009855699725449085,
        -0.013468297198414803,
        -0.011249586939811707,
        0.02584919147193432,
        0.0808669850230217,
        0.05087319761514664,
        -0.0980239287018776,
        -0.06339669972658157,
        -0.008142523467540741,
        0.07604838907718658,
        0.03931107744574547,
        -0.06648460030555725,
        -0.009771080687642097,
        -0.04387853667140007,
        0.05059865117073059,
        0.13531368970870972,
        -0.0007952767191454768,
        0.02963409759104252,
        -0.16439944505691528,
        -0.16158193349838257,
        0.0015199718764051795,
        -0.0027886410243809223,
        -0.01556683611124754,
        -0.005303544458001852,
        0.04755621403455734,
        -0.009368706494569778,
        -0.07695893198251724,
        -0.0738203376531601,
        -0.0444040484726429,
        -0.03366958349943161,
        -0.023371292278170586,
        -0.026081031188368797,
        -0.0016756292898207903,
        -0.2305980622768402,
        0.041087180376052856,
        0.023811159655451775,
        0.04352092370390892,
        -0.061939556151628494,
        -0.018047139048576355,
        0.13835270702838898,
        0.030687391757965088,
        -0.00344995129853487,
        0.09130603075027466,
        -0.010575082153081894,
        0.004152144771069288,
        -0.01866082474589348,
        0.019861426204442978,
        0.024854179471731186,
        0.018028434365987778,
        -0.02107062190771103,
        0.013195263221859932,
        -0.006743277423083782,
        0.013283957727253437,
        0.002530129859223962,
        0.09734112024307251,
        0.032555580139160156,
        0.00764237018302083,
        -0.002894636709243059,
        0.02202807553112507,
        -0.10349912941455841,
        -0.036966320127248764,
        0.14442327618598938,
        -0.04271317645907402,
        -0.013386198319494724,
        0.0025995257310569286,
        -0.02825753204524517,
        0.07465347647666931,
        -0.0015837831888347864,
        0.0881008729338646,
        0.07148995995521545,
        0.010050191543996334,
        -0.02265685796737671,
        -0.02872721664607525,
        -0.018024729564785957,
        -0.05528459697961807,
        -0.014445058070123196,
        -0.05705546960234642,
        -0.005015556700527668,
        -0.02397850900888443,
        -0.10461875051259995,
        -0.009051641449332237,
        -0.09538551419973373,
        -0.0834050327539444,
        -0.06889063864946365,
        0.07607872039079666,
        -0.036956701427698135,
        -0.01520360354334116,
        -0.054126765578985214,
        -0.016271481290459633,
        0.0176641047000885,
        -0.03644430637359619,
        0.009838663972914219,
        0.027839848771691322,
        0.014567768201231956,
        0.0036349508445709944,
        0.01926259882748127,
        0.05513736233115196,
        0.0492546409368515,
        0.018612252548336983,
        -0.011949560604989529,
        0.1261669546365738,
        0.1156427189707756,
        0.06719325482845306,
        0.09971675276756287,
        -0.02064625546336174,
        0.004768095910549164,
        -0.02819221466779709,
        -0.0230504609644413,
        -0.1048339232802391,
        -0.1313791573047638,
        -0.13033844530582428,
        -0.11951388418674469,
        0.0005648340447805822,
        -0.0027230374980717897,
        0.014962117187678814,
        -0.023289959877729416,
        -0.0032869908027350903,
        -0.16954009234905243,
        -0.03692245855927467,
        0.09759699553251266,
        -0.02099691517651081,
        -0.10285048931837082,
        0.0488293282687664,
        0.28030407428741455,
        -0.0030742879025638103,
        0.13821309804916382,
        -0.009714972227811813,
        0.026650017127394676
      ]
    },
    {
      "architecture": "normalization",
      "bias": [
        -0.033435508608818054,
        -0.03696325421333313,
        -0.027408262714743614,
        -0.07000862061977386,
        -0.03739044815301895,
        -0.12510399520397186,
        -0.02673470415174961,
        -0.08298368752002716,
        -0.17037545144557953,
        -0.04568365588784218,
        -0.03159021586179733,
        -0.010866492986679077,
        -0.06786489486694336,
        -0.06070386618375778,
        -0.016010412946343422,
        -0.09651551395654678,
        -0.06810968369245529,
        -0.06970906257629395,
        -0.13537552952766418,
        -0.034451305866241455,
        -0.0508347824215889,
        -0.030300281941890717,
        -0.13508765399456024,
        -0.02557183802127838,
        -0.11045302450656891,
        -0.021240878850221634,
        -0.05919332802295685,
        -0.10904218256473541,
        -0.08302048593759537,
        -0.03798855468630791,
        -0.10062046349048615,
        -0.03512739762663841,
        -0.026737913489341736,
        -0.09170013666152954,
        -0.012822730466723442,
        -0.06051521748304367,
        -0.04764437675476074,
        -0.033596672117710114,
        -0.11411872506141663,
        -0.047748953104019165,
        -0.056701645255088806,
        -0.03132189065217972,
        -0.05484611168503761,
        -0.05055282637476921,
        -0.03179693967103958,
        -0.09494052827358246,
        -0.07775644958019257,
        -0.034512657672166824,
        -0.05620815232396126,
        -0.11042588204145432,
        -0.003110256977379322,
        9.794046491151676e-05,
        -0.3565099835395813,
        -0.07625140994787216,
        -0.07284919172525406,
        -0.04182729870080948,
        -0.04520772024989128,
        -0.07238336652517319,
        -0.10601864755153656,
        -0.04740140959620476,
        -0.028572525829076767,
        -0.09157217293977737,
        -0.06008439511060715,
        -0.1216939389705658,
        -0.01811700500547886,
        -0.04788234457373619,
        -0.04559485986828804,
        -0.06472774595022202,
        -0.03252223879098892,
        -0.02691233716905117,
        -0.04902241379022598,
        -0.03493082523345947,
        -0.06743015348911285,
        -0.02886223793029785,
        -0.05252731591463089,
        -0.0421125590801239,
        -0.03290044143795967,
        -0.02732238732278347,
        -0.059052012860774994,
        -0.01833987608551979,
        -0.15749086439609528,
        -0.10956951230764389,
        -0.051625750958919525,
        -0.05380924791097641,
        -0.08365032821893692,
        -0.058232903480529785,
        -0.036613721400499344,
        -0.02095770090818405,
        -0.015188658609986305,
        -0.06423234194517136,
        -0.07528233528137207,
        -0.022111082449555397,
        -0.11536132544279099,
        -0.061753734946250916,
        -0.18366378545761108,
        -0.05734376236796379,
        -0.0012992079136893153,
        -0.023053590208292007,
        -0.023686768487095833,
        -0.050004858523607254,
        -0.02925855852663517,
        -0.0477733351290226,
        -0.043215684592723846,
        -0.02262958511710167,
        -0.08599019050598145,
        -0.06495854258537292,
        -0.06303918361663818,
        -0.06898555159568787,
        -0.056943729519844055,
        -0.042275313287973404,
        -0.03716606646776199,
        -0.005127230659127235,
        -0.023135824128985405,
        -0.0322384387254715,
        -0.02813335508108139,
        -0.12029232084751129,
        -0.016924772411584854,
        -0.059666622430086136,
        -0.013604182749986649,
        -0.030531451106071472,
        -0.04265116527676582,
        -0.06733768433332443,
        -0.09310627728700638,
        -0.0794391855597496,
        -0.020703084766864777,
        -0.02749633975327015,
        -0.1623607873916626,
        -0.018109358847141266
      ],
      "weights": [
        7.351944923400879,
        8.156848907470703,
        8.445335388183594,
        6.725711345672607,
        6.647430419921875,
        4.785767078399658,
        12.754059791564941,
        6.0168890953063965,
        2.9139912128448486,
        7.644008159637451,
        11.640159606933594,
        15.10129451751709,
        5.515334129333496,
        6.361194133758545,
        14.819070816040039,
        4.47987699508667,
        6.133669376373291,
        6.9053802490234375,
        3.717022657394409,
        11.406394958496094,
        7.326064586639404,
        9.807287216186523,
        3.7147841453552246,
        11.609291076660156,
        4.9291181564331055,
        10.705838203430176,
        7.088720321655273,
        6.21993350982666,
        5.279684066772461,
        9.482507705688477,
        5.222385883331299,
        6.750285625457764,
        11.573129653930664,
        5.674496173858643,
        17.662233352661133,
        7.989811897277832,
        8.539106369018555,
        10.134093284606934,
        4.1005425453186035,
        7.647913455963135,
        6.91926908493042,
        11.380778312683105,
        5.731457233428955,
        7.2674174308776855,
        10.436150550842285,
        4.144203186035156,
        5.746666431427002,
        9.400662422180176,
        6.997002124786377,
        3.6733767986297607,
        22.760101318359375,
        33.28940200805664,
        1.3660969734191895,
        8.2279691696167,
        5.65220308303833,
        7.579229354858398,
        8.216325759887695,
        6.747140407562256,
        4.52263879776001,
        7.046379566192627,
        6.453876495361328,
        5.227843284606934,
        8.304274559020996,
        4.461448669433594,
        13.100131034851074,
        6.844151496887207,
        9.167094230651855,
        6.328181743621826,
        8.776437759399414,
        11.184183120727539,
        6.787179470062256,
        8.41012191772461,
        7.679563522338867,
        11.915796279907227,
        7.6794538497924805,
        9.771743774414062,
        6.395797252655029,
        11.859790802001953,
        7.232149600982666,
        7.754181385040283,
        2.753288507461548,
        3.399075746536255,
        6.293757915496826,
        7.287660121917725,
        4.404453754425049,
        8.045432090759277,
        10.347829818725586,
        8.035510063171387,
        12.427237510681152,
        6.84561014175415,
        6.210356712341309,
        13.193607330322266,
        4.252903938293457,
        7.761025428771973,
        3.51208233833313,
        7.118608474731445,
        32.15821838378906,
        14.698259353637695,
        11.684859275817871,
        6.150173664093018,
        9.490159034729004,
        8.763043403625488,
        8.87342357635498,
        8.71379280090332,
        5.188357353210449,
        7.113520622253418,
        6.551158428192139,
        4.445982456207275,
        8.680179595947266,
        9.247045516967773,
        10.128815650939941,
        18.78367805480957,
        12.736429214477539,
        10.640944480895996,
        9.270624160766602,
        4.664341926574707,
        8.820982933044434,
        6.788671493530273,
        16.73399543762207,
        11.404176712036133,
        8.200011253356934,
        6.511054515838623,
        6.100318431854248,
        5.9588823318481445,
        7.653461933135986,
        10.31845474243164,
        3.6400539875030518,
        11.039668083190918
      ]
    },
    {
      "activation": "rectified",
      "architecture": "dense",
      "bias": [
        -0.017050977796316147,
        -0.021513011306524277,
        -0.015089817345142365,
        -0.044289518147706985,
        -0.015233556739985943,
        0.008322550915181637,
        -0.025084076449275017,
        -0.00037657874054275453,
        -0.042790487408638,
        -0.04654351621866226,
        -0.043656956404447556,
        -0.04506782069802284,
        -0.06267903000116348,
        -0.00647927587851882,
        -0.024325359612703323,
        -0.032464057207107544,
        -0.009098805487155914,
        0.0006769331521354616,
        -0.04337640479207039,
        -0.00801325123757124,
        -0.004451730288565159,
        -0.0010963481618091464,
        -0.009028322994709015,
        -0.01994151808321476,
        -0.0815139040350914,
        0.011552111245691776,
        0.006106024142354727,
        0.002824521856382489,
        0.003265464212745428,
        -0.010137300938367844,
        0.005461424123495817,
        0.021793464198708534,
        -0.03214569017291069,
        -0.03773205727338791,
        -0.06248161196708679,
        -0.046316202729940414,
        -0.026466302573680878,
        -0.025577520951628685,
        -0.03497622534632683,
        -0.04712686315178871,
        0.0028230100870132446,
        -0.01860126107931137,
        -0.014583265408873558,
        -0.021560991182923317,
        -0.018113700672984123,
        -0.058360807597637177,
        -0.031068334355950356,
        0.005837346892803907,
        -0.009849089197814465,
        -0.08505762368440628,
        -0.02390153519809246,
        0.0012215219903737307,
        0.021449431777000427,
        0.008547774516046047,
        -0.04211118817329407,
        -0.0028523695655167103,
        -0.0145021453499794,
        -0.03139793500304222,
        -0.05990249663591385,
        -0.022795679047703743,
        -0.015292532742023468,
        -0.020029917359352112,
        -0.0032001291401684284,
        -0.007716619875282049,
        0.008800067007541656,
        0.003411889309063554,
        -0.055212605744600296,
        0.031896937638521194,
        -0.029606342315673828,
        -0.013520969077944756,
        -0.02701449953019619,
        -0.0310782752931118,
        -0.0012106740614399314,
        -0.06359093636274338,
        -0.05700250342488289,
        0.043464891612529755,
        -0.045301683247089386,
        0.03800417482852936,
        -0.003232899121940136,
        0.006459780968725681,
        0.0006292359903454781,
        0.002534810220822692,
        0.014731095172464848,
        0.012920455075800419,
        0.0316162146627903,
        -0.021107977256178856,
        -0.07987087965011597,
        -0.009263677522540092,
        -0.014161605387926102,
        -0.02792344056069851,
        0.011889337562024593,
        -0.02143252082169056,
        -0.04474439471960068,
        -0.02467470057308674,
        -0.07857988029718399,
        0.001660544890910387,
        0.010055594146251678,
        -0.03155164420604706,
        0.00277930055744946,
        -0.030504178255796432
      ],
      "weights": [
        0.023296751081943512,
        -0.13033726811408997,
        -0.09469611197710037,
        0.026905177161097527,
        0.15670639276504517,
        0.08226555585861206,
        -0.069839246571064,
        -0.13323697447776794,
        -0.019477274268865585,
        -0.02927600033581257,
        -0.08435539901256561,
        0.02826000563800335,
        0.11453068256378174,
        0.07061046361923218,
        0.17322564125061035,
        0.04982229694724083,
        -0.0662868395447731,
        0.04281209781765938,
        -0.09084974229335785,
        -0.07882996648550034,
        0.11170172691345215,
        -0.1430300921201706,
        0.15137983858585358,
        0.0704350695014,
        0.015605542808771133,
        -0.1111755296587944,
        -0.1642456203699112,
        -0.031558334827423096,
        -0.06653621792793274,
        -0.10644102841615677,
        0.10756082087755203,
        0.00197309791110456,
        0.14276160299777985,
        -0.035552676767110825,
        0.12406259030103683,
        -0.00464685307815671,
        0.07101573050022125,
        0.09376471489667892,
        0.10738136619329453,
        -0.12015953660011292,
        -0.015782121568918228,
        0.09102624654769897,
        0.08196957409381866,
        0.014431909658014774,
        0.023811284452676773,
        -0.04900822788476944,
        -0.149128258228302,
        0.11971114575862885,
        -0.08716972172260284,
        -0.125792995095253,
        0.14110201597213745,
        -0.04394873231649399,
        -0.018082663416862488,
        0.07507520169019699,
        0.09547577798366547,
        0.09263192117214203,
        0.11078408360481262,
        0.08335047215223312,
        -0.09198002517223358,
        -0.11529987305402756,
        -0.15827488899230957,
        -0.06209002807736397,
        0.07618124783039093,
        -0.026938421651721,
        0.13436585664749146,
        -0.12189573794603348,
