{
  "defaults": {},
  "inputs": [
    {
      "name": "met_met",
      "offset": "-67975.3853705",
      "scale": "1.80026566501e-05"
    },
    {
      "name": "jet_pt_2nd",
      "offset": "-94773.5458929",
      "scale": "1.4585189043e-05"
    },
    {
      "name": "ph_drsubljet_sel",
      "offset": "-2.20170362834",
      "scale": "1.08053395997"
    },
    {
      "name": "jet_pt_3rd",
      "offset": "-60335.8890109",
      "scale": "2.96575255373e-05"
    },
    {
      "name": "ph_HFT_MVA_sel",
      "offset": "-0.711686315499",
      "scale": "4.04365624698"
    },
    {
      "name": "ph_drleadjet_sel",
      "offset": "-2.34093072573",
      "scale": "1.10063802638"
    },
    {
      "name": "jet_tagWeightBin_subleading",
      "offset": "-2.57715584103",
      "scale": "0.600646131731"
    },
    {
      "name": "event_HT",
      "offset": "-447152.690039",
      "scale": "4.20076628951e-06"
    },
    {
      "name": "jet_pt_5th",
      "offset": "-36495.0123006",
      "scale": "6.96434530351e-05"
    },
    {
      "name": "jet_pt_4th",
      "offset": "-41742.6669609",
      "scale": "4.95799950479e-05"
    },
    {
      "name": "jet_pt_1st",
      "offset": "-152021.569521",
      "scale": "9.00247084673e-06"
    },
    {
      "name": "event_mwt",
      "offset": "-69331.0652311",
      "scale": "2.05837214479e-05"
    },
    {
      "name": "event_nbjets77",
      "offset": "-1.47479845317",
      "scale": "1.69264360146"
    },
    {
      "name": "ph_drlept_sel",
      "offset": "-2.26598459784",
      "scale": "1.31204743406"
    },
    {
      "name": "jet_tagWeightBin_leading",
      "offset": "-4.66500622665",
      "scale": "1.51028513472"
    },
    {
      "name": "event_njets",
      "offset": "-4.69583360643",
      "scale": "1.02537784472"
    }
  ],
  "layers": [
    {
      "activation": "rectified",
      "architecture": "dense",
      "bias": [
        -0.06824414432048798,
        -0.09085812419652939,
        -0.207176074385643,
        0.07057134062051773,
        -0.034397680312395096,
        -0.08386246860027313,
        0.008309388533234596,
        -0.15116070210933685,
        -0.012784767895936966,
        -0.07032573223114014,
        -0.08735384047031403,
        -0.11753164976835251,
        -0.10682623088359833,
        -0.08237245678901672,
        -0.12577924132347107,
        -0.06717421859502792,
        0.045634277164936066,
        -0.08690425008535385,
        -0.04939821735024452,
        -0.097458615899086,
        -0.050297725945711136,
        -0.1107141301035881,
        -0.08903490006923676,
        0.02350003458559513,
        0.05440465360879898,
        0.014079590328037739,
        -0.05264287814497948,
        -0.00918628927320242,
        0.017133284360170364,
        -0.08984027057886124
      ],
      "weights": [
        -0.021919647231698036,
        0.05216030403971672,
        -0.05686911195516586,
        0.05026452988386154,
        -0.04091164469718933,
        0.16252751648426056,
        -0.03975840285420418,
        0.01197700947523117,
        0.016559913754463196,
        0.008715744130313396,
        -0.006472988519817591,
        -0.091655433177948,
        0.02682097814977169,
        -0.01717044785618782,
        -0.007031716872006655,
        0.022229835391044617,
        -0.022855522111058235,
        -0.047847289592027664,
        0.05505950003862381,
        0.03428167849779129,
        -0.009562178514897823,
        -0.049791183322668076,
        0.023548344150185585,
        -0.05325285717844963,
        -0.0061963265761733055,
        -0.04624897614121437,
        0.07419638335704803,
        0.10156233608722687,
        0.04986219108104706,
        0.05088740214705467,
        -0.010938749648630619,
        -0.017520718276500702,
        -0.03513934090733528,
        -0.014819569885730743,
        -0.0446133017539978,
        -0.12733490765094757,
        0.017206748947501183,
        0.04614637419581413,
        0.020349515601992607,
        -0.10883507877588272,
        0.0071537792682647705,
        -0.007343231700360775,
        -0.01421280112117529,
        -0.04070618003606796,
        -0.008725078776478767,
        0.0014436121564358473,
        -0.014058900065720081,
        -0.022725936025381088,
        -0.007539830636233091,
        0.01886064000427723,
        -0.007550941780209541,
        0.04630078375339508,
        0.08613491803407669,
        -0.005386637523770332,
        0.05595996603369713,
        0.03460433706641197,
        0.016176240518689156,
        0.009524129331111908,
        0.01825062744319439,
        -0.02688736654818058,
        -0.03395005688071251,
        -0.03573845326900482,
        0.15224330127239227,
        0.004796250723302364,
        0.0443074107170105,
        -0.0022210609167814255,
        -0.11037788540124893,
        -0.034054309129714966,
        0.03759375959634781,
        -0.011751117184758186,
        0.05707111209630966,
        -0.029749613255262375,
        0.00529779028147459,
        -0.028461413457989693,
        -0.0026413188315927982,
        0.05209632217884064,
        -0.00019649919704534113,
        -0.10807907581329346,
        -0.020817022770643234,
        -0.038012683391571045,
        -0.11116622388362885,
        0.019583042711019516,
        -0.0021204063668847084,
        0.037817586213350296,
        -0.009216053411364555,
        0.07330255955457687,
        -0.07388429343700409,
        -0.02687663957476616,
        -0.021425560116767883,
        -0.02879798784852028,
        0.002814581850543618,
        -0.05744369700551033,
        0.007840272970497608,
        -0.02502705343067646,
        -0.03052366152405739,
        -0.04983224719762802,
        -0.005674030166119337,
        0.006319464650005102,
        0.013775533996522427,
        -0.03803725913167,
        0.07915861904621124,
        0.010814695619046688,
        -0.011667412705719471,
        0.07902204990386963,
        0.011276417411863804,
        0.060718733817338943,
        -0.06575194746255875,
        -0.027491016313433647,
        -0.006765308324247599,
        -0.04996850714087486,
        0.08351483196020126,
        0.0011248952941969037,
        -0.09690868854522705,
        -0.014622325077652931,
        -0.0021850042976439,
        -0.05468019098043442,
        0.0017014583572745323,
        0.016865011304616928,
        -0.09915968775749207,
        -0.051347702741622925,
        -0.024325456470251083,
        -0.04068608954548836,
        0.07279302924871445,
        0.0046378131955862045,
        -0.030445637181401253,
        -0.02364734746515751,
        -0.024569062516093254,
        0.013396834954619408,
        0.022566242143511772,
        0.008849799633026123,
        0.07489718496799469,
        -0.017046865075826645,
        -0.09062575548887253,
        0.03917281702160835,
        0.040386080741882324,
        -0.04308151826262474,
        -0.07874909043312073,
        -0.0011025522835552692,
        0.03484475985169411,
        0.018682057037949562,
        -0.049247708171606064,
        0.06262759864330292,
        -0.0922960564494133,
        0.018679728731513023,
        0.03781134635210037,
        -0.01540642511099577,
        0.06735905259847641,
        -0.06883255392313004,
        0.044572971761226654,
        0.06501985341310501,
        0.04665538668632507,
        0.022786788642406464,
        0.034804560244083405,
        0.05518675222992897,
        -0.022862868383526802,
        -0.04349459335207939,
        0.04204053804278374,
        -0.03116576373577118,
        0.03043406829237938,
        0.03739840164780617,
        -0.03600883111357689,
        0.07753684371709824,
        -0.017981601879000664,
        -0.0458616241812706,
        -0.0013283981243148446,
        0.06375596672296524,
        -0.13028602302074432,
        -0.0045298016630113125,
        -0.03443634882569313,
        -0.018251528963446617,
        -0.005309762433171272,
        -0.006419992074370384,
        -0.0349859893321991,
        -0.07349978387355804,
        -0.04002293199300766,
        0.030261969193816185,
        -0.0006633480079472065,
        0.027230089530348778,
        0.02131318300962448,
        -0.12651196122169495,
        -0.022372815757989883,
        -0.023319531232118607,
        -0.004598632454872131,
        -0.14534571766853333,
        -0.07885023206472397,
        -0.007340392097830772,
        0.03181210532784462,
        -0.035440873354673386,
        -0.02481437288224697,
        0.00507373595610261,
        -0.0008362147491425276,
        -0.07895705848932266,
        -0.036650270223617554,
        -0.0044801561161875725,
        0.016233256086707115,
        -0.0911475121974945,
        -0.04105297103524208,
        -0.009789645671844482,
        0.043918073177337646,
        -0.14416565001010895,
        -0.04042135179042816,
        0.005079129710793495,
        0.043441932648420334,
        0.005998122971504927,
        0.010099182836711407,
        0.02216303162276745,
        -0.032790396362543106,
        -0.1078404039144516,
        -0.1381954401731491,
        0.02627580240368843,
        0.030025828629732132,
        -0.10702599585056305,
        -0.012158685363829136,
        0.009032521396875381,
        -0.07401379942893982,
        0.02469920553267002,
        0.015166576020419598,
        -0.03155512362718582,
        0.021453524008393288,
        0.0575258694589138,
        0.0007853461429476738,
        0.013813170604407787,
        -0.04536336660385132,
        -0.0013962368248030543,
        0.015904899686574936,
        0.03180858865380287,
        -0.060442354530096054,
        0.05371129512786865,
        -0.020418958738446236,
        0.13330407440662384,
        0.049831572920084,
        -0.09708759188652039,
        -0.06885364651679993,
        -0.00440441956743598,
        -0.0140069043263793,
        0.04535473883152008,
        -0.020915331318974495,
        -0.00063060421962291,
        0.005943888798356056,
        0.020546184852719307,
        0.08147794008255005,
        -0.03434790298342705,
        -0.047236453741788864,
        -0.0700015127658844,
        0.024199731647968292,
        0.0015484384493902326,
        0.019434867426753044,
        0.019692080095410347,
        0.08145545423030853,
        0.038256701081991196,
        -0.012818749062716961,
        -0.023689141497015953,
        0.018220756202936172,
        0.02833520621061325,
        0.0748196393251419,
        0.05609271675348282,
        0.03343755379319191,
        -0.04717400297522545,
        -0.013336285017430782,
        0.018025416880846024,
        0.055210672318935394,
        -0.033358365297317505,
        -0.017413325607776642,
        -0.011622222140431404,
        0.0050494372844696045,
        0.04039394482970238,
        -0.0645844116806984,
        0.00841105543076992,
        -0.06117118522524834,
        -0.04249067232012749,
        0.08679034560918808,
        0.027838220819830894,
        -0.10272271186113358,
        0.026788216084241867,
        0.10203175991773605,
        0.060211990028619766,
        -0.003693901002407074,
        -0.059475187212228775,
        -0.10454405099153519,
        -0.04235066473484039,
        0.012351736426353455,
        0.007039736956357956,
        0.015830622985959053,
        -0.0016416395083069801,
        -0.017268367111682892,
        0.050127606838941574,
        -0.03841326758265495,
        0.02941483072936535,
        0.00997715350240469,
        -0.034022748470306396,
        0.012159685604274273,
        -0.020374663174152374,
        0.14863106608390808,
        0.021597065031528473,
        0.00036736263427883387,
        0.003177924081683159,
        0.02274591103196144,
        0.013082080520689487,
        -0.06786075979471207,
        -0.010634608566761017,
        -0.06032206118106842,
        -0.020286716520786285,
        0.011652126908302307,
        0.047506269067525864,
        -0.022961588576436043,
        0.08489121496677399,
        0.03976485878229141,
        -0.07425978779792786,
        -0.03188061714172363,
        -0.015175741165876389,
        -0.09334962069988251,
        0.015911446884274483,
        0.05632079392671585,
        0.02353615313768387,
        0.07309900969266891,
        0.08141636848449707,
        -0.05337298661470413,
        0.07761573791503906,
        -0.05659143254160881,
        0.037335749715566635,
        0.08500666916370392,
        0.009172553196549416,
        -0.058733005076646805,
        -0.024815527722239494,
        -0.010256780311465263,
        -0.008616653271019459,
        0.0017068315064534545,
        -0.027493299916386604,
        -0.013983793556690216,
        -0.08584500104188919,
        0.0006537585286423564,
        0.003757196245715022,
        -0.026743292808532715,
        -0.10170424729585648,
        0.01470583863556385,
        0.0833439826965332,
        0.058816924691200256,
        0.006763584446161985,
        0.000651966780424118,
        0.019067320972681046,
        -0.01847746968269348,
        -0.018407532945275307,
        0.02068212814629078,
        -0.01344270259141922,
        0.029111361131072044,
        0.07428660988807678,
        -0.07591701298952103,
        -0.02499367855489254,
        0.03313641995191574,
        -0.04945411533117294,
        -0.09865359961986542,
        0.040628284215927124,
        -0.0267126876860857,
        0.011283640749752522,
        -0.06502271443605423,
        0.03506850078701973,
        0.11185833811759949,
        -0.061018574982881546,
        0.07115870714187622,
        0.006289742887020111,
        0.014917289838194847,
        -0.022761544212698936,
        -0.06018785759806633,
        -7.310765795409679e-06,
        -0.013602868653833866,
        0.07403063029050827,
        -0.014082149602472782,
        0.07295916229486465,
        0.0005807068664580584,
        -0.002269474556669593,
        0.09298252314329147,
        -0.07009010761976242,
        -0.061467770487070084,
        -0.01774951070547104,
        -0.04545409977436066,
        -0.03651842474937439,
        -0.03339073061943054,
        -0.0737878680229187,
        -0.020822372287511826,
        0.08842434734106064,
        0.0032760491594672203,
        -0.02751089446246624,
        0.02592720091342926,
        -0.03774148225784302,
        -0.0001615083310753107,
        0.07166583091020584,
        -0.016850966960191727,
        0.10872349888086319,
        0.012260319665074348,
        -0.0038834656588733196,
        -0.020519303157925606,
        0.02263546921312809,
        -0.05114782601594925,
        -0.00446196598932147,
        0.04504452273249626,
        -0.02560935728251934,
        0.029522333294153214,
        -0.061760444194078445,
        0.03829782083630562,
        0.033233892172575,
        0.01546515617519617,
        -0.05504155531525612,
        -0.030093854293227196,
        -0.01723310351371765,
        0.09867940098047256,
        -0.013539304956793785,
        0.023277975618839264,
        -0.023865103721618652,
        0.05390562117099762,
        0.07011359930038452,
        -0.09640223532915115,
        -0.02681955136358738,
        0.02621930092573166,
        -0.06392983347177505,
        0.028594685718417168,
        0.018894894048571587,
        0.04980471730232239,
        0.007102128583937883,
        0.0071855951100587845,
        0.022866906598210335,
        -0.10870702564716339,
        0.1134146898984909,
        0.02851751074194908,
        -0.06023143604397774,
        0.018625112250447273,
        0.036615800112485886,
        -0.0086072301492095,
        0.06685319542884827,
        0.0010828040540218353,
        0.08523507416248322,
        -0.008446788415312767,
        0.004504007752984762,
        0.026485253125429153,
        0.016560407355427742,
        -0.05898752436041832,
        0.002482232404872775,
        0.13428598642349243,
        -0.0318891778588295,
        0.048613838851451874,
        0.0383601039648056,
        0.041542623192071915,
        -0.009446223266422749,
        -0.10314642637968063,
        -0.0010708398185670376,
        0.02855389192700386,
        0.0056129866279661655,
        0.011982212774455547,
        0.013087384402751923,
        0.0673627108335495,
        -0.08568311482667923,
        -0.038807690143585205,
        -0.038661472499370575,
        -0.01810416951775551,
        -0.04117908701300621,
        0.02004977874457836,
        -0.012014494277536869,
        0.010967027395963669,
        0.026881134137511253,
        -0.060569193214178085,
        0.019160745665431023,
        -0.018561892211437225,
        -0.07413826882839203,
        0.011901801452040672,
        0.06677377223968506,
        0.03066158853471279,
        0.023455806076526642,
        0.1869114339351654,
        0.03192884102463722,
        -0.04515993222594261,
        -0.0646141991019249,
        -0.061848316341638565,
        -0.008564098738133907,
        0.0031035197898745537,
        -0.0002749775303527713,
        0.04491075500845909,
        0.0025153306778520346,
        0.04682844504714012,
        0.03923850134015083,
        -0.016314785927534103,
        0.029662664979696274
      ]
    },
    {
      "architecture": "normalization",
      "bias": [
        -0.05413112789392471,
        -0.03083708882331848,
        -0.02690775692462921,
        -0.11591865867376328,
        -0.06377493590116501,
        -0.04787512868642807,
        -0.05806436389684677,
        -0.02889173850417137,
        -0.07788262516260147,
        -0.02884545363485813,
        -0.065207339823246,
        -0.04698127880692482,
        -0.06354498863220215,
        -0.05113784968852997,
        -0.035887300968170166,
        -0.03122645430266857,
        -0.08294287323951721,
        -0.05875462293624878,
        -0.04891103133559227,
        -0.07332770526409149,
        -0.043456342071294785,
        -0.027185890823602676,
        -0.03979485109448433,
        -0.12551221251487732,
        -0.10795316100120544,
        -0.0839482769370079,
        -0.06181304529309273,
        -0.06300392001867294,
        -0.05989179387688637,
        -0.06977522373199463
      ],
      "weights": [
        8.088615417480469,
        13.2568998336792,
        17.326818466186523,
        6.698042869567871,
        9.343546867370605,
        11.58823013305664,
        10.22637939453125,
        17.68193244934082,
        8.60305404663086,
        11.730500221252441,
        9.48648738861084,
        13.486995697021484,
        10.672752380371094,
        11.705423355102539,
        13.5118989944458,
        8.828241348266602,
        9.413639068603516,
        9.530285835266113,
        11.801507949829102,
        6.399851322174072,
        11.061450004577637,
        11.392061233520508,
        11.846311569213867,
        6.796860218048096,
        5.364564895629883,
        8.435009002685547,
        8.736715316772461,
        9.289732933044434,
        9.22192096710205,
        8.038522720336914
      ]
    },
    {
      "activation": "rectified",
      "architecture": "dense",
      "bias": [
        -0.03685140237212181,
        -0.010832161642611027,
        0.062110815197229385,
        -0.0374884158372879,
        -0.04242449253797531,
        -0.016579121351242065,
        -0.03565693646669388,
        0.042384251952171326,
        0.08313029259443283,
        -0.012417029589414597,
        2.131518704118207e-05,
        -0.021851200610399246,
        0.09672213345766068,
        0.05911267176270485,
        0.04218597337603569,
        0.07513076812028885,
        -0.047765474766492844,
        0.05601082742214203,
        -0.01636759750545025,
        -0.07342741638422012
      ],
      "weights": [
        0.0318712443113327,
        -0.04380727931857109,
        0.04477423429489136,
        0.058926329016685486,
        -0.021009979769587517,
        0.08358927816152573,
        -0.004681366495788097,
        0.009093969129025936,
        0.024499760940670967,
        -0.051325179636478424,
        0.02535896748304367,
        0.07344397157430649,
        0.012360247783362865,
        0.09796442091464996,
        0.10591250658035278,
        -0.015688685700297356,
        -0.0001782081089913845,
        0.026764430105686188,
        -0.017242709174752235,
        0.01998484507203102,
        -0.07741475105285645,
        -0.09490622580051422,
        0.11417979001998901,
        -0.030275439843535423,
        0.053331270813941956,
        0.0342385433614254,
        0.11361049860715866,
        0.05650393292307854,
        -0.09900917112827301,
        -0.08453470468521118,
        -0.02223297581076622,
        -0.00920012965798378,
        0.046863555908203125,
        0.013762296177446842,
        0.004508125130087137,
        -0.009706304408609867,
        -0.03887838125228882,
        0.028414633125066757,
        -0.0034632431343197823,
        -0.04647938534617424,
        -0.011082282289862633,
        0.10094300657510757,
        -0.02121678926050663,
        0.03901311755180359,
        0.12095467001199722,
        -0.03468538075685501,
        -0.07450445741415024,
        0.04355379194021225,
        -0.011453651823103428,
        0.058509957045316696,
        -0.05320398882031441,
        -0.04534208029508591,
        0.12973947823047638,
        0.036177147179841995,
        -0.03600424528121948,
        0.06821118295192719,
        0.08880013972520828,
        0.051490701735019684,
        -0.11387739330530167,
        0.04617122560739517,
        -0.11119234561920166,
        -0.07961920648813248,
        -0.015767479315400124,
        0.042727284133434296,
        -0.0882711410522461,
        -0.014240819029510021,
        0.013074452057480812,
        -0.049306001514196396,
        -0.002127508632838726,
        -0.04254700616002083,
        -0.05880836769938469,
        0.003088071011006832,
        -0.022716034203767776,
        -0.03502846881747246,
        -0.055189359933137894,
        -0.03127487376332283,
        0.0003350843326188624,
        -0.06275689601898193,
        0.03346919268369675,
        -0.0879550501704216,
        -0.14412181079387665,
        0.05144272372126579,
        -0.023132892325520515,
        0.014725502580404282,
        -0.07187532633543015,
        -0.1217254251241684,
        -0.048661891371011734,
        -0.09417548030614853,
        -0.07455825805664062,
        -0.063033826649189,
        0.045208197087049484,
        0.03485063835978508,
        0.09337015450000763,
        0.0025605051778256893,
        -0.08915300667285919,
        0.10039231926202774,
        0.07388544827699661,
        0.03311631828546524,
        0.013871228322386742,
        0.091446653008461,
        -0.006757605355232954,
        0.1132679209113121,
        0.04757530242204666,
        0.014144671149551868,
        -0.03437582030892372,
        -0.010358910076320171,
        0.018589437007904053,
        0.08517606556415558,
        0.023775827139616013,
        0.10656961053609848,
        0.007582720369100571,
        0.03211769834160805,
        -0.04690011218190193,
        0.04222143068909645,
        0.025233544409275055,
        0.034716133028268814,
        0.03991631418466568,
        -0.04284568876028061,
        0.06022936478257179,
        0.009677429683506489,
        0.0485207661986351,
        -0.1001577377319336,
        0.038723986595869064,
        -0.03956163302063942,
        0.06820275634527206,
        0.018386507406830788,
        -0.0715908631682396,
        0.07831574976444244,
        -0.035988956689834595,
        -0.022511839866638184,
        0.049904320389032364,
        0.08658663183450699,
        0.07407138496637344,
        0.11352625489234924,
        0.08587685227394104,
        -0.0639299601316452,
        -0.017388364300131798,
        0.04248057305812836,
        0.033917512744665146,
        0.02038230001926422,
        -0.042215682566165924,
        -0.06578774005174637,
        0.11720556765794754,
        0.004128542263060808,
        0.028580931946635246,
        -0.0147740812972188,
        0.06339772790670395,
        0.07100625336170197,
        -0.014233286492526531,
        0.025034159421920776,
        0.06820207089185715,
        0.035294122993946075,
        -0.012714723125100136,
        -0.050509605556726456,
        0.02038116566836834,
        0.08449868857860565,
        0.04467998072504997,
        0.061275217682123184,
        0.028966518118977547,
        0.11614661663770676,
        0.04498464986681938,
        -0.0016137569909915328,
        0.04848190397024155,
        0.06578347831964493,
        -0.05029924958944321,
        -0.003967607393860817,
        -0.1106577068567276,
        -0.006961682811379433,
        -0.07317189127206802,
        0.04337397962808609,
        -0.04389413446187973,
        -0.02779271826148033,
        -0.07528583705425262,
        0.026061303913593292,
        -0.011092991568148136,
        0.004436654970049858,
        -0.047663889825344086,
        -0.015788525342941284,
        -0.006330462638288736,
        0.05109382048249245,
        0.09987370669841766,
        0.020880475640296936,
        0.048472706228494644,
        0.03798900544643402,
        0.014881514012813568,
        0.07899678498506546,
        0.0464346818625927,
        0.11565009504556656,
        0.007624155841767788,
        -0.07094444334506989,
        0.025930603966116905,
        0.08504107594490051,
        0.05486033111810684,
        0.09015077352523804,
        0.047482702881097794,
        -0.06543583422899246,
        0.055914975702762604,
        0.07935760170221329,
        0.004278944805264473,
        0.1048799380660057,
        -0.10517439991235733,
        -0.04836167395114899,
        0.08892420679330826,
        -0.030541544780135155,
        -0.025492480024695396,
        0.06933850795030594,
        -0.0346917062997818,
        -0.02335250750184059,
        -0.01651882566511631,
        0.031682517379522324,
        0.014327052980661392,
        -0.006851560901850462,
        -0.06411457061767578,
        0.026724912226200104,
        0.05301501601934433,
        -0.04622294008731842,
        0.05737000331282616,
        -0.12233318388462067,
        -0.10519762337207794,
        0.041805773973464966,
        -0.11425425857305527,
        -0.06296598166227341,
        -0.05819457769393921,
        -0.05325872078537941,
        -0.009836995974183083,
        -0.03191102668642998,
        0.048577215522527695,
        -0.12676209211349487,
        0.03582267463207245,
        0.049023594707250595,
        -0.0718824490904808,
        0.002006403636187315,
        0.08274822682142258,
        -0.06768787652254105,
        0.07300747185945511,
        0.05035899579524994,
        -0.06494355946779251,
        0.07428485155105591,
        0.019615881145000458,
        -0.016649436205625534,
        -0.021323492750525475,
        -0.12488851696252823,
        -0.0791182741522789,
        0.04439854994416237,
        -0.029796579852700233,
        -0.04978350177407265,
        -0.015806538984179497,
        -0.04568934813141823,
        -0.154667466878891,
        0.0622052364051342,
        0.002572281053289771,
        -0.06988044828176498,
        -0.08723127841949463,
        -0.039740242063999176,
        -0.06469742208719254,
        0.02441614679992199,
        0.0734955444931984,
        0.03224283829331398,
        0.09714604169130325,
        0.03159767761826515,
        0.03199430927634239,
        0.004317628685384989,
        -0.009546482004225254,
        -0.05330801010131836,
        0.08239247649908066,
        0.05369453504681587,
        -0.08736006170511246,
        0.04705854132771492,
        0.030560161918401718,
        -0.015886090695858,
        0.0791153758764267,
        0.054777298122644424,
        0.03798012062907219,
        0.03787581995129585,
        -0.03929721936583519,
        0.07988058775663376,
        0.033421896398067474,
        0.030926786363124847,
        0.023606985807418823,
        0.06881965696811676,
        0.013288550078868866,
        0.0020798039622604847,
        -0.02492203190922737,
        0.08255002647638321,
        0.03247777372598648,
        0.02192765288054943,
        -0.050730280578136444,
        0.04613089933991432,
        -0.07638227939605713,
        0.007935191504657269,
        -0.10680196434259415,
        -0.006057336460798979,
        -0.01225618738681078,
        -0.005447732750326395,
        0.008649228140711784,
        0.015936600044369698,
        0.025123996660113335,
        -0.001599073177203536,
        -0.03927648440003395,
        0.030704479664564133,
        -0.0227449219673872,
        0.0151314502581954,
        0.06179047003388405,
        -0.09359313547611237,
        -0.07580118626356125,
        0.04061315953731537,
        -0.043988604098558426,
        0.04705677181482315,
        0.08319403231143951,
        0.06395786255598068,
        0.04199851304292679,
        0.00584398303180933,
        0.010205795057117939,
        0.06617503613233566,
        0.03477173298597336,
        -0.017393266782164574,
        -0.027638761326670647,
        0.03933129087090492,
        0.005527747329324484,
        0.07935711741447449,
        -0.053219590336084366,
        -0.13390906155109406,
        0.05506652593612671,
        0.04359181225299835,
        -0.036342695355415344,
        0.05758632346987724,
        0.02548743225634098,
        -0.02082345448434353,
        -0.10428681969642639,
        0.016601594164967537,
        0.05918671935796738,
        0.013105939142405987,
        0.07293177396059036,
        0.028214214369654655,
        -0.054145779460668564,
        0.021999508142471313,
        0.04296155646443367,
        0.057832833379507065,
        0.030212245881557465,
        -0.007410145830363035,
        0.08868095278739929,
        0.039296094328165054,
        0.04021917283535004,
        0.10368991643190384,
        0.02159048058092594,
        0.025122638791799545,
        -0.07647457718849182,
        0.0004584068665280938,
        -0.04502291604876518,
        0.06536481529474258,
        -0.021465100347995758,
        0.0058497958816587925,
        0.02871161326766014,
        0.015990057960152626,
        0.031875915825366974,
        -0.004154777154326439,
        0.06503581255674362,
        -0.07448610663414001,
        0.003730237018316984,
        0.019966917112469673,
        -0.08214050531387329,
        -0.13456116616725922,
        -0.09691887348890305,
        0.002580208471044898,
        -0.0745362788438797,
        -0.06988529860973358,
        0.044820159673690796,
        -0.11023000627756119,
        0.013989184983074665,
        0.03915661573410034,
        -0.11935492604970932,
        -0.0055015510879457,
        -0.009569206275045872,
        -0.01596137508749962,
        -0.10429800301790237,
        0.06758821755647659,
        -0.008340093307197094,
        -0.05227823182940483,
        0.08646414428949356,
        -0.04905867204070091,
        -0.03289514407515526,
        0.0251319482922554,
        0.05690412595868111,
        -0.08452596515417099,
        -0.08209512382745743,
        -0.027419235557317734,
        -0.05067821964621544,
        0.0016025411896407604,
        0.015854911878705025,
        -0.08175890892744064,
        0.051758673042058945,
        -0.03439825400710106,
        0.0304859671741724,
        0.09454287588596344,
        -0.05318779870867729,
        0.0006523250485770404,
        0.054061129689216614,
        -0.10898008197546005,
        -0.11469502002000809,
        -0.00875933188945055,
        -0.10917410254478455,
        -0.06521888822317123,
        0.04584252089262009,
        -0.1112595796585083,
        -0.037596773356199265,
        0.06014273315668106,
        -0.039311639964580536,
        -0.07628839462995529,
        -0.036720745265483856,
        -0.03796951100230217,
        -0.018887396901845932,
        -0.031076237559318542,
        0.07484041154384613,
        -0.07687252759933472,
        0.06335225701332092,
        0.04430282115936279,
        -0.030361812561750412,
        0.01132063940167427,
        -0.03504838049411774,
        -0.0032998675014823675,
        -0.1060197576880455,
        -0.07390250265598297,
        -0.08603163808584213,
        0.06367495656013489,
        -0.11123331636190414,
        0.03398525342345238,
        0.0166290495544672,
        -0.027207816019654274,
        0.02219212055206299,
        -0.09582879394292831,
        0.021483423188328743,
        -0.029711345210671425,
        -0.03020535409450531,
        0.00022487962269224226,
        -0.04235048592090607,
        -0.014221854507923126,
        -0.07122249156236649,
        -0.025739267468452454,
        0.032349299639463425,
        -0.12311647087335587,
        -0.12126705795526505,
        0.14385820925235748,
        -0.02576865814626217,
        0.023882804438471794,
        -0.12326838821172714,
        -0.061551738530397415,
        -0.10146041959524155,
        -0.08097319304943085,
        -0.05504470691084862,
        -0.07538303732872009,
        -0.0037637422792613506,
        -0.08004371076822281,
        -0.026402298361063004,
        0.06615465134382248,
        0.013333848677575588,
        0.003098651533946395,
        0.04136518016457558,
        -0.04170272871851921,
        -0.1504109501838684,
        0.06703352928161621,
        -0.02294611930847168,
        -0.09380030632019043,
        -0.10244312882423401,
        -0.07653986662626266,
        -0.05833285301923752,
        0.052033256739377975,
        0.01603260450065136,
        -0.08537023514509201,
        0.03961099684238434,
        -0.07081576436758041,
        -0.01411241665482521,
        0.01241633202880621,
        0.016805686056613922,
        -0.11235657334327698,
        -0.0019145815167576075,
        0.040475308895111084,
        -0.034025080502033234,
        0.05098526552319527,
        0.017283955588936806,
        -0.09716697782278061,
        0.006984572857618332,
        -0.039260316640138626,
        0.10007046908140182,
        -0.03135440871119499,
        0.0927075445652008,
        0.0686136782169342,
        -0.04021155461668968,
        0.12153664231300354,
        -0.023634538054466248,
        -0.08748576045036316,
        0.05897131934762001,
        0.07079122215509415,
        0.0390285886824131,
        0.030457982793450356,
        -0.037588585168123245,
        0.018876606598496437,
        0.013369106687605381,
        0.0067247310653328896,
        0.0762910470366478,
        0.018775727599859238,
        -0.05175452679395676,
        -0.08806116878986359,
        0.03696689382195473,
        -0.014349250122904778,
        -0.04268340766429901,
        0.08232425153255463,
        -0.008269423618912697,
        0.05554961785674095,
        -0.04479321464896202,
        0.08768258988857269,
        -0.047548938542604446,
        -0.023204544559121132,
        -0.009052542969584465,
        0.05987268313765526,
        0.02961023896932602,
        0.012995668686926365,
        0.06296586990356445,
        -0.07580986618995667,
        -0.11928243190050125,
        0.03359074518084526,
        -0.004226760007441044,
        -0.08108833432197571,
        -0.0467609167098999,
        -0.07769889384508133,
        -0.025194231420755386,
        -0.025286037474870682,
        0.0009139106841757894,
        -0.18179446458816528,
        0.04161308333277702,
        -0.03523547947406769,
        0.030678555369377136,
        0.08030512183904648,
        0.009313303045928478,
        -0.09346868097782135,
        -0.031186239793896675,
        0.048465147614479065,
        0.0028291118796914816,
        0.0010754972463473678,
        -0.02295459806919098,
        -0.13736625015735626,
        0.00625580083578825,
        0.00021109639783389866,
        0.06830614805221558,
        -0.006385647226125002,
        -0.03181568160653114,
        -0.007657904643565416,
        -0.046375904232263565,
        0.11109432578086853,
        0.028701232746243477,
        -0.0022593748290091753,
        -0.04946296662092209,
        0.043335311114788055,
        0.0674082487821579,
        0.0022944333031773567,
        0.10299930721521378,
        -0.027012810111045837,
        -0.055519819259643555,
        0.05051424354314804,
        -0.008809293620288372,
        0.03629289194941521,
        -0.0764601081609726,
        -0.09874598681926727,
        0.04670659825205803,
        9.01251842151396e-05,
        -0.061460696160793304,
        0.05269119143486023,
        0.09550288319587708,
        0.08393166214227676,
        -0.047651439905166626,
        0.03520863503217697,
        0.048887208104133606,
        0.0014967817114666104,
        0.09603752940893173,
        0.03377949073910713,
        0.02740473486483097,
        0.04971357434988022,
        0.027305683121085167,
        0.12910276651382446,
        -0.011370480991899967,
        -0.04717426002025604,
        0.03321606293320656,
        0.12065698206424713,
        0.06520319730043411,
        0.046707384288311005,
        0.004666577558964491,
        -5.8413250371813774e-05,
        0.054285965859889984,
        0.023212721571326256,
        0.09643390029668808,
        0.09538133442401886,
        0.024167023599147797,
        -0.0026110741309821606,
        -0.00033320829970762134,
        0.032869208604097366,
        -0.013819501735270023,
        0.032590702176094055,
        -0.05486904829740524,
        -0.026719700545072556,
        0.03466540947556496,
        0.037446748465299606
      ]
    },
    {
      "activation": "sigmoid",
      "architecture": "dense",
      "bias": [
        0.05578389763832092
      ],
      "weights": [
        -0.196040078997612,
        -0.25131139159202576,
        0.09048892557621002,
        -0.33277443051338196,
        -0.08565874397754669,
        -0.47968965768814087,
        -0.13165870308876038,
        0.4464951753616333,
        0.19754590094089508,
        -0.39105507731437683,
        -0.41525766253471375,
        -0.15541158616542816,
        0.45401930809020996,
        0.4200280010700226,
        0.10176684707403183,
        0.5152245163917542,
        -0.27103373408317566,
        0.31432440876960754,
        -0.40847209095954895,
        -0.2630046606063843
      ]
    }
  ],
  "outputs": [
    "ELT"
  ]
}
