{
  "defaults": {},
  "inputs": [
    {
      "name": "met_met",
      "offset": "-62680.281134",
      "scale": "1.95244670705e-05"
    },
    {
      "name": "jet_pt_3rd_correct",
      "offset": "-45350.1306701",
      "scale": "4.03945408055e-05"
    },
    {
      "name": "event_mll",
      "offset": "-129862.862246",
      "scale": "1.0615944447e-05"
    },
    {
      "name": "ph_HFT_MVA_sel",
      "offset": "-0.748164942092",
      "scale": "4.43657909474"
    },
    {
      "name": "event_HT",
      "offset": "-308932.289598",
      "scale": "5.76065113851e-06"
    },
    {
      "name": "jet_tagWeightBin_leading_correct",
      "offset": "-4.65526990598",
      "scale": "1.48924065942"
    },
    {
      "name": "jet_pt_2nd_correct",
      "offset": "-62988.9273957",
      "scale": "2.23922309203e-05"
    },
    {
      "name": "event_nbjets77",
      "offset": "-1.30902754948",
      "scale": "2.06242258626"
    },
    {
      "name": "jet_pt_1st_correct",
      "offset": "-100110.584451",
      "scale": "1.45476932621e-05"
    },
    {
      "name": "ph_mgammaleptlept_sel",
      "offset": "-237415.559663",
      "scale": "6.72413582657e-06"
    },
    {
      "name": "event_njets",
      "offset": "-2.37957788152",
      "scale": "0.844537774907"
    },
    {
      "name": "jet_tagWeightBin_subleading_correct",
      "offset": "-2.35840620685",
      "scale": "0.597543253941"
    }
  ],
  "layers": [
    {
      "activation": "rectified",
      "architecture": "dense",
      "bias": [
        0.04597321152687073,
        -0.06171855330467224,
        -0.08518682420253754,
        0.09440572559833527,
        -0.10303280502557755,
        -0.15155401825904846,
        -0.015874672681093216,
        -0.12189240008592606,
        -0.10223504900932312,
        -0.06031227856874466,
        -0.061569567769765854,
        -0.1444251388311386,
        -0.08776525408029556,
        0.05787809565663338,
        -0.08012854307889938,
        0.05258052051067352,
        0.018562553450465202,
        0.04327100142836571,
        0.03251038119196892,
        0.019922668114304543,
        -0.13988634943962097,
        0.03261469304561615,
        0.05021042376756668,
        -0.08235348016023636,
        0.06224946677684784,
        -0.045946866273880005,
        -0.0492415577173233,
        0.049924928694963455,
        -0.07717707753181458,
        -0.1283586621284485
      ],
      "weights": [
        0.041202787309885025,
        0.0006184163503348827,
        0.06829098612070084,
        0.040212482213974,
        -0.03936465084552765,
        0.1142512783408165,
        0.015585004352033138,
        0.021363714709877968,
        0.03429538756608963,
        -0.010459508746862411,
        -0.002997994888573885,
        0.006122860591858625,
        -0.13073547184467316,
        0.007064582780003548,
        -0.07888617366552353,
        -0.0008171168155968189,
        0.06215889751911163,
        -0.012004997581243515,
        0.0008654043776914477,
        -0.0009886565385386348,
        -0.034596968442201614,
        0.014780636876821518,
        0.0037126385141164064,
        0.007823082618415356,
        -0.10262839496135712,
        -0.057263560593128204,
        -0.039720360189676285,
        -0.007890445180237293,
        0.057428840547800064,
        -0.02926512435078621,
        -0.0797978937625885,
        -0.02042446658015251,
        -0.024371501058340073,
        0.03413175046443939,
        -0.0024032441433519125,
        0.006758768577128649,
        0.011931387707591057,
        0.014285453595221043,
        0.11229965090751648,
        0.0021873866207897663,
        0.009696468710899353,
        0.003095077583566308,
        -0.0027649630792438984,
        -0.018704280257225037,
        0.0021119853481650352,
        -0.02101728320121765,
        -0.0007761408342048526,
        0.06996209174394608,
        -0.04076164960861206,
        0.05039248615503311,
        0.044287338852882385,
        0.011521301232278347,
        -0.03356275334954262,
        -0.007485540583729744,
        0.03469359874725342,
        0.0015421125572174788,
        -0.044743526726961136,
        -0.04994470253586769,
        -0.02999071590602398,
        0.013864143751561642,
        -0.09221765398979187,
        -0.035708554089069366,
        -0.022154027596116066,
        0.010434097610414028,
        -0.007018032018095255,
        0.0005134933162480593,
        -0.07183639705181122,
        0.005927747581154108,
        -0.0401727557182312,
        -0.013350648805499077,
        -0.03635541722178459,
        0.009197639301419258,
        -0.03210484981536865,
        0.012599035166203976,
        0.013874068856239319,
        -0.04256182536482811,
        -0.016405578702688217,
        0.03899393230676651,
        -0.006412537768483162,
        0.13682565093040466,
        -0.030703609809279442,
        0.012442699633538723,
        0.024051565676927567,
        0.048143453896045685,
        -0.11912385374307632,
        0.0197348240762949,
        -0.011383944191038609,
        0.0201248861849308,
        -0.012081957422196865,
        -0.01130026113241911,
        -0.005599042866379023,
        -0.0014732835115864873,
        -0.07604134827852249,
        0.05547995865345001,
        -0.012700377032160759,
        -0.013408847153186798,
        -0.1100064367055893,
        0.007756806910037994,
        -0.04237144812941551,
        -0.0014079823158681393,
        0.040395013988018036,
        -0.020261317491531372,
        0.0032892075832933187,
        -0.01841289922595024,
        -0.014945201575756073,
        -0.021157938987016678,
        -0.010805243626236916,
        -0.021158233284950256,
        -0.10756020992994308,
        0.017148561775684357,
        -0.08714118599891663,
        -0.0036832282785326242,
        0.06667543202638626,
        -0.01951904222369194,
        0.013008937239646912,
        0.022156639024615288,
        -0.0010075320024043322,
        0.02251216396689415,
        -0.008201811462640762,
        -0.03203509747982025,
        0.08702386915683746,
        -0.04975995421409607,
        0.0034807506017386913,
        -0.04096632078289986,
        0.05130472406744957,
        -0.018521973863244057,
        0.026185382157564163,
        0.06751463562250137,
        0.024275105446577072,
        0.05705035850405693,
        -0.017391260713338852,
        -0.010621774941682816,
        -0.07056111097335815,
        0.0023818190675228834,
        -0.014428791590034962,
        -0.0008903169073164463,
        0.018305962905287743,
        -0.011548667214810848,
        -0.04174688085913658,
        -0.006344022694975138,
        -0.007017453666776419,
        -0.043594665825366974,
        -0.09997619688510895,
        -0.007591806817799807,
        -0.11025871336460114,
        0.0007226740126498044,
        -0.07954367995262146,
        0.011649306863546371,
        0.07796456664800644,
        -0.010356121696531773,
        -0.030726512894034386,
        0.05077026039361954,
        0.03980673849582672,
        -0.03435223177075386,
        0.0020030164159834385,
        -0.017309173941612244,
        0.06071655452251434,
        -0.01740417815744877,
        0.04342612996697426,
        0.08813711255788803,
        -0.07594086974859238,
        -0.008408267982304096,
        0.03428395837545395,
        -0.006598816718906164,
        -0.02202789857983589,
        -0.021309034898877144,
        0.00270622200332582,
        0.08950775116682053,
        -0.12456803023815155,
        0.012457454577088356,
        -0.05289911851286888,
        -0.005581740755587816,
        0.012998001649975777,
        -0.00555601017549634,
        0.023289086297154427,
        -0.009042460471391678,
        -0.025188414379954338,
        0.0324324332177639,
        6.1143706261646e-05,
        -0.026505880057811737,
        -0.030437886714935303,
        -0.004145915154367685,
        0.12784604728221893,
        -0.005872773472219706,
        -0.009913867339491844,
        0.003487636335194111,
        -0.0014236615970730782,
        0.006121219601482153,
        0.005845542065799236,
        0.00029100230312906206,
        0.00594252860173583,
        0.033845651894807816,
        0.06758607178926468,
        0.005132634658366442,
        0.06449691206216812,
        0.07059794664382935,
        0.016172008588910103,
        0.08239179104566574,
        -0.004871550016105175,
        -0.02273714356124401,
        -0.008810591883957386,
        -0.030990848317742348,
        -0.006871262099593878,
        -0.042285460978746414,
        0.01604987494647503,
        0.001239886274561286,
        0.09867461770772934,
        0.01480262540280819,
        0.02386210486292839,
        0.12901075184345245,
        0.03139093145728111,
        0.071628637611866,
        -0.014493695460259914,
        -0.019491717219352722,
        -0.026343783363699913,
        0.063169926404953,
        0.08883260935544968,
        0.027412662282586098,
        0.03464297205209732,
        0.08167093992233276,
        -0.03309404104948044,
        0.005405033007264137,
        0.0027209988329559565,
        0.018688254058361053,
        -0.006256145425140858,
        -0.031791917979717255,
        0.03410528600215912,
        0.031023409217596054,
        0.0686078667640686,
        0.01786831207573414,
        0.04958423599600792,
        0.04082774743437767,
        -0.03127748891711235,
        -0.008092093281447887,
        0.004537052009254694,
        -0.07310505211353302,
        0.027295412495732307,
        -0.016070745885372162,
        0.0037498835008591413,
        0.004464135970920324,
        -0.05210595205426216,
        -0.026888441294431686,
        0.0008089894545264542,
        0.03445149213075638,
        -0.03889485076069832,
        0.013703858479857445,
        -0.06274055689573288,
        0.030428173020482063,
        -0.07830192893743515,
        -0.03729303926229477,
        -0.07393497973680496,
        -0.02673543058335781,
        0.0855148509144783,
        0.021792680025100708,
        0.01803579553961754,
        0.07277911901473999,
        -0.03480036184191704,
        -0.010901860892772675,
        0.013939845375716686,
        -0.01969173736870289,
        -0.01669194921851158,
        -0.02249363251030445,
        0.02442987635731697,
        0.055789556354284286,
        0.04379710182547569,
        0.026351742446422577,
        0.07174612581729889,
        0.03813737630844116,
        -0.0603705532848835,
        0.0978936031460762,
        0.002856645965948701,
        0.01239197701215744,
        0.022492989897727966,
        -0.05348531901836395,
        -0.014946047216653824,
        0.03319866210222244,
        -0.1113661453127861,
        -0.05139782652258873,
        -0.02014845609664917,
        0.020066097378730774,
        0.07857123017311096,
        -0.022187894210219383,
        -0.08266214281320572,
        0.004343627952039242,
        0.014244137331843376,
        -0.02066563442349434,
        -0.034436214715242386,
        0.03158314898610115,
        0.0064719379879534245,
        -0.0009144556825049222,
        0.04151618108153343,
        0.034011028707027435,
        -0.017279865220189095,
        0.08969715982675552,
        0.02227490209043026,
        0.026379795745015144,
        -0.00725915003567934,
        -0.018620029091835022,
        -0.012254047207534313,
        0.06079573184251785,
        -0.021960584446787834,
        0.0038201743736863136,
        -0.11766485869884491,
        -0.036923300474882126,
        0.02788045071065426,
        -0.010115380398929119,
        0.034722816199064255,
        0.0008234081324189901,
        -0.01289623137563467,
        0.04750824347138405,
        -0.005440596956759691,
        -0.09026297926902771,
        -0.09135879576206207,
        -0.02596711926162243,
        -0.08277037739753723,
        0.057887591421604156,
        0.05401608720421791,
        -0.02846006490290165,
        0.029719550162553787,
        0.005286725237965584,
        -0.0006509565282613039,
        -0.09954255074262619,
        -0.059284988790750504,
        -0.005886605940759182,
        0.018465876579284668,
        -0.005866956897079945,
        0.010371976532042027,
        0.07240404188632965,
        -0.046039879322052,
        0.01951860822737217,
        -0.012941227294504642,
        0.03951543569564819,
        0.009670961648225784,
        -0.020718812942504883,
        -0.004458026494830847,
        0.06018804386258125,
        -0.12472833693027496,
        -0.04698686674237251,
        -0.08678807318210602,
        -0.008657322265207767,
        -0.001798634766601026,
        -0.007384410593658686,
        -0.02040896937251091,
        -0.01957830786705017,
        0.0003478176658973098,
        0.027100959792733192,
        0.017455406486988068,
        0.0005982812726870179,
        -0.10841327905654907,
        -0.05159229040145874,
        -0.04803169146180153,
        0.014831713400781155,
        -0.04613788053393364,
        -0.00012236581824254245,
        0.0011923464480787516,
        0.002716215793043375,
        -0.07455906271934509,
        -0.03182864189147949,
        -0.018416140228509903,
        0.006887802388519049
      ]
    },
    {
      "architecture": "normalization",
      "bias": [
        -0.08213023096323013,
        -0.028325501829385757,
        -0.02601328305900097,
        -0.09807653725147247,
        -0.0090683838352561,
        -0.014124060980975628,
        -0.08108984678983688,
        -0.0195872001349926,
        -0.017641007900238037,
        -0.03720484673976898,
        -0.042202532291412354,
        -0.014145520515739918,
        -0.026638776063919067,
        -0.08339718729257584,
        -0.028905237093567848,
        -0.0673544630408287,
        -0.06009599193930626,
        -0.0984215959906578,
        -0.061812397092580795,
        -0.05029458552598953,
        -0.02761673554778099,
        -0.06351274251937866,
        -0.07827473431825638,
        -0.026118598878383636,
        -0.0838489755988121,
        -0.04323035478591919,
        -0.05322021245956421,
        -0.07170794904232025,
        -0.035506438463926315,
        -0.021608971059322357
      ],
      "weights": [
        7.824424743652344,
        17.09649085998535,
        15.769535064697266,
        6.81383752822876,
        19.41861343383789,
        22.11612892150879,
        6.683921813964844,
        14.814020156860352,
        20.106380462646484,
        13.86367130279541,
        7.335442066192627,
        21.646507263183594,
        13.611213684082031,
        7.19133996963501,
        16.64461898803711,
        7.545918941497803,
        8.664840698242188,
        5.576312065124512,
        8.236515045166016,
        10.56714916229248,
        15.899308204650879,
        8.900014877319336,
        8.212470054626465,
        16.577383041381836,
        7.500768184661865,
        12.309849739074707,
        11.238119125366211,
        8.22708797454834,
        15.90766429901123,
        16.29327392578125
      ]
    },
    {
      "activation": "rectified",
      "architecture": "dense",
      "bias": [
        -0.028079254552721977,
        -0.005915158893913031,
        0.0330655500292778,
        0.019307143986225128,
        0.09766679257154465,
        0.04028289020061493,
        0.09455205500125885,
        0.07296241819858551,
        0.03523355349898338,
        0.019757088273763657,
        0.06817512959241867,
        0.04093804582953453,
        -0.0016090208664536476,
        0.07862741500139236,
        0.028543710708618164,
        0.09570346772670746,
        0.022149033844470978,
        0.0896129161119461,
        0.11048388481140137,
        0.02275363728404045
      ],
      "weights": [
        -0.05775383859872818,
        0.04406124725937843,
        0.048024460673332214,
        -0.0895632803440094,
        0.05061335861682892,
        0.007938431575894356,
        -0.06545684486627579,
        0.04763489589095116,
        0.0760168731212616,
        0.0230755265802145,
        0.03731970861554146,
        0.04239723086357117,
        -0.025854559615254402,
        -0.07905716449022293,
        0.07061512768268585,
        -0.028962882235646248,
        -0.07656393945217133,
        -0.03762810304760933,
        -0.056668538600206375,
        -0.05419493466615677,
        -0.0029390982817858458,
        -0.05962299183011055,
        -0.07571188360452652,
        0.026411568745970726,
        -0.05028963088989258,
        0.024033745750784874,
        0.0031988057307899,
        -0.09903308004140854,
        0.06626711040735245,
        -0.007218309678137302,
        -0.04977624490857124,
        0.010305429808795452,
        0.012318811379373074,
        -0.10286682844161987,
        0.08306653797626495,
        0.0665130540728569,
        -0.05161057785153389,
        0.04488881304860115,
        0.04303424805402756,
        0.04722083732485771,
        0.028328198939561844,
        0.04595397412776947,
        0.018627768382430077,
        -0.06156791374087334,
        0.041525013744831085,
        -0.11511172354221344,
        -0.07814828306436539,
        -0.062242720276117325,
        -0.033409666270017624,
        -0.06257350742816925,
        0.020950479432940483,
        -0.07144967466592789,
        -0.07519016414880753,
        0.04457152634859085,
        -0.0917612835764885,
        0.02422105148434639,
        -0.0016368061769753695,
        -0.020210720598697662,
        0.03663065657019615,
        -0.0024075882975012064,
        -0.07554852217435837,
        0.027569975703954697,
        0.033655524253845215,
        -0.03154716268181801,
        0.058936599642038345,
        0.06095782667398453,
        -0.0174711886793375,
        0.06957889348268509,
        0.058544885367155075,
        0.07231216132640839,
        0.0064563932828605175,
        0.032013993710279465,
        0.03890468180179596,
        -0.021674636751413345,
        0.03940470516681671,
        -0.007980309426784515,
        -0.03890397399663925,
        -0.04948115348815918,
        -0.02669692598283291,
        -0.08136750012636185,
        0.04533277824521065,
        -0.010758272372186184,
        -0.009528993628919125,
        0.07343742996454239,
        -0.06899011880159378,
        0.05101665481925011,
        0.04465259239077568,
        -0.05791246518492699,
        0.05642695724964142,
        -0.01815325766801834,
        -0.05341732129454613,
        0.06169309467077255,
        0.021331455558538437,
        -0.08940378576517105,
        0.08347856998443604,
        -0.0006163528887555003,
        -0.0965062603354454,
        0.048116765916347504,
        0.05641527101397514,
        0.012346955947577953,
        0.04799622669816017,
        0.08465638011693954,
        -0.0031630322337150574,
        -0.03387437015771866,
        0.061795786023139954,
        -0.10331038385629654,
        -0.07041756808757782,
        -0.061381224542856216,
        -0.048680052161216736,
        -0.061963729560375214,
        0.062397368252277374,
        -0.04392610490322113,
        -0.0009019934805110097,
        0.0434076189994812,
        -0.040341608226299286,
        -0.02369561232626438,
        -0.012496444396674633,
        -0.02113942615687847,
        0.038146864622831345,
        0.06697230786085129,
        0.06440408527851105,
        -0.0882960855960846,
        -0.07951192557811737,
        0.013391748070716858,
        0.02433706820011139,
        -0.05170119181275368,
        0.010882964357733727,
        -0.06999150663614273,
        -0.11019851267337799,
        -0.0653030127286911,
        -0.014638761058449745,
        -0.1320626437664032,
        -0.12069868296384811,
        0.013224934227764606,
        -0.11727963387966156,
        0.026544343680143356,
        0.03407573699951172,
        0.04065334424376488,
        0.08342697471380234,
        -0.00491986982524395,
        -0.11247322708368301,
        0.036954864859580994,
        0.07293683290481567,
        -0.007274215575307608,
        0.06297629326581955,
        -0.06754741817712784,
        -0.11083626747131348,
        0.04639372229576111,
        -0.1855994462966919,
        -0.1854419857263565,
        -0.08273240923881531,
        0.04233487322926521,
        0.0933215469121933,
        -0.07165530323982239,
        0.010627632029354572,
        0.050941646099090576,
        -0.07085251063108444,
        0.07116865366697311,
        0.0036723546218127012,
        0.04413573816418648,
        0.008789933286607265,
        0.10587531328201294,
        0.0017291639233008027,
        0.06051802635192871,
        -0.009400550276041031,
        -0.043966397643089294,
        -0.04805922508239746,
        -0.010975925251841545,
        -0.006571662612259388,
        -0.061799079179763794,
        0.054803717881441116,
        -0.05141554772853851,
        0.0037158005870878696,
        0.04569685086607933,
        0.03412313014268875,
        -0.032462410628795624,
        -0.019929617643356323,
        1.0176911018788815e-05,
        0.005024673417210579,
        0.08526135236024857,
        0.08251026272773743,
        -0.14382727444171906,
        -0.11112850904464722,
        -0.013702906668186188,
        0.015754008665680885,
        -0.17136186361312866,
        -0.037206802517175674,
        -0.07792776077985764,
        -0.0774775817990303,
        -0.14561642706394196,
        -0.054932720959186554,
        -0.10392359644174576,
        -0.14620842039585114,
        0.09421786665916443,
        -0.08183757960796356,
        0.03351738303899765,
        0.00474817119538784,
        0.010663030669093132,
        0.05066120624542236,
        0.01085750013589859,
        -0.10565679520368576,
        0.05393044278025627,
        0.0903087928891182,
        -0.0935506522655487,
        0.06331829726696014,
        -0.1277737021446228,
        -0.11677844077348709,
        0.005754909012466669,
        -0.16716362535953522,
        -0.0722350999712944,
        -0.0319400280714035,
        -0.023285314440727234,
        -0.06176711991429329,
        0.015837764367461205,
        0.01261652261018753,
        -0.07919523864984512,
        -0.02571186050772667,
        -0.03896712139248848,
        -0.07859200239181519,
        -0.1266835480928421,
        -0.002810993930324912,
        -0.10053721070289612,
        -0.05880182981491089,
        0.020253559574484825,
        -0.08790625631809235,
        0.004969117231667042,
        0.0337783582508564,
        0.0267538670450449,
        0.058808647096157074,
        0.0662723258137703,
        -0.09645302593708038,
        0.03429093584418297,
        0.03631395101547241,
        -0.12180569767951965,
        -0.025693126022815704,
        -0.061033494770526886,
        -0.014020854607224464,
        0.0299562755972147,
        -0.005212843418121338,
        -0.0027409165631979704,
        0.07646121084690094,
        -0.07821640372276306,
        0.018475040793418884,
        0.015299960039556026,
        0.03492453321814537,
        -0.08572815358638763,
        0.016566239297389984,
        -0.06154433265328407,
        -0.05768326669931412,
        -0.11198440194129944,
        -0.031700700521469116,
        -0.027198541909456253,
        -0.05435343459248543,
        0.07620246708393097,
        -0.015367678366601467,
        0.007918312214314938,
        -0.044472888112068176,
        0.060674313455820084,
        0.06370652467012405,
        -0.049298301339149475,
        -0.04364940896630287,
        0.05396134406328201,
        0.023016948252916336,
        -0.08649246394634247,
        0.04093898832798004,
        -0.05610160529613495,
        -0.10849570482969284,
        0.05163922905921936,
        -0.044961702078580856,
        -0.006636624224483967,
        -0.056316833943128586,
        0.027262041345238686,
        0.0801057294011116,
        -0.11039583384990692,
        0.0310971736907959,
        0.03539168834686279,
        -0.08508126437664032,
        0.05743512883782387,
        -0.0023335155565291643,
        0.02910010702908039,
        -0.002282527042552829,
        0.09737146645784378,
        0.03746440261602402,
        -0.07464450597763062,
        0.06774674355983734,
        -0.07038860023021698,
        -0.023927848786115646,
        0.002408320549875498,
        -0.0880546122789383,
        -0.016228564083576202,
        -0.004180526360869408,
        -0.07053209841251373,
        -0.054264720529317856,
        0.020076286047697067,
        -0.0940871462225914,
        0.0489075630903244,
        0.027209103107452393,
        -0.01130385510623455,
        0.04510898515582085,
        0.0473090261220932,
        0.017586875706911087,
        -0.02266763150691986,
        -0.09940366446971893,
        0.05769181624054909,
        0.036515433341264725,
        -0.06459439545869827,
        -0.030187277123332024,
        -0.08735904842615128,
        -0.004970984999090433,
        -0.08195359259843826,
        -0.04964786022901535,
        -0.07605712115764618,
        -0.03143204376101494,
        0.008195477537810802,
        -0.07215351611375809,
        0.01604701392352581,
        -0.053977493196725845,
        0.06035667285323143,
        0.041580941528081894,
        -0.0647822916507721,
        -0.09842293709516525,
        0.043265946209430695,
        0.07292769104242325,
        -0.022388238459825516,
        0.04498014226555824,
        -0.07143860310316086,
        -0.09216372668743134,
        -0.004602523520588875,
        -0.11030683666467667,
        -0.07692868262529373,
        -0.0486275888979435,
        0.029702477157115936,
        0.06425092369318008,
        -0.0607633963227272,
        0.023428549990057945,
        0.000382768310373649,
        -0.076316237449646,
        0.024096865206956863,
        0.04793933406472206,
        -0.005990958772599697,
        0.030409442260861397,
        0.06299220025539398,
        0.0068217916414141655,
        0.022848911583423615,
        0.06554847955703735,
        -0.11542702466249466,
        -0.04799547418951988,
        -0.01715315319597721,
        -0.055040545761585236,
        -0.0931684598326683,
        0.0478193499147892,
        -0.07204055041074753,
        0.010226922109723091,
        -0.0009446530020795763,
        -0.046272408217191696,
        0.029978487640619278,
        0.05711771547794342,
        0.03385968878865242,
        -0.0007310361252166331,
        0.05844203010201454,
        -0.008003254421055317,
        0.043441325426101685,
        0.08846532553434372,
        -0.11149189621210098,
        0.06470407545566559,
        0.06102994456887245,
        -0.10083228349685669,
        0.06411916017532349,
        0.03265884146094322,
        0.009192842990159988,
        0.039743341505527496,
        0.05667271837592125,
        -0.0012594463769346476,
        0.002221028320491314,
        0.03444986045360565,
        -0.024899397045373917,
        -0.03622078895568848,
        -0.0549040324985981,
        -0.043873824179172516,
        -0.1038203239440918,
        0.034527890384197235,
        -0.09723123162984848,
        -0.02369866333901882,
        0.016224700957536697,
        -0.0974096804857254,
        0.03294873237609863,
        0.03465263545513153,
        -0.05469073727726936,
        0.06342004984617233,
        0.04176778718829155,
        -0.04003526270389557,
        -0.06870954483747482,
        -0.0848202258348465,
        0.006867335643619299,
        0.014669992960989475,
        -0.10727868974208832,
        -0.04158169776201248,
        -0.09828633815050125,
        -0.02647276781499386,
        -0.09011659771203995,
        -0.11363912373781204,
        -0.023846743628382683,
        -0.05353469029068947,
        0.002722784411162138,
        -0.055974747985601425,
        0.058771248906850815,
        -0.022545387968420982,
        0.03772614896297455,
        0.0647263303399086,
        -0.02695157192647457,
        -0.025102103129029274,
        0.042817190289497375,
        -0.030575869604945183,
        -0.028465107083320618,
        0.0289824940264225,
        -0.008090675808489323,
        -0.035157620906829834,
        0.01479891873896122,
        -0.09875652939081192,
        -0.013078412041068077,
        0.020522000268101692,
        -0.031125864014029503,
        -0.026895880699157715,
        -0.01773226261138916,
        0.025025274604558945,
        -0.034699711948633194,
        -0.041471462696790695,
        -0.028891583904623985,
        -0.00857887789607048,
        -0.023243077099323273,
        -0.10525603592395782,
        -0.01397590059787035,
        0.015194525942206383,
        -0.025572150945663452,
        0.0004136460484005511,
        0.03647855296730995,
        0.0426018200814724,
        -0.06264156103134155,
        0.003231123322620988,
        0.11284620314836502,
        -0.02045285701751709,
        0.04281880706548691,
        0.007187858689576387,
        -0.04797381907701492,
        0.04185456410050392,
        0.020556913688778877,
        0.036945633590221405,
        -0.006055078003555536,
        0.0011551426723599434,
        -0.013713574036955833,
        0.05455450713634491,
        -0.10219649225473404,
        -0.09176822006702423,
        0.08181135356426239,
        -0.00826418586075306,
        -0.1776765137910843,
        -0.008778233081102371,
        -0.035063110291957855,
        -0.10184156149625778,
        -0.07141490280628204,
        -0.057503409683704376,
        -0.040605559945106506,
        -0.10508757084608078,
        0.09847578406333923,
        -0.05794229358434677,
        -0.0034588852431625128,
        0.019163280725479126,
        0.04137193039059639,
        -0.0018305160338059068,
        -0.025404248386621475,
        -0.03332386165857315,
        0.13118484616279602,
        0.10590122640132904,
        -0.09823398292064667,
        -0.013906160369515419,
        -0.07895755022764206,
        -0.10007690638303757,
        0.027891159057617188,
        -0.09120628237724304,
        -0.09224003553390503,
        -0.07564464211463928,
        0.009947477839887142,
        0.02479684352874756,
        -0.08084261417388916,
        0.05482503026723862,
        0.09336824715137482,
        -0.08048396557569504,
        0.06178782507777214,
        0.06733398884534836,
        0.0027240461204200983,
        0.03689979389309883,
        0.11185263842344284,
        0.02668987587094307,
        0.0456601046025753,
        0.015207414515316486,
        -0.05584832653403282,
        -0.07419472932815552,
        -0.10377214103937149,
        -0.04638795182108879,
        -0.10504594445228577,
        -0.008387269452214241,
        -0.041391465812921524,
        -0.03460751101374626,
        0.046454012393951416,
        -0.028893399983644485,
        0.008654769510030746,
        0.03874407708644867,
        -0.03000352345407009,
        -0.017897289246320724,
        -0.001806101412512362,
        0.014516032300889492,
        -0.026163188740611076,
        -0.07411393523216248,
        0.0704815685749054,
        -0.0169227197766304,
        -0.13732489943504333,
        0.03286871686577797,
        -0.10687951743602753,
        -0.013539938256144524,
        -0.03486371040344238,
        -0.12785892188549042,
        -0.03093756176531315,
        -0.09451449662446976,
        0.013587195426225662,
        -0.041890788823366165,
        0.04000646993517876,
        -0.07761889696121216,
        -0.014838607981801033,
        0.05300735682249069,
        -0.013190112076699734,
        -0.03906766697764397,
        0.008061179891228676,
        0.03874274343252182,
        0.008929961360991001,
        -0.011323541402816772,
        -0.06301432102918625,
        -0.08796083927154541,
        0.04817938804626465,
        -0.1408224105834961,
        -0.058912817388772964,
        -0.014469331130385399,
        -0.09068284183740616,
        -0.12256893515586853,
        0.03544475883245468,
        0.010130397975444794,
        -0.12524081766605377,
        -0.015907563269138336,
        -0.019276157021522522,
        -0.12098316848278046,
        -0.17596468329429626,
        -0.14252498745918274,
        0.004488868173211813,
        -0.09452871233224869,
        0.060462791472673416,
        -0.1467166692018509,
        0.021746493875980377,
        -0.007496480364352465,
        -0.002571029821410775,
        0.08098621666431427,
        0.044618185609579086,
        -0.008758203126490116,
        0.0478242002427578,
        -0.008358328603208065,
        -0.03322761878371239,
        0.033839091658592224,
        -0.0530877560377121,
        -0.018827909603714943,
        0.01241602748632431,
        -0.07051999121904373,
        -0.15662871301174164,
        -0.045857589691877365,
        -0.00037311436608433723,
        0.042631201446056366,
        -0.04969179257750511,
        0.019047856330871582,
        0.03572070226073265,
        -0.041202716529369354,
        0.0810210332274437,
        0.0372215174138546,
        0.004204210359603167,
        0.018910592421889305,
        0.10505707561969757,
        0.017084700986742973,
        -0.023661362007260323,
        0.014143535867333412,
        -0.13458386063575745,
        -0.03635358810424805,
        -0.07179144024848938,
        -0.07669074088335037,
        -0.033958274871110916,
        0.058004822582006454,
        -0.06292738020420074,
        -0.07315034419298172,
        0.024576064199209213,
        -1.083106326404959e-05,
        0.036296725273132324,
        -0.01923523098230362,
        -0.030483152717351913,
        0.015504675917327404,
        0.07010578364133835
      ]
    },
    {
      "activation": "sigmoid",
      "architecture": "dense",
      "bias": [
        0.023303665220737457
      ],
      "weights": [
        -0.588227391242981,
        -0.4399136006832123,
        -0.45255377888679504,
        -0.2273522913455963,
        0.6081189513206482,
        -0.36614489555358887,
        0.6686758399009705,
        0.4569268226623535,
        0.5797500610351562,
        -0.24171167612075806,
        0.45171403884887695,
        -0.5318558216094971,
        -0.2697473168373108,
        0.30392730236053467,
        0.5125846266746521,
        0.22353419661521912,
        -0.4965451657772064,
        0.43827930092811584,
        0.3089062571525574,
        -0.6013206839561462
      ]
    }
  ],
  "outputs": [
    "ELT"
  ]
}
