{
  "defaults": {},
  "inputs": [
    {
      "name": "met_met",
      "offset": "-72645.1180616",
      "scale": "1.96345688532e-05"
    },
    {
      "name": "jet_pt_2nd",
      "offset": "-73430.0331085",
      "scale": "1.72623280175e-05"
    },
    {
      "name": "ph_drsubljet_sel",
      "offset": "16.8672440087",
      "scale": "0.0252618687977"
    },
    {
      "name": "jet_pt_3rd",
      "offset": "-50609.4732524",
      "scale": "2.95366358166e-05"
    },
    {
      "name": "ph_HFT_MVA_sel",
      "offset": "-0.764087109173",
      "scale": "4.41894520616"
    },
    {
      "name": "ph_drleadjet_sel",
      "offset": "-2.30921555778",
      "scale": "1.12984791197"
    },
    {
      "name": "jet_tagWeightBin_subleading",
      "offset": "-2.19129019129",
      "scale": "0.627691525647"
    },
    {
      "name": "event_HT",
      "offset": "-380883.573893",
      "scale": "4.10072801546e-06"
    },
    {
      "name": "jet_pt_4th",
      "offset": "-40847.3967753",
      "scale": "4.89050270173e-05"
    },
    {
      "name": "jet_pt_1st",
      "offset": "-126980.222806",
      "scale": "9.28163202731e-06"
    },
    {
      "name": "event_nbjets77",
      "offset": "-1.2849002849",
      "scale": "2.10867187382"
    },
    {
      "name": "ph_drlept_sel",
      "offset": "-1.8498797013",
      "scale": "1.57938637464"
    },
    {
      "name": "jet_tagWeightBin_leading",
      "offset": "-4.61416361416",
      "scale": "1.41092860418"
    },
    {
      "name": "event_mll",
      "offset": "-136285.110261",
      "scale": "9.35794594299e-06"
    },
    {
      "name": "event_njets",
      "offset": "-2.62515262515",
      "scale": "0.768727785915"
    }
  ],
  "layers": [
    {
      "activation": "rectified",
      "architecture": "dense",
      "bias": [
        0.01386208739131689,
        0.019366130232810974,
        -0.1551280915737152,
        -0.07961685955524445,
        -0.08903952687978745,
        -0.09622540324926376,
        -0.08375522494316101,
        0.038154926151037216,
        -0.16917262971401215,
        -0.1014251857995987
      ],
      "weights": [
        0.05902017280459404,
        -0.011786426417529583,
        -0.017756707966327667,
        -0.02479439415037632,
        0.09089852124452591,
        -0.0022121374495327473,
        0.08224239945411682,
        -0.06936097145080566,
        -0.04582355171442032,
        0.037346236407756805,
        0.014467271976172924,
        -0.04027943313121796,
        -0.03295360505580902,
        -0.03388788178563118,
        -0.01105064619332552,
        -0.03086642175912857,
        0.01509800273925066,
        0.0373159795999527,
        0.022237516939640045,
        0.012344355694949627,
        -0.03882226347923279,
        0.03269088268280029,
        -0.10972157120704651,
        -0.037915147840976715,
        0.08215638250112534,
        -0.001996067352592945,
        -0.03563070669770241,
        0.10016544908285141,
        0.04910323768854141,
        0.00475862855091691,
        -0.11637582629919052,
        0.0044437190517783165,
        -0.019635437056422234,
        0.02666362188756466,
        7.894841837696731e-05,
        0.08665493875741959,
        -0.05748298764228821,
        0.019900022074580193,
        -0.024451812729239464,
        -0.008238258771598339,
        0.005328993313014507,
        -0.004759305156767368,
        -0.013025268912315369,
        -0.12493754178285599,
        -0.00018968593212775886,
        -0.16932183504104614,
        -0.0102804284542799,
        -0.04846493527293205,
        0.014461490325629711,
        0.018432937562465668,
        -0.0023853767197579145,
        -0.050168514251708984,
        0.06657997518777847,
        0.007487097755074501,
        -0.04412142559885979,
        -0.008498547598719597,
        0.008088402450084686,
        -0.02310550957918167,
        -0.10725757479667664,
        0.026778824627399445,
        -0.01650172844529152,
        0.017928287386894226,
        0.009253363125026226,
        0.07451952993869781,
        -0.05039288103580475,
        0.06381887197494507,
        -0.056815095245838165,
        0.011168028227984905,
        -0.015505041927099228,
        -0.10017647594213486,
        0.0853007361292839,
        0.04096922278404236,
        -0.026220424100756645,
        0.050372540950775146,
        -0.07240185141563416,
        -0.14313524961471558,
        0.015811845660209656,
        -0.026035841554403305,
        0.012577306479215622,
        -0.024224400520324707,
        0.004672316834330559,
        -0.0819721519947052,
        0.09739430993795395,
        0.0032327515073120594,
        -0.04945291578769684,
        0.0021476333495229483,
        0.02839323878288269,
        -0.04580434784293175,
        -0.03293326869606972,
        -0.044455140829086304,
        0.01632029563188553,
        0.06275465339422226,
        0.16267505288124084,
        0.038232214748859406,
        0.007011593785136938,
        -0.004316261038184166,
        -0.04374257102608681,
        -0.12469560652971268,
        0.021205531433224678,
        0.011175845749676228,
        0.040296223014593124,
        -0.009349564090371132,
        0.0014550244668498635,
        0.06142544001340866,
        0.03334634006023407,
        0.010491140186786652,
        0.00011692882981151342,
        0.04673609882593155,
        0.025511840358376503,
        0.033881060779094696,
        -0.04454083740711212,
        0.009535986930131912,
        -0.10576404631137848,
        0.0355212539434433,
        0.09469720721244812,
        0.0020556438248604536,
        -0.027860142290592194,
        0.0925288125872612,
        0.04771474376320839,
        0.0043801199644804,
        -0.024335069581866264,
        0.011109867133200169,
        -0.016353439539670944,
        0.053012873977422714,
        -0.04232490062713623,
        0.0007038227049633861,
        -0.11503732204437256,
        0.04786808788776398,
        -0.05426131561398506,
        -0.027263682335615158,
        -0.008992493152618408,
        0.027136487886309624,
        -0.03426189348101616,
        -0.08824016898870468,
        -0.016664858907461166,
        0.01882459595799446,
        0.05996160954236984,
        0.13201682269573212,
        0.04918055981397629,
        0.001957120606675744,
        -0.006020298693329096,
        -0.06798170506954193,
        -0.11594682186841965,
        0.012889135628938675,
        0.010826474986970425,
        0.058647483587265015,
        -0.022577116265892982,
        0.016037626191973686,
        0.08185475319623947,
        0.04293612390756607
      ]
    },
    {
      "architecture": "normalization",
      "bias": [
        -0.04851064085960388,
        -0.04564594104886055,
        -0.034336671233177185,
        -0.06432522088289261,
        -0.04042072966694832,
        -0.05235786736011505,
        -0.00941622257232666,
        -0.061576418578624725,
        -0.02618362009525299,
        -0.012769283726811409
      ],
      "weights": [
        8.9357328414917,
        11.25642204284668,
        17.88939094543457,
        12.279681205749512,
        15.727338790893555,
        12.961383819580078,
        20.89829444885254,
        8.606498718261719,
        20.245649337768555,
        18.9523983001709
      ]
    },
    {
      "activation": "rectified",
      "architecture": "dense",
      "bias": [
        0.004773039370775223,
        0.007347147446125746,
        0.20200884342193604,
        0.15886761248111725,
        0.13556727766990662,
        0.1783253252506256
      ],
      "weights": [
        -0.19976478815078735,
        -0.09898784011602402,
        0.14989937841892242,
        0.06627044081687927,
        0.16505201160907745,
        0.19301466643810272,
        -0.19617655873298645,
        -0.08504623919725418,
        0.2513991892337799,
        -0.1358451247215271,
        -0.14394472539424896,
        -0.12452934682369232,
        0.10559187084436417,
        0.07471839338541031,
        0.16364970803260803,
        0.13795983791351318,
        -0.16933035850524902,
        -0.11505381017923355,
        0.20738919079303741,
        -0.15683108568191528,
        0.10397495329380035,
        0.05998114496469498,
        -0.208903506398201,
        -0.27020546793937683,
        -0.35192376375198364,
        -0.28262603282928467,
        0.302235871553421,
        -0.06444656103849411,
        -0.24350793659687042,
        0.18515075743198395,
        0.1018223762512207,
        0.12651391327381134,
        -0.19878682494163513,
        -0.2216002494096756,
        0.14195698499679565,
        -0.1948234736919403,
        0.25685185194015503,
        0.11488009244203568,
        -0.16840121150016785,
        0.2985358238220215,
        0.1774524301290512,
        0.017414027824997902,
        -0.21791966259479523,
        -0.18726325035095215,
        -0.2974836528301239,
        -0.17021878063678741,
        0.13228245079517365,
        0.12578101456165314,
        -0.22847606241703033,
        0.035940248519182205,
        0.20517580211162567,
        0.18458344042301178,
        -0.27600979804992676,
        -0.23775941133499146,
        -0.20569612085819244,
        -0.2130642533302307,
        0.31331539154052734,
        0.12839734554290771,
        -0.20206497609615326,
        0.30961480736732483
      ]
    },
    {
      "activation": "sigmoid",
      "architecture": "dense",
      "bias": [
        0.1187756210565567
      ],
      "weights": [
        -0.47953054308891296,
        -1.1471294164657593,
        0.333267480134964,
        1.0825330018997192,
        0.791907548904419,
        0.3207443952560425
      ]
    }
  ],
  "outputs": [
    "ELT"
  ]
}
