{
  "defaults": {},
  "inputs": [
    {
      "name": "met_met",
      "offset": "-72660.686038",
      "scale": "1.98973729752e-05"
    },
    {
      "name": "jet_pt_2nd",
      "offset": "-73740.7077294",
      "scale": "1.7263650481e-05"
    },
    {
      "name": "ph_drsubljet_sel",
      "offset": "17.0600379561",
      "scale": "0.0251539864311"
    },
    {
      "name": "jet_pt_3rd",
      "offset": "-50430.9586311",
      "scale": "3.13235848504e-05"
    },
    {
      "name": "ph_HFT_MVA_sel",
      "offset": "-0.762823906497",
      "scale": "4.39453730337"
    },
    {
      "name": "ph_drleadjet_sel",
      "offset": "-2.29268913104",
      "scale": "1.13499126587"
    },
    {
      "name": "jet_tagWeightBin_subleading",
      "offset": "-2.22023809524",
      "scale": "0.621482396619"
    },
    {
      "name": "event_HT",
      "offset": "-378634.025254",
      "scale": "4.17660798395e-06"
    },
    {
      "name": "ph_phi_sel",
      "offset": "-0.0218522307936",
      "scale": "0.544257533425"
    },
    {
      "name": "jet_pt_4th",
      "offset": "-40782.9473057",
      "scale": "5.03991532244e-05"
    },
    {
      "name": "jet_pt_1st",
      "offset": "-126261.683891",
      "scale": "9.37864520035e-06"
    },
    {
      "name": "event_nbjets77",
      "offset": "-1.2919973545",
      "scale": "2.09170100378"
    },
    {
      "name": "ph_drlept_sel",
      "offset": "-1.84982161736",
      "scale": "1.58645614275"
    },
    {
      "name": "jet_tagWeightBin_leading",
      "offset": "-4.61838624339",
      "scale": "1.42193777476"
    },
    {
      "name": "event_mll",
      "offset": "-136329.729714",
      "scale": "9.77442989445e-06"
    },
    {
      "name": "event_njets",
      "offset": "-2.60912698413",
      "scale": "0.783668510605"
    }
  ],
  "layers": [
    {
      "activation": "rectified",
      "architecture": "dense",
      "bias": [
        -0.13640260696411133,
        -0.054090920835733414,
        -0.06414233893156052,
        -0.08359963446855545,
        -0.12521769106388092,
        -0.042943019419908524,
        -0.07801715284585953,
        -0.11812441051006317,
        -0.07461882382631302,
        -0.08570994436740875,
        0.01621788740158081,
        0.06001938134431839,
        -0.09086734056472778,
        -0.023111492395401,
        0.006083505228161812,
        -0.061771366745233536,
        -0.04256817325949669,
        -0.04022584855556488,
        -0.04129520058631897,
        -0.1063430979847908,
        -0.08831548690795898,
        -0.1427714079618454,
        -0.1266132891178131,
        -0.07477163523435593,
        -0.02618042565882206,
        -0.07657414674758911,
        -0.01000917237251997,
        -0.11567383259534836,
        -0.0447988323867321,
        -0.14980095624923706
      ],
      "weights": [
        -0.04456547275185585,
        -0.004670629743486643,
        -0.00892931129783392,
        0.03570776805281639,
        -0.022735601291060448,
        0.02076753042638302,
        -0.029443850740790367,
        -0.002979499055072665,
        0.023195523768663406,
        -0.033117812126874924,
        -0.019269276410341263,
        -0.019230930134654045,
        -0.005725487135350704,
        -0.029117079451680183,
        -0.0974741205573082,
        -0.007663658820092678,
        -0.09814250469207764,
        0.016370099037885666,
        -0.03220205754041672,
        0.0028954411391168833,
        0.013604525476694107,
        -0.023864468559622765,
        -0.09188687056303024,
        0.02731245942413807,
        0.004582758992910385,
        -0.02090635523200035,
        -0.03480008617043495,
        -0.05261193588376045,
        -0.028191762045025826,
        -0.038563985377550125,
        -0.0332472138106823,
        -0.010595500469207764,
        -0.08801130205392838,
        -0.05024608224630356,
        -0.032408565282821655,
        0.00018489087233319879,
        -0.0034009285736829042,
        0.03767790272831917,
        -0.040626224130392075,
        0.12253899872303009,
        -0.02881910838186741,
        -0.0015963236801326275,
        -0.024594616144895554,
        0.03377041965723038,
        0.022987790405750275,
        -0.011663040146231651,
        -0.02870458923280239,
        -0.020569371059536934,
        0.02541341818869114,
        -0.007128087803721428,
        -0.008189539425075054,
        -0.010268759913742542,
        -0.04721545800566673,
        -0.006962046958506107,
        -0.0010231005726382136,
        0.12290745228528976,
        0.033202216029167175,
        -0.037521593272686005,
        -0.053086910396814346,
        0.013298646546900272,
        0.07202159613370895,
        -0.016792207956314087,
        -0.002520315581932664,
        -0.03280485421419144,
        -0.06271864473819733,
        -0.04721616953611374,
        0.011120912618935108,
        0.05099502205848694,
        -0.05019117146730423,
        -0.018617764115333557,
        -0.0033329282887279987,
        -0.09183274954557419,
        -0.0039026474114507437,
        0.017001336440443993,
        0.026823345571756363,
        -0.00783852394670248,
        0.04034970700740814,
        0.05035897716879845,
        -0.01347234658896923,
        -0.06445352733135223,
        0.025896819308400154,
        -0.03810586780309677,
        -0.031312260776758194,
        0.029144372791051865,
        0.008536828681826591,
        -0.005564334336668253,
        -0.03116462379693985,
        -0.1297559291124344,
        0.03511323034763336,
        0.029672132804989815,
        0.007329308427870274,
        0.08418645709753036,
        -0.0054183416068553925,
        -0.015334660187363625,
        0.04273030534386635,
        0.010327297262847424,
        -0.10096893459558487,
        -0.000610442366451025,
        -0.06313072144985199,
        0.012988694943487644,
        0.03545679524540901,
        0.03747466579079628,
        -0.02540566958487034,
        0.0015289840521290898,
        -0.017107976600527763,
        -0.021298663690686226,
        0.0021327477879822254,
        0.02072829008102417,
        -0.06426969170570374,
        0.002896014368161559,
        -0.05054226145148277,
        0.016676751896739006,
        -0.07291813939809799,
        -0.02970237098634243,
        -0.051353536546230316,
        0.01644582487642765,
        0.04188554361462593,
        -0.0432465635240078,
        0.0060848090797662735,
        0.04693152382969856,
        0.03178676962852478,
        -0.0876254066824913,
        -0.05270761251449585,
        -0.007850679568946362,
        -0.015351152047514915,
        -0.007011618465185165,
        -0.021081281825900078,
        0.04798338934779167,
        -0.08707436919212341,
        0.023590710014104843,
        -0.025990676134824753,
        -0.0009895822731778026,
        0.024638917297124863,
        -0.018220210447907448,
        -0.08041749894618988,
        -0.033336929976940155,
        0.006908226292580366,
        -0.0100107965990901,
        0.01539535727351904,
        -0.03485691174864769,
        -0.022028084844350815,
        -0.0503050796687603,
        -0.017118601128458977,
        -0.0077524492517113686,
        -0.022286714985966682,
        -0.045014701783657074,
        -0.0020167012698948383,
        0.001966104842722416,
        -0.057229626923799515,
        0.012417105957865715,
        -0.009757946245372295,
        0.10163038223981857,
        -0.006178536918014288,
        -0.07557076215744019,
        0.0019458134192973375,
        -0.00380702898837626,
        0.012907362543046474,
        -0.019960535690188408,
        -0.07364239543676376,
        0.0034102362114936113,
        -0.004087977111339569,
        0.03499399498105049,
        -0.055133890360593796,
        0.019592992961406708,
        0.016175171360373497,
        0.008598587475717068,
        0.0008002276299521327,
        -0.09430164098739624,
        0.031202809885144234,
        -0.01981835812330246,
        0.053125329315662384,
        0.034919485449790955,
        -0.04627620428800583,
        0.00990636833012104,
        0.047896914184093475,
        0.04699508845806122,
        0.0038030717987567186,
        0.06637417525053024,
        0.03432541340589523,
        0.08509490638971329,
        0.03284527361392975,
        0.004103458020836115,
        0.034214235842227936,
        -0.07783692330121994,
        0.0032294075936079025,
        -0.013446652330458164,
        0.020688870921730995,
        -0.009369919076561928,
        -0.012101678177714348,
        -0.01327966433018446,
        0.03344618156552315,
        0.029045220464468002,
        0.03291993960738182,
        0.04451024904847145,
        -0.015267942100763321,
        -0.01590093784034252,
        -0.0011228793300688267,
        -0.022930286824703217,
        0.029687536880373955,
        -0.09127038717269897,
        0.046070463955402374,
        0.023681582883000374,
        -0.03609858453273773,
        0.044950176030397415,
        -0.06918352842330933,
        -0.037463366985321045,
        -0.04230080172419548,
        0.024423720315098763,
        0.06815805286169052,
        0.03253814950585365,
        -0.01700129359960556,
        0.05939813330769539,
        -0.08178481459617615,
        -0.0006842303555458784,
        -0.039289992302656174,
        0.038007136434316635,
        0.011390133760869503,
        0.005638716276735067,
        0.041278176009655,
        0.045626625418663025,
        0.01878608949482441,
        0.005411986727267504,
        0.025347603484988213,
        -0.06904953718185425,
        -0.027238648384809494,
        0.003663023002445698,
        0.0057511646300554276,
        0.027900900691747665,
        0.00860595703125,
        -0.005161771085113287,
        0.008829786442220211,
        -0.11455240100622177,
        -0.012081307359039783,
        -0.012996535748243332,
        0.11476511508226395,
        -0.017337635159492493,
        0.013311810791492462,
        0.06568262726068497,
        0.02993333525955677,
        -0.012992511503398418,
        0.0350428968667984,
        0.04781980440020561,
        0.11353226006031036,
        0.015997299924492836,
        0.024102021008729935,
        -0.008240030147135258,
        -0.023939216509461403,
        -0.05056607723236084,
        0.036615077406167984,
        0.03853367269039154,
        0.0013954719761386514,
        0.051411308348178864,
        -0.04964417591691017,
        -0.04870320111513138,
        0.03332700580358505,
        0.02533832937479019,
        -0.010996230877935886,
        0.03569871559739113,
        0.007886333391070366,
        -0.08914206922054291,
        0.05253636837005615,
        -0.010566549375653267,
        0.017616385594010353,
        -0.07701175659894943,
        0.015357429161667824,
        -0.11784882843494415,
        0.025570150464773178,
        -0.02806805819272995,
        0.00036672691931016743,
        0.003074946813285351,
        -0.029139608144760132,
        -0.03894142061471939,
        -0.11997651308774948,
        -0.05477584898471832,
        -0.028861848637461662,
        -0.008430207148194313,
        0.03834166005253792,
        0.024661505594849586,
        -0.003169833915308118,
        0.05363166704773903,
        -0.022248748689889908,
        0.009157463908195496,
        -0.02594815008342266,
        -0.02204689010977745,
        0.0037846998311579227,
        -0.008769003674387932,
        -0.07088799774646759,
        0.03722620755434036,
        0.03914041072130203,
        0.023421019315719604,
        0.08253718167543411,
        0.00892974529415369,
        0.021725252270698547,
        0.02413603477180004,
        -0.007566973101347685,
        -0.007203943096101284,
        0.050948817282915115,
        0.03021625056862831,
        0.015521662309765816,
        0.031184595078229904,
        -0.04525447636842728,
        -0.04651126638054848,
        0.016627315431833267,
        0.03485452011227608,
        -0.1033439040184021,
        0.015308518894016743,
        -0.005892153363674879,
        -0.0007915362366475165,
        -0.03117002546787262,
        0.05899875611066818,
        -0.09457062929868698,
        0.03721224144101143,
        0.003306299215182662,
        0.010860457085072994,
        -0.03363952040672302,
        0.0292288139462471,
        0.05452105775475502,
        -0.033589914441108704,
        0.0036807225551456213,
        -0.07302983850240707,
        -0.00600984413176775,
        -0.014871413819491863,
        0.016465287655591965,
        0.04010501876473427,
        -0.020639829337596893,
        -0.02987789548933506,
        -0.04617434740066528,
        -0.078472800552845,
        -0.04682273417711258,
        0.011699183844029903,
        0.02439374290406704,
        0.029807832092046738,
        0.009202079847455025,
        0.08933590352535248,
        0.06339377909898758,
        0.008138425648212433,
        -0.04571877419948578,
        -0.03365466371178627,
        -0.012587806209921837,
        0.021114056929945946,
        -0.02640179544687271,
        0.01167022529989481,
        -0.06487872451543808,
        0.020263442769646645,
        -0.005892135202884674,
        -0.02463078498840332,
        0.046114638447761536,
        -0.030389215797185898,
        0.020656509324908257,
        -0.022426793351769447,
        -0.08327897638082504,
        -0.015109943225979805,
        0.01998034305870533,
        -0.0006145020597614348,
        0.054765887558460236,
        0.04701628535985947,
        -0.02104451134800911,
        0.008878952823579311,
        -0.07408906519412994,
        -0.050345730036497116,
        0.03279432654380798,
        0.029033150523900986,
        0.003998942673206329,
        0.04523405432701111,
        -0.024564102292060852,
        0.010920550674200058,
        0.052972253412008286,
        0.04685712605714798,
        -0.06527400016784668,
        -0.005811565089970827,
        -0.045922476798295975,
        -0.0019368722569197416,
        -0.0009770335163921118,
        -0.057145439088344574,
        -0.06036370247602463,
        0.030429532751441002,
        0.02196335978806019,
        -0.016403116285800934,
        -0.012059074826538563,
        -0.01807752251625061,
        0.04928714036941528,
        -0.02391568198800087,
        -0.04791969805955887,
        0.051816217601299286,
        -0.06455450505018234,
        0.038516636937856674,
        -0.04569706693291664,
        0.018460044637322426,
        -0.06219567731022835,
        -0.011466925963759422,
        -0.05078752711415291,
        0.04854691028594971,
        -0.04159761220216751,
        0.08169295638799667,
        -0.042388830333948135,
        -0.03344403952360153,
        0.02494436874985695,
        -0.012452760711312294,
        -0.023867756128311157,
        -0.009509457275271416,
        0.02930494397878647,
        0.03910866007208824,
        0.021435949951410294,
        0.03999665379524231,
        -0.05102478340268135,
        0.0308748297393322,
        -0.02690034732222557,
        0.03678782284259796,
        0.04610627889633179,
        -0.05756997689604759,
        -0.07909493148326874,
        0.030520442873239517,
        0.02278577722609043,
        0.014198774471879005,
        -0.027606245130300522,
        -0.05292923375964165,
        -0.03548699617385864,
        0.026463480666279793,
        -0.07491393387317657,
        0.0039972723461687565,
        -0.05281558260321617,
        0.007975174114108086,
        -0.0597752183675766,
        0.04697025567293167,
        -0.019455138593912125,
        0.06547892093658447,
        0.030037254095077515,
        -0.02920280396938324,
        0.05759064853191376,
        -0.05540793761610985,
        -0.024034392088651657,
        -0.007375243119895458,
        -0.06798598915338516,
        -0.03826155886054039,
        -0.03151116520166397,
        0.018988333642482758,
        -0.013747049495577812,
        0.006573069840669632,
        -0.0855460911989212,
        0.05391502007842064,
        -0.0018069813959300518,
        -0.009091861546039581,
        0.02327689900994301,
        0.0017935623181983829,
        0.0026197812985628843,
        -0.026373710483312607,
        -0.08479715883731842,
        -0.012903193011879921,
        -0.03953472897410393,
        0.02871073968708515,
        0.007903547026216984,
        0.01430937647819519,
        -0.02855089120566845,
        0.008115836419165134,
        -0.07161775231361389,
        -0.009951647371053696,
        -0.022439153864979744,
        0.039573635905981064,
        -0.012027628719806671,
        -0.062122564762830734,
        -0.007468097843229771,
        0.01903708279132843,
        -0.12813395261764526,
        -0.0281389057636261,
        -0.007172207348048687,
        0.042026225477457047,
        -0.0239908155053854,
        0.028990251943469048,
        -0.04033778980374336,
        0.018857067450881004,
        -0.03919612988829613,
        -0.031361889094114304,
        0.036605969071388245,
        0.0039026455488055944,
        -0.017910338938236237,
        -0.015803342685103416,
        0.004063428845256567,
        -0.025198712944984436,
        -0.07613065093755722,
        -0.0332261361181736
      ]
    },
    {
      "architecture": "normalization",
      "bias": [
        -0.02432919293642044,
        -0.0749797523021698,
        -0.03621850535273552,
        -0.03689947724342346,
        -0.012959292158484459,
        -0.024177592247724533,
        -0.03668937087059021,
        -0.018987640738487244,
        -0.05710561200976372,
        -0.03425660729408264,
        -0.04164277762174606,
        -0.05631088465452194,
        -0.016141116619110107,
        -0.07073705643415451,
        -0.02424301579594612,
        -0.028422923758625984,
        -0.04215286299586296,
        -0.058107852935791016,
        -0.03019259311258793,
        -0.048500753939151764,
        -0.019541669636964798,
        -0.027458641678094864,
        -0.01028580591082573,
        -0.05222528427839279,
        -0.08240234106779099,
        -0.03762231767177582,
        -0.09589557349681854,
        -0.0328846275806427,
        -0.08250238001346588,
        -0.02995702624320984
      ],
      "weights": [
        8.85001277923584,
        7.024154186248779,
        9.190356254577637,
        8.162250518798828,
        8.098345756530762,
        7.309486389160156,
        8.161718368530273,
        8.457451820373535,
        7.382493019104004,
        8.221076965332031,
        7.0500359535217285,
        5.8176589012146,
        8.00268268585205,
        6.222367286682129,
        8.23630428314209,
        7.38848352432251,
        7.666761875152588,
        7.740447521209717,
        6.601222991943359,
        7.878040790557861,
        8.211457252502441,
        9.075321197509766,
        7.969875812530518,
        7.5893144607543945,
        6.415921211242676,
        8.479496955871582,
        5.710033416748047,
        8.707818031311035,
        6.527167320251465,
        8.454344749450684
      ]
    },
    {
      "activation": "rectified",
      "architecture": "dense",
      "bias": [
        0.09107090532779694,
        -0.014904734678566456,
        -0.0233457013964653,
        0.12340707331895828,
        -0.03183358907699585,
        0.11662442237138748,
        -0.017058372497558594,
        -0.03011721931397915,
        -0.02933976799249649,
        0.09551087766885757,
        -0.022200994193553925,
        -0.02762211486697197,
        -0.023397842422127724,
        -0.037517573684453964,
        -0.030457353219389915,
        -0.01584642566740513,
        0.08937294781208038,
        -0.032923124730587006,
        0.08699198812246323,
        0.09267086535692215
      ],
      "weights": [
        -0.0674273893237114,
        -0.08727890998125076,
        -0.090982586145401,
        -0.11416517198085785,
        0.07685589045286179,
        0.09566179662942886,
        0.08406812697649002,
        -0.07986503094434738,
        -0.03942585736513138,
        -0.14644533395767212,
        0.080429308116436,
        0.03922923281788826,
        0.12993094325065613,
        -0.13675780594348907,
        0.10857836902141571,
        0.13986077904701233,
        0.09024129807949066,
        -0.08608587831258774,
        0.021112293004989624,
        -0.134102463722229,
        0.018283946439623833,
        -0.11406499892473221,
        0.03686969354748726,
        -0.13187676668167114,
        -0.14654624462127686,
        -0.17164011299610138,
        -0.12631599605083466,
        -0.1459021270275116,
        -0.116175577044487,
        -0.08985661715269089,
        0.06473920494318008,
        0.024140968918800354,
        0.10520429909229279,
        0.008314896374940872,
        0.035380519926548004,
        0.05658920854330063,
        0.03773074224591255,
        0.040920693427324295,
        0.026772277429699898,
        0.033288732171058655,
        0.08557109534740448,
        0.04624393954873085,
        0.062150515615940094,
        -0.021967174485325813,
        0.045294422656297684,
        -0.0289491955190897,
        -0.13753820955753326,
        0.0059584761038422585,
        0.00426403759047389,
        0.010182960890233517,
        -0.05475732311606407,
        0.10973183810710907,
        -0.05023336410522461,
        0.0180292297154665,
        0.010357252322137356,
        0.010413558222353458,
        0.025781778618693352,
        0.04530183598399162,
        0.027774455025792122,
        0.03511009365320206,
        0.058094367384910583,
        0.011465435847640038,
        0.06886188685894012,
        0.03440233692526817,
        0.02944382280111313,
        0.05423756316304207,
        0.021292870864272118,
        0.013510859571397305,
        -0.0002487453748472035,
        0.002867350121960044,
        0.031443264335393906,
        0.030184375122189522,
        0.03892474249005318,
        -0.01611158810555935,
        0.03675570338964462,
        -0.022623516619205475,
        -0.08542025834321976,
        0.01858210377395153,
        -0.02540215477347374,
        0.004436241462826729,
        -0.07580681890249252,
        0.04568973928689957,
        -0.055025648325681686,
        0.034212686121463776,
        0.009432131424546242,
        0.018410924822092056,
        0.010516602545976639,
        0.07269562035799026,
        0.006618720944970846,
        0.050598617643117905,
        -0.16767935454845428,
        -0.020159784704446793,
        -0.16736160218715668,
        -0.15623988211154938,
        -0.12477179616689682,
        0.05068852752447128,
        0.029243677854537964,
        -0.1302817314863205,
        -0.06067969277501106,
        -0.1319710612297058,
        0.1336786299943924,
        0.05906861275434494,
        0.040097903460264206,
        -0.1921316534280777,
        0.04366276040673256,
        0.021656543016433716,
        0.06435731798410416,
        -0.12069599330425262,
        0.14147865772247314,
        -0.18825092911720276,
        -0.0723969116806984,
        -0.08153003454208374,
        -0.05681578442454338,
        -0.12931664288043976,
        -0.1882869005203247,
        -0.15053175389766693,
        -0.0702158585190773,
        -0.1854313760995865,
        -0.1404910534620285,
        -0.11800576001405716,
        0.048152100294828415,
        0.024245258420705795,
        0.09014406055212021,
        0.028353752568364143,
        0.01984464004635811,
        0.027885356917977333,
        0.03127364069223404,
        0.029969865456223488,
        -0.015613234601914883,
        0.06973182410001755,
        0.00872858241200447,
        0.04433663934469223,
        0.05751172825694084,
        -0.007056900300085545,
        0.037262577563524246,
        -0.002734687179327011,
        -0.034031301736831665,
        0.02678581327199936,
        -0.004822409246116877,
        -0.004232682753354311,
        -0.03272981941699982,
        0.025490568950772285,
        -0.008474783971905708,
        0.012454604730010033,
        0.004740127827972174,
        0.04303540661931038,
        0.028246089816093445,
        0.027090318500995636,
        0.001910888939164579,
        0.04768609255552292,
        -0.07352445274591446,
        -0.01708661951124668,
        -0.0971403568983078,
        -0.10232419520616531,
        -0.10409542173147202,
        0.04674900695681572,
        -0.02935631200671196,
        -0.0658854991197586,
        -0.027961496263742447,
        -0.1431708037853241,
        0.023273950442671776,
        0.09747598320245743,
        0.03157845512032509,
        -0.13118615746498108,
        -0.07080952078104019,
        0.10081297159194946,
        0.02712671272456646,
        -0.013504370115697384,
        0.12739230692386627,
        -0.11843141913414001,
        0.017728211358189583,
        -0.07866696268320084,
        0.1533244252204895,
        -0.07307877391576767,
        -0.16210979223251343,
        -0.178786963224411,
        0.00770079530775547,
        -0.1731245517730713,
        -0.0976542979478836,
        -0.13933496177196503,
        0.06075916066765785,
        0.03377185016870499,
        0.08225330710411072,
        0.06295334547758102,
        0.027567394077777863,
        0.07150576263666153,
        0.034201107919216156,
        0.05285026878118515,
        0.04546705260872841,
        0.04288271814584732,
        0.04374685883522034,
        0.055777523666620255,
        0.07478015869855881,
        -0.025271186605095863,
        0.018748542293906212,
        -0.03397597000002861,
        -0.14824128150939941,
        0.011620238423347473,
        -0.04844517260789871,
        0.05958256125450134,
        -0.05236927047371864,
        0.10697314143180847,
        -0.04848866909742355,
        0.0023510020691901445,
        0.010025070048868656,
        0.030891207978129387,
        0.027347907423973083,
        0.07527465373277664,
        0.011270970106124878,
        0.016250859946012497,
        0.034398674964904785,
        0.014186235144734383,
        0.07106203585863113,
        -0.009615917690098286,
        0.03618163242936134,
        0.050478942692279816,
        0.043444689363241196,
        0.01916947402060032,
        -0.005788313690572977,
        0.019392898306250572,
        0.06070542335510254,
        0.04171671345829964,
        0.06304020434617996,
        -0.0005327538819983602,
        0.027623077854514122,
        -0.009006891399621964,
        -0.10091370344161987,
        0.02300560660660267,
        -0.010748417116701603,
        0.020344272255897522,
        -0.053706929087638855,
        0.0715123862028122,
        -0.04163997620344162,
        0.016965866088867188,
        0.016038838773965836,
        0.03382251411676407,
        -0.004763089586049318,
        0.03959853947162628,
        0.016768986359238625,
        0.05390292406082153,
        0.07096335291862488,
        0.020385345444083214,
        0.08251016587018967,
        -0.0018345864955335855,
        0.032034944742918015,
        0.03297235816717148,
        0.029194332659244537,
        0.010322925634682178,
        0.016322892159223557,
        0.02164117991924286,
        0.056746650487184525,
        0.03169684857130051,
        0.0609043724834919,
        -0.031432684510946274,
        0.05927783250808716,
        -0.008644560351967812,
        -0.08502402156591415,
        0.027933767065405846,
        -0.01726783812046051,
        0.050381481647491455,
        -0.039970919489860535,
        0.05776830017566681,
        -0.026182686910033226,
        0.012553495354950428,
        0.01920170523226261,
        0.029058100655674934,
        0.03785526379942894,
        0.02248494327068329,
        -0.003416799707338214,
        -0.010720968246459961,
        -0.1475229263305664,
        -0.14910680055618286,
        -0.12416709214448929,
        -0.141621932387352,
        0.12654684484004974,
        0.050408732146024704,
        -0.21238844096660614,
        -0.13044273853302002,
        -0.12417487800121307,
        -0.07939063012599945,
        0.050646450370550156,
        0.11445623636245728,
        0.0953289046883583,
        0.08487820625305176,
        0.12466245889663696,
        0.16216516494750977,
        -0.03302007168531418,
        -0.06317177414894104,
        0.11647965013980865,
        -0.06355412304401398,
        0.1429831087589264,
        -0.140330970287323,
        0.20147502422332764,
        -0.06452475488185883,
        0.11585050076246262,
        -0.048348333686590195,
        0.09876814484596252,
        -0.07939179986715317,
        0.013492641039192677,
        -0.09813407808542252,
        0.03972407057881355,
        0.022167004644870758,
        0.08892759680747986,
        0.047117337584495544,
        0.020285142585635185,
        0.05025606229901314,
        0.013356971554458141,
        0.05028940364718437,
        0.04976425692439079,
        0.05802008882164955,
        0.058844272047281265,
        0.05429484695196152,
        0.0634237751364708,
        -0.008412713184952736,
        0.045237720012664795,
        -0.0281012374907732,
        -0.11829967796802521,
        0.028698038309812546,
        -0.015651194378733635,
        0.030990950763225555,
        -0.0380522720515728,
        0.07452792674303055,
        -0.035123202949762344,
        0.013572919182479382,
        0.01568157598376274,
        0.029531821608543396,
        0.00290150148794055,
        0.031684815883636475,
        0.025063063949346542,
        0.030186852440238,
        0.05878707394003868,
        0.04683564603328705,
        0.10924511402845383,
        0.0884651243686676,
        0.024761836975812912,
        0.04397924244403839,
        0.01760035566985607,
        0.025244250893592834,
        -0.0017986424500122666,
        0.03055340237915516,
        0.03046446293592453,
        0.021275104954838753,
        0.05634644627571106,
        -0.004064915701746941,
        0.030116407200694084,
        -0.06750287115573883,
        -0.06026209518313408,
        0.01177175808697939,
        -0.0067743645049631596,
        0.02628747746348381,
        -0.059406887739896774,
        0.042318083345890045,
        -0.030329737812280655,
        -0.01068017166107893,
        0.02589302882552147,
        0.0193572286516428,
        0.023439735174179077,
        0.03102611005306244,
        0.018038306385278702,
        0.012724095955491066,
        0.07439341396093369,
        -0.007495361380279064,
        0.10957489907741547,
        -0.01668708212673664,
        0.041780199855566025,
        0.03572547808289528,
        0.015174553729593754,
        0.07084101438522339,
        0.04269890859723091,
        0.024814628064632416,
        0.032275568693876266,
        -0.015287241898477077,
        0.048406317830085754,
        -0.08865687996149063,
        0.001007833401672542,
        -0.014507689513266087,
        -0.1336517632007599,
        0.0033328207209706306,
        -0.02438771165907383,
        0.05684232339262962,
        -0.0775202289223671,
        0.08277756720781326,
        -0.05441608652472496,
        -0.0062966966070234776,
        0.013492914848029613,
        -0.004499849397689104,
        0.0033972617238759995,
        0.08686288446187973,
        0.010439117439091206,
        0.014704524539411068,
        0.025248326361179352,
        0.007193562109023333,
        0.08587516099214554,
        -0.008710258640348911,
        0.03194113448262215,
        0.04246324673295021,
        0.03386664763092995,
        0.020726339891552925,
        0.029540538787841797,
        0.03241778537631035,
        0.03974267467856407,
        0.04210641235113144,
        0.0640232264995575,
        -0.02117152139544487,
        0.04705562815070152,
        -0.010471160523593426,
        -0.0637858435511589,
        0.014849010854959488,
        -0.02180350385606289,
        0.03649043291807175,
        -0.04912625998258591,
        0.06736815720796585,
        -0.01808973215520382,
        -0.011547116562724113,
        0.0084017189219594,
        0.03258513659238815,
        0.030484557151794434,
        0.02360563725233078,
        0.020595809444785118,
        0.004269140772521496,
        0.08366852253675461,
        -0.014767948538064957,
        0.10244301706552505,
        0.035141486674547195,
        0.03488713875412941,
        0.05067423731088638,
        0.03235494717955589,
        0.03151406720280647,
        0.05000312626361847,
        0.03687307983636856,
        0.058962274342775345,
        0.05511005222797394,
        0.06430453807115555,
        -0.024755949154496193,
        0.016018062829971313,
        -0.012011261656880379,
        -0.10614078491926193,
        0.026458777487277985,
        -0.026047533378005028,
        0.04118187353014946,
        -0.05737966299057007,
        0.0486593171954155,
        -0.028074227273464203,
        -0.015474154613912106,
        0.017629077658057213,
        0.04158507660031319,
        -0.0004119982186239213,
        0.010440127924084663,
        0.03305240720510483,
        0.034259285777807236,
        0.0182480551302433,
        0.029482826590538025,
        0.052316755056381226,
        0.06333565711975098,
        0.03527665510773659,
        0.06165076792240143,
        0.017581624910235405,
        0.012387877330183983,
        0.04256943613290787,
        0.05542118847370148,
        0.04748240485787392,
        0.033027518540620804,
        0.055416934192180634,
        -0.0058988831005990505,
        0.055566612631082535,
        -0.05493531748652458,
        -0.11482087522745132,
        0.022560633718967438,
        -0.04075293615460396,
        0.04211454838514328,
        -0.050146088004112244,
        0.05599784106016159,
        -0.033910177648067474,
        -0.024724939838051796,
        0.019610198214650154,
        0.017511626705527306,
        0.02352958172559738,
        0.08843327313661575,
        -0.0025833607651293278,
        0.016227994114160538,
        -0.09675662219524384,
        -0.1579509824514389,
        -0.1541856825351715,
        -0.12072599679231644,
        0.11529342085123062,
        0.11499869078397751,
        -0.07897675782442093,
        -0.1760709285736084,
        -0.15016072988510132,
        -0.12768307328224182,
        0.011190284974873066,
        0.089664526283741,
        -0.019113214686512947,
        0.00023479200899600983,
        0.11673088371753693,
        0.015804149210453033,
        0.03964269161224365,
        -0.15167446434497833,
        0.08853011578321457,
        -0.08721809834241867,
        0.14786110818386078,
        -0.15125861763954163,
        0.18112815916538239,
        -0.031781863421201706,
        0.07695494592189789,
        -0.0780760645866394,
        0.01275099441409111,
        -0.12464424967765808,
        0.0013930262066423893,
        -0.09893005341291428,
        0.0446382611989975,
        0.009139909408986568,
        0.09239049255847931,
        -0.006743982434272766,
        0.03172719478607178,
        0.05737879127264023,
        0.02444787696003914,
        0.007527709938585758,
        0.011768274009227753,
        0.02456090599298477,
        0.031376589089632034,
        0.037190988659858704,
        0.052362680435180664,
        -0.023144904524087906,
        0.02429787628352642,
        -0.03723743557929993,
        -0.0568876750767231,
        0.011918637901544571,
        -0.0112227788195014,
        0.06638431549072266,
        -0.06399839371442795,
        0.0289100781083107,
        -0.039703380316495895,
        -0.0018400113331153989,
        0.023841869086027145,
        0.007128819357603788,
        0.00642188498750329,
        0.046793706715106964,
        0.011965782381594181,
        0.011962576769292355,
        -0.0669870525598526,
        -0.10469826310873032,
        -0.1608511060476303,
        -0.07974394410848618,
        -0.04480060562491417,
        0.11860919743776321,
        -0.09200576692819595,
        -0.1295340359210968,
        -0.07553751766681671,
        -0.14844928681850433,
        0.08229510486125946,
        0.10034068673849106,
        0.13905923068523407,
        -0.006261985283344984,
        0.13942547142505646,
        0.16304634511470795,
        0.09608679264783859,
        -0.1773924082517624,
        0.10137417912483215,
        -0.12099215388298035,
        0.026206258684396744,
        -0.13486967980861664,
        0.16060329973697662,
        -0.08426850289106369,
        -0.11198961734771729,
        -0.11785002797842026,
        -0.11224978417158127,
        -0.06939361244440079,
        -0.11546366661787033,
        -0.1271202117204666,
        -0.13107240200042725,
        -0.014132525771856308,
        -0.0882263034582138,
        -0.15749748051166534,
        0.06933753937482834,
        -0.041141632944345474,
        0.03797372430562973,
        -0.06633564084768295,
        -0.06499093025922775,
        -0.05623989552259445,
        0.07500527799129486,
        0.08061011135578156,
        0.11676284670829773,
        -0.1597364991903305,
        0.08952488750219345,
        0.09031400084495544,
        0.11315751820802689,
        -0.11230061203241348,
        0.03942030295729637,
        -0.09769435971975327,
        0.12710325419902802,
        -0.10652267932891846,
        -0.03361446037888527,
        -0.13865487277507782,
        -0.16693726181983948,
        -0.1410457044839859,
        -0.1500871777534485,
        -0.1234770342707634,
        -0.09793638437986374,
        -0.061664879322052
      ]
    },
    {
      "activation": "sigmoid",
      "architecture": "dense",
      "bias": [
        0.07592964172363281
      ],
      "weights": [
        0.5501300096511841,
        -0.2852279841899872,
        -0.3883765637874603,
        0.1888805627822876,
        -0.3858098089694977,
        0.32588082551956177,
        -0.38007402420043945,
        -0.47403305768966675,
        -0.5481777191162109,
        0.5649736523628235,
        -0.4427531361579895,
        -0.12500472366809845,
        -0.5112782120704651,
        -0.4351441264152527,
        -0.17039498686790466,
        -0.4160700738430023,
        0.40699347853660583,
        -0.42368951439857483,
        0.39585360884666443,
        0.5149219632148743
      ]
    }
  ],
  "outputs": [
    "ELT"
  ]
}
