{
  "defaults": {},
  "inputs": [
    {
      "name": "met_met",
      "offset": "-71042.5844602",
      "scale": "1.87965303767e-05"
    },
    {
      "name": "jet_pt_3rd_correct",
      "offset": "-58753.5219402",
      "scale": "3.43724409583e-05"
    },
    {
      "name": "jet_pt_4th_correct",
      "offset": "-41497.3470762",
      "scale": "5.48565991764e-05"
    },
    {
      "name": "ph_HFT_MVA_sel",
      "offset": "-0.73633081788",
      "scale": "4.34530307078"
    },
    {
      "name": "event_HT",
      "offset": "-414192.464979",
      "scale": "5.32598877297e-06"
    },
    {
      "name": "jet_tagWeightBin_leading_correct",
      "offset": "-4.77412433992",
      "scale": "1.80785910472"
    },
    {
      "name": "jet_tagWeightBin_subsubleading_correct",
      "offset": "-1.20291921296",
      "scale": "1.55825499644"
    },
    {
      "name": "ph_mgammalept_sel",
      "offset": "-129565.172619",
      "scale": "1.08807715929e-05"
    },
    {
      "name": "jet_pt_2nd_correct",
      "offset": "-86448.6701514",
      "scale": "1.97918565564e-05"
    },
    {
      "name": "jet_pt_5th_correct",
      "offset": "-16453.1754708",
      "scale": "4.94316493976e-05"
    },
    {
      "name": "event_mwt",
      "offset": "-69119.3371758",
      "scale": "2.153681525e-05"
    },
    {
      "name": "event_nbjets77",
      "offset": "-1.55199977853",
      "scale": "1.67768018515"
    },
    {
      "name": "jet_pt_1st_correct",
      "offset": "-131730.464218",
      "scale": "1.23969693054e-05"
    },
    {
      "name": "event_njets",
      "offset": "-4.6867002097",
      "scale": "1.06719542525"
    },
    {
      "name": "jet_tagWeightBin_subleading_correct",
      "offset": "-2.83625277699",
      "scale": "0.594115683016"
    }
  ],
  "layers": [
    {
      "activation": "rectified",
      "architecture": "dense",
      "bias": [
        -0.4051811099052429,
        -0.2412915676832199,
        0.030415304005146027,
        -0.26065894961357117,
        -0.38504695892333984,
        -0.4388769268989563,
        -0.24290716648101807,
        -0.3192375898361206,
        -0.2573545575141907,
        -0.3056375980377197,
        -0.39443960785865784,
        -0.4147443473339081,
        -0.539370059967041,
        0.09263528138399124,
        -0.28376248478889465,
        -0.5631498694419861,
        -0.4773330092430115,
        -0.2662879228591919,
        -0.4373234212398529,
        -0.6928373575210571,
        -0.38577479124069214,
        -0.30807143449783325,
        -0.4199438989162445,
        -0.3993687033653259,
        -0.5570153594017029,
        -0.6541870832443237,
        -0.31773290038108826,
        0.07615005970001221,
        0.06296294927597046,
        -0.4075300097465515
      ],
      "weights": [
        0.04415794461965561,
        -0.4346531927585602,
        0.11546075344085693,
        -0.23171289265155792,
        -0.41621121764183044,
        0.033219821751117706,
        -0.003524498315528035,
        0.13526375591754913,
        0.21637007594108582,
        -0.07727067172527313,
        0.0018105825874954462,
        -0.05364580824971199,
        -0.0541459284722805,
        0.11761581152677536,
        0.06472954154014587,
        0.01796530745923519,
        -0.015786187723279,
        -0.12109646201133728,
        -0.240376278758049,
        -0.15268634259700775,
        -0.14077036082744598,
        -0.13043801486492157,
        0.22603172063827515,
        0.025563618168234825,
        -0.15303193032741547,
        0.048027582466602325,
        0.03272577375173569,
        0.44455641508102417,
        -0.07044606655836105,
        0.038116078823804855,
        0.10116124153137207,
        -0.07382114231586456,
        -0.053965602070093155,
        -0.04170948266983032,
        0.42279258370399475,
        0.08647973835468292,
        0.1548745483160019,
        -0.4447736442089081,
        -0.010438667610287666,
        -0.005501822102814913,
        -0.1516624242067337,
        -0.18296144902706146,
        -0.4088798463344574,
        0.07044491916894913,
        0.028145819902420044,
        0.0831151157617569,
        0.1038655936717987,
        -0.0030441158451139927,
        0.4694293141365051,
        0.2102075070142746,
        0.48057320713996887,
        0.05019686743617058,
        0.032651737332344055,
        -0.09037577360868454,
        0.024990001693367958,
        -0.08379388600587845,
        -0.15436159074306488,
        -0.18914280831813812,
        -0.17239727079868317,
        -0.004269118420779705,
        -0.24415597319602966,
        0.001520862802863121,
        -0.005129468161612749,
        -0.025661058723926544,
        0.057786453515291214,
        -0.11790088564157486,
        -0.38326701521873474,
        -0.06519775092601776,
        -0.031350575387477875,
        -0.056860193610191345,
        0.07857058942317963,
        -0.22004260122776031,
        0.4863993227481842,
        0.038114480674266815,
        -0.10660058259963989,
        0.023004528135061264,
        0.06303498893976212,
        0.07673491537570953,
        -0.30220335721969604,
        -0.3832951486110687,
        0.05210293456912041,
        0.01099665742367506,
        0.2032778412103653,
        0.1405201554298401,
        0.05303814634680748,
        0.006236650049686432,
        -0.014211905188858509,
        0.1872829645872116,
        0.1339748501777649,
        0.027502091601490974,
        0.0014656591229140759,
        0.152557373046875,
        -0.054541680961847305,
        -0.1340406984090805,
        -0.248066246509552,
        0.3122452199459076,
        -0.12709560990333557,
        0.005692262202501297,
        0.017222363501787186,
        0.10463947057723999,
        0.48980531096458435,
        0.1684449315071106,
        0.17781871557235718,
        0.0015885141910985112,
        -0.19336670637130737,
        0.3441638946533203,
        0.020649289712309837,
        -0.11306995898485184,
        0.6406274437904358,
        -0.10971582680940628,
        -0.08127152174711227,
        0.0716610923409462,
        -0.030721468850970268,
        0.13936902582645416,
        0.14349988102912903,
        0.009389303624629974,
        -0.009213977493345737,
        -0.057066645473241806,
        -0.029693903401494026,
        -0.02376684732735157,
        -0.09878905117511749,
        0.09712071716785431,
        -0.33686551451683044,
        -0.1702701598405838,
        -0.4791552424430847,
        -0.02660931833088398,
        -0.013938707299530506,
        -0.040961671620607376,
        -0.08884326368570328,
        -0.031215593218803406,
        0.3200376629829407,
        0.12225110828876495,
        -0.17660309374332428,
        0.04847298562526703,
        -0.25630250573158264,
        0.03078007511794567,
        0.03487991541624069,
        0.1279558390378952,
        0.3342593014240265,
        0.15585196018218994,
        -0.09003926813602448,
        -0.12129514664411545,
        -0.04748521372675896,
        0.15908803045749664,
        -0.20891934633255005,
        -0.30389121174812317,
        0.3671371042728424,
        -0.25180280208587646,
        0.1252071112394333,
        0.23054571449756622,
        -0.2090301215648651,
        0.022543180733919144,
        0.0670439600944519,
        -0.05951809883117676,
        -0.05990294739603996,
        -0.16404388844966888,
        -0.4047694504261017,
        0.008823292329907417,
        -0.006159571465104818,
        -0.04179426282644272,
        0.07976949214935303,
        -0.23086576163768768,
        0.35831698775291443,
        0.007151798345148563,
        -0.3010897934436798,
        0.04092922434210777,
        0.1114705502986908,
        -0.0998598039150238,
        0.8086652755737305,
        0.14296728372573853,
        0.29066699743270874,
        -0.12696002423763275,
        0.08960065245628357,
        -0.13231152296066284,
        0.010056817904114723,
        -0.1097504273056984,
        0.03187357634305954,
        -0.051746122539043427,
        0.04244964197278023,
        0.08358976244926453,
        -0.17930200695991516,
        -0.12771420180797577,
        -0.03731932118535042,
        0.07115514576435089,
        0.11331915855407715,
        -0.1135493740439415,
        -0.236813023686409,
        -0.22537104785442352,
        -0.1664671152830124,
        -0.03052542917430401,
        -0.12837004661560059,
        -0.13961932063102722,
        0.08858443051576614,
        -0.04922962188720703,
        -0.09839863330125809,
        -0.0363289937376976,
        0.0921487882733345,
        -0.2887358069419861,
        -0.4225679337978363,
        -0.31527581810951233,
        -0.05857457220554352,
        -0.01497582159936428,
        0.17802570760250092,
        0.03277565538883209,
        -0.05018503591418266,
        -0.020282071083784103,
        -0.16030436754226685,
        0.3023691177368164,
        0.11866716295480728,
        -0.20483490824699402,
        0.15855105221271515,
        -0.01504528522491455,
        0.22685229778289795,
        0.47203826904296875,
        0.024573631584644318,
        0.2623548209667206,
        0.12821418046951294,
        0.06405430287122726,
        -0.16235864162445068,
        0.04757965728640556,
        -0.14206938445568085,
        -0.14337389171123505,
        -0.39533427357673645,
        -0.0032754221465438604,
        0.017037689685821533,
        -0.1983141154050827,
        -0.22783471643924713,
        -0.1101856678724289,
        0.0860786885023117,
        -0.18093259632587433,
        -0.0703541710972786,
        -0.14446330070495605,
        -0.03862117975950241,
        -0.12938131392002106,
        -0.10402850061655045,
        -0.008574706502258778,
        0.07228361070156097,
        -0.06910725682973862,
        -0.03797977417707443,
        -0.09199097752571106,
        -0.1813725084066391,
        -0.40598130226135254,
        -0.164982408285141,
        -0.10723409801721573,
        -0.02752220816910267,
        -0.10636153072118759,
        -0.15280863642692566,
        0.07098619639873505,
        0.10455703735351562,
        -0.14224815368652344,
        0.043834805488586426,
        0.07315565645694733,
        -0.01669865846633911,
        -0.06197904422879219,
        -0.11439963430166245,
        0.10098420083522797,
        -0.020625455304980278,
        0.350639671087265,
        -0.0018854308873414993,
        0.05789148434996605,
        -0.141958549618721,
        0.06228640303015709,
        -0.44562146067619324,
        -0.01926381327211857,
        -0.039783768355846405,
        -0.15186931192874908,
        0.09199663251638412,
        -0.523403525352478,
        0.20165352523326874,
        0.17844820022583008,
        -0.2350916862487793,
        -0.3201337456703186,
        -0.2085811197757721,
        0.01713590882718563,
        0.11803895235061646,
        -0.15331707894802094,
        -0.23746918141841888,
        -0.04062351584434509,
        0.009381012991070747,
        -0.1440233737230301,
        0.11441388726234436,
        0.014182081446051598,
        0.012746005319058895,
        0.09000646322965622,
        -0.1684769093990326,
        -0.155869722366333,
        -0.07946141809225082,
        -0.10281624644994736,
        -0.06668287515640259,
        -0.2963344156742096,
        -0.013512155041098595,
        0.0567176528275013,
        -0.0012632398866117,
        -0.1405291110277176,
        -0.03907552361488342,
        -0.05962130427360535,
        -0.04519164562225342,
        -0.12329792976379395,
        0.09133200347423553,
        -0.014740128070116043,
        0.22302713990211487,
        -0.014944596216082573,
        -0.008511437103152275,
        0.78888338804245,
        -0.1669013500213623,
        -0.061285391449928284,
        0.03618330880999565,
        -0.004024891182780266,
        0.10385402292013168,
        -0.017415883019566536,
        0.03308074176311493,
        -0.03109288215637207,
        -0.07966102659702301,
        -0.04840918630361557,
        0.0539691299200058,
        0.1479247361421585,
        0.07962033152580261,
        -0.014965887181460857,
        -0.328511118888855,
        -0.25786837935447693,
        0.16078907251358032,
        0.05690900981426239,
        0.18283995985984802,
        -0.22521789371967316,
        -0.028153833001852036,
        -0.05190003290772438,
        -0.04346266761422157,
        0.333143949508667,
        0.18275533616542816,
        -0.022795338183641434,
        -0.13659515976905823,
        -0.02714608609676361,
        -0.011188452132046223,
        -0.21554188430309296,
        -0.22266127169132233,
        -0.031236441805958748,
        0.047866497188806534,
        -0.05758611857891083,
        -0.035309839993715286,
        -0.09826668351888657,
        -0.10074710845947266,
        -0.04033389687538147,
        0.593967616558075,
        0.08524230122566223,
        0.07817255705595016,
        -0.018110966309905052,
        0.054084986448287964,
        0.01338664349168539,
        -0.2829999029636383,
        -0.16543947160243988,
        -0.16338106989860535,
        -0.1347017139196396,
        0.1541442573070526,
        0.1658555418252945,
        -0.11762341856956482,
        0.10509515553712845,
        -0.18313287198543549,
        0.1993648260831833,
        0.18403200805187225,
        -0.008988728746771812,
        -0.4738084375858307,
        -0.019007153809070587,
        -0.05167992785573006,
        -0.023430148139595985,
        -0.018090013414621353,
        -0.08607559651136398,
        -0.21207758784294128,
        -0.061588041484355927,
        0.055779047310352325,
        0.14702767133712769,
        0.03581645339727402,
        -0.04195847362279892,
        0.02879379689693451,
        -0.09202255308628082,
        -0.25100088119506836,
        -0.1608317494392395,
        -0.13579592108726501,
        -0.0377725288271904,
        -0.004804058000445366,
        -0.23102551698684692,
        -0.03673476353287697,
        -0.0610581710934639,
        -0.030671991407871246,
        -0.16261830925941467,
        -0.03543311730027199,
        -0.08499781042337418,
        0.07182090729475021,
        -0.08255888521671295,
        -0.06339318305253983,
        -0.05489550530910492,
        0.12120022624731064,
        0.09118977934122086,
        0.06961526721715927,
        -0.07606123387813568,
        0.188594251871109,
        -0.07057087123394012,
        -0.11918701231479645,
        -0.3472728431224823,
        0.10136526823043823,
        -0.11803603917360306,
        -0.28931787610054016,
        0.10734890401363373,
        -0.5297913551330566,
        0.1873050332069397,
        0.0954231470823288,
        0.05116953328251839,
        -0.16822493076324463,
        -0.011929637752473354,
        0.004160383716225624,
        0.4376048743724823,
        0.11416303366422653,
        0.05009311065077782,
        -0.2698269784450531,
        -0.05709328502416611,
        0.06298168003559113,
        -0.07963740080595016,
        -0.17699885368347168,
        -0.32116350531578064,
        -0.12082178145647049,
        0.10269221663475037,
        -0.0529109425842762,
        -0.1440717875957489,
        -0.04819637909531593,
        0.05886886268854141,
        0.4967659115791321,
        0.36382433772087097,
        0.07253430783748627,
        -0.11047239601612091,
        -0.13082723319530487,
        -0.02302551455795765,
        -0.06040709838271141,
        -0.11524567753076553,
        -0.19196084141731262,
        -0.14648756384849548,
        0.1203741729259491,
        -0.05503518879413605,
        0.12601758539676666,
        -0.09417039901018143,
        -0.10147330164909363,
        -0.08789599686861038,
        -0.23162676393985748,
        -0.3166711926460266,
        0.08287502825260162,
        -0.00222966680303216,
        -0.023600932210683823,
        -0.2236904501914978,
        -0.31312841176986694,
        0.08021389693021774,
        0.18216732144355774,
        -0.07278966158628464
      ]
    },
    {
      "architecture": "normalization",
      "bias": [
        -0.04795006290078163,
        -0.09707576036453247,
        -0.127150297164917,
        -0.05537969619035721,
        -0.10560929775238037,
        -0.022089190781116486,
        -0.12388335168361664,
        -0.045688875019550323,
        -0.2633531093597412,
        -0.0751553401350975,
        -0.147795170545578,
        -0.11263667047023773,
        -0.03849054127931595,
        -0.3004748523235321,
        -0.10813909769058228,
        -0.068499356508255,
        -0.07835785299539566,
        -0.09876503795385361,
        -0.0782591700553894,
        -0.012492753565311432,
        -0.05985104292631149,
        -0.048681944608688354,
        -0.038053207099437714,
        -0.050264909863471985,
        -0.05490627884864807,
        -0.004919937811791897,
        -0.05075036734342575,
        -0.13916343450546265,
        -0.12992018461227417,
        -0.11282089352607727
      ],
      "weights": [
        5.371931552886963,
        2.676669120788574,
        2.920670747756958,
        2.735401153564453,
        2.4423036575317383,
        6.570664882659912,
        2.4412527084350586,
        2.2746458053588867,
        2.0533552169799805,
        2.324449062347412,
        2.8680248260498047,
        3.058582067489624,
        8.19801139831543,
        1.5188353061676025,
        2.234557867050171,
        6.190531253814697,
        4.198837757110596,
        1.8590691089630127,
        5.1004228591918945,
        14.037403106689453,
        2.6818971633911133,
        3.8521358966827393,
        4.312951564788818,
        2.7896199226379395,
        6.1657609939575195,
        13.637091636657715,
        3.82102108001709,
        4.172277450561523,
        3.5284476280212402,
        3.07183837890625
      ]
    },
    {
      "activation": "rectified",
      "architecture": "dense",
      "bias": [
        -0.002058730460703373,
        -0.22577491402626038,
        -0.3763597011566162,
        -0.4215000867843628,
        -0.019683407619595528,
        0.13197340071201324,
        -0.16096390783786774,
        0.11670909076929092,
        -0.2279205471277237,
        0.07344752550125122,
        -0.2857087254524231,
        -0.015345700085163116,
        -0.2914644479751587,
        -0.2902965247631073,
        -0.04875735193490982,
        -0.06108383461833,
        0.27187642455101013,
        -0.36011460423469543,
        -0.1939556747674942,
        -0.1812649816274643
      ],
      "weights": [
        -0.3823472559452057,
        -0.12218082696199417,
        0.05217788368463516,
        -0.013720963150262833,
        -0.1612829715013504,
        0.0911773070693016,
        -0.1920684427022934,
        -0.013917527161538601,
        -0.3757004737854004,
        0.07110795378684998,
        -0.14651748538017273,
        0.1194438710808754,
        -0.008662915788590908,
        -0.17294466495513916,
        0.07512813061475754,
        -0.059942081570625305,
        -0.13651040196418762,
        0.0341859832406044,
        -0.17807593941688538,
        -0.06137409061193466,
        -0.03384970501065254,
        -0.052564412355422974,
        -0.3635229766368866,
        -0.05993913859128952,
        0.05087375268340111,
        -0.01831735484302044,
        0.1663750261068344,
        0.015642302110791206,
        -0.05211259797215462,
        0.14030708372592926,
        0.0036194119602441788,
        0.12650348246097565,
        -0.5381371974945068,
        -0.3788323998451233,
        -0.17480282485485077,
        0.14386405050754547,
        0.03373686596751213,
        -0.41443347930908203,
        -0.04012129083275795,
        -0.10756303369998932,
        -0.09490048885345459,
        -0.14766815304756165,
        0.028773074969649315,
        -0.05815539136528969,
        -0.10364193469285965,
        -0.04474654048681259,
        -0.10814343392848969,
        -0.2632106840610504,
        -0.04870755225419998,
        -0.09323903918266296,
        -0.3940321207046509,
        0.021496856585144997,
        -0.007158329710364342,
        -0.08699490129947662,
        -0.14795544743537903,
        -0.19201572239398956,
        -0.35717466473579407,
        -0.4775417745113373,
        -0.29300761222839355,
        0.07512538880109787,
        0.194247767329216,
        -0.024665111675858498,
        -0.26335734128952026,
        -0.2122534215450287,
        -0.07691881060600281,
        0.052613914012908936,
        0.059606682509183884,
        -0.20003797113895416,
        -0.03155118599534035,
        0.07422825694084167,
        -0.3434159755706787,
        -0.01451602578163147,
        -0.21665774285793304,
        0.18899768590927124,
        0.07093919068574905,
        -0.0034058582969009876,
        0.09947220236063004,
        -0.2797717750072479,
        -0.09169624000787735,
        -0.05235234647989273,
        -0.2045038491487503,
        -0.5297882556915283,
        0.04126831889152527,
        -0.11614257842302322,
        -0.002354084048420191,
        -0.1825595647096634,
        -0.2484723925590515,
        -0.1930769979953766,
        -0.23670653998851776,
        -0.2516094744205475,
        -0.16411058604717255,
        -0.3563941717147827,
        -0.0380728617310524,
        -0.06579118221998215,
        -0.06297937035560608,
        0.022615453228354454,
        0.04819490388035774,
        0.16190741956233978,
        -0.030419236049056053,
        -0.21266764402389526,
        0.2953067421913147,
        0.00897641945630312,
        -0.02387474849820137,
        0.07605495303869247,
        -0.09263710677623749,
        0.19454838335514069,
        -0.06034053862094879,
        -0.0685630589723587,
        -0.25568079948425293,
        0.19438448548316956,
        0.14739787578582764,
        -0.24457207322120667,
        0.1525898277759552,
        0.008034421131014824,
        0.08496472984552383,
        -0.2515948414802551,
        0.056409381330013275,
        -0.04552904888987541,
        -0.18400683999061584,
        -0.14225827157497406,
        -0.11084400117397308,
        0.04223363474011421,
        0.22002239525318146,
        -0.08546988666057587,
        0.22697539627552032,
        0.15736910700798035,
        -0.406658411026001,
        -0.0701661929488182,
        -0.1492414027452469,
        -0.7134588956832886,
        0.19088055193424225,
        -0.35179251432418823,
        0.09595243632793427,
        0.1726233959197998,
        0.014493237249553204,
        0.08620833605527878,
        0.1423427164554596,
        0.036051809787750244,
        0.13413138687610626,
        0.19982869923114777,
        0.07132414728403091,
        -0.0853830948472023,
        0.06753231585025787,
        0.009893082082271576,
        0.12457259744405746,
        0.11748868972063065,
        0.023064374923706055,
        0.021788664162158966,
        -0.2746161222457886,
        0.16528436541557312,
        -0.03798161819577217,
        -0.3538763225078583,
        0.07799618691205978,
        0.09442707151174545,
        -0.11197561025619507,
        -0.14765669405460358,
        -0.02006523311138153,
        -0.150359645485878,
        -0.06990072876214981,
        0.09053705632686615,
        -0.024169206619262695,
        -0.631422221660614,
        -0.16031727194786072,
        0.0013897374738007784,
        0.08528771996498108,
        -0.0435759611427784,
        -0.14351844787597656,
        -0.00720788910984993,
        0.020641691982746124,
        -0.11551538854837418,
        0.01923586241900921,
        -0.18952792882919312,
        -0.2187550663948059,
        -0.13612231612205505,
        0.08159255981445312,
        -0.10959812998771667,
        -0.09707393497228622,
        0.239018514752388,
        0.1643550843000412,
        -0.10503751039505005,
        0.03540060669183731,
        0.23480437695980072,
        -0.488534152507782,
        -0.15959696471691132,
        -0.04085906967520714,
        0.2016030251979828,
        0.06771944463253021,
        -0.4857622981071472,
        -0.14156928658485413,
        0.018838953226804733,
        0.226233571767807,
        -0.13827984035015106,
        0.011820091865956783,
        0.032307419925928116,
        -0.12132319062948227,
        -0.16422969102859497,
        0.075501948595047,
        -0.2887977361679077,
        0.014731883071362972,
        -0.09756270051002502,
        -0.3544912338256836,
        0.0565338134765625,
        0.11417724192142487,
        0.1551753431558609,
        0.04206201434135437,
        -0.2023175209760666,
        -0.3826979398727417,
        -0.4111701548099518,
        -0.18988990783691406,
        0.034720927476882935,
        -0.1645130217075348,
        -0.07443376630544662,
        0.038720499724149704,
        -0.059678785502910614,
        -0.31338176131248474,
        -0.18835978209972382,
        -0.3015136122703552,
        -0.013907871209084988,
        -0.043604180216789246,
        0.11267144978046417,
        -0.21013794839382172,
        0.03808706998825073,
        -0.15358367562294006,
        -0.1349850445985794,
        -0.035462237894535065,
        0.053397562354803085,
        0.013583078980445862,
        0.12337537109851837,
        -0.10833293199539185,
        -0.0864170640707016,
        0.12066557258367538,
        -0.3402150869369507,
        -0.4043351411819458,
        -0.04655664786696434,
        -0.2343786358833313,
        0.06383118778467178,
        0.21695153415203094,
        -0.06752714514732361,
        0.05815626680850983,
        -0.06986743211746216,
        -0.2522096633911133,
        0.2289842665195465,
        -0.030338816344738007,
        -0.173627570271492,
        -0.04506075009703636,
        -0.09856355935335159,
        -0.05108107998967171,
        -0.20429284870624542,
        0.07660730928182602,
        -0.3847268223762512,
        -0.05026447772979736,
        -0.1468668133020401,
        0.13618655502796173,
        -0.31443095207214355,
        -0.026034707203507423,
        -0.010649923235177994,
        0.09147214144468307,
        -0.1436532586812973,
        -0.1773364096879959,
        0.32868364453315735,
        -0.08833622187376022,
        -0.24622979760169983,
        0.01925681345164776,
        -0.0572250634431839,
        0.08116298913955688,
        -0.030505001544952393,
        -0.08609666675329208,
        0.10868833214044571,
        0.0041855075396597385,
        0.05478842556476593,
        0.04754507169127464,
        -0.20294001698493958,
        0.15637490153312683,
        -0.17554274201393127,
        -0.22615094482898712,
        -0.17651376128196716,
        0.020076962187886238,
        0.012556888163089752,
        0.1836230307817459,
        -0.2556402385234833,
        0.08452244848012924,
        0.0312960185110569,
        -0.21047556400299072,
        0.09617287665605545,
        0.13092778623104095,
        -0.07891407608985901,
        -0.10084715485572815,
        -0.17238403856754303,
        0.009105544537305832,
        -0.1158943623304367,
        -0.04328777641057968,
        -0.08369316160678864,
        -0.20098574459552765,
        -0.10456988215446472,
        -0.20675961673259735,
        -0.17433804273605347,
        -0.10361791402101517,
        0.08492179214954376,
        0.020227884873747826,
        -0.09367956966161728,
        0.19753871858119965,
        -0.07701720297336578,
        0.15816771984100342,
        0.039267223328351974,
        0.06627589464187622,
        -0.07481467723846436,
        -0.34870636463165283,
        -0.11179438978433609,
        0.13196347653865814,
        0.14721612632274628,
        -0.02659948356449604,
        0.0005318035837262869,
        -0.02505369298160076,
        0.11497510969638824,
        0.2511865198612213,
        0.19979341328144073,
        -0.06435836851596832,
        0.14113354682922363,
        0.1045987606048584,
        0.284322053194046,
        0.10113794356584549,
        0.01601414754986763,
        -0.02670384757220745,
        0.1783558875322342,
        0.03437192365527153,
        0.19604848325252533,
        0.10887491703033447,
        0.0665397122502327,
        0.06540438532829285,
        0.053164511919021606,
        -0.06218349188566208,
        -0.07500360161066055,
        -0.3043665289878845,
        -0.2398965209722519,
        0.04734613746404648,
        0.04883357882499695,
        0.03253703936934471,
        0.018725348636507988,
        -0.07058950513601303,
        -0.28682124614715576,
        -0.5019874572753906,
        -0.06922256201505661,
        0.33530211448669434,
        -0.0683899000287056,
        -0.11387170851230621,
        -0.640360951423645,
        0.1244838535785675,
        -0.28640517592430115,
        0.015233987011015415,
        -0.031136251986026764,
        -0.10232392698526382,
        0.11983303725719452,
        0.016665780916810036,
        0.15616631507873535,
        0.13250453770160675,
        0.3098979890346527,
        -0.17004676163196564,
        -0.08121569454669952,
        -0.2800109386444092,
        -0.045265380293130875,
        0.11555977910757065,
        0.002938885474577546,
        -0.4056515693664551,
        -0.24176664650440216,
        -0.03818902745842934,
        -0.05298842862248421,
        0.0017002683598548174,
        -0.22598452866077423,
        -0.08474572747945786,
        0.03266069293022156,
        -0.29573705792427063,
        -0.209202840924263,
        0.15275545418262482,
        -0.06279554963111877,
        0.008544602431356907,
        0.19047434628009796,
        -0.1044180691242218,
        -0.41808071732521057,
        -0.15178589522838593,
        -0.10286221653223038,
        -0.2538297772407532,
        0.15620991587638855,
        0.1067519560456276,
        0.15608705580234528,
        0.10133438557386398,
        -0.45799556374549866,
        -0.14143440127372742,
        -0.26223698258399963,
        -0.32778340578079224,
        -0.20999661087989807,
        -0.16133102774620056,
        0.06904398649930954,
        -0.04606306180357933,
        0.051102060824632645,
        0.2365652620792389,
        -0.0329664945602417,
        -0.007986721582710743,
        -0.27952566742897034,
        0.034513507038354874,
        -0.27853313088417053,
        -0.050103556364774704,
        -0.05233030021190643,
        -0.5429200530052185,
        0.038623563945293427,
        -0.009644686244428158,
        0.014890872873365879,
        0.009658651426434517,
        -0.08092456310987473,
        0.3320992588996887,
        0.03328964114189148,
        -0.04494752362370491,
        -0.35527104139328003,
        -0.10696842521429062,
        -0.10859464108943939,
        0.2602332532405853,
        -0.057511817663908005,
        0.018537139520049095,
        0.10677243769168854,
        0.12830901145935059,
        0.023874549195170403,
        -0.2214401215314865,
        -0.011427614837884903,
        0.06298978626728058,
        0.08665553480386734,
        0.06339330971240997,
        -0.022163083776831627,
        -0.08821507543325424,
        0.009890551678836346,
        -0.3490041196346283,
        -0.014597251079976559,
        -0.1176455169916153,
        0.11957887560129166,
        -0.1096528097987175,
        -0.2577492892742157,
        0.2101590484380722,
        -0.17681334912776947,
        -0.25201302766799927,
        0.09734442830085754,
        -0.1467505693435669,
        0.08487556874752045,
        -0.09082275629043579,
        -0.3479432463645935,
        -0.2351839244365692,
        -0.017260458320379257,
        0.1283109486103058,
        0.04035768285393715,
        -0.13182684779167175,
        0.05197587609291077,
        -0.053674422204494476,
        0.1487666517496109,
        -0.2627086937427521,
        -0.10810944437980652,
        0.05569860339164734,
        0.027252592146396637,
        -0.2856471538543701,
        0.09008573740720749,
        0.07691512256860733,
        0.07361556589603424,
        -0.07073257118463516,
        0.07949866354465485,
        -0.4069482088088989,
        0.19863924384117126,
        -0.16536572575569153,
        -0.42223992943763733,
        0.10450877249240875,
        -0.036968544125556946,
        -0.12935477495193481,
        0.09193532168865204,
        -0.12088440358638763,
        -0.06246529147028923,
        0.13964897394180298,
        -0.011602330021560192,
        -0.2689026892185211,
        -0.05610352382063866,
        -0.07704412192106247,
        -0.059200674295425415,
        0.1505020707845688,
        -0.025235800072550774,
        0.00033516561961732805,
        -0.28070878982543945,
        -0.09939654916524887,
        0.18880614638328552,
        0.03285619243979454,
        0.17377802729606628,
        0.08183442801237106,
        0.03990465775132179,
        -0.3018396198749542,
        -0.012369760312139988,
        -0.2880702018737793,
        0.046859439462423325,
        0.04678409919142723,
        -0.0045270356349647045,
        -0.14130474627017975,
        0.004294894635677338,
        0.07390601187944412,
        -0.22300872206687927,
        -0.24097830057144165,
        0.01998400129377842,
        -0.3142744302749634,
        -0.16018103063106537,
        0.006452787667512894,
        -0.04351935535669327,
        0.1520465612411499,
        -0.024835769087076187,
        -0.1487744152545929,
        -0.17354688048362732,
        -0.0326412059366703,
        0.04656847193837166,
        -0.05842031165957451,
        -0.22094088792800903,
        -0.03391517698764801,
        -0.10341038554906845,
        -0.1361033171415329,
        0.23546482622623444,
        -0.09854304790496826,
        -0.057727765291929245,
        0.1372024416923523,
        0.021136226132512093,
        0.2979015111923218,
        -0.13915346562862396,
        0.05108500272035599,
        0.05139722302556038,
        0.07325758039951324,
        0.10834864526987076,
        0.014849931932985783,
        -0.15648144483566284,
        -0.058401256799697876,
        0.009772340767085552,
        0.04025937616825104,
        -0.13430891931056976,
        -0.028269555419683456,
        -0.06558160483837128,
        -0.21263282001018524,
        -0.06505974382162094,
        -0.042413972318172455,
        -0.14924848079681396,
        0.10015793144702911,
        0.17913514375686646,
        -0.11621293425559998,
        0.03923406824469566,
        -0.11502410471439362,
        0.20165938138961792,
        -0.10434623807668686,
        -0.43007275462150574,
        0.0616924986243248,
        0.12788137793540955,
        -0.04935602843761444,
        -0.34642288088798523,
        -0.026196658611297607,
        -0.4172927737236023,
        0.04092022776603699,
        -0.21692141890525818,
        0.13819247484207153,
        -0.032201431691646576,
        -0.04735247790813446,
        0.05310121178627014,
        0.1082695797085762,
        -0.0855487585067749,
        0.13710173964500427,
        0.12387242168188095,
        -0.2334498018026352,
        0.09993812441825867,
        0.04903549328446388,
        0.2288352996110916,
        0.1118258610367775,
        0.06623971462249756,
        -0.22338652610778809,
        -0.1228380799293518,
        -0.2811906933784485,
        0.13316649198532104,
        -0.280710905790329,
        0.08176909387111664,
        -0.08128789067268372,
        -0.35297247767448425,
        -0.03396838158369064,
        -0.0595167800784111,
        0.04493299871683121,
        -0.059419550001621246,
        -0.31745320558547974,
        -0.004832536447793245,
        0.03894539549946785,
        0.07669882476329803,
        -0.09291710704565048,
        -0.06780407577753067,
        -0.07976575940847397,
        0.03380870446562767,
        -0.13206806778907776,
        0.02493436075747013,
        -0.2564609944820404,
        0.052693698555231094,
        -0.08599155396223068,
        -0.13908401131629944,
        -0.20756880939006805,
        0.06288041919469833,
        -0.00800436269491911,
        -0.010519605129957199,
        0.16439691185951233,
        0.08684924989938736,
        -0.026798417791724205,
        0.08166027814149857
      ]
    },
    {
      "activation": "sigmoid",
      "architecture": "dense",
      "bias": [
        0.1689838171005249
      ],
      "weights": [
        0.09716437757015228,
        -0.13503526151180267,
        -0.16285309195518494,
        -0.14608043432235718,
        -0.22773265838623047,
        0.22922445833683014,
        -0.3084186017513275,
        0.2625693678855896,
        -0.08263380825519562,
        0.056110821664333344,
        -0.20630629360675812,
        -0.18958908319473267,
        -0.08695780485868454,
        -0.13956327736377716,
        0.12488478422164917,
        0.39150407910346985,
        0.31741929054260254,
        0.04809775575995445,
        -0.11989030241966248,
        0.04883130267262459
      ]
    }
  ],
  "outputs": [
    "ELT"
  ]
}
