{
  "defaults": {},
  "inputs": [
    {
      "name": "met_met",
      "offset": "-70989.6889443",
      "scale": "1.88089640791e-05"
    },
    {
      "name": "jet_pt_3rd_correct",
      "offset": "-58719.1038297",
      "scale": "3.44958209351e-05"
    },
    {
      "name": "jet_pt_4th_correct",
      "offset": "-41473.3820419",
      "scale": "5.49036282102e-05"
    },
    {
      "name": "ph_HFT_MVA_sel",
      "offset": "-0.73655206163",
      "scale": "4.34809895753"
    },
    {
      "name": "event_HT",
      "offset": "-414055.717265",
      "scale": "5.33687767669e-06"
    },
    {
      "name": "jet_tagWeightBin_leading_correct",
      "offset": "-4.77426617529",
      "scale": "1.808414415"
    },
    {
      "name": "jet_tagWeightBin_subsubleading_correct",
      "offset": "-1.20256416911",
      "scale": "1.56002146788"
    },
    {
      "name": "ph_mgammalept_sel",
      "offset": "-129560.785487",
      "scale": "1.08721803186e-05"
    },
    {
      "name": "jet_pt_2nd_correct",
      "offset": "-86411.3166491",
      "scale": "1.98531724515e-05"
    },
    {
      "name": "jet_pt_5th_correct",
      "offset": "-36206.4286185",
      "scale": "7.61514942756e-05"
    },
    {
      "name": "event_mwt",
      "offset": "-69164.0134723",
      "scale": "2.15489068963e-05"
    },
    {
      "name": "event_nbjets77",
      "offset": "-1.5522696011",
      "scale": "1.67836431027"
    },
    {
      "name": "jet_pt_1st_correct",
      "offset": "-131681.410914",
      "scale": "1.24203647014e-05"
    },
    {
      "name": "event_njets",
      "offset": "-4.6853637331",
      "scale": "1.06872468191"
    },
    {
      "name": "jet_tagWeightBin_subleading_correct",
      "offset": "-2.83749448496",
      "scale": "0.5940849749"
    }
  ],
  "layers": [
    {
      "activation": "rectified",
      "architecture": "dense",
      "bias": [
        -0.5598354339599609,
        -0.4644708037376404,
        -0.618593692779541,
        -0.5313761830329895,
        -0.3164801597595215,
        -0.4267506003379822,
        -0.06942536681890488,
        -0.6951505541801453,
        -0.344934344291687,
        -0.29695916175842285,
        -0.7683286666870117,
        -0.6058424711227417,
        -0.8230276703834534,
        -0.8247999548912048,
        -0.44292759895324707,
        -0.28645727038383484,
        -0.665482759475708,
        -0.48430177569389343,
        -0.794995129108429,
        -0.34283003211021423,
        -0.45523568987846375,
        -0.20268511772155762,
        -0.5435093641281128,
        -0.6455323100090027,
        -0.6988265514373779,
        -0.7726496458053589,
        -0.7219989895820618,
        -0.4867527484893799,
        -0.601972222328186,
        -0.7393177151679993
      ],
      "weights": [
        -0.1802060604095459,
        -0.13640551269054413,
        -0.0025176615454256535,
        -0.09441302716732025,
        -0.4831910729408264,
        -0.045202914625406265,
        -0.008226651698350906,
        -0.1730392575263977,
        -0.0412021279335022,
        -0.5219603776931763,
        -0.12428751587867737,
        -0.016448115929961205,
        0.36384618282318115,
        0.1605951189994812,
        -0.051867444068193436,
        0.031189413741230965,
        -0.09899340569972992,
        -0.04567667469382286,
        -0.34931424260139465,
        -0.33645832538604736,
        -0.08826270699501038,
        -0.23576635122299194,
        0.3443223536014557,
        0.21799059212207794,
        -0.016731297597289085,
        -0.0852419063448906,
        -0.08339309692382812,
        0.2914445996284485,
        0.21158599853515625,
        0.12960408627986908,
        0.24013322591781616,
        0.035216353833675385,
        0.11789742112159729,
        0.12394075840711594,
        -0.44924217462539673,
        0.02843632362782955,
        0.053566496819257736,
        -0.13219116628170013,
        0.029239457100629807,
        -0.02223675698041916,
        -0.2872394919395447,
        -0.013532082550227642,
        -0.5741735696792603,
        -0.15572477877140045,
        -0.24226461350917816,
        -0.12825004756450653,
        0.20520375669002533,
        0.06665148586034775,
        -0.1731337010860443,
        -0.3042442500591278,
        -0.13709354400634766,
        -0.07594603300094604,
        0.054209742695093155,
        -0.051023930311203,
        0.011700167320668697,
        0.6445504426956177,
        0.3540172874927521,
        0.3607390224933624,
        0.006683925166726112,
        -0.004496727138757706,
        -0.03881701081991196,
        0.04436209797859192,
        0.08940167725086212,
        0.0003564318176358938,
        -0.5429649949073792,
        -0.25075823068618774,
        -0.6264907121658325,
        0.14244344830513,
        -0.06513703614473343,
        -0.41999855637550354,
        0.10578687489032745,
        0.08298568427562714,
        0.48390790820121765,
        -0.1766619235277176,
        -0.10354409366846085,
        -0.189370259642601,
        0.05451581999659538,
        -0.002361122751608491,
        -0.04895400255918503,
        -0.2811497747898102,
        -0.10938815772533417,
        -0.29703137278556824,
        -0.009588993154466152,
        0.18508924543857574,
        -0.13405056297779083,
        0.6605949401855469,
        0.3036266565322876,
        0.12147519737482071,
        0.19640755653381348,
        -0.30325520038604736,
        0.19016411900520325,
        -0.07248743623495102,
        0.13473784923553467,
        0.11919816583395004,
        0.553374171257019,
        0.12830796837806702,
        -0.1117333397269249,
        -0.5705639719963074,
        0.023072460666298866,
        0.01753200963139534,
        -0.169686421751976,
        0.17676571011543274,
        -0.5543608665466309,
        -0.1049189642071724,
        0.16845032572746277,
        0.05404854938387871,
        0.07873813807964325,
        -0.1550041139125824,
        1.1046912670135498,
        -0.12144584953784943,
        0.12089353799819946,
        -0.2941362261772156,
        0.0800907090306282,
        0.05243001505732536,
        0.005583097692579031,
        -0.1254161149263382,
        0.20805473625659943,
        -0.03695129230618477,
        -0.03370772302150726,
        0.06918682903051376,
        -0.027085382491350174,
        0.04360435903072357,
        0.010672211647033691,
        -0.12680120766162872,
        -0.973905622959137,
        -0.07701309025287628,
        -0.20787161588668823,
        0.2142563760280609,
        0.2801142930984497,
        -0.2308763712644577,
        0.08120007067918777,
        0.1167868822813034,
        0.20473764836788177,
        -0.19495552778244019,
        0.0669601559638977,
        -0.6281851530075073,
        0.2564725875854492,
        0.13894622027873993,
        0.11420656740665436,
        -0.08170944452285767,
        -0.27181026339530945,
        -0.13764561712741852,
        -0.3193354904651642,
        -0.06906674802303314,
        0.07255124300718307,
        0.20977438986301422,
        0.0421016663312912,
        0.3949906527996063,
        -0.43894845247268677,
        0.23711885511875153,
        -0.2253008484840393,
        -0.1312868297100067,
        0.01692117564380169,
        -0.05299612134695053,
        -0.05328486114740372,
        -0.18990041315555573,
        -0.27561691403388977,
        -0.028554074466228485,
        0.11845385283231735,
        0.22723388671875,
        0.07568169385194778,
        -0.20280927419662476,
        0.25952935218811035,
        0.08153556287288666,
        -0.4427935779094696,
        0.1244618147611618,
        0.06908535957336426,
        0.004079447593539953,
        0.8484517931938171,
        0.3172473609447479,
        0.5563400983810425,
        -0.013177107088267803,
        0.12159658223390579,
        -0.20575262606143951,
        -0.15107941627502441,
        -0.04078308492898941,
        -0.07581786811351776,
        -0.14227554202079773,
        -0.2215638905763626,
        -0.026109449565410614,
        -0.37763944268226624,
        -0.12821727991104126,
        -0.13364334404468536,
        0.04991326108574867,
        0.1656106561422348,
        -0.12516602873802185,
        -0.03238148242235184,
        0.020211009308695793,
        -0.016501840204000473,
        0.05221198499202728,
        -0.010992026887834072,
        0.013328198343515396,
        0.03919905424118042,
        0.0126614635810256,
        -0.4396968185901642,
        -0.17820028960704803,
        -0.24412381649017334,
        -0.05943005904555321,
        0.0068949987180531025,
        -0.44054752588272095,
        -0.040496576577425,
        -0.1399354636669159,
        -0.002675035037100315,
        -0.0031576999463140965,
        -0.009554889053106308,
        -0.048363521695137024,
        0.0034958110190927982,
        -0.09770762920379639,
        0.058452799916267395,
        -0.10077907145023346,
        0.13314194977283478,
        0.10920388251543045,
        0.2742545008659363,
        0.7947547435760498,
        0.04370536282658577,
        0.496234655380249,
        0.0907941609621048,
        0.08390120416879654,
        -0.049592524766922,
        0.08907526731491089,
        -0.20850346982479095,
        -0.017493728548288345,
        -0.5741277933120728,
        0.07239767163991928,
        0.20038637518882751,
        -0.18523009121418,
        0.04731078818440437,
        0.022737422958016396,
        -0.2608547508716583,
        -0.5074952840805054,
        -0.21068322658538818,
        -0.17068001627922058,
        0.12581577897071838,
        0.0690557137131691,
        0.060968413949012756,
        -0.06989529728889465,
        -0.01608964614570141,
        0.5736317038536072,
        0.046985894441604614,
        -0.010773795656859875,
        0.12082301825284958,
        -0.31059888005256653,
        -0.19773702323436737,
        0.022335272282361984,
        -0.2820916175842285,
        -0.3318229913711548,
        -0.3637921214103699,
        0.24607999622821808,
        -0.048671793192625046,
        0.003757030237466097,
        0.03699298948049545,
        0.09637708216905594,
        -0.10477516800165176,
        -0.06850968301296234,
        -0.0021991669200360775,
        0.1401197612285614,
        0.20766912400722504,
        0.14760752022266388,
        0.14835339784622192,
        0.13643643260002136,
        -0.21957804262638092,
        0.06523168832063675,
        -0.7980722784996033,
        -0.0749514102935791,
        -0.10454315692186356,
        0.10111936181783676,
        0.11836785078048706,
        -0.571295440196991,
        0.17604491114616394,
        0.5399557948112488,
        -0.3608608543872833,
        -0.42388835549354553,
        -0.06368999928236008,
        -0.07163529098033905,
        -0.1536782830953598,
        -0.044194355607032776,
        -0.2863844335079193,
        0.09519986063241959,
        0.0531262643635273,
        -0.17432275414466858,
        0.038161274045705795,
        0.056829966604709625,
        0.0031399577856063843,
        -0.20603543519973755,
        -0.06387688964605331,
        -0.053527284413576126,
        -0.034973014146089554,
        0.06722596287727356,
        -0.2019561529159546,
        -0.5574026703834534,
        0.12763866782188416,
        0.11404753476381302,
        0.3193773627281189,
        0.16843149065971375,
        -0.03269999474287033,
        0.4644874334335327,
        0.20910318195819855,
        0.5475196838378906,
        0.1298428475856781,
        -0.22910793125629425,
        -0.05339859426021576,
        0.2179669290781021,
        0.18287068605422974,
        0.35543403029441833,
        0.01848292537033558,
        -0.39076581597328186,
        -0.04752481356263161,
        -0.02316264994442463,
        0.09524987637996674,
        -0.15803277492523193,
        -0.02780894935131073,
        0.2068944126367569,
        -0.4192233085632324,
        -0.020463498309254646,
        0.600195050239563,
        0.08517394959926605,
        0.05701630190014839,
        -0.07873334735631943,
        -0.20992588996887207,
        -0.7499851584434509,
        0.19840960204601288,
        0.008850401267409325,
        0.343470960855484,
        0.3024122416973114,
        -0.09452887624502182,
        0.006271767430007458,
        0.09370215982198715,
        0.28417637944221497,
        0.10827188193798065,
        0.04462340101599693,
        -0.4072263240814209,
        0.2591019868850708,
        -0.2822937071323395,
        0.034422699362039566,
        -0.26995787024497986,
        -0.1913805902004242,
        0.06700614094734192,
        -0.3993830978870392,
        -0.6917120814323425,
        -0.030876848846673965,
        0.297477126121521,
        -0.008373185992240906,
        0.11637122184038162,
        0.108117014169693,
        -0.08406937122344971,
        -0.3562408983707428,
        0.07298107445240021,
        -0.08617433905601501,
        0.026818472892045975,
        0.020838022232055664,
        -0.2984447181224823,
        -0.36825618147850037,
        -0.33368775248527527,
        -0.17151255905628204,
        0.09747249633073807,
        -0.057594772428274155,
        -0.36393946409225464,
        0.3101300001144409,
        -0.13092200458049774,
        -0.12252513319253922,
        -0.676008939743042,
        -0.1337050199508667,
        -0.14749737083911896,
        -0.17426539957523346,
        -0.11088845133781433,
        -0.08565731346607208,
        0.2606249153614044,
        0.1694512516260147,
        0.24697345495224,
        -0.2552975118160248,
        0.14903217554092407,
        -0.047906871885061264,
        -0.15131942927837372,
        -0.04145244136452675,
        0.02429511398077011,
        -0.16617265343666077,
        -0.16480281949043274,
        -0.026544276624917984,
        0.00875902734696865,
        -0.15601126849651337,
        -0.03311552107334137,
        0.026359833776950836,
        -0.13774405419826508,
        -0.10761002451181412,
        -0.3151905834674835,
        -0.17663204669952393,
        0.09771650284528732,
        0.20639899373054504,
        -0.16412469744682312,
        -0.31575480103492737,
        -0.15357384085655212,
        0.2210845798254013,
        0.13123084604740143,
        0.18364186584949493,
        -0.09212134778499603,
        -0.13346873223781586,
        -0.22408844530582428,
        -0.3315785527229309,
        -0.3436761498451233,
        0.05041087791323662,
        -0.06246431916952133,
        0.3099880516529083,
        -0.21931347250938416,
        -0.3508799970149994,
        0.05972621217370033,
        0.12099266797304153,
        -0.2544502913951874,
        -0.14762011170387268,
        -0.32833757996559143,
        -0.25525686144828796,
        0.03439687192440033,
        0.09492487460374832,
        0.43042880296707153,
        -0.20184385776519775,
        0.053915709257125854,
        -0.2643842399120331,
        -0.25036323070526123,
        -0.11150508373975754,
        0.2014143466949463,
        -0.035178083926439285,
        0.22499598562717438,
        0.1827796846628189,
        0.09643453359603882,
        0.9337461590766907,
        0.07886222004890442,
        0.38532453775405884,
        0.08354226499795914,
        0.18739737570285797,
        -0.17388981580734253,
        0.05518614500761032,
        -0.004455581773072481,
        -0.10690367966890335,
        -0.2676849365234375,
        -0.017688358202576637,
        0.010813875123858452,
        -0.04118748754262924,
        -0.037311721593141556,
        0.051305126398801804,
        -0.13759133219718933,
        0.032065246254205704,
        -0.19977036118507385,
        -0.3527332842350006,
        -0.01689247228205204,
        -0.14965389668941498,
        0.22991333901882172,
        -0.02699943818151951,
        -0.15240082144737244,
        0.33950304985046387,
        0.047823216766119,
        -0.4180281460285187
      ]
    },
    {
      "architecture": "normalization",
      "bias": [
        -0.05708838254213333,
        -0.027798578143119812,
        -0.12040439248085022,
        -0.06866806745529175,
        -0.1587638556957245,
        -0.06837551295757294,
        -0.23224331438541412,
        -0.04566386342048645,
        -0.11226322501897812,
        -0.20704591274261475,
        -0.05979914218187332,
        -0.025122493505477905,
        -0.0098341079428792,
        -0.013012916781008244,
        -0.1877431869506836,
        -0.049825772643089294,
        -0.07415430247783661,
        -0.11281498521566391,
        -0.019395098090171814,
        -0.11978235095739365,
        -0.1484714299440384,
        -0.07827160507440567,
        -0.14289633929729462,
        -0.044278793036937714,
        -0.05966723710298538,
        -0.008717386983335018,
        -0.036350756883621216,
        -0.195083886384964,
        -0.06667374074459076,
        -0.0884663462638855
      ],
      "weights": [
        4.657803535461426,
        3.050309181213379,
        3.136413097381592,
        2.0118625164031982,
        2.1426289081573486,
        2.2584915161132812,
        1.6788023710250854,
        2.699998140335083,
        3.129293441772461,
        1.7487871646881104,
        2.9526517391204834,
        2.0931947231292725,
        9.964037895202637,
        13.277921676635742,
        1.3943802118301392,
        2.7292425632476807,
        3.045300245285034,
        1.643663763999939,
        9.192891120910645,
        1.8842357397079468,
        2.203503131866455,
        2.6535887718200684,
        2.834272623062134,
        3.0314011573791504,
        4.453097820281982,
        9.930218696594238,
        5.744020462036133,
        2.202995538711548,
        1.540693759918213,
        2.852076530456543
      ]
    },
    {
      "activation": "rectified",
      "architecture": "dense",
      "bias": [
        0.09887278079986572,
        -0.7100627422332764,
        -0.1251629739999771,
        -0.5817190408706665,
        0.05448346957564354,
        -0.10167215019464493,
        -0.08036070317029953,
        0.027909358963370323,
        -0.4457574784755707,
        0.15716834366321564,
        -0.4855130612850189,
        -0.5229110717773438,
        -0.578784167766571,
        -0.4391281306743622,
        0.1627430021762848,
        0.1945529580116272,
        0.13800400495529175,
        -0.7559982538223267,
        -0.1438964605331421,
        -0.32122522592544556
      ],
      "weights": [
        0.01194054540246725,
        -0.464650958776474,
        0.05137309804558754,
        0.20940473675727844,
        -0.17489361763000488,
        0.16457471251487732,
        0.242761492729187,
        0.13680414855480194,
        -0.31642353534698486,
        -0.03682999312877655,
        -0.36239105463027954,
        -0.09783808141946793,
        -0.18886782228946686,
        -0.015047190710902214,
        -0.14996078610420227,
        -0.42725786566734314,
        0.009077721275389194,
        -0.044433388859033585,
        -0.004179010633379221,
        -0.060585297644138336,
        -0.02432427927851677,
        -0.4820864498615265,
        0.11217662692070007,
        -0.44024133682250977,
        -0.43522337079048157,
        -0.16002875566482544,
        -0.19010668992996216,
        0.058463893830776215,
        0.07030821591615677,
        -0.23770947754383087,
        -0.3607816696166992,
        0.18587473034858704,
        0.020790431648492813,
        -0.11646604537963867,
        0.15955600142478943,
        0.08758241683244705,
        -0.1961645483970642,
        -0.10134369879961014,
        -0.49514010548591614,
        0.16071251034736633,
        0.041595954447984695,
        -0.16723781824111938,
        0.18509162962436676,
        -0.41220974922180176,
        -0.11792229861021042,
        0.004158434458076954,
        -0.5995258092880249,
        -0.17355811595916748,
        -0.03842092305421829,
        -0.19912123680114746,
        -0.11557371914386749,
        -0.45777657628059387,
        0.07498243451118469,
        -0.01055225171148777,
        0.1226104199886322,
        0.07068003714084625,
        -0.28540465235710144,
        -0.19107192754745483,
        -0.015044745989143848,
        -0.19422268867492676,
        0.19624783098697662,
        -0.012076755054295063,
        0.005534323863685131,
        -0.43615615367889404,
        -0.0013608576264232397,
        -0.29975080490112305,
        0.0578354075551033,
        0.03584230691194534,
        -0.43202269077301025,
        -0.543124258518219,
        -0.0019643737468868494,
        0.041746318340301514,
        0.048157740384340286,
        -0.06331650912761688,
        0.48982706665992737,
        -0.009396194480359554,
        -0.2982023060321808,
        -0.3893907964229584,
        0.14914141595363617,
        0.0026105132419615984,
        -0.2147955745458603,
        0.14787764847278595,
        -0.0016715418314561248,
        -0.09378212690353394,
        0.0659799575805664,
        0.1709204912185669,
        -0.661898136138916,
        0.2949860692024231,
        0.06126968935132027,
        0.18300926685333252,
        0.21551592648029327,
        0.06633828580379486,
        0.15368323028087616,
        0.07889218628406525,
        0.18108700215816498,
        0.010742946527898312,
        0.0067466069012880325,
        -0.14053332805633545,
        -0.28038400411605835,
        -0.26799824833869934,
        0.15554599463939667,
        -0.060401659458875656,
        -0.10775478929281235,
        -0.18377076089382172,
        -0.22879336774349213,
        -0.4512943625450134,
        -0.03854930400848389,
        0.1916760504245758,
        0.30438926815986633,
        -0.1389397382736206,
        -0.07405592501163483,
        0.12472023069858551,
        -0.08189697563648224,
        0.11022453010082245,
        0.3513489365577698,
        -0.6167872548103333,
        -0.1804981529712677,
        -0.2037508487701416,
        -0.3152949810028076,
        -0.0894060730934143,
        -0.28127261996269226,
        -0.10220648348331451,
        -0.6889324188232422,
        -0.03684447333216667,
        0.01626003533601761,
        -0.07142916321754456,
        -0.34019094705581665,
        -0.3775872588157654,
        -0.10519722104072571,
        -0.013381279073655605,
        0.14863121509552002,
        -0.5903982520103455,
        0.2984933853149414,
        -0.47989723086357117,
        -0.42761972546577454,
        0.1627388596534729,
        -0.022339671850204468,
        -0.4390222132205963,
        -0.4816771149635315,
        0.05211866274476051,
        -0.5163353085517883,
        0.11863980442285538,
        -0.18218906223773956,
        0.10518761724233627,
        0.3397303521633148,
        -0.3530290722846985,
        -0.38479578495025635,
        -0.37107765674591064,
        -0.46618983149528503,
        0.08546056598424911,
        -0.13713805377483368,
        -0.37363991141319275,
        0.06720820814371109,
        -0.3721682131290436,
        -0.2632588744163513,
        -0.485695481300354,
        0.09778228402137756,
        -0.013077333569526672,
        -0.5046077370643616,
        -0.44575515389442444,
        0.19041471183300018,
        0.012452380731701851,
        0.00920039601624012,
        0.06313229352235794,
        -0.07563024759292603,
        -0.26006075739860535,
        -0.23588229715824127,
        -0.006238690111786127,
        0.03664553165435791,
        -0.4077744483947754,
        0.02603175863623619,
        -0.25271379947662354,
        -0.17209729552268982,
        -0.13987866044044495,
        -0.2880672812461853,
        0.1716567426919937,
        -0.3931474983692169,
        0.15822185575962067,
        0.060714900493621826,
        0.34967300295829773,
        0.2332116812467575,
        0.37744173407554626,
        0.1410531997680664,
        0.1479821354150772,
        -0.05304735153913498,
        0.12797924876213074,
        -0.23616743087768555,
        -0.05217071250081062,
        -0.18757040798664093,
        -0.0631243884563446,
        0.09601221978664398,
        -0.25079333782196045,
        0.16275085508823395,
        0.30565309524536133,
        -0.19894371926784515,
        0.1830713450908661,
        0.25690773129463196,
        -0.5096364617347717,
        0.27879098057746887,
        -0.01849234662950039,
        -0.5134664177894592,
        0.0741133838891983,
        0.18590791523456573,
        0.07809175550937653,
        0.1597834676504135,
        0.37284353375434875,
        0.039563603699207306,
        0.1557818353176117,
        -0.09177590906620026,
        0.2287110686302185,
        -0.05207477882504463,
        0.10391219705343246,
        -0.05877425894141197,
        0.1480964571237564,
        -0.3339829444885254,
        0.029475733637809753,
        0.06669724732637405,
        0.30666428804397583,
        0.04596414789557457,
        0.27494969964027405,
        -0.49654120206832886,
        0.060832679271698,
        -0.44304606318473816,
        -0.1112445667386055,
        0.06589902192354202,
        0.07418379932641983,
        0.01098131388425827,
        0.12752044200897217,
        -0.27942439913749695,
        0.0450197197496891,
        0.26662760972976685,
        0.062421612441539764,
        0.1354399174451828,
        -0.17650988698005676,
        0.22897861897945404,
        -0.21966677904129028,
        0.2973436117172241,
        -0.4430699348449707,
        -0.0001493776944698766,
        -0.5316140055656433,
        -0.01324592437595129,
        0.34473916888237,
        -0.19442078471183777,
        -0.13585492968559265,
        0.1205902248620987,
        0.036301374435424805,
        -0.19244971871376038,
        -0.18037216365337372,
        0.008664995431900024,
        0.13637518882751465,
        0.09009230136871338,
        -0.6811321377754211,
        0.22574405372142792,
        -0.02127170003950596,
        -0.09572042524814606,
        -0.4001506268978119,
        -0.3462015390396118,
        -0.41465041041374207,
        -0.21488705277442932,
        0.13893340528011322,
        0.03107176348567009,
        -0.37270089983940125,
        -0.1647326648235321,
        0.04730015620589256,
        -0.09205999970436096,
        0.11410138010978699,
        0.1268177628517151,
        0.12311417609453201,
        -0.29749035835266113,
        -0.09984460473060608,
        0.0366235226392746,
        0.10801249742507935,
        0.14378894865512848,
        -0.5074462294578552,
        0.12233477085828781,
        -0.21198341250419617,
        -0.05298998951911926,
        0.22640037536621094,
        -0.17947876453399658,
        -0.4600953161716461,
        -0.30224791169166565,
        0.2072218954563141,
        -0.052594736218452454,
        -0.13691900670528412,
        0.028804387897253036,
        -0.07370597124099731,
        0.18469594419002533,
        -0.08679364621639252,
        -0.014332377351820469,
        -0.24106959998607635,
        0.3120913803577423,
        0.1260536164045334,
        -0.5064310431480408,
        -0.26040002703666687,
        -0.2482868880033493,
        -0.03154339641332626,
        -0.41697320342063904,
        0.0435672327876091,
        0.26434433460235596,
        -0.22119727730751038,
        0.06499942392110825,
        -0.22443696856498718,
        0.37956225872039795,
        -0.4024926424026489,
        -0.10925549268722534,
        -0.13129404187202454,
        0.24763181805610657,
        0.035155076533555984,
        0.07586822658777237,
        0.0824689269065857,
        -0.1313157081604004,
        -0.07569999992847443,
        -0.16207295656204224,
        0.21382808685302734,
        0.24340695142745972,
        -0.3035457134246826,
        -0.14468838274478912,
        -0.03605635091662407,
        -0.06989335268735886,
        0.16897864639759064,
        0.2674284279346466,
        -0.22982464730739594,
        0.23772397637367249,
        -0.20325693488121033,
        -0.08725684136152267,
        -0.03807631880044937,
        0.1944293975830078,
        0.1912117600440979,
        0.057209957391023636,
        0.16188795864582062,
        0.07873895019292831,
        0.22452881932258606,
        -0.04590003564953804,
        -0.1124279722571373,
        -0.044477857649326324,
        -0.11871501803398132,
        0.005499064922332764,
        -0.5114178657531738,
        0.29496705532073975,
        0.19219788908958435,
        -0.06496385484933853,
        -0.5348769426345825,
        -0.1919449418783188,
        -0.2642306685447693,
        -0.23471690714359283,
        0.06292620301246643,
        0.07644975930452347,
        -0.45131829380989075,
        -0.08774165064096451,
        0.22196534276008606,
        -0.1728815883398056,
        0.25325191020965576,
        -0.046738795936107635,
        -0.2432587742805481,
        -0.203626811504364,
        0.37083637714385986,
        0.05359181761741638,
        0.19378110766410828,
        -0.3892762362957001,
        0.063760906457901,
        -0.25717693567276,
        -0.2697886526584625,
        -0.1480405181646347,
        0.02606707066297531,
        -0.26651111245155334,
        -0.5064905285835266,
        -0.039973948150873184,
        -0.3188716471195221,
        -0.3453287184238434,
        -0.11590497940778732,
        0.11779553443193436,
        -0.23002448678016663,
        -0.2124660462141037,
        -0.1609826534986496,
        -0.15301236510276794,
        0.3609831631183624,
        0.15816259384155273,
        -0.04059865325689316,
        -0.23676910996437073,
        -0.20950818061828613,
        -0.23660176992416382,
        0.2517286241054535,
        0.05657711252570152,
        -0.8280344605445862,
        0.15086610615253448,
        -0.348369836807251,
        0.07320305705070496,
        0.357973575592041,
        -0.11119657009840012,
        -0.28280332684516907,
        -0.33691519498825073,
        -0.034479934722185135,
        -0.03915498033165932,
        0.09137775748968124,
        0.04331227391958237,
        0.02420261688530445,
        -0.22896258533000946,
        -0.18820734322071075,
        0.37731000781059265,
        -0.14528898894786835,
        -0.15539231896400452,
        -0.33511319756507874,
        0.07177894562482834,
        0.059096455574035645,
        -0.3973599672317505,
        0.06800595670938492,
        -0.1827775239944458,
        -0.3619854748249054,
        -0.18152372539043427,
        -0.039059583097696304,
        -0.16970835626125336,
        0.21513165533542633,
        -0.7325783967971802,
        -0.7494258284568787,
        -0.10615129768848419,
        -0.2911068797111511,
        -0.35366714000701904,
        0.1175728440284729,
        -0.403210312128067,
        -0.08181589096784592,
        0.15441879630088806,
        -0.06233770027756691,
        0.25946804881095886,
        -0.048753004521131516,
        -0.05517667904496193,
        0.07347314804792404,
        -0.3699530363082886,
        0.2556159198284149,
        -0.2934548556804657,
        -0.5364258885383606,
        -0.32574567198753357,
        0.1232377290725708,
        -0.06661966443061829,
        -0.08209625631570816,
        -0.0633876621723175,
        -0.17164631187915802,
        0.08911789208650589,
        0.23503746092319489,
        -0.47441744804382324,
        -0.041439805179834366,
        0.10718163102865219,
        0.016776664182543755,
        0.27338144183158875,
        -0.026716085150837898,
        -0.6025897264480591,
        0.01844332367181778,
        -0.4738542437553406,
        0.11850675940513611,
        0.0370810367166996,
        -0.3663479685783386,
        -0.4421085715293884,
        -0.052955739200115204,
        0.030937334522604942,
        -0.5457296967506409,
        -0.11556833237409592,
        -0.7359298467636108,
        0.13297930359840393,
        0.06285277009010315,
        0.029644129797816277,
        0.029316633939743042,
        0.03335539624094963,
        -0.08450242131948471,
        -0.0874861553311348,
        -0.04531896859407425,
        0.13483981788158417,
        -0.09023293107748032,
        -0.20817551016807556,
        -0.06799789518117905,
        -0.24964599311351776,
        -0.17002522945404053,
        0.06677616387605667,
        0.0002232003607787192,
        -0.3482006788253784,
        -0.049127671867609024,
        -0.4118908941745758,
        -0.19468925893306732,
        -0.10167180001735687,
        0.018440838903188705,
        0.05718028545379639,
        0.013577476143836975,
        -0.26106196641921997,
        -0.23606431484222412,
        -0.12158295512199402,
        -0.21466442942619324,
        -0.305806428194046,
        -0.30943870544433594,
        0.17388853430747986,
        -0.3923790752887726,
        0.019013309851288795,
        0.013836917467415333,
        -0.24658982455730438,
        -0.1689174473285675,
        -0.050285086035728455,
        -0.2576088607311249,
        0.08258567750453949,
        -0.24331273138523102,
        -0.5301690697669983,
        -0.04997448995709419,
        0.0006796367233619094,
        -0.5464005470275879,
        -0.06103174388408661,
        -0.22347258031368256,
        -0.05026029795408249,
        -0.2097744196653366,
        0.3474363088607788,
        -0.17181292176246643,
        0.07960117608308792,
        -0.3886861503124237,
        0.05814972519874573,
        -0.24984337389469147,
        -0.012489468790590763,
        0.1352568119764328,
        -0.08676520735025406,
        0.1563543975353241,
        -0.2543046772480011,
        -0.31017112731933594,
        0.025171536952257156,
        0.05588022246956825,
        0.134722039103508,
        -0.19529427587985992,
        -0.2706942558288574,
        0.13556578755378723,
        -0.16904032230377197,
        -0.027994874864816666,
        0.05485589802265167,
        -0.31349608302116394,
        -0.14257538318634033,
        -0.08110880851745605,
        -0.19650016725063324,
        0.07582943141460419,
        0.35037532448768616,
        0.2177155613899231,
        -0.061475444585084915,
        0.10593149065971375,
        -0.0017720061587169766,
        0.25994187593460083,
        0.0053116073831915855,
        0.23490092158317566,
        -0.029269549995660782,
        -0.30764445662498474,
        0.30465438961982727,
        0.12363230437040329,
        0.16814956068992615,
        0.019627276808023453,
        0.14119790494441986,
        0.026496587321162224,
        -0.05676709860563278,
        -0.3146597445011139,
        0.1957489550113678,
        0.09717636555433273,
        -0.32252347469329834,
        -0.5194473266601562,
        0.08745134621858597,
        0.3009224236011505,
        -0.15817318856716156,
        -0.07134512066841125,
        -0.010067759081721306,
        -0.07752063870429993,
        -0.09355664253234863,
        0.19963409006595612,
        -0.23249337077140808,
        -0.011343575082719326,
        -0.3931405544281006,
        0.29275569319725037,
        0.19199657440185547,
        0.21293620765209198,
        -0.3859996795654297,
        -0.10444938391447067,
        -0.47553950548171997,
        0.09546858817338943,
        0.06955740600824356,
        -0.19903156161308289,
        0.25570353865623474,
        -0.05112064629793167,
        0.25128427147865295,
        0.07520425319671631,
        -0.20506490767002106,
        -0.25196677446365356,
        -0.19365748763084412,
        0.22651150822639465,
        0.20075884461402893,
        -0.4229184687137604,
        0.15003764629364014,
        -0.915360152721405,
        -0.25300678610801697,
        0.0411490760743618,
        0.05022146552801132,
        -0.21094058454036713,
        0.265730082988739,
        -0.19774484634399414,
        -0.0438479408621788,
        0.1470431238412857,
        0.2295939177274704,
        -0.6749193072319031,
        0.08203941583633423,
        0.13405047357082367,
        0.029362928122282028,
        0.051487743854522705,
        -0.14566783607006073,
        0.09701387584209442
      ]
    },
    {
      "activation": "sigmoid",
      "architecture": "dense",
      "bias": [
        0.1878260225057602
      ],
      "weights": [
        0.12928402423858643,
        -0.09997264295816422,
        0.11643647402524948,
        -0.12559087574481964,
        -0.24599000811576843,
        0.2421242892742157,
        -0.22202040255069733,
        0.22640804946422577,
        -0.08374059200286865,
        0.1749403476715088,
        -0.16432830691337585,
        -0.08318495750427246,
        -0.1758018434047699,
        -0.2187456339597702,
        0.19401492178440094,
        0.27944415807724,
        0.40883371233940125,
        0.06399241834878922,
        -0.0822039544582367,
        -0.1462123990058899
      ]
    }
  ],
  "outputs": [
    "ELT"
  ]
}
