{
  "defaults": {},
  "inputs": [
    {
      "name": "met_met",
      "offset": "-67134.4958317",
      "scale": "1.77756637163e-05"
    },
    {
      "name": "jet_pt_2nd",
      "offset": "-96494.5819022",
      "scale": "1.41417955156e-05"
    },
    {
      "name": "ph_drsubljet_sel",
      "offset": "-2.20443111576",
      "scale": "1.08240837646"
    },
    {
      "name": "jet_pt_3rd",
      "offset": "-60897.7121459",
      "scale": "2.8994060138e-05"
    },
    {
      "name": "ph_HFT_MVA_sel",
      "offset": "-0.714196751551",
      "scale": "4.04083557592"
    },
    {
      "name": "ph_drleadjet_sel",
      "offset": "-2.35107100102",
      "scale": "1.10732269934"
    },
    {
      "name": "jet_tagWeightBin_subleading",
      "offset": "-2.52597384413",
      "scale": "0.600844109029"
    },
    {
      "name": "event_HT",
      "offset": "-453866.474227",
      "scale": "4.11142249414e-06"
    },
    {
      "name": "ph_e_sel",
      "offset": "-137912.371581",
      "scale": "5.97841442275e-06"
    },
    {
      "name": "jet_pt_5th",
      "offset": "-36494.4066339",
      "scale": "6.95496859232e-05"
    },
    {
      "name": "jet_pt_4th",
      "offset": "-41990.0210661",
      "scale": "4.8685881167e-05"
    },
    {
      "name": "jet_pt_1st",
      "offset": "-155611.914441",
      "scale": "8.72682462867e-06"
    },
    {
      "name": "event_mwt",
      "offset": "-68704.9629744",
      "scale": "2.0674762689e-05"
    },
    {
      "name": "event_nbjets77",
      "offset": "-1.4554033997",
      "scale": "1.72516347318"
    },
    {
      "name": "ph_drlept_sel",
      "offset": "-2.24690855836",
      "scale": "1.32193866395"
    },
    {
      "name": "jet_tagWeightBin_leading",
      "offset": "-4.66044974656",
      "scale": "1.4997502378"
    },
    {
      "name": "jet_tagWeightBin_subsubleading",
      "offset": "-1.15704724299",
      "scale": "1.71426455979"
    },
    {
      "name": "event_njets",
      "offset": "-4.69772326304",
      "scale": "1.02859420854"
    }
  ],
  "layers": [
    {
      "activation": "rectified",
      "architecture": "dense",
      "bias": [
        0.054667893797159195,
        0.04000135138630867,
        0.16643589735031128,
        0.05314180999994278,
        0.08069342374801636,
        0.12334443628787994,
        0.03456256166100502,
        0.03838897496461868,
        -0.008396437391638756,
        0.052495941519737244,
        0.07889613509178162,
        0.12546122074127197,
        0.1372167021036148,
        0.13638249039649963,
        0.06853103637695312,
        0.10756126046180725,
        0.0841357558965683,
        0.07826142013072968,
        0.12077026069164276,
        0.07792561501264572,
        0.09360011667013168,
        0.14180707931518555,
        0.1278354525566101,
        0.053338468074798584,
        0.07120285928249359,
        0.04328913614153862,
        -0.05955227464437485,
        0.04823404550552368,
        0.05879715830087662,
        0.07275030761957169,
        0.14588846266269684,
        0.024760525673627853,
        -0.03605922684073448,
        0.07173744589090347,
        0.09167471528053284,
        0.09808414429426193,
        0.09300467371940613,
        0.0941166877746582,
        0.08779509365558624,
        0.023502331227064133,
        0.11196951568126678,
        0.08957844972610474,
        0.07473363727331161,
        0.09597111493349075,
        0.07411310821771622,
        0.056015729904174805,
        0.10196557641029358,
        0.07366199791431427,
        0.07924739271402359,
        0.08563511818647385,
        0.03479953855276108,
        0.07456403225660324,
        -0.006150681991130114,
        0.07350213080644608,
        0.13596071302890778,
        0.09027809649705887,
        -0.05264002084732056,
        0.043210700154304504,
        0.020785590633749962,
        0.047267887741327286,
        0.03123084083199501,
        0.11979033797979355,
        0.05679522082209587,
        0.04361649975180626,
        0.04172057658433914,
        0.08659913390874863,
        0.0857674703001976,
        0.07121975719928741,
        0.10903064161539078,
        0.10544855892658234,
        0.10678642988204956,
        -0.03863302245736122,
        0.04382413625717163,
        0.10862905532121658,
        0.09127304702997208,
        0.11830820888280869,
        0.045591093599796295,
        0.09253565967082977,
        0.06448547542095184,
        0.07669985294342041,
        0.053708236664533615,
        0.14079192280769348,
        0.1574895679950714,
        0.0723535344004631,
        0.07459881156682968,
        0.06816915422677994,
        0.018833952024579048,
        0.08712824434041977,
        -0.005263354629278183,
        0.0753709226846695,
        -0.009896296076476574,
        0.05211331695318222,
        0.07234830409288406,
        0.08423227816820145,
        0.08306900411844254,
        0.05382508784532547,
        0.10045761615037918,
        0.109596386551857,
        0.07098949700593948,
        0.0515650138258934,
        0.07241222262382507,
        0.0807790532708168,
        0.16001446545124054,
        0.08413399755954742,
        -0.08989381790161133,
        0.07871529459953308,
        0.12050402909517288,
        0.10729319602251053,
        0.09262939542531967,
        -0.08348768949508667,
        0.037276849150657654,
        0.0318695530295372,
        0.020798038691282272,
        0.10097245126962662,
        -0.07935361564159393,
        0.029860638082027435,
        0.07522411644458771,
        0.06098297983407974,
        0.039266087114810944,
        -0.06531397998332977,
        0.11172212660312653,
        0.024227308109402657,
        0.08937790989875793,
        0.09160252660512924,
        0.03943946585059166,
        0.07063644379377365,
        0.07740487903356552,
        0.06853567808866501
      ],
      "weights": [
        0.021890558302402496,
        -0.0433770976960659,
        -0.08649072051048279,
        0.003947404213249683,
        0.06941834837198257,
        0.013652459718286991,
        -0.00784206297248602,
        -0.0119282566010952,
        -0.12745703756809235,
        0.04163460060954094,
        0.03719755634665489,
        -0.005289951805025339,
        -0.05861804634332657,
        0.03983556851744652,
        -0.09735958278179169,
        0.05757579952478409,
        0.0057272170670330524,
        0.02265065349638462,
        0.009357518516480923,
        -0.02306884340941906,
        -0.08796224743127823,
        -0.039567675441503525,
        0.04206658527255058,
        -0.06980228424072266,
        -0.006954734679311514,
        -0.029488271102309227,
        -0.11128977686166763,
        0.057677604258060455,
        0.004796603694558144,
        -0.02641032263636589,
        -0.04619496688246727,
        -0.02389499731361866,
        -0.02349761873483658,
        0.06542569398880005,
        0.06487920135259628,
        0.0012410464696586132,
        0.046163737773895264,
        -0.04464061185717583,
        -0.0556606724858284,
        0.019168416038155556,
        0.034763988107442856,
        -0.020539691671729088,
        0.004149313550442457,
        -0.05859917029738426,
        -0.208313450217247,
        -0.011710280552506447,
        0.01099555566906929,
        -0.006246823817491531,
        -0.020445702597498894,
        -0.07815764844417572,
        -0.018693195655941963,
        -0.018511109054088593,
        0.005726991221308708,
        0.03813391923904419,
        0.02439461462199688,
        0.054835908114910126,
        -0.011478631757199764,
        -0.016952861100435257,
        0.1845293492078781,
        -0.005378718953579664,
        0.0541762039065361,
        -0.00907703023403883,
        0.0572468601167202,
        -0.03143780305981636,
        0.08057353645563126,
        0.05053015425801277,
        0.02542227692902088,
        -0.008363657630980015,
        -0.03673761710524559,
        0.13575702905654907,
        -0.02575211599469185,
        0.022236712276935577,
        0.055215347558259964,
        -0.023272588849067688,
        -0.040798209607601166,
        0.006933571305125952,
        0.1287466138601303,
        0.011389493010938168,
        -0.019396336749196053,
        0.011945057660341263,
        -0.04568173363804817,
        -0.054084427654743195,
        0.06880297511816025,
        -0.03349778801202774,
        -0.02201167680323124,
        0.000351017719367519,
        0.03943899646401405,
        -0.062200792133808136,
        0.021131422370672226,
        0.05461588501930237,
        -0.031240716576576233,
        0.007938344031572342,
        -0.08332577347755432,
        0.06565377116203308,
        0.030744215473532677,
        -0.01359443087130785,
        -0.025514014065265656,
        -0.0372200571000576,
        -0.2751454710960388,
        0.013706979341804981,
        0.006426081992685795,
        -0.062183741480112076,
        -0.06806497275829315,
        0.029196055606007576,
        -0.013719616457819939,
        0.039588406682014465,
        -0.015036281198263168,
        0.04235736280679703,
        -0.05663582682609558,
        -0.04252266883850098,
        0.018458932638168335,
        -0.023348955437541008,
        0.233783558011055,
        0.05814088508486748,
        0.07101742178201675,
        -0.005568503402173519,
        0.17416253685951233,
        -0.011324862018227577,
        0.02006385661661625,
        -0.06610768288373947,
        -0.03530260547995567,
        -0.05791110917925835,
        -0.04202445223927498,
        0.0032788317184895277,
        -0.008490881882607937,
        0.038100555539131165,
        -0.045494500547647476,
        0.08688201755285263,
        -0.024191349744796753,
        0.013705480843782425,
        0.024824822321534157,
        0.01255268044769764,
        0.06467042118310928,
        0.012960738502442837,
        -0.2764507234096527,
        0.016163887456059456,
        0.003349675564095378,
        0.030236128717660904,
        0.023963620886206627,
        0.052152834832668304,
        -0.028355497866868973,
        0.08729220926761627,
        0.01311948150396347,
        0.008931508287787437,
        -0.04733183979988098,
        0.06766580790281296,
        0.05734165012836456,
        -0.1431208848953247,
        -0.030541492626070976,
        -0.045765940099954605,
        -0.07176608592271805,
        0.08268316090106964,
        0.10000700503587723,
        -0.17842932045459747,
        -0.1178051233291626,
        -0.0006225421675480902,
        0.02210313268005848,
        -0.02717202715575695,
        0.020223936066031456,
        -0.06696924567222595,
        -0.09546217322349548,
        -0.03432665392756462,
        -0.018025480210781097,
        -0.09995711594820023,
        -0.2091410905122757,
        -0.07225029915571213,
        0.06556078046560287,
        0.08936765044927597,
        0.00989049207419157,
        0.036749258637428284,
        -0.056469134986400604,
        -0.0067107658833265305,
        -0.020635513588786125,
        0.009080533869564533,
        0.030096301808953285,
        -0.00283060222864151,
        -0.026040444150567055,
        0.060386452823877335,
        -0.061122000217437744,
        0.027157386764883995,
        0.02588837221264839,
        0.032150574028491974,
        -0.02235526405274868,
        -0.007770885713398457,
        0.2203405648469925,
        0.04489440843462944,
        -0.01098718959838152,
        0.07288980484008789,
        -0.001583108794875443,
        -0.0026933164335787296,
        0.04130068048834801,
        -0.018033701926469803,
        0.012006406672298908,
        -0.03546300530433655,
        -0.02041149139404297,
        0.01474681869149208,
        0.006195628549903631,
        -0.025446252897381783,
        0.09933160990476608,
        0.011532012373209,
        -0.008250029757618904,
        0.008262598887085915,
        0.20073847472667694,
        -0.037162721157073975,
        0.04446376860141754,
        -0.049371179193258286,
        -0.04045558348298073,
        0.03184503689408302,
        0.017262721434235573,
        -0.055032726377248764,
        0.037307336926460266,
        0.09704548865556717,
        -0.07817942649126053,
        -0.023497121408581734,
        -0.04724252596497536,
        0.047898728400468826,
        0.04730497673153877,
        0.04451761022210121,
        -0.07833728939294815,
        0.0019313731463626027,
        0.020361190661787987,
        0.0016451277770102024,
        0.04195632040500641,
        -0.0034127968829125166,
        -0.28702735900878906,
        0.013303492218255997,
        0.04213496670126915,
        0.0031364650931209326,
        -0.06469405442476273,
        -0.006007663439959288,
        -0.03958927467465401,
        -0.027512408792972565,
        -0.008775402791798115,
        0.008037656545639038,
        0.04118809476494789,
        -0.034660741686820984,
        -0.05715858191251755,
        0.06352419406175613,
        0.05706057697534561,
        -0.039011918008327484,
        0.01812194101512432,
        -0.015331938862800598,
        -0.20754186809062958,
        0.06544619053602219,
        0.009140752255916595,
        -0.10698973387479782,
        0.010852532461285591,
        0.004954745061695576,
        -0.032884180545806885,
        -0.053852856159210205,
        -0.018742134794592857,
        -0.005236153956502676,
        0.10607724636793137,
        -0.009165496565401554,
        0.014463510364294052,
        -0.04117239639163017,
        0.1958828568458557,
        0.021219640970230103,
        -0.0023604040034115314,
        -0.05686900392174721,
        0.12780095636844635,
        -0.0052900854498147964,
        0.07191476225852966,
        -0.0018794136121869087,
        -0.04151840880513191,
        0.03847379609942436,
        -0.06487879157066345,
        -0.0498560331761837,
        0.0031529669649899006,
        0.01784200221300125,
        0.06778552383184433,
        0.06453979015350342,
        -0.0564754381775856,
        0.07149508595466614,
        0.16981931030750275,
        -0.01011988241225481,
        0.03321068733930588,
        0.08643308281898499,
        -0.08889990299940109,
        0.0767286866903305,
        0.037090666592121124,
        -0.0257564727216959,
        -0.05351952463388443,
        0.022454828023910522,
        0.0023404057137668133,
        0.0666336938738823,
        0.023692898452281952,
        -0.015209865756332874,
        0.03721526265144348,
        -0.0453341044485569,
        -0.00893131922930479,
        -0.02283073030412197,
        0.1693129986524582,
        -0.02695304900407791,
        0.10103742778301239,
        -0.027169300243258476,
        0.07653090357780457,
        0.0183855127543211,
        0.02677910029888153,
        -0.007176194339990616,
        0.03479762375354767,
        -0.025140205398201942,
        -0.07250609993934631,
        -0.03786382079124451,
        -0.04764574021100998,
        -0.005896467249840498,
        -0.039904337376356125,
        -0.02870386466383934,
        -0.07952424883842468,
        0.008734380826354027,
        0.22869043052196503,
        -0.024191146716475487,
        0.012594643980264664,
        -0.004993669223040342,
        0.07317778468132019,
        0.02049851417541504,
        0.020211758092045784,
        -0.023447394371032715,
        -0.03167809545993805,
        -0.05273713544011116,
        0.07794902473688126,
        0.02166505716741085,
        0.020205099135637283,
        0.022563403472304344,
        0.017762597650289536,
        -0.046259742230176926,
        -0.05047227814793587,
        0.07513871788978577,
        0.07153152674436569,
        -0.023380238562822342,
        -0.04270829260349274,
        -0.017972441390156746,
        -0.10979095846414566,
        -0.01082542072981596,
        0.04033017158508301,
        -0.04409097507596016,
        -0.06689997017383575,
        -0.07883965224027634,
        0.030742419883608818,
        0.17280511558055878,
        0.03722535818815231,
        0.04512350633740425,
        0.00802039634436369,
        0.03202471509575844,
        -0.07904104888439178,
        -0.0020197690464556217,
        0.008275829255580902,
        -0.007192675024271011,
        0.09233281016349792,
        0.03200509771704674,
        -0.2911818325519562,
        -0.019339218735694885,
        0.032699357718229294,
        0.05760180577635765,
        -0.01664610020816326,
        -0.009858831763267517,
        -0.001789966132491827,
        0.003952983766794205,
        -0.026586471125483513,
        -0.013243512250483036,
        0.01706443727016449,
        -0.035834234207868576,
        -0.06401225179433823,
        0.03812088072299957,
        0.15373817086219788,
        -0.021277539432048798,
        0.06227622553706169,
        -0.004068424459546804,
        -0.06371219456195831,
        -0.046531982719898224,
        0.08043017238378525,
        -0.09874498844146729,
        0.043695755302906036,
        -0.008769771084189415,
        -0.09282524138689041,
        -0.041401203721761703,
        -0.013925829902291298,
        0.07799021899700165,
        0.005229969043284655,
        -0.06743472069501877,
        -0.10797218233346939,
        0.06148398667573929,
        0.08913208544254303,
        -0.0394250862300396,
        -0.05342073738574982,
        0.016644569113850594,
        -0.11251337081193924,
        0.016924094408750534,
        0.053047243505716324,
        -0.13278859853744507,
        -0.07972635328769684,
        -0.014305598102509975,
        -0.042057160288095474,
        0.0422268807888031,
        0.023958364501595497,
        0.00448087602853775,
        0.0191525649279356,
        -0.06561344861984253,
        -0.10614032298326492,
        0.030885353684425354,
        0.10714578628540039,
        -0.03127860650420189,
        -0.021139252930879593,
        -0.053877007216215134,
        -0.021159281954169273,
        0.04766297712922096,
        0.04508114606142044,
        -0.04098265618085861,
        -0.09085386991500854,
        -0.029054157435894012,
        -0.054391320794820786,
        0.0766894593834877,
        0.06364507973194122,
        0.012640601955354214,
        -0.025562843307852745,
        0.05839894339442253,
        -0.014737449586391449,
        -0.008369369432330132,
        0.13571199774742126,
        -0.011184513568878174,
        0.05136728286743164,
        0.008237677626311779,
        -0.012965207919478416,
        -0.042691271752119064,
        0.07965198159217834,
        -0.01758372038602829,
        -0.013581170700490475,
        -0.05947517603635788,
        -0.05096668377518654,
        0.08994390070438385,
        0.037076737731695175,
        0.004518411587923765,
        0.08483345806598663,
        -0.010635213926434517,
        -0.009665463119745255,
        -0.005586500279605389,
        0.1944483518600464,
        0.006770986132323742,
        0.019007259979844093,
        0.0051353443413972855,
        0.11585512012243271,
        0.0037217820063233376,
        0.09306133538484573,
        -0.07031318545341492,
        0.011459002271294594,
        -0.07086468487977982,
        -0.04952544346451759,
        -0.05618850886821747,
        0.029584143310785294,
        0.008136359043419361,
        0.0027731533627957106,
        -0.038852449506521225,
        -0.07779113203287125,
        0.09398463368415833,
        -0.05112766847014427,
        0.09755298495292664,
        0.08848593384027481,
        0.006471504457294941,
        0.099447101354599,
        -0.0258628036826849,
        0.11687050014734268,
        -0.07176017016172409,
        0.05452930927276611,
        0.008417317643761635,
        -0.0059884474612772465,
        0.06054076924920082,
        0.014935573562979698,
        -0.029019013047218323,
        -0.12574976682662964,
        -0.041867975145578384,
        0.050374552607536316,
        -0.16632311046123505,
        -0.005687954369932413,
        0.0686756819486618,
        -0.0704098641872406,
        -0.004081137478351593,
        0.04538887366652489,
        -0.013428401201963425,
        -0.06752185523509979,
        -0.004603520501405001,
        -0.05772799998521805,
        -0.044296517968177795,
        -0.0014194189570844173,
        -0.09044290333986282,
        -0.03614681214094162,
        -0.07334775477647781,
        0.03368226811289787,
        -0.014816280454397202,
        -0.014220408163964748,
        -0.004034325014799833,
        0.19122134149074554,
        0.025876812636852264,
        -0.07674205303192139,
        0.0038103002589195967,
        0.15996523201465607,
        0.010222059674561024,
        0.038766663521528244,
        -0.08044283837080002,
        0.05745723843574524,
        -0.08407028764486313,
        -0.05319659784436226,
        0.09404131770133972,
        0.03537551313638687,
        0.012154798023402691,
        -0.03693356364965439,
        0.07599775493144989,
        -0.08822379261255264,
        0.02534610778093338,
        -0.005313204135745764,
        -0.020734000951051712,
        -0.06329958885908127,
        0.03336363658308983,
        -0.17508848011493683,
        0.0035399131011217833,
        0.0641268715262413,
        -0.07741913199424744,
        0.005582340992987156,
        0.019350912421941757,
        -0.11088594049215317,
        0.08311200141906738,
        0.04124671593308449,
        -0.01362390723079443,
        -0.015094810165464878,
        0.06018573418259621,
        0.0008099021506495774,
        -0.05820464342832565,
        0.018225371837615967,
        -0.03277884051203728,
        0.09430467337369919,
        0.028283504769206047,
        -0.2804116904735565,
        0.07051540911197662,
        0.06742487847805023,
        0.01957145892083645,
        0.007206023670732975,
        0.08292863517999649,
        -0.09497645497322083,
        -0.011042708531022072,
        0.002480471273884177,
        -0.03828176483511925,
        0.09340688586235046,
        -0.019909491762518883,
        -0.046638261526823044,
        -0.008351036347448826,
        0.08643179386854172,
        0.02068183943629265,
        -0.07778266072273254,
        -0.019985046237707138,
        -0.05407891422510147,
        0.056176312267780304,
        5.238113226369023e-05,
        0.007802305743098259,
        -0.009990060701966286,
        -0.1144474670290947,
        -0.0585779994726181,
        0.0383753702044487,
        0.0015528311487287283,
        -0.06374179571866989,
        0.022865543141961098,
        -0.04451495409011841,
        -0.07972993701696396,
        0.004353064112365246,
        0.11820507794618607,
        -0.07190217822790146,
        0.017013782635331154,
        -0.06877478212118149,
        -0.0020365756936371326,
        0.0215653907507658,
        -0.018840957432985306,
        -0.11635852605104446,
        -0.05940363556146622,
        0.01030837930738926,
        -0.010870988480746746,
        0.0801563709974289,
        0.06054951995611191,
        0.08905071765184402,
        -0.0042371079325675964,
        -0.009604603052139282,
        0.02509623020887375,
        -0.18627211451530457,
        -0.06873159110546112,
        -0.052400294691324234,
        -0.023149050772190094,
        -0.010181192308664322,
        0.06424357742071152,
        -0.13545939326286316,
        -0.10486439615488052,
        0.026424041017889977,
        -0.018414007499814034,
        0.025736618787050247,
        -0.017755752429366112,
        -0.03486640751361847,
        0.0782199576497078,
        -0.08909037709236145,
        0.032083723694086075,
        -0.0005818593199364841,
        -0.07656940817832947,
        -0.021072031930088997,
        0.19613014161586761,
        0.004065739922225475,
        -0.02330005168914795,
        0.02158335968852043,
        0.058907750993967056,
        -0.05567333102226257,
        0.04858670383691788,
        -0.04033127427101135,
        -0.07859937846660614,
        0.005828490946441889,
        0.10432501137256622,
        -0.03700968623161316,
        0.020742908120155334,
        -0.024830877780914307,
        -0.07132311910390854,
        -0.031152036041021347,
        -0.08559273928403854,
        -0.02195260301232338,
        0.1291278749704361,
        -0.015593978576362133,
        -0.012471380643546581,
        -0.03158710524439812,
        -0.09874960035085678,
        -0.08233761787414551,
        0.07474987208843231,
        -0.013880722224712372,
        -0.040494877845048904,
        0.023918721824884415,
        0.04653346538543701,
        0.06944706290960312,
        -0.010391977615654469,
        0.09862159192562103,
        -0.021479567512869835,
        0.02910841628909111,
        -0.09179180860519409,
        0.0018186300294473767,
        0.06389148533344269,
        -0.020190242677927017,
        0.03736234828829765,
        0.023722009733319283,
        -0.1904623806476593,
        -0.005228948779404163,
        -0.015653027221560478,
        0.017977310344576836,
        0.012148953974246979,
        -0.03278496116399765,
        0.005262509919703007,
        0.0528743602335453,
        0.026358190923929214,
        0.07299395650625229,
        0.06159069761633873,
        0.0506589375436306,
        -0.07561806589365005,
        -0.02159165032207966,
        0.16628311574459076,
        -0.017763782292604446,
        0.03975634649395943,
        0.025897443294525146,
        -0.023889491334557533,
        0.06805533915758133,
        0.07862633466720581,
        0.05319289490580559,
        -0.0541793592274189,
        0.034899353981018066,
        -0.035945091396570206,
        0.058498650789260864,
        0.03324934095144272,
        -0.020269211381673813,
        0.06194363906979561,
        0.001426450558938086,
        -0.10806471109390259,
        0.00883366260677576,
        0.029295004904270172,
        -0.05015150085091591,
        -0.024010898545384407,
        0.03185904771089554,
        -0.21622467041015625,
        0.016309138387441635,
        0.04463323578238487,
        -0.06514684110879898,
        -0.04400112107396126,
        -0.001567517756484449,
        -0.09669515490531921,
        0.005690031684935093,
        0.0167485773563385,
        0.027198532596230507,
        -0.035867199301719666,
        0.0752086490392685,
        -0.0526173897087574,
        -0.012870341539382935,
        0.12397508323192596,
        -0.0290818028151989,
        0.005039263982325792,
        0.021535126492381096,
        -0.17875154316425323,
        0.023040488362312317,
        0.08243647962808609,
        0.03135881945490837,
        -0.05805893987417221,
        0.042021915316581726,
        0.003746879054233432,
        0.10950407385826111,
        -0.0060215662233531475,
        0.01828363537788391,
        -0.04899648204445839,
        0.01602233573794365,
        0.04432443901896477,
        -0.0029314192943274975,
        0.126752108335495,
        0.007826230488717556,
        0.08730162680149078,
        -0.013563471846282482,
        -0.03274858370423317,
        -0.07216810435056686,
        0.05817577987909317,
        -0.03765309229493141,
        0.015522420406341553,
        0.10712338238954544,
        -0.08944524079561234,
        -0.009617690928280354,
        -0.019583120942115784,
        0.08672480285167694,
        0.09817001223564148,
        0.08282124996185303,
        -0.07455979287624359,
        0.02615920454263687,
        0.2059125453233719,
        -0.015154806897044182,
        0.06898333877325058,
        -0.0011800911743193865,
        0.02521274797618389,
        0.06824532151222229,
        0.04441390186548233,
        0.013866470195353031,
        -0.044416844844818115,
        0.0029900188092142344,
        -0.037473104894161224,
        0.031792499125003815,
        0.05094081908464432,
        0.022312426939606667,
        0.020867053419351578,
        -0.02608644776046276,
        -0.12603163719177246,
        -0.06095635145902634,
        0.12984922528266907,
        -0.06634250283241272,
        0.0013605280546471477,
        0.007828512229025364,
        -0.14078500866889954,
        0.0039960648864507675,
        0.06349875777959824,
        -0.02330695278942585,
        -0.016859548166394234,
        -0.008780160918831825,
        -0.00461580278351903,
        0.06099630147218704,
        -0.033667080104351044,
        7.742663729004562e-05,
        0.000537675223313272,
        -0.010359879583120346,
        -0.020372146740555763,
        0.008139691315591335,
        0.12272652238607407,
        -0.08540517091751099,
        0.105491504073143,
        -0.007879695855081081,
        -0.10461815446615219,
        0.03510260209441185,
        0.019596414640545845,
        0.018114015460014343,
        0.06461979448795319,
        -0.004864704795181751,
        -0.13575313985347748,
        0.046434491872787476,
        -0.0061670392751693726,
        0.06540746241807938,
        0.05531025677919388,
        -0.06585957109928131,
        -0.03798595070838928,
        0.005509830079972744,
        -0.013319644145667553,
        -0.011619746685028076,
        -0.10961306840181351,
        0.013547923415899277,
        -0.01243075355887413,
        0.0099084647372365,
        0.009231149218976498,
        -0.05518642067909241,
        0.036109745502471924,
        -0.174653559923172,
        0.028085732832551003,
        0.12191979587078094,
        0.0612366609275341,
        -0.017833637073636055,
        0.04110525920987129,
        0.05132501572370529,
        -0.05509922653436661,
        0.051651522517204285,
        0.20076900720596313,
        -0.013538947328925133,
        0.049537718296051025,
        0.03758784383535385,
        0.03821181505918503,
        0.005553911440074444,
        0.04292289540171623,
        0.00017410493455827236,
        0.01326352171599865,
        -0.06419605016708374,
        -0.05172054097056389,
        0.1664859652519226,
        0.0289861299097538,
        0.05122177302837372,
        0.05460429936647415,
        0.010296990163624287,
        -0.15604214370250702,
        -0.037017639726400375,
        0.0639595091342926,
        0.05437743663787842,
        0.030364923179149628,
        -0.07644157111644745,
        -0.0044450098648667336,
        0.06585785001516342,
        -0.022820165380835533,
        -0.0437060184776783,
        -0.06810390949249268,
        0.03613494336605072,
        -0.07762686163187027,
        0.07509401440620422,
        -0.00905523356050253,
        -0.05251152440905571,
        -0.01074068620800972,
        0.022567937150597572,
        -0.08534971624612808,
        0.0205523781478405,
        0.059565648436546326,
        0.008822714909911156,
        -0.037319254130125046,
        -0.04387718066573143,
        -0.132873997092247,
        0.07109677046537399,
        0.022145995870232582,
        -0.11361449956893921,
        -0.07228370755910873,
        -0.014150362461805344,
        0.013863454572856426,
        0.06866572797298431,
        0.013196009211242199,
        -0.03148137778043747,
        0.007776548154652119,
        -0.011803863570094109,
        -0.04805755615234375,
        0.020360654219985008,
        -0.04447799175977707,
        -0.019245659932494164,
        -0.01461283303797245,
        0.048300791531801224,
        -0.30432045459747314,
        -0.015231524594128132,
        0.027125822380185127,
        0.06475597620010376,
        -0.04283108562231064,
        -0.0027885569725185633,
        -0.005420965608209372,
        0.06553919613361359,
        -0.004723893478512764,
        -0.07589704543352127,
        0.015579513274133205,
        0.05985421687364578,
        -0.05022969841957092,
        0.07674193382263184,
        0.09507302939891815,
        -0.047055043280124664,
        0.008210675790905952,
        -0.012766873463988304,
        -0.07963376492261887,
        0.10730917006731033,
        0.037484560161828995,
        -0.03878653421998024,
        -0.044612687081098557,
        0.042005762457847595,
        -0.1371048390865326,
        0.11254549026489258,
        0.02577020227909088,
        -0.0068012382835149765,
        -0.03117399662733078,
        0.016379276290535927,
        0.003953815903514624,
        -0.021289551630616188,
        0.13801109790802002,
        -0.017194313928484917,
        0.11411944776773453,
        0.011059845797717571,
        -0.1437503546476364,
        -0.03324831277132034,
        0.056007396429777145,
        -0.04405137896537781,
        0.046940937638282776,
        0.10212352871894836,
        -0.0766710489988327,
        0.052996713668107986,
        0.04761398583650589,
        0.0973181277513504,
        0.018969105556607246,
        0.05758719518780708,
        0.05915595963597298,
        -0.10724276304244995,
        -0.11398056894540787,
        -0.00733925960958004,
        0.02461319975554943,
        0.05562376230955124,
        0.09595937281847,
        -0.1702062040567398,
        -0.07646869868040085,
        -0.07234165072441101,
        0.0959540382027626,
        -0.02403091825544834,
        0.08417685329914093,
        -0.03769540414214134,
        -0.06277455389499664,
        -0.07892806082963943,
        -0.01191356498748064,
        -0.004707141313701868,
        -0.05791204422712326,
        0.009598542004823685,
        0.11947362869977951,
        -0.01694200560450554,
        -0.021464018151164055,
        -0.02366223931312561,
        0.06636275351047516,
        0.03463954105973244,
        0.007951461710035801,
        -0.09375976026058197,
        -0.008416997268795967,
        0.01985558681190014,
        -0.08897057920694351,
        0.13347500562667847,
        0.042079415172338486,
        0.0124202324077487,
        -0.013542491011321545,
        0.0009616632596589625,
        0.027955474331974983,
        0.007868852466344833,
        0.24122795462608337,
        0.005743804387748241,
        0.01032308954745531,
        -0.03959009423851967,
        0.17204925417900085,
        0.0029345385264605284,
        0.004347577691078186,
        0.0016786054475232959,
        -0.07448557019233704,
        0.024836838245391846,
        0.037882063537836075,
        0.056256186217069626,
        0.013633545488119125,
        0.01655755192041397,
        -0.08601032942533493,
        -0.014903499744832516,
        -0.02482004463672638,
        -0.018071170896291733,
        0.022477013990283012,
        -0.059584859758615494,
        0.1108851283788681,
        -0.03221961483359337,
        -0.14943766593933105,
        0.035200659185647964,
        0.019277464598417282,
        -0.04143913462758064,
        0.11172902584075928,
        -0.00888748001307249,
        -0.1407751739025116,
        0.034521810710430145,
        -0.05559162795543671,
        0.09174264222383499,
        0.04625207930803299,
        -0.06278911978006363,
        -0.06702272593975067,
        0.06671848148107529,
        0.023663688451051712,
        -0.03707300126552582,
        -0.01032999251037836,
        -0.07195661962032318,
        -0.22748365998268127,
        0.03767373040318489,
        0.008058780804276466,
        -0.0197935551404953,
        0.002565031172707677,
        -0.05654114857316017,
        -0.005625554360449314,
        -0.03530794754624367,
        -0.0022444925270974636,
        0.01548643410205841,
        -0.0016004943754523993,
        -0.00840099435299635,
        0.0503833070397377,
        0.0013400648022070527,
        0.07793548703193665,
        -0.005516477394849062,
        0.019366584718227386,
        0.03681853413581848,
        0.07458580285310745,
        0.012011097744107246,
        0.028416737914085388,
        -0.036120034754276276,
        -0.0668783113360405,
        -0.052219729870557785,
        0.017851166427135468,
        0.20147393643856049,
        0.004912173841148615,
        -0.04815911874175072,
        -0.026170343160629272,
        -0.13286972045898438,
        0.07135609537363052,
        -0.18079347908496857,
        -0.053599633276462555,
        0.011293604969978333,
        0.03708546981215477,
        -0.10007122904062271,
        0.02075624093413353,
        -0.007795597892254591,
        -0.07996327430009842,
        -0.18537142872810364,
        0.03446146473288536,
        0.09466569125652313,
        0.10007452964782715,
        0.02936968021094799,
        0.057682160288095474,
        -0.14315903186798096,
        -0.030583089217543602,
        -0.016815604642033577,
        -0.021789856255054474,
        6.125624349806458e-05,
        0.21246114373207092,
        -0.007088900543749332,
        0.029284175485372543,
        -0.012240657582879066,
        0.10691599547863007,
        0.009510749951004982,
        0.008835464715957642,
        -0.10071450471878052,
        -0.05233948677778244,
        0.007296245079487562,
        -0.017548393458127975,
        0.10536794364452362,
        -0.009859936311841011,
        0.021929681301116943,
        -0.00042785052210092545,
        -0.11054688692092896,
        -0.11851996183395386,
        -0.0800059512257576,
        0.1718955934047699,
        0.025724785402417183,
        0.03959637135267258,
        -0.11271701753139496,
        -0.00579387741163373,
        0.015648743137717247,
        0.010672512464225292,
        -0.11282127350568771,
        -0.11388692259788513,
        -0.008258010260760784,
        -0.10667336732149124,
        0.05091851204633713,
        0.031597260385751724,
        0.043029703199863434,
        -0.07166314125061035,
        -0.029290102422237396,
        -0.011677074246108532,
        -0.006591500248759985,
        0.1802205592393875,
        0.017318908125162125,
        0.023817406967282295,
        0.06997904926538467,
        0.023611078038811684,
        -0.058612845838069916,
        -0.022841453552246094,
        0.013950846157968044,
        0.01738891750574112,
        -0.06643623858690262,
        0.013781063258647919,
        0.002950404305011034,
        0.04630749672651291,
        0.042522285133600235,
        0.0692162811756134,
        -0.060362037271261215,
        -0.1996661126613617,
        -0.03798769414424896,
        0.06179655343294144,
        0.03280346095561981,
        0.08070959150791168,
        -0.039787232875823975,
        -0.019474199041724205,
        -0.021124035120010376,
        0.04327114671468735,
        -0.0852818489074707,
        -0.04432683810591698,
        -0.012194325216114521,
        -0.060486264526844025,
        0.09841720014810562,
        -0.055872123688459396,
        -0.07462767511606216,
        0.021556811407208443,
        -0.04235169664025307,
        -0.05207628011703491,
        0.036847662180662155,
        0.09716720134019852,
        -0.021115053445100784,
        -0.012773407623171806,
        -0.06109071895480156,
        -0.03266778960824013,
        0.028751149773597717,
        0.08319813013076782,
        -0.08201661705970764,
        -0.08563777059316635,
        -0.04768228530883789,
        -0.046031516045331955,
        0.027976982295513153,
        0.03670421242713928,
        -0.01380893960595131,
        -0.04176133871078491,
        -0.023619741201400757,
        -0.05042269080877304,
        0.08924433588981628,
        0.05561108887195587,
        -0.07324042916297913,
        0.03487730398774147,
        0.06445824354887009,
        -0.002048288704827428,
        0.012675514444708824,
        0.01003732904791832,
        -0.05781568959355354,
        -0.04181815683841705,
        0.02393420971930027,
        0.015244781970977783,
        0.018713591620326042,
        0.049398116767406464,
        0.024866783991456032,
        -0.020565275102853775,
        0.041474148631095886,
        -0.01997627317905426,
        -0.02885628119111061,
        0.17882217466831207,
        -0.019740918651223183,
        -0.03626307100057602,
        0.054934773594141006,
        0.10948950797319412,
        -0.04273882880806923,
        0.027754733338952065,
        0.018673665821552277,
        -0.061665888875722885,
        0.011299424804747105,
        0.0952545553445816,
        0.21676042675971985,
        0.008729790337383747,
        -0.012876542285084724,
        0.00843699462711811,
        -0.03613932803273201,
        0.016100378707051277,
        -0.004007939249277115,
        0.12746095657348633,
        -0.010092739947140217,
        -0.028159987181425095,
        -0.0035419613122940063,
        0.1116442158818245,
        0.02613595686852932,
        0.038344208151102066,
        -0.06333546340465546,
        0.041249167174100876,
        -0.05633694306015968,
        -0.0707041472196579,
        0.04519791156053543,
        0.035118307918310165,
        -0.007578639779239893,
        0.03872230276465416,
        0.06796803325414658,
        -0.0385262593626976,
        -0.04020426422357559,
        0.0658043771982193,
        -0.011907991953194141,
        -0.01599973812699318,
        -0.021983128041028976,
        -0.00790522899478674,
        -0.028787558898329735,
        -0.002127074170857668,
        0.053298596292734146,
        -0.05542682483792305,
        -0.0982484295964241,
        0.09565653651952744,
        0.011832483112812042,
        0.07866464555263519,
        -0.04115946218371391,
        0.0016819851007312536,
        0.0133102647960186,
        -0.08951301872730255,
        0.030850006267428398,
        0.1100345328450203,
        -0.04045850411057472,
        0.013657033443450928,
        -0.00043262779945507646,
        -0.031907420605421066,
        0.04105130955576897,
        0.01695002242922783,
        -0.0351882204413414,
        -0.04544582590460777,
        -0.11637576669454575,
        0.039728615432977676,
        0.16523399949073792,
        -0.008562291041016579,
        0.01946021243929863,
        -0.0218870360404253,
        0.06576534360647202,
        -0.10788838565349579,
        -0.009900201112031937,
        0.043490804731845856,
        -0.03122677467763424,
        0.005843323655426502,
        0.061522457748651505,
        -0.20661380887031555,
        -0.012298375368118286,
        0.030826015397906303,
        0.0318051278591156,
        -0.06993895769119263,
        -0.03263925760984421,
        0.03751325607299805,
        0.11779489368200302,
        0.033819735050201416,
        0.02204226516187191,
        0.054822295904159546,
        -0.011613015085458755,
        -0.056909359991550446,
        0.025224627926945686,
        0.16894416511058807,
        -0.0012180403573438525,
        -0.0607670359313488,
        -0.045358434319496155,
        0.0697825700044632,
        0.0017393550369888544,
        0.03596688061952591,
        -0.08566641807556152,
        -0.08252059668302536,
        -0.0469304695725441,
        0.0399358756840229,
        0.09848369657993317,
        0.02411036565899849,
        -0.04520328715443611,
        -0.04398399963974953,
        0.057175613939762115,
        -0.03664641082286835,
        0.041605252772569656,
        0.08839159458875656,
        -0.021770456805825233,
        0.006511507090181112,
        -0.01608099974691868,
        -0.07105927914381027,
        0.0537291094660759,
        0.05927816778421402,
        -0.09776675701141357,
        0.003645970020443201,
        0.024116581305861473,
        -0.10871587693691254,
        0.027371589094400406,
        0.02590150572359562,
        0.022707467898726463,
        -0.001804329571314156,
        -0.024745848029851913,
        -0.0416315421462059,
        0.03802834823727608,
        0.13999947905540466,
        -0.037910208106040955,
        0.054892100393772125,
        0.022461742162704468,
        -0.07131806761026382,
        0.04575953260064125,
        0.014898241497576237,
        -0.004878700710833073,
        -0.09679624438285828,
        -0.06667476147413254,
        0.015415860339999199,
        0.12338664382696152,
        0.027944261208176613,
        0.037978388369083405,
        -0.069193534553051,
        -0.033266548067331314,
        0.08093957602977753,
        -0.1361580193042755,
        -0.04401663690805435,
        -0.011980127543210983,
        -0.06859361380338669,
        0.044919490814208984,
        0.03618442639708519,
        -0.11257361620664597,
        -0.07708799093961716,
        -0.03328317403793335,
        -0.03189341723918915,
        -0.06346876174211502,
        0.029080647975206375,
        -0.0701322853565216,
        -0.06600935757160187,
        -0.09370402246713638,
        -0.0017114838119596243,
        0.028482800349593163,
        -0.014237691648304462,
        -0.03438600152730942,
        0.007927368395030499,
        0.03446415066719055,
        0.011436618864536285,
        0.03288619592785835,
        -0.2538062036037445,
        0.02752508409321308,
        0.03523317351937294,
        0.0778210312128067,
        -0.07149604707956314,
        0.021070722490549088,
        0.010005057789385319,
        0.09155942499637604,
        0.029708636924624443,
        -0.10526847094297409,
        0.003736220533028245,
        -0.009798090904951096,
        -0.07006384432315826,
        -0.017257841303944588,
        0.10333561152219772,
        -5.923764547333121e-06,
        -0.01731535792350769,
        -0.06232484430074692,
        -0.1318526715040207,
        0.0012515024282038212,
        0.0638827383518219,
        -0.10446485877037048,
        -0.08157037198543549,
        0.00044868304394185543,
        -0.002867136849090457,
        0.07876989245414734,
        0.0038703957106918097,
        0.05043715983629227,
        -0.0032141078263521194,
        -0.017855320125818253,
        -0.07478252053260803,
        0.006725589744746685,
        0.1880359798669815,
        0.004938588012009859,
        0.01853248104453087,
        0.036380331963300705,
        0.09699121117591858,
        0.0034946578089147806,
        0.05646497383713722,
        -0.002245517447590828,
        -0.03763248771429062,
        -0.025519028306007385,
        -0.05298199504613876,
        0.047137293964624405,
        0.02495407685637474,
        0.004607812501490116,
        -0.012504846788942814,
        0.018681012094020844,
        -0.061788346618413925,
        0.03753089904785156,
        0.06100187450647354,
        -0.008273140527307987,
        -0.050273098051548004,
        0.017211848869919777,
        -0.12963560223579407,
        0.060629796236753464,
        -0.017138062044978142,
        -0.09439826756715775,
        -0.076810821890831,
        0.00962053332477808,
        -0.026525424793362617,
        0.10684788972139359,
        0.034808628261089325,
        -0.014728263951838017,
        -0.10070265084505081,
        0.04517180472612381,
        -0.16783730685710907,
        0.10262366384267807,
        0.03942747786641121,
        0.04376253858208656,
        0.023747680708765984,
        0.004391245078295469,
        0.08244618028402328,
        0.014385480433702469,
        0.0289209745824337,
        -0.005678893532603979,
        0.03745152801275253,
        0.08087017387151718,
        0.0885755866765976,
        0.029603537172079086,
        0.06033271178603172,
        0.06876164674758911,
        0.0006754972855560482,
        -0.021703457459807396,
        -0.11778826266527176,
        -0.017467277124524117,
        0.10650579631328583,
        -0.02909090556204319,
        0.03582852706313133,
        -0.022378988564014435,
        -0.09352929890155792,
        0.060743220150470734,
        0.0951237604022026,
        -0.10413128137588501,
        -0.011879312805831432,
        0.013421377167105675,
        -0.038787756115198135,
        -0.040613021701574326,
        0.05879954248666763,
        0.08337709307670593,
        -0.03793349117040634,
        0.056640464812517166,
        -0.09377149492502213,
        0.014328045770525932,
        0.11573269963264465,
        -0.027834493666887283,
        0.052113864570856094,
        -0.02702227421104908,
        0.05694497004151344,
        0.025463471189141273,
        0.023716790601611137,
        -0.08628842234611511,
        0.012857584282755852,
        0.017808783799409866,
        -0.008606993593275547,
        -0.021330982446670532,
        0.021295037120580673,
        0.0952279344201088,
        0.06477607041597366,
        0.050985079258680344,
        -0.0728037878870964,
        0.025137241929769516,
        0.1745874136686325,
        -0.022626301273703575,
        0.04736366122961044,
        0.022769613191485405,
        0.011849664151668549,
        0.056677043437957764,
        0.0935366302728653,
        -0.0739276260137558,
        -0.0667748898267746,
        0.011424697004258633,
        -0.0446610301733017,
        -0.008349432609975338,
        -0.0013616501819342375,
        0.07010331749916077,
        -0.013791942037642002,
        -0.00332761462777853,
        -0.0613693967461586,
        0.006175725720822811,
        0.18677668273448944,
        -0.030219735577702522,
        0.03373921290040016,
        -0.02745254896581173,
        0.09322470426559448,
        -0.018378710374236107,
        0.04316819831728935,
        -0.057655077427625656,
        -0.017463842406868935,
        0.0022324202582240105,
        0.014776074327528477,
        0.023890364915132523,
        0.08184792846441269,
        -0.005704602226614952,
        0.07038164138793945,
        -0.04892091453075409,
        -0.05730752646923065,
        0.025199981406331062,
        -0.003108085598796606,
        -0.021532217040657997,
        -0.09607654064893723,
        -0.03252795711159706,
        -0.09540305286645889,
        -0.0005500104743987322,
        0.013316520489752293,
        -0.09019237011671066,
        -0.010275950655341148,
        -0.1522756963968277,
        0.0013889960246160626,
        -0.0016027471283450723,
        0.07072754949331284,
        0.012267767451703548,
        0.13612458109855652,
        0.13750924170017242,
        0.03748691827058792,
        0.1343250423669815,
        -0.14554286003112793,
        -0.057950589805841446,
        0.0007216079975478351,
        0.05782807618379593,
        0.15638485550880432,
        0.13372895121574402,
        0.12885133922100067,
        0.014115691184997559,
        0.14045709371566772,
        0.06607310473918915,
        0.13267536461353302,
        0.02166212722659111,
        0.039449650794267654,
        0.07629254460334778,
        -0.08665021508932114,
        0.054081618785858154,
        -0.05466926470398903,
        0.03668700531125069,
        0.1379110962152481,
        -0.09833130240440369,
        -0.0952194333076477,
        0.10115106403827667,
        0.017246844246983528,
        0.005302199628204107,
        0.06482142210006714,
        0.004229997284710407,
        -0.14392752945423126,
        -0.06415867060422897,
        -0.17191089689731598,
        0.009256296791136265,
        -0.04692675918340683,
        0.10265272110700607,
        0.026031754910945892,
        -0.02477314881980419,
        0.001812899368815124,
        -0.004126505460590124,
        0.1838250756263733,
        -0.006557174026966095,
        -0.01635374128818512,
        -0.007631122134625912,
        0.050631169229745865,
        -0.019978882744908333,
        0.01886078156530857,
        -0.05285044014453888,
        -0.056223075836896896,
        0.03191424906253815,
        -0.008098850026726723,
        -0.03949530050158501,
        0.0030870719347149134,
        -0.008825935423374176,
        0.013419879600405693,
        0.02554924227297306,
        -0.028574572876095772,
        0.02749241515994072,
        0.0564461387693882,
        0.012473314069211483,
        0.006785546895116568,
        -0.036529749631881714,
        -0.1254090666770935,
        0.031384993344545364,
        0.010615137405693531,
        0.038701821118593216,
        -0.04745563864707947,
        0.003977014683187008,
        -0.007884854450821877,
        0.04779177904129028,
        -0.020301299169659615,
        -0.04417605325579643,
        0.06556902825832367,
        0.0019670482724905014,
        -0.17908798158168793,
        -0.052960265427827835,
        0.06777520477771759,
        0.08461495488882065,
        0.026061030104756355,
        -0.07463464885950089,
        -0.05954066291451454,
        -0.07443223893642426,
        0.03383366018533707,
        -0.05488596856594086,
        -0.0488901287317276,
        0.030200881883502007,
        -0.03543376922607422,
        0.08466774225234985,
        0.02466144785284996,
        -0.019965754821896553,
        -0.05634037405252457,
        0.0426597073674202,
        -0.06854158639907837,
        -0.0327424556016922,
        0.14152398705482483,
        -0.02496776543557644,
        0.012498186901211739,
        0.054434191435575485,
        0.05370853841304779,
        -0.04356938600540161,
        0.05094028636813164,
        -0.0283605195581913,
        -0.08513143658638,
        -0.07896724343299866,
        0.06975632160902023,
        0.22296549379825592,
        0.0186026468873024,
        0.024397417902946472,
        -0.11607065051794052,
        -0.009385304525494576,
        -0.11694017797708511,
        0.009744099341332912,
        0.005967435427010059,
        0.16464810073375702,
        -0.05383032187819481,
        0.047371115535497665,
        0.014400344341993332,
        0.013679884374141693,
        0.020890986546874046,
        0.032831743359565735,
        -0.17382192611694336,
        0.013858280144631863,
        -0.09834419935941696,
        0.014797626994550228,
        -0.14166483283042908,
        0.03016115352511406,
        -0.04801689460873604,
        0.002192016923800111,
        -0.07048236578702927,
        -0.01168788317590952,
        0.08195478469133377,
        -0.0801747739315033,
        0.047541070729494095,
        -0.0007515097968280315,
        -0.09729050099849701,
        -0.013829749077558517,
        0.06174430251121521,
        -0.0796126052737236,
        -0.0010484840022400022,
        0.095308318734169,
        -0.10457155853509903,
        -0.01022842712700367,
        -0.029456881806254387,
        0.12928546965122223,
        -0.05731426551938057,
        -0.09107086807489395,
        0.014665215276181698,
        -0.17568828165531158,
        -0.07176154851913452,
        0.023309968411922455,
        0.01902310736477375,
        -0.0364336334168911,
        0.07397472113370895,
        -0.03034428507089615,
        -0.11554981768131256,
        -0.050549447536468506,
        0.06349299103021622,
        0.04616047814488411,
        0.03992447629570961,
        0.00922533217817545,
        0.023052651435136795,
        -0.11037803441286087,
        -0.04282735288143158,
        -0.06564117968082428,
        -0.0846216231584549,
        0.006035911850631237,
        0.09049574285745621,
        -0.04964451119303703,
        -0.01481550745666027,
        0.01481964997947216,
        -0.09460460394620895,
        -0.04065810516476631,
        -0.028922587633132935,
        -0.02999412827193737,
        -0.05627911165356636,
        0.02752273716032505,
        -0.04847053810954094,
        0.07071387767791748,
        0.046556971967220306,
        0.06225466728210449,
        -0.016215020790696144,
        0.001808298286050558,
        -0.08652947843074799,
        -0.014522077515721321,
        0.08441140502691269,
        -0.06300927698612213,
        0.03187105059623718,
        0.024141890928149223,
        -0.014391484670341015,
        -0.0013354152906686068,
        0.08505924046039581,
        0.0007963023381307721,
        -0.10411085188388824,
        0.03030102141201496,
        -0.0916825383901596,
        0.08300766348838806,
        -0.043095774948596954,
        -0.007015824783593416,
        0.06706944853067398,
        -0.01298576220870018,
        -0.011730488389730453,
        0.020355399698019028,
        0.021849866956472397,
        -0.048279210925102234,
        0.0369889959692955,
        0.02663266658782959,
        -0.1952926218509674,
        0.0306272991001606,
        -0.011185362935066223,
        0.022363433614373207,
        0.044503554701805115,
        -0.02092510275542736,
        -0.10512442886829376,
        0.05764532834291458,
        -0.02910887636244297,
        0.045889995992183685,
        -0.002610472496598959,
        0.08550708740949631,
        0.02322576195001602,
        -0.04836072772741318,
        0.02159363403916359,
        -0.02954155206680298,
        0.11406026035547256,
        0.023655366152524948,
        -0.2948443591594696,
        0.09104932099580765,
        0.06049564480781555,
        0.05513749271631241,
        -0.04727915674448013,
        0.006900431588292122,
        -0.08960293978452682,
        0.03028419241309166,
        0.015993664041161537,
        -0.045369938015937805,
        0.028822561725974083,
        0.012940148822963238,
        0.056868210434913635,
        -0.00502838846296072,
        0.16306288540363312,
        0.006466974969953299,
        0.0037168145645409822,
        -0.03673689812421799,
        0.08015190809965134,
        0.028545908629894257,
        -0.0023505983408540487,
        -0.012510485015809536,
        -0.005122726783156395,
        0.055269598960876465,
        -0.08016254752874374,
        0.1822240650653839,
        -0.023136788979172707,
        0.03001774661242962,
        0.11400294303894043,
        -0.006456449627876282,
        -0.04157702252268791,
        0.020271239802241325,
        0.13285504281520844,
        -0.01581793650984764,
        0.11345478892326355,
        0.02724137157201767,
        -0.1607990562915802,
        -0.00505073182284832,
        0.030435826629400253,
        0.02047642134130001,
        0.02057422138750553,
        0.08450620621442795,
        -0.0518968403339386,
        -0.09528513997793198,
        0.045168619602918625,
        0.005463915411382914,
        0.030779823660850525,
        0.008832884952425957,
        -0.07633311301469803,
        0.02559259533882141,
        0.00900882389396429,
        -0.03549817204475403,
        -0.01799270510673523,
        -0.022352086380124092,
        -0.2581291198730469,
        0.02374391071498394,
        0.049446240067481995,
        -0.04290225729346275,
        -0.017636597156524658,
        0.017411846667528152,
        -0.042715009301900864,
        0.012013302184641361,
        0.0627312883734703,
        0.023882294073700905,
        0.008790598250925541,
        -0.059689149260520935,
        -0.06221432983875275,
        -0.019305262714624405,
        0.14647114276885986,
        -0.08341852575540543,
        0.04879527911543846,
        0.012226147577166557,
        -0.17761069536209106,
        0.018883058801293373,
        0.022119328379631042,
        -0.021523533388972282,
        -0.10776524245738983,
        -0.003580892225727439,
        -0.06099679693579674,
        0.0391395203769207,
        -0.023241238668560982,
        0.03186019882559776,
        -0.05644587427377701,
        0.08459939062595367,
        -0.011594019830226898,
        -0.01439938135445118,
        0.0749824047088623,
        0.06044461578130722,
        -0.1074046865105629,
        0.04587865248322487,
        0.005830242298543453,
        0.09048228710889816,
        -0.05617238208651543,
        0.049237992614507675,
        -0.049599986523389816,
        -0.047720178961753845,
        -0.172061488032341,
        -0.023443030193448067,
        0.02739613503217697,
        -0.017350243404507637,
        0.030783623456954956,
        0.018387090414762497,
        -0.07488610595464706,
        0.0279502235352993,
        0.15075881779193878,
        0.026772091165184975,
        -0.02669527567923069,
        -0.041506677865982056,
        0.09998635947704315,
        0.0058809490874409676,
        -0.061929140239953995,
        0.02665163390338421,
        -0.08807820081710815,
        -0.08289312571287155,
        0.1216060072183609,
        0.020943107083439827,
        0.052667420357465744,
        -0.018599925562739372,
        0.10384877771139145,
        -0.021459681913256645,
        -0.04577845707535744,
        -0.0013936415780335665,
        0.18137823045253754,
        -0.028228186070919037,
        0.06972336024045944,
        0.004050809424370527,
        -0.0049554286524653435,
        0.040545739233493805,
        0.04221352934837341,
        -0.009750904515385628,
        0.027570245787501335,
        -0.01623436063528061,
        -0.06646481901407242,
        -0.04456212371587753,
        -0.0006399050471372902,
        0.03087296150624752,
        0.05263174697756767,
        0.0058389147743582726,
        -0.03039642423391342,
        0.02948562242090702,
        0.07217201590538025,
        -0.007584835402667522,
        -0.02417651191353798,
        -0.0649479553103447,
        -0.14456388354301453,
        0.02921803668141365,
        0.03951650485396385,
        -0.11196685582399368,
        0.02910245582461357,
        3.782835847232491e-05,
        -0.0795026645064354,
        -0.02392558939754963,
        -0.02149249240756035,
        0.05022798851132393,
        0.002165056299418211,
        0.011185828596353531,
        -0.10730287432670593,
        -0.013756914995610714,
        0.008343402296304703,
        -0.048007234930992126,
        -0.012097755447030067,
        0.03295056149363518,
        -0.2439633309841156,
        0.005023435689508915,
        0.050314076244831085,
        -0.008139426819980145,
        -0.028454231098294258,
        -0.051097266376018524,
        0.0008809918654151261,
        0.07596998661756516,
        0.049938272684812546,
        0.009190855547785759,
        -0.1992824226617813,
        -0.035566296428442,
        0.012316138483583927,
        -0.12102960050106049,
        0.006534917745739222,
        0.07607876509428024,
        -0.06151805818080902,
        0.016688041388988495,
        0.06717243790626526,
        0.006004695314913988,
        -0.08077188581228256,
        -0.01686803437769413,
        -0.11519438028335571,
        -0.03620753809809685,
        -0.005682637449353933,
        -0.07254254072904587,
        -0.009259510785341263,
        -0.07672236859798431,
        -0.01638047769665718,
        -0.01843935064971447,
        -0.09656181931495667,
        0.038347598165273666,
        0.20290951430797577,
        -0.0661451667547226,
        0.04813534393906593,
        -0.022514311596751213,
        0.04872601106762886,
        0.053223393857479095,
        0.03349151834845543,
        -0.11552853882312775,
        -0.02629355899989605,
        0.016257038339972496,
        0.00555787980556488,
        -0.03735090419650078,
        0.04723973572254181,
        0.05937761813402176,
        0.025906994938850403,
        0.015192223712801933,
        -0.03934380039572716,
        0.05412093549966812,
        0.10847483575344086,
        0.013915758579969406,
        0.02458818256855011,
        -0.03793412819504738,
        -0.09902288019657135,
        0.03405241295695305,
        0.045915063470602036,
        0.03075462020933628,
        -0.08085433393716812,
        0.03126037120819092,
        0.018047848716378212,
        -0.04070895537734032,
        0.006819096859544516,
        -0.006160143297165632,
        -0.015485776588320732,
        -0.019206952303647995,
        -0.04454721882939339,
        -0.01401834562420845,
        0.0740528330206871,
        -0.016489459201693535,
        -0.015498438850045204,
        0.0036144540645182133,
        -0.0186570193618536,
        0.06063065677881241,
        0.004321077838540077,
        -0.13468621671199799,
        0.04350960999727249,
        0.048666540533304214,
        -0.10454870760440826,
        0.035687122493982315,
        0.01849474385380745,
        0.055517904460430145,
        -0.008806269615888596,
        0.04247594624757767,
        -0.04587838426232338,
        0.0012134583666920662,
        0.13438761234283447,
        0.007068083621561527,
        -0.008311073295772076,
        0.048804543912410736,
        0.02322407439351082,
        0.03395962342619896,
        0.07067488878965378,
        -0.048312459141016006,
        -0.06976765394210815,
        0.002757035195827484,
        -0.07715065032243729,
        0.16958999633789062,
        -0.0006713552866131067,
        0.037317875772714615,
        -0.17659249901771545,
        -0.08262661844491959,
        0.02701977640390396,
        -0.08729267865419388,
        0.015582352876663208,
        0.05664437636733055,
        -0.08540179580450058,
        0.041460148990154266,
        0.06074247136712074,
        -0.05465734377503395,
        -0.06010939180850983,
        0.030536675825715065,
        -0.12246859818696976,
        -0.04448689892888069,
        -0.038661014288663864,
        -0.10564817488193512,
        -0.0562581941485405,
        -0.045952603220939636,
        0.03097340650856495,
        -0.019901741296052933,
        -0.016224442049860954,
        -0.010638786479830742,
        0.19017983973026276,
        0.006606944836676121,
        0.043952591717243195,
        0.0007795838173478842,
        0.13101434707641602,
        -0.020259719341993332,
        0.041461031883955,
        -0.07804445177316666,
        0.026569990441203117,
        -0.07308940589427948,
        -0.050443947315216064,
        -0.07046433538198471,
        0.014282941818237305,
        0.02648790553212166,
        -0.042747437953948975,
        -0.0034728834871202707,
        0.03587450087070465,
        -0.028176547959446907,
        0.16950270533561707,
        0.02126622013747692,
        0.047008298337459564,
        0.019603295251727104,
        0.12499620020389557,
        -0.013168277218937874,
        0.0027029330376535654,
        -0.0754036009311676,
        -0.04540962353348732,
        0.016881437972187996,
        -0.019170155748724937,
        0.13034598529338837,
        -0.03154321014881134,
        0.01759464666247368,
        0.05501698702573776,
        0.03134709596633911,
        -0.039461132138967514,
        0.0019628177396953106,
        0.26281192898750305,
        0.006309906952083111,
        0.0379861481487751,
        0.030054014176130295,
        0.09522982686758041,
        -0.006128092296421528,
        0.05658752843737602,
        -0.008230872452259064,
        0.020255930721759796,
        -0.0821571797132492,
        0.009310370311141014,
        0.05052153021097183,
        0.031032567843794823,
        -0.029002543538808823,
        0.004033156204968691,
        0.07163825631141663,
        -0.028958136215806007,
        0.04593668133020401,
        -0.022483929991722107,
        0.0026972955092787743,
        0.02148154005408287,
        0.015441161580383778,
        -0.31094667315483093,
        0.06988140940666199,
        -0.006050108000636101,
        -0.009505345486104488,
        -0.05770243704319,
        0.06194298341870308,
        -0.02530716545879841,
        0.004746057093143463,
        -0.016302738338708878,
        -0.014558129012584686,
        -0.1954389214515686,
        0.07540327310562134,
        0.06282728165388107,
        -0.10893933475017548,
        0.04977276921272278,
        -0.0250819344073534,
        -0.09709670394659042,
        0.07626435905694962,
        0.06964674592018127,
        -0.08801740407943726,
        -0.12226313352584839,
        0.06761836260557175,
        -0.09661030769348145,
        -0.08895866572856903,
        -0.09556101262569427,
        -0.11312815546989441,
        -0.09364571422338486,
        -0.04039332643151283,
        0.031996261328458786,
        -0.020875830203294754,
        -0.05123420059680939,
        -0.004085437394678593,
        0.13033144176006317,
        -0.027073053643107414,
        0.032623905688524246,
        0.0005361174698919058,
        0.05370466411113739,
        0.014603686518967152,
        0.06992273032665253,
        0.010355875827372074,
        -0.03919453173875809,
        -0.008896446786820889,
        -0.07963542640209198,
        -9.745484567247331e-05,
        0.03019590675830841,
        0.01634666509926319,
        0.07728218287229538,
        0.001541524427011609,
        -0.0208619125187397,
        0.009716393426060677,
        0.19250282645225525,
        -0.010265632532536983,
        0.0384359173476696,
        -0.0031364867463707924,
        0.07196095585823059,
        0.0475340411067009,
        0.026737455278635025,
        -0.016854358837008476,
        0.017756806686520576,
        0.07746631652116776,
        -0.011218505911529064,
        0.053269434720277786,
        -0.04728379473090172,
        -0.07073261588811874,
        0.002938334597274661,
        0.02372652105987072,
        0.012445141561329365,
        0.01199323683977127,
        0.22225433588027954,
        0.0016732211224734783,
        0.017964040860533714,
        0.012942895293235779,
        0.06524630635976791,
        0.031031867489218712,
        0.05935106799006462,
        0.0652586966753006,
        -0.009923298843204975,
        6.01884676143527e-06,
        0.0453193224966526,
        0.09341495484113693,
        -0.010322567075490952,
        -0.03640851005911827,
        -0.021668950095772743,
        0.05090092495083809,
        0.01782020553946495,
        -0.01822536252439022,
        0.13149942457675934,
        -0.0042620571330189705,
        0.040049564093351364,
        0.007913489826023579,
        0.04991857707500458,
        -0.015365969389677048,
        0.07308369874954224,
        -0.08864201605319977,
        -0.05166664347052574,
        0.021153945475816727,
        -0.028479186818003654,
        0.12304019927978516,
        -0.016076553612947464,
        0.015145979821681976,
        -0.05075562000274658,
        -0.07511573284864426,
        -0.035800497978925705,
        -0.15789268910884857,
        -0.0010943878442049026,
        0.04244689270853996,
        0.028728628531098366,
        -0.07814370840787888,
        0.049229878932237625,
        -0.06565001606941223,
        -0.14499430358409882,
        -0.0010379110462963581,
        -0.011893515475094318,
        -0.03521893545985222,
        -0.020178087055683136,
        -0.03640212491154671,
        -0.11545740813016891,
        -0.14182224869728088,
        -0.048589617013931274,
        0.01949341781437397,
        0.012621560133993626,
        0.029593298211693764,
        0.05757332593202591,
        -0.024618232622742653,
        -0.0172505434602499,
        0.025456909090280533,
        -0.23454852402210236,
        0.03733500838279724,
        0.021709557622671127,
        0.018161941319704056,
        0.017379121854901314,
        0.07991392910480499,
        -0.019262202084064484,
        0.14036908745765686,
        -0.03211582452058792,
        0.05059303343296051,
        -0.008490409702062607,
        -0.0439024493098259,
        -0.045365191996097565,
        -0.03224201500415802,
        0.1795041859149933,
        0.0028049075044691563,
        -0.010056891478598118,
        -0.03551490977406502,
        -0.08963571488857269,
        -0.06557720899581909,
        0.020503314211964607,
        -0.07377726584672928,
        -0.04716901108622551,
        0.017116812989115715,
        -0.13001607358455658,
        0.08095556497573853,
        0.032305583357810974,
        0.009304722771048546,
        0.028789807111024857,
        0.014488679356873035,
        0.013864575885236263,
        0.006465256679803133,
        0.09598249942064285,
        -0.046788331121206284,
        0.06322823464870453,
        0.03531946986913681,
        -0.13563425838947296,
        0.07072117179632187,
        -0.005859338212758303,
        -0.001374153420329094,
        0.03961791470646858,
        0.09372583776712418,
        -0.10006659477949142,
        0.01699536293745041,
        -0.02367766574025154,
        0.014689353294670582,
        -0.0749993547797203,
        0.025319870561361313,
        -0.050499387085437775,
        0.03845563903450966,
        -0.05168064311146736,
        -0.028933169320225716,
        0.049727022647857666,
        -0.007914889603853226,
        -0.30454832315444946,
        0.0636138841509819,
        0.0037359031848609447,
        -0.08932521194219589,
        -0.08617214113473892,
        0.00899120606482029,
        -0.027340931817889214,
        0.036465179175138474,
        -0.012456676922738552,
        0.04487454518675804,
        -0.03240720555186272,
        0.03592189773917198,
        -0.01171630434691906,
        0.008278095163404942,
        0.16000355780124664,
        -0.0030500793363898993,
        0.06446850299835205,
        -0.005239780992269516,
        0.02237868122756481,
        -0.02621486410498619,
        -0.017853178083896637,
        -0.0733247771859169,
        -0.0727396309375763,
        0.021844491362571716,
        -0.00918492116034031,
        0.053020160645246506,
        0.05233882740139961,
        0.06043507903814316,
        -0.015317569486796856,
        0.055807776749134064,
        -0.11165137588977814,
        -0.022770626470446587,
        0.004458841867744923,
        -0.028845105320215225,
        0.007070769555866718,
        -0.025238700211048126,
        -0.20199623703956604,
        -0.013032220304012299,
        0.04370246082544327,
        0.019152218475937843,
        -0.06741122156381607,
        0.06431916356086731,
        0.012679852545261383,
        -0.0012860808055847883,
        0.0523153692483902,
        0.053767815232276917,
        -6.451585795730352e-05,
        0.0456242710351944,
        -0.07054903358221054,
        -0.04471888020634651,
        0.1818530261516571,
        0.020489633083343506,
        0.04567297548055649,
        -0.007667270954698324,
        0.07115264236927032,
        0.00505869509652257,
        0.06739075481891632,
        -0.02002798765897751,
        -0.05331811308860779,
        -0.08871360868215561,
        0.07483954727649689,
        0.040323980152606964,
        0.014673019759356976,
        -0.04814844951033592,
        0.018976988270878792,
        -0.028396446257829666,
        -0.06157022714614868,
        0.04909477010369301,
        0.13217076659202576,
        0.0967235341668129,
        0.06970125436782837,
        -0.02128395065665245,
        0.07851811498403549,
        -0.02839541994035244,
        0.11272212862968445,
        -0.060772281140089035,
        0.0034334007650613785,
        0.01688803918659687,
        -0.08211134374141693,
        0.07929842919111252,
        -0.013888316228985786,
        0.004093090072274208
      ]
    },
    {
      "activation": "rectified",
      "architecture": "dense",
      "bias": [
        0.01674000732600689,
        0.012738004326820374,
        0.08649642020463943,
        0.11937718093395233,
        0.08726990967988968,
        0.05703171715140343,
        0.03040756657719612,
        -0.02684622071683407,
        0.10054927319288254,
        0.12383962422609329,
        0.048858098685741425,
        0.06963080167770386,
        0.08819012343883514,
        0.10012150555849075,
        0.09792699664831161,
        0.03810390084981918,
        0.052296850830316544,
        0.089607372879982,
        0.04794502258300781,
        0.10098625719547272,
        -0.01959098130464554,
        0.030948782339692116,
        0.06187748163938522,
        0.09736474603414536,
        -0.012289858423173428,
        0.0407576784491539,
        0.0776267722249031,
        0.10478325933218002,
        0.09947076439857483,
        0.07858182489871979,
        0.07071553170681,
        0.0842750295996666,
        0.03892693668603897,
        0.12314707040786743,
        0.04699045419692993,
        0.07173249870538712,
        0.1051390990614891,
        0.06564416736364365,
        0.07006189227104187,
        0.02902771718800068,
        0.08177582919597626,
        0.04400224983692169,
        0.020673133432865143,
        0.11216018348932266,
        -0.010729305446147919,
        0.06670505553483963,
        0.11712054908275604,
        -0.006410042755305767,
        0.09046540409326553,
        0.06929278373718262,
        0.03737791255116463,
        0.046580471098423004,
        -0.037083256989717484,
        0.09416406601667404,
        0.09212540835142136,
        0.03617818281054497,
        0.07336248457431793,
        0.05719561502337456,
        0.045891378074884415,
        0.11094876378774643,
        0.1021224781870842,
        0.05180779844522476,
        0.039407599717378616,
        0.06057135760784149,
        0.037613071501255035,
        0.034147340804338455,
        0.05121010169386864,
        0.07777594029903412,
        0.11224453896284103,
        0.0559074692428112,
        0.027458511292934418,
        0.0824943259358406,
        0.07197026163339615,
        0.11452502012252808,
        0.07195918262004852,
        0.06895264983177185,
        -0.021997885778546333,
        -0.022591527551412582,
        0.07715291529893875,
        0.08591862767934799,
        0.01972297765314579,
        0.07819738239049911,
        0.07451159507036209,
        0.04185228422284126,
        -0.0191737562417984,
        0.03617636114358902,
        0.12125615775585175,
        0.0843723937869072,
        0.0913335308432579,
        0.058117516338825226,
        0.08832433074712753,
        0.05195558816194534,
        0.07749450206756592,
        0.07545696198940277,
        0.053551506251096725,
        0.09457474946975708,
        0.11605382710695267,
        0.10789886862039566,
        0.09739763289690018,
        0.09195853769779205,
        0.022762052714824677,
        0.11127790808677673,
        0.02171330153942108,
        0.07020416855812073,
        0.09205865859985352,
        0.11135271191596985,
        0.08532816916704178,
        0.040150973945856094,
        0.07632511854171753,
        0.06299643218517303,
        0.10843320935964584,
        0.10880773514509201,
        0.022645508870482445,
        0.07343044131994247,
        0.1036752462387085,
        0.056901123374700546,
        0.09013681858778,
        0.04569181427359581,
        0.057729821652173996,
        0.10258346796035767,
        0.06009962037205696,
        0.05794575437903404,
        0.0054576341062784195,
        0.10100247710943222,
        0.07107257843017578,
        0.08208335936069489,
        0.08874260634183884,
        0.020201006904244423
      ],
      "weights": [
        -0.0839380994439125,
        -0.0769953653216362,
        -0.03016984462738037,
        0.07647278904914856,
        0.021557066589593887,
        -0.04827972874045372,
        0.14800046384334564,
        -0.04257714003324509,
        -0.07556046545505524,
        -0.08904074877500534,
        -0.008634878322482109,
        0.0018797139637172222,
        -0.0820862203836441,
        -0.022709375247359276,
        0.07901202887296677,
        -0.01711643859744072,
        0.0660490021109581,
        0.13113829493522644,
        -0.03510257229208946,
        -0.06635299324989319,
        0.00647750124335289,
        0.008646358735859394,
        0.03367489576339722,
        0.02728443220257759,
        0.07551772892475128,
        0.0030823899433016777,
        -0.12760278582572937,
        0.11366445571184158,
        -0.1298094093799591,
        -0.11331763118505478,
        -0.04147918149828911,
        0.0374528206884861,
        -0.11357157677412033,
        0.0807664692401886,
        0.06368578225374222,
        -0.032065249979496,
        0.020640704780817032,
        -0.03332345560193062,
        0.04531337693333626,
        -0.009794782847166061,
        0.035342372953891754,
        -0.033905256539583206,
        0.048983052372932434,
        0.07021692395210266,
        0.009141660295426846,
        0.04427225515246391,
        -0.0510425791144371,
        -0.11200040578842163,
        -0.032306984066963196,
        -0.024780699983239174,
        -0.18960951268672943,
        0.10607661306858063,
        0.1629272848367691,
        -0.052845317870378494,
        -0.01575436443090439,
        0.09051327407360077,
        -0.15644371509552002,
        0.13948768377304077,
        0.003396723186597228,
        0.09762673825025558,
        -0.012033465318381786,
        0.04117961600422859,
        -0.011005502194166183,
        0.12898069620132446,
        0.07006602734327316,
        0.04535422474145889,
        0.06587662547826767,
        -0.06125587970018387,
        0.05588201805949211,
        -0.008400829508900642,
        0.050488438457250595,
        -0.08750520646572113,
        -0.014559179544448853,
        0.018307486549019814,
        0.09324571490287781,
        0.02741464599967003,
        -0.0016365437768399715,
        -0.03541127219796181,
        0.08432211726903915,
        -8.613153477199376e-05,
        0.036075055599212646,
        0.009876169264316559,
        -0.21806401014328003,
        -0.07770086824893951,
        0.0808844268321991,
        -0.029109017923474312,
        -0.032828088849782944,
        0.05400236323475838,
        -0.001920555834658444,
        0.025083769112825394,
        -0.12869282066822052,
        -0.007558872457593679,
        0.006366271059960127,
        -0.08983155339956284,
        -0.1054592877626419,
        0.04554470628499985,
        0.033560626208782196,
        -0.05318743363022804,
        0.0175277441740036,
        0.015581890940666199,
        0.06323686987161636,
        0.05183590203523636,
        -0.09310334920883179,
        -0.03404761850833893,
        -0.024916986003518105,
        0.02534821815788746,
        0.054666128009557724,
        -0.06291858106851578,
        0.09710701555013657,
        -0.019493378698825836,
        0.07894855737686157,
        0.06521441787481308,
        0.0808636024594307,
        -0.0641353502869606,
        -0.07751229405403137,
        -0.017703549936413765,
        0.04599719122052193,
        0.07639969885349274,
        0.03363783657550812,
        -0.12247512489557266,
        -0.03283553943037987,
        0.061486974358558655,
        0.021678298711776733,
        -0.10344754159450531,
        0.07084818929433823,
        -0.05929712951183319,
        0.13704583048820496,
        0.11460284888744354,
        -0.02665800042450428,
        -0.0055773076601326466,
        -0.058171745389699936,
        0.018609482795000076,
        0.03513358160853386,
        0.048937857151031494,
        0.03515525534749031,
        -0.0306974109262228,
        -0.08448713272809982,
        0.006654870696365833,
        -0.06343059241771698,
        -0.06132671236991882,
        0.020553426817059517,
        0.03838734328746796,
        0.04514481499791145,
        -0.02142057754099369,
        0.011789822950959206,
        0.007493677083402872,
        -0.014496422372758389,
        -0.010243958793580532,
        0.032218873500823975,
        -0.031457994133234024,
        -0.032218579202890396,
        -0.038916438817977905,
        0.02142161875963211,
        0.044470708817243576,
        0.03153456002473831,
        -0.05397671461105347,
        0.0055081662721931934,
        0.01036309264600277,
        -0.057793524116277695,
        -0.04545009881258011,
        -0.009307114407420158,
        0.027521077543497086,
        0.01402075681835413,
        -0.006017943378537893,
        0.03154190257191658,
        0.056343164294958115,
        0.012597942724823952,
        -0.03329676017165184,
        -0.0009056794224306941,
        0.005481021944433451,
        -0.02382310852408409,
        -0.07004088908433914,
        0.007552093826234341,
        0.05044173449277878,
        0.005487086251378059,
        -0.04906142130494118,
        0.009736181236803532,
        0.03278673440217972,
        -0.025017602369189262,
        0.03236246854066849,
        0.005323294084519148,
        0.03800695389509201,
        0.026712585240602493,
        0.03851916640996933,
        0.010569460690021515,
        -0.017852583900094032,
        0.04129485785961151,
        0.033972568809986115,
        0.03024933487176895,
        0.025455212220549583,
        0.028750842437148094,
        0.01283360831439495,
        0.010484041646122932,
        -0.056174732744693756,
        -0.03452788293361664,
        -0.049985017627477646,
        -0.04978141188621521,
        0.032491285353899,
        0.027476804330945015,
        -0.06880615651607513,
        -0.022980796173214912,
        0.034191157668828964,
        0.0010418182937428355,
        0.03072030283510685,
        -0.01799127832055092,
        0.019800063222646713,
        0.034999746829271317,
        0.01400329452008009,
        -0.006215601693838835,
        -0.04095965996384621,
        0.10357194393873215,
        0.0226924829185009,
        -0.03702917322516441,
        -0.0407961830496788,
        -0.01911862939596176,
        0.02212044969201088,
        -0.012776493094861507,
        0.038271866738796234,
        -0.02682698890566826,
        -0.02874581702053547,
        0.03143953159451485,
        0.007367996033281088,
        -0.031136373057961464,
        0.012451919727027416,
        -0.014903482049703598,
        -0.043608542531728745,
        -0.0421130545437336,
        -0.06449584662914276,
        -0.05175340175628662,
        -0.007366973906755447,
        -0.0270366333425045,
        -0.0009100792231038213,
        -0.01108466275036335,
        0.03684021905064583,
        -0.023556310683488846,
        0.026392510160803795,
        0.013756358064711094,
        -0.007237507030367851,
        -0.0027587777003645897,
        -0.015656281262636185,
        -0.0208656694740057,
        0.03333734720945358,
        0.0632578656077385,
        0.034418657422065735,
        0.023049328476190567,
        0.010682770982384682,
        -0.021345706656575203,
        0.042665746062994,
        0.05203236639499664,
        0.0004786727949976921,
        -0.0437115915119648,
        0.009566676802933216,
        -0.006299071945250034,
        -0.015125003643333912,
        0.020933300256729126,
        0.04698988422751427,
        -0.008623271249234676,
        0.0021037068217992783,
        0.04820799082517624,
        0.012135299853980541,
        0.0500427670776844,
        0.10879912227392197,
        0.17880292236804962,
        0.03866496682167053,
        -0.12166474014520645,
        0.00016404205234721303,
        0.05621112510561943,
        0.062167439609766006,
        0.06500404328107834,
        0.08748837560415268,
        0.04188770800828934,
        0.07701514661312103,
        0.024533016607165337,
        0.04317085072398186,
        0.004915512632578611,
        0.015555589459836483,
        0.05226325988769531,
        0.1228523701429367,
        0.0989743024110794,
        0.014900893904268742,
        0.09000770002603531,
        -3.620628558564931e-05,
        -0.1380825936794281,
        0.10355314612388611,
        0.07851417362689972,
        -0.001537430565804243,
        0.11281851679086685,
        0.03968659043312073,
        -0.08742906898260117,
        0.039583586156368256,
        0.049610577523708344,
        0.08086436241865158,
        0.0772617906332016,
        0.05674144625663757,
        0.021060403436422348,
        0.0059423549100756645,
        0.04275577887892723,
        0.01667144149541855,
        0.06731251627206802,
        0.05279449000954628,
        0.07919374108314514,
        0.028497206047177315,
        0.1093415841460228,
        0.11243484169244766,
        0.048534125089645386,
        0.06410562247037888,
        -0.09425956010818481,
        0.06375627964735031,
        0.10860458016395569,
        0.07933029532432556,
        0.09210865199565887,
        0.09655224531888962,
        -0.19083482027053833,
        0.10132960230112076,
        0.06966736167669296,
        0.08659546077251434,
        0.07974517345428467,
        0.10773735493421555,
        0.01572970300912857,
        0.07981548458337784,
        0.06401775777339935,
        0.07910894602537155,
        0.0486210398375988,
        0.0276323314756155,
        0.12777237594127655,
        0.009919959120452404,
        0.05574624240398407,
        -0.0890342965722084,
        0.06741037964820862,
        0.08227071911096573,
        0.1076689064502716,
        0.10483154654502869,
        0.01828625425696373,
        0.04254806414246559,
        0.058140479028224945,
        0.05155210942029953,
        0.0494668185710907,
        0.040138766169548035,
        -0.04050304740667343,
        0.052072227001190186,
        0.0594627819955349,
        0.0063584670424461365,
        -0.0010075883474200964,
        0.11082199215888977,
        0.007648793514817953,
        0.033809978514909744,
        -0.12100990861654282,
        0.0009380584233440459,
        0.06922765076160431,
        -0.014502116478979588,
        0.051275186240673065,
        0.041760239750146866,
        0.04299728199839592,
        0.09762423485517502,
        0.009015478193759918,
        0.015747608616948128,
        0.10891474783420563,
        0.03913859277963638,
        0.04478516802191734,
        0.07648476958274841,
        -0.12912015616893768,
        0.013396338559687138,
        0.03296562656760216,
        0.040448203682899475,
        0.09035001695156097,
        -0.13884073495864868,
        0.13699541985988617,
        0.07385735213756561,
        0.0976037010550499,
        0.0693938136100769,
        -0.08792132884263992,
        0.02058752439916134,
        0.025373853743076324,
        0.04807048663496971,
        0.0084135252982378,
        -0.12458690255880356,
        0.04624014347791672,
        0.04252605885267258,
        0.02372090332210064,
        0.031842123717069626,
        0.04074171930551529,
        0.05960742384195328,
        0.12149322032928467,
        0.08140813559293747,
        0.032484184950590134,
        0.04679183289408684,
        0.08007605373859406,
        0.05241503566503525,
        0.017553608864545822,
        0.08609997481107712,
        0.0848677009344101,
        0.09476983547210693,
        -0.07725465297698975,
        0.027554720640182495,
        0.06077053025364876,
        0.08058642596006393,
        0.13593833148479462,
        0.04390965402126312,
        0.13421952724456787,
        0.10005471110343933,
        0.08854647725820541,
        0.05216071382164955,
        0.07295571267604828,
        0.044157613068819046,
        0.10683605819940567,
        0.10801110416650772,
        0.09039100259542465,
        0.06754514575004578,
        0.11680092662572861,
        -0.04018820449709892,
        -0.00855493638664484,
        0.08188117295503616,
        0.06690137833356857,
        0.030074458569288254,
        0.07728170603513718,
        0.02124711684882641,
        -0.03702262416481972,
        0.1325235217809677,
        0.07881970703601837,
        0.01989772543311119,
        0.11139214038848877,
        0.06413590162992477,
        0.046861935406923294,
        0.09500998258590698,
        0.09557022899389267,
        0.06227516010403633,
        0.03551160544157028,
        0.13701817393302917,
        0.06516698002815247,
        0.02719142660498619,
        0.06307649612426758,
        0.04908514395356178,
        0.08558406680822372,
        0.08080033212900162,
        -0.018098659813404083,
        0.04494556784629822,
        0.10800443589687347,
        0.1165878102183342,
        0.11944366991519928,
        0.11657311767339706,
        -0.08405201882123947,
        0.10163335502147675,
        0.05825037136673927,
        -0.0016715382225811481,
        0.025213275104761124,
        0.032865945249795914,
        0.043381307274103165,
        0.12344106286764145,
        0.052384935319423676,
        0.0826902687549591,
        0.028878765180706978,
        0.03841589763760567,
        0.11246228218078613,
        0.05291178449988365,
        0.029785888269543648,
        -0.06868848204612732,
        0.064121313393116,
        0.11451079696416855,
        0.0809735506772995,
        0.08931227028369904,
        0.03300853818655014,
        0.06570525467395782,
        0.10222434997558594,
        0.04038503021001816,
        0.05962953716516495,
        0.10499822348356247,
        -0.05637701228260994,
        0.010919206775724888,
        0.09758512675762177,
        0.04681653156876564,
        0.032980915158987045,
        0.06675686687231064,
        -0.05273805931210518,
        0.07489488273859024,
        -0.053797148168087006,
        0.0657372996211052,
        0.04290376231074333,
        0.06186307594180107,
        0.046952564269304276,
        0.04490289464592934,
        0.09759616106748581,
        0.09878969937562943,
        0.02545652911067009,
        0.022294286638498306,
        0.11021295189857483,
        0.04815174639225006,
        0.0836520567536354,
        0.010254566557705402,
        -0.05791766196489334,
        0.05251377448439598,
        0.0037472343537956476,
        0.029538258910179138,
        0.09597133100032806,
        -0.06085409224033356,
        0.0680084303021431,
        0.046735215932130814,
        0.07829485833644867,
        0.06879235804080963,
        -0.06235159561038017,
        0.04054936394095421,
        0.09276910126209259,
        0.0698196291923523,
        0.03243012726306915,
        -0.07681331783533096,
        0.08928924798965454,
        0.01044281106442213,
        0.12050767987966537,
        0.13674378395080566,
        0.041950616985559464,
        0.04647677764296532,
        0.1279701441526413,
        0.08302920311689377,
        0.041215263307094574,
        0.05563013255596161,
        0.05103227123618126,
        0.0392095185816288,
        0.01579829305410385,
        0.11786118894815445,
        0.1490607112646103,
        0.07723255455493927,
        -0.027106089517474174,
        0.025915581732988358,
        0.06702613830566406,
        0.03658417612314224,
        0.07869839668273926,
        0.10150233656167984,
        0.10657729208469391,
        0.02583077736198902,
        0.06358513236045837,
        0.04931054636836052,
        0.06454623490571976,
        0.012955177575349808,
        0.09148616343736649,
        0.09535736590623856,
        0.008869227021932602,
        0.06441063433885574,
        0.0905994176864624,
        0.02664492465555668,
        -0.07028167694807053,
        0.11837095022201538,
        0.043366558849811554,
        -0.0208809245377779,
        0.04653865471482277,
        0.010025852359831333,
        -0.07213350385427475,
        0.05212750658392906,
        0.04782841354608536,
        0.047802407294511795,
        0.06544007360935211,
        0.04874857887625694,
        0.04193904995918274,
        0.031148679554462433,
        0.06198844686150551,
        0.062215059995651245,
        0.02007054165005684,
        0.0653846263885498,
        0.0799461156129837,
        -0.00361804710701108,
        0.1063733920454979,
        0.04155547544360161,
        -0.017498310655355453,
        0.036606285721063614,
        -0.026558024808764458,
        0.00044218270340934396,
        0.14126992225646973,
        0.07121764123439789,
        0.027252811938524246,
        0.026040703058242798,
        -0.10650769621133804,
        0.11073633283376694,
        0.09935297816991806,
        -0.0024628103710711002,
        0.0660611018538475,
        0.11236557364463806,
        -0.030483663082122803,
        0.06282567977905273,
        0.06387664377689362,
        0.009598975069820881,
        0.08891728520393372,
        0.055626410990953445,
        0.09826456755399704,
        0.06530330330133438,
        0.06937319040298462,
        -0.03045741468667984,
        0.02263222448527813,
        0.01828206144273281,
        0.0776025652885437,
        -0.0035256522241979837,
        0.03699658438563347,
        0.02397833950817585,
        0.015152686275541782,
        0.043466437608003616,
        0.08071698993444443,
        0.12906485795974731,
        -0.08063899725675583,
        -0.06096521019935608,
        0.023477034643292427,
        0.0016420375322923064,
        -0.040189191699028015,
        0.10280325263738632,
        -0.05387401953339577,
        0.049342941492795944,
        -0.09338126331567764,
        0.0191746074706316,
        0.0016936600441113114,
        0.019186660647392273,
        0.008835687302052975,
        -0.014096643775701523,
        0.08067963272333145,
        0.09598681330680847,
        -0.027570104226469994,
        0.00462334556505084,
        0.1305551677942276,
        0.06372164934873581,
        0.023974696174263954,
        0.07365750521421432,
        -0.026839621365070343,
        0.07301480323076248,
        0.00261182663962245,
        0.06616011261940002,
        0.08098588138818741,
        -0.12151214480400085,
        0.1345771998167038,
        0.036219075322151184,
        0.09675837308168411,
        0.11066348850727081,
        -0.09929125010967255,
        -0.034144945442676544,
        0.05631822347640991,
        0.06776407361030579,
        0.0349554680287838,
        -0.059671662747859955,
        0.02369794435799122,
        0.025590917095541954,
        0.10464227944612503,
        0.0763973742723465,
        0.01078714057803154,
        -0.010086901485919952,
        0.10318135470151901,
        0.017081351950764656,
        -0.01006457768380642,
        0.023808788508176804,
        -0.030474979430437088,
        0.0004496914043556899,
        0.009024886414408684,
        -0.08076544851064682,
        -0.00670219911262393,
        -0.003023677971214056,
        0.17036938667297363,
        0.10310211777687073,
        0.03704550117254257,
        -0.028434203937649727,
        -0.04146949201822281,
        -0.01679897867143154,
        -0.030066819861531258,
        -0.029581084847450256,
        0.004295451566576958,
        -0.024321500211954117,
        -0.047150250524282455,
        -0.02176782116293907,
        -0.05742289870977402,
        -0.03818444907665253,
        -0.0005647712387144566,
        -0.03193426877260208,
        -0.04285159707069397,
        0.10034909099340439,
        0.11944606155157089,
        -0.06022796034812927,
        0.005360845476388931,
        -0.05892586708068848,
        -0.016837183386087418,
        0.030822327360510826,
        0.0884157344698906,
        -0.015853628516197205,
        -0.0033556967973709106,
        0.006266078446060419,
        -0.008050376549363136,
        0.018645035102963448,
        0.0251783300191164,
        -0.059973154217004776,
        -0.04899737238883972,
        0.04119036719202995,
        -0.045712970197200775,
        -0.04134046658873558,
        -0.037591319531202316,
        0.12076181918382645,
        -0.027447113767266273,
        -0.05078050121665001,
        0.030467087402939796,
        0.005367735400795937,
        0.12925055623054504,
        0.001898515853099525,
        -0.06204664707183838,
        -0.09404612332582474,
        0.012029201723635197,
        -0.02751823514699936,
        0.162155419588089,
        -0.01903054676949978,
        0.08465051651000977,
        0.07826158404350281,
        0.09979242831468582,
        0.013965855352580547,
        0.005197600927203894,
        -0.02905186079442501,
        -0.017161957919597626,
        0.04469995200634003,
        -0.0347461998462677,
        0.03516608104109764,
        -0.011038814671337605,
        0.014538122341036797,
        -0.03904896229505539,
        0.08973737061023712,
        -0.017813153564929962,
        0.008717343211174011,
        0.06488020718097687,
        0.02639143541455269,
        0.13253074884414673,
        0.040904413908720016,
        0.025025639683008194,
        -0.032419364899396896,
        -0.0036730326246470213,
        0.0006695874617435038,
        0.22745798528194427,
