{
  "defaults": {},
  "inputs": [
    {
      "name": "met_met",
      "offset": "-67533.4648863",
      "scale": "1.83117102027e-05"
    },
    {
      "name": "jet_pt_2nd",
      "offset": "-92994.4438219",
      "scale": "1.51450968527e-05"
    },
    {
      "name": "ph_drsubljet_sel",
      "offset": "-2.20722317091",
      "scale": "1.08014255438"
    },
    {
      "name": "jet_pt_3rd",
      "offset": "-59814.7650908",
      "scale": "3.04305501048e-05"
    },
    {
      "name": "ph_HFT_MVA_sel",
      "offset": "-0.699959705326",
      "scale": "4.04383999408"
    },
    {
      "name": "ph_drleadjet_sel",
      "offset": "-2.32063935984",
      "scale": "1.09094829475"
    },
    {
      "name": "jet_tagWeightBin_subleading",
      "offset": "-2.627068666",
      "scale": "0.59816581152"
    },
    {
      "name": "event_HT",
      "offset": "-437756.901021",
      "scale": "4.36724862381e-06"
    },
    {
      "name": "jet_pt_5th",
      "offset": "-36419.8770083",
      "scale": "7.01691744953e-05"
    },
    {
      "name": "jet_pt_4th",
      "offset": "-41590.8951086",
      "scale": "5.07504404822e-05"
    },
    {
      "name": "jet_pt_1st",
      "offset": "-146800.963262",
      "scale": "9.54984905075e-06"
    },
    {
      "name": "event_mwt",
      "offset": "-69238.3679541",
      "scale": "2.08301923289e-05"
    },
    {
      "name": "event_nbjets77",
      "offset": "-1.49021669562",
      "scale": "1.68596410702"
    },
    {
      "name": "ph_drlept_sel",
      "offset": "-2.26270780852",
      "scale": "1.31163220132"
    },
    {
      "name": "jet_tagWeightBin_leading",
      "offset": "-4.69075157721",
      "scale": "1.56093293167"
    },
    {
      "name": "event_njets",
      "offset": "-4.69299167962",
      "scale": "1.02953965129"
    }
  ],
  "layers": [
    {
      "activation": "rectified",
      "architecture": "dense",
      "bias": [
        -0.13920019567012787,
        -0.22987554967403412,
        -0.08551067113876343,
        -0.20701435208320618,
        -0.1419655829668045,
        -0.18020448088645935,
        -0.24018824100494385,
        -0.12620636820793152,
        -0.10271614044904709,
        -0.23554256558418274,
        -0.04759328067302704,
        -0.09797254204750061,
        -0.01890348643064499,
        -0.12652280926704407,
        -0.12231255322694778,
        -0.0742974728345871,
        -0.04618748277425766,
        -0.14249929785728455,
        -0.17544673383235931,
        -0.08567436784505844,
        -0.03806430473923683,
        -0.208891823887825,
        -0.10568320751190186,
        -0.17787401378154755,
        -0.06110059469938278,
        -0.10261530429124832,
        -0.15940584242343903,
        -0.17112798988819122,
        -0.06300503760576248,
        -0.07424288988113403
      ],
      "weights": [
        -0.16011181473731995,
        -0.0326981358230114,
        -0.03460412099957466,
        -0.13091187179088593,
        -0.04603157564997673,
        0.018655043095350266,
        -0.10712503641843796,
        0.01768689602613449,
        0.03051336109638214,
        -0.06194876506924629,
        0.012785694561898708,
        0.07078628242015839,
        0.044618260115385056,
        0.01820235513150692,
        -0.01755296066403389,
        0.01436156127601862,
        -0.00627247616648674,
        0.03131093829870224,
        0.1738569289445877,
        -0.011328881606459618,
        0.01620129682123661,
        -0.06362795829772949,
        0.02288977801799774,
        -0.049916766583919525,
        -0.014617330394685268,
        -0.028987828642129898,
        0.05780849978327751,
        0.011754446662962437,
        -0.014226230792701244,
        0.0028529588598757982,
        -0.03940798342227936,
        -0.012235413305461407,
        -0.056568145751953125,
        0.0333418995141983,
        0.06618531048297882,
        -0.06415124237537384,
        -0.07898630201816559,
        0.0658811554312706,
        -0.14561696350574493,
        0.0017122504068538547,
        0.024971958249807358,
        0.038357898592948914,
        0.07277142256498337,
        0.01849854551255703,
        -0.06682098656892776,
        0.04954042658209801,
        -0.10232383012771606,
        -0.07961229979991913,
        -0.17418602108955383,
        0.030284490436315536,
        -0.021333863958716393,
        -0.030743423849344254,
        -0.002693116432055831,
        0.017545629292726517,
        -0.15916778147220612,
        -0.050922561436891556,
        0.0021012136712670326,
        -0.0900171771645546,
        0.03358783945441246,
        -0.00455939956009388,
        -0.0037867261562496424,
        0.003966286778450012,
        -0.03420540690422058,
        0.0006998026510700583,
        0.00691451458260417,
        0.08392468839883804,
        0.031310465186834335,
        -0.08192504197359085,
        -0.03609888628125191,
        -0.022886106744408607,
        0.047061529010534286,
        -0.2434956282377243,
        -0.11240315437316895,
        0.04145427420735359,
        0.004078274592757225,
        0.013563479296863079,
        -0.007625896483659744,
        0.029466817155480385,
        0.032671969383955,
        -0.152899831533432,
        0.03224619850516319,
        0.022060947492718697,
        -0.02380572259426117,
        0.03571522980928421,
        -0.07240636646747589,
        0.1121186912059784,
        0.0730997696518898,
        -0.14044134318828583,
        -0.07873105257749557,
        -0.013294859789311886,
        0.015138372778892517,
        0.04738848656415939,
        0.00963729526847601,
        0.0243302583694458,
        0.030967261642217636,
        -0.04728877171874046,
        -0.03468897566199303,
        0.015592114999890327,
        0.021091513335704803,
        -0.16311562061309814,
        -0.03349679708480835,
        0.06306541711091995,
        0.03300637751817703,
        -0.06433199346065521,
        -0.007357172667980194,
        -0.04199472814798355,
        -0.05625547096133232,
        0.04536215588450432,
        0.0011208758223801851,
        0.032960642129182816,
        -0.019042063504457474,
        -0.058337144553661346,
        -0.005421624984592199,
        -0.02819839119911194,
        0.01405685767531395,
        -0.08676081150770187,
        -0.031207147985696793,
        -0.03715873137116432,
        0.07954858243465424,
        -0.10977496951818466,
        -0.1268438696861267,
        -0.0002513202198315412,
        0.10165348649024963,
        0.004389539361000061,
        -0.01914445124566555,
        0.04040810838341713,
        -0.013899519108235836,
        -0.16736292839050293,
        0.06375574320554733,
        -0.02653203345835209,
        0.04869456961750984,
        -0.0516689158976078,
        0.15388058125972748,
        -0.02350551448762417,
        0.07177643477916718,
        0.07487300783395767,
        -0.024405689910054207,
        0.03477536514401436,
        -0.008842001669108868,
        -0.07014043629169464,
        -0.040173400193452835,
        -0.10140517354011536,
        0.044834185391664505,
        0.05535494536161423,
        -0.06455376744270325,
        -0.07092443853616714,
        -0.0004646556044463068,
        -0.06671597808599472,
        0.010593259707093239,
        -0.0005211082752794027,
        -0.0066976347006857395,
        -0.1847274750471115,
        -0.0736006423830986,
        -0.01878923363983631,
        0.02920876257121563,
        -0.048043858259916306,
        -0.025706321001052856,
        -0.02164890617132187,
        -0.008530809544026852,
        0.027255823835730553,
        0.015176389366388321,
        -0.063295379281044,
        0.08107340335845947,
        -0.02387375757098198,
        -0.10748836398124695,
        -0.011605761013925076,
        -0.019449438899755478,
        -0.029850363731384277,
        -0.14541886746883392,
        0.026942912489175797,
        0.08098841458559036,
        0.07419570535421371,
        0.0068557667545974255,
        0.01367243006825447,
        -0.0866977870464325,
        -0.06590569019317627,
        -0.08973121643066406,
        0.0012983946362510324,
        0.1269078403711319,
        0.012402310967445374,
        -0.12893182039260864,
        0.06776326149702072,
        -0.08284648507833481,
        0.01042592991143465,
        0.026977352797985077,
        0.017786649987101555,
        0.06561747938394547,
        -0.08493778854608536,
        -0.006284261588007212,
        -0.016215188428759575,
        -0.07496581226587296,
        -0.0003266863350290805,
        0.02557450719177723,
        -0.02580079808831215,
        -0.07144398987293243,
        -0.06007219851016998,
        0.0784357339143753,
        -0.09004750847816467,
        0.12420017272233963,
        0.07066413015127182,
        0.010162550956010818,
        0.0622512586414814,
        -0.056053563952445984,
        -0.08618955314159393,
        -0.06871171295642853,
        -0.0675242692232132,
        0.013566468842327595,
        0.03672097250819206,
        0.06332719326019287,
        0.0026766087394207716,
        -0.06002233922481537,
        0.020954610779881477,
        -0.02857496216893196,
        -0.1029554232954979,
        0.0481681264936924,
        -0.08275347203016281,
        0.0497715063393116,
        0.0131438709795475,
        -0.11491501331329346,
        0.07645073533058167,
        0.00026474788319319487,
        -0.14743246138095856,
        -0.050128787755966187,
        -0.009175586514174938,
        -0.004798725713044405,
        0.016793400049209595,
        0.031369149684906006,
        0.048348188400268555,
        -0.06999285519123077,
        -0.054987818002700806,
        -0.04709596186876297,
        -0.020929446443915367,
        0.060297977179288864,
        -0.048453375697135925,
        0.060504499822854996,
        0.18237276375293732,
        0.09344308078289032,
        0.06578045338392258,
        -0.09234339743852615,
        0.020561469718813896,
        -0.18197709321975708,
        -0.003918516915291548,
        0.057791296392679214,
        -0.0353061743080616,
        -0.03855186328291893,
        0.027660081163048744,
        -0.144722118973732,
        0.010315528139472008,
        -0.013024268671870232,
        0.03839605674147606,
        0.05099395662546158,
        0.06256396323442459,
        0.03155266121029854,
        -0.03526167944073677,
        -0.04763057827949524,
        -0.0764080211520195,
        -0.016227079555392265,
        -0.054068394005298615,
        -0.011643883772194386,
        0.03901959955692291,
        0.18172352015972137,
        -0.012469065375626087,
        0.08657154440879822,
        0.04215340316295624,
        0.008482535369694233,
        0.04305342584848404,
        -0.13580165803432465,
        0.025226173922419548,
        0.0041490099392831326,
        -0.01592385396361351,
        0.05439266934990883,
        0.027476422488689423,
        -0.1390782594680786,
        -0.038834914565086365,
        0.02537388540804386,
        0.0366954505443573,
        -0.03776556998491287,
        0.039069194346666336,
        -0.11891245096921921,
        0.002770504914224148,
        -0.03679436445236206,
        -0.0835195854306221,
        -0.0030614384450018406,
        -0.06210077926516533,
        -0.01678026095032692,
        -0.030365217477083206,
        -0.0765448808670044,
        0.01748320460319519,
        0.0043480577878654,
        -0.024774903431534767,
        -0.014844912104308605,
        -0.01634925790131092,
        -0.09645389020442963,
        0.1741633117198944,
        -0.007110410835593939,
        0.03274063766002655,
        0.007109879516065121,
        0.008553510531783104,
        0.05200844258069992,
        0.04156172275543213,
        -0.018773213028907776,
        0.07308329641819,
        -0.050772085785865784,
        0.010560009628534317,
        0.022117221727967262,
        0.026711268350481987,
        -0.06113428622484207,
        0.05665396526455879,
        -0.029780188575387,
        0.239053875207901,
        -0.01680118590593338,
        -0.06894614547491074,
        0.007423197850584984,
        -0.07164806872606277,
        0.025832874700427055,
        0.0930156260728836,
        -0.08231225609779358,
        0.010312819853425026,
        0.026750801131129265,
        0.06032458692789078,
        0.019773894920945168,
        -0.014765637926757336,
        0.08790172636508942,
        0.0034959823824465275,
        -0.1170167550444603,
        0.02958812192082405,
        0.0015940142329782248,
        -0.11822780221700668,
        -0.09783657640218735,
        0.040757954120635986,
        0.09772969782352448,
        0.02114170975983143,
        -0.012381359934806824,
        0.09245893359184265,
        -0.05424506962299347,
        0.009148204699158669,
        0.018366841599345207,
        0.08628963679075241,
        -0.040829334408044815,
        -0.11101879179477692,
        -0.006198018789291382,
        0.1776738315820694,
        0.008634842932224274,
        0.03989182785153389,
        -0.022231480106711388,
        -0.03849170729517937,
        -0.04628503695130348,
        0.002075628377497196,
        -0.008813206106424332,
        -0.004518930334597826,
        -0.026447298005223274,
        0.04734005406498909,
        0.02486204169690609,
        0.039018865674734116,
        0.09671471267938614,
        0.010355768725275993,
        -0.04908032342791557,
        -0.08243832737207413,
        -0.014185025356709957,
        -0.11095545440912247,
        -0.10509352385997772,
        -0.05590900406241417,
        0.026799039915204048,
        0.018342141062021255,
        0.017225902527570724,
        0.138027623295784,
        0.02165110968053341,
        -0.011845223605632782,
        -0.021926045417785645,
        -0.032329510897397995,
        -3.3072297810576856e-05,
        -0.12787148356437683,
        0.02237633988261223,
        0.08756420016288757,
        -0.08733238279819489,
        -0.1272762417793274,
        -0.044662170112133026,
        -0.10519738495349884,
        -0.021310700103640556,
        -0.021353960037231445,
        -0.044846732169389725,
        -0.010217655450105667,
        -0.0029483509715646505,
        -0.0586107112467289,
        0.00557243125513196,
        -0.08609025925397873,
        0.09360520541667938,
        0.06103569269180298,
        -0.031478237360715866,
        -0.06836985796689987,
        -0.04854267090559006,
        -0.12957410514354706,
        -0.1397557407617569,
        0.032064519822597504,
        0.13326558470726013,
        -0.0023187173064798117,
        -0.012769784778356552,
        0.01581522822380066,
        0.0010623459238559008,
        0.009042113088071346,
        -0.1493886113166809,
        0.02419687621295452,
        0.07161067426204681,
        0.031069975346326828,
        -0.0015067380154505372,
        -0.03447779268026352,
        -0.21957509219646454,
        -0.002535459352657199,
        0.01610989309847355,
        0.06834197789430618,
        0.03761449083685875,
        0.021599823608994484,
        -0.0021055047400295734,
        0.06535180658102036,
        -0.06105955317616463,
        -0.004624653607606888,
        -0.12589621543884277,
        0.056268803775310516,
        0.017030173912644386,
        -0.10348749160766602,
        -0.02950417809188366,
        0.1277405321598053,
        -0.06887030601501465,
        -0.07569286227226257,
        -6.428128108382225e-05,
        -0.03531273081898689,
        0.04340645298361778,
        -0.05448140203952789,
        0.0003489836526568979,
        -0.014028205536305904,
        -0.04975270852446556,
        -0.05177299678325653,
        -0.029627805575728416,
        -0.051602452993392944,
        0.030226461589336395,
        -0.01377613190561533,
        0.19924293458461761,
        -0.008922934532165527,
        0.04623933508992195,
        0.06131952255964279,
        0.027416635304689407,
        -0.006428551394492388,
        -0.06630460917949677,
        -0.07028913497924805,
        -0.036413826048374176,
        0.044026825577020645,
        0.09704215824604034,
        0.020524704828858376,
        0.04833727702498436,
        -0.011363810859620571,
        0.003976865205913782,
        -0.05601213499903679,
        0.1980048567056656,
        -0.003337582340463996,
        0.06800398230552673,
        0.10194192081689835,
        0.01590457558631897,
        0.021860361099243164,
        -0.012262178584933281,
        -0.004945765249431133,
        -0.07444451749324799,
        -0.008388401009142399,
        0.16486097872257233,
        0.02395242266356945,
        0.06652499735355377,
        0.000322644948028028,
        -0.029314741492271423,
        0.011032508686184883,
        0.14297334849834442,
        0.013975890353322029,
        0.07757411152124405,
        0.06748471409082413,
        -0.0028652010951191187,
        0.040090397000312805,
        -0.11728530377149582,
        -0.04453388601541519,
        -0.02731141448020935,
        0.02305876463651657,
        0.09358903020620346,
        -0.034254465252161026
      ]
    },
    {
      "architecture": "normalization",
      "bias": [
        -0.034378401935100555,
        -0.01505203079432249,
        -0.09281788766384125,
        -0.03777136653661728,
        -0.04935406148433685,
        -0.025030018761754036,
        -0.020199423655867577,
        -0.059386081993579865,
        -0.058814503252506256,
        -0.021868744865059853,
        -0.07964347302913666,
        -0.06731562316417694,
        -0.0714276134967804,
        -0.043174322694540024,
        -0.04869677871465683,
        -0.0677407756447792,
        -0.07335959374904633,
        -0.0548628531396389,
        -0.030458036810159683,
        -0.07086680084466934,
        -0.06666985154151917,
        -0.02140992134809494,
        -0.05495676398277283,
        -0.0787799209356308,
        -0.04911681264638901,
        -0.08026549965143204,
        -0.03936236724257469,
        -0.03057319112122059,
        -0.08791077136993408,
        -0.05265899375081062
      ],
      "weights": [
        11.578630447387695,
        15.964794158935547,
        5.270768165588379,
        10.993825912475586,
        8.990939140319824,
        11.973856925964355,
        13.700461387634277,
        9.134622573852539,
        7.361072540283203,
        15.909104347229004,
        6.116995334625244,
        5.998890399932861,
        7.169454097747803,
        9.003366470336914,
        6.562546730041504,
        7.4841227531433105,
        6.23846435546875,
        7.548189640045166,
        9.271824836730957,
        5.093726634979248,
        7.029115200042725,
        13.659133911132812,
        7.061284065246582,
        6.233038902282715,
        9.562373161315918,
        5.535865306854248,
        8.79916000366211,
        11.900533676147461,
        5.859750747680664,
        8.771988868713379
      ]
    },
    {
      "activation": "rectified",
      "architecture": "dense",
      "bias": [
        0.1009049266576767,
        0.004337173420935869,
        -0.11793693155050278,
        -0.009761135093867779,
        -0.0998009592294693,
        -0.03252032771706581,
        0.0024191667325794697,
        -0.03316958248615265,
        0.0126081807538867,
        -0.05897127091884613,
        -0.05059122294187546,
        -0.0692257508635521,
        0.0488128736615181,
        -0.04908590763807297,
        0.0033017524983733892,
        -0.09524807333946228,
        -0.012698715552687645,
        -0.02628999575972557,
        -0.015499473549425602,
        0.018471062183380127
      ],
      "weights": [
        -0.09219080209732056,
        -0.11191536486148834,
        0.026737993583083153,
        -0.04874582588672638,
        -0.03301819786429405,
        -0.06007828190922737,
        -0.07184398919343948,
        -0.043064117431640625,
        0.005426319316029549,
        -0.16646304726600647,
        -0.09578999131917953,
        0.040617961436510086,
        0.055905524641275406,
        -0.04505348950624466,
        -0.2201755791902542,
        -0.038925651460886,
        -0.04458964243531227,
        0.050417687743902206,
        -0.14095574617385864,
        -0.008936669677495956,
        -0.010348125360906124,
        -0.07299944013357162,
        0.022142451256513596,
        -0.060333430767059326,
        -0.03197304531931877,
        0.052542924880981445,
        -0.15352539718151093,
        0.09551011770963669,
        -0.02659427933394909,
        0.007396267727017403,
        -0.1243806779384613,
        -0.004708738531917334,
        -0.1391185224056244,
        -0.10031072795391083,
        -0.0008628747309558094,
        -0.06680621206760406,
        -0.10900267213582993,
        0.017096422612667084,
        0.014712279662489891,
        -0.06469572335481644,
        -0.04162367433309555,
        -0.12315495312213898,
        0.007314110174775124,
        -0.06374016404151917,
        -0.09246479719877243,
        -0.07161296904087067,
        0.05386071652173996,
        -0.09548485279083252,
        -0.08933756500482559,
        -0.07581824064254761,
        -0.11007145792245865,
        -0.036393433809280396,
        -0.03836774826049805,
        -0.00897748302668333,
        -0.09721595048904419,
        -0.0473252534866333,
        -0.13737522065639496,
        0.043711982667446136,
        0.0656520202755928,
        0.0580679215490818,
        0.014928454533219337,
        0.1150892823934555,
        0.08742686361074448,
        0.03429063782095909,
        -0.01814490184187889,
        0.008411561138927937,
        0.08116129040718079,
        0.005239600781351328,
        -0.09479595720767975,
        0.12988166511058807,
        0.030221592634916306,
        0.009415837936103344,
        0.013598049059510231,
        0.009184700436890125,
        -0.06579329073429108,
        0.12062373012304306,
        -0.005603337660431862,
        -0.021481232717633247,
        -0.020938169211149216,
        -0.03955571725964546,
        -0.041499391198158264,
        -0.029013076797127724,
        0.013682686723768711,
        0.08450281620025635,
        0.062326256185770035,
        0.061175793409347534,
        -0.05214865505695343,
        0.005923458840698004,
        -0.1037801057100296,
        0.03835669904947281,
        -0.020618900656700134,
        -0.029245473444461823,
        -0.05933331325650215,
        -0.12198828160762787,
        0.002317221835255623,
        -0.003225367283448577,
        -0.022454796358942986,
        0.05788082629442215,
        0.0594598650932312,
        -0.04943300038576126,
        -0.06145771965384483,
        -0.1652301549911499,
        0.03420621529221535,
        -0.032643694430589676,
        -0.18265017867088318,
        -0.12146949768066406,
        -0.008159011602401733,
        -0.08595366775989532,
        -0.08803773671388626,
        -0.14467957615852356,
        -0.02875327877700329,
        -0.07774538546800613,
        0.034796297550201416,
        -0.08886747062206268,
        -0.0166682917624712,
        -0.11112778633832932,
        -0.08758383989334106,
        -0.015845945104956627,
        -0.0347701795399189,
        0.02272775024175644,
        0.017193792387843132,
        0.026853984221816063,
        -0.06404546648263931,
        0.053637970238924026,
        -0.05150146782398224,
        0.10700834542512894,
        -0.0032351447734981775,
        -0.019052857533097267,
        -0.011463351547718048,
        -0.0032246566843241453,
        -0.023547014221549034,
        0.0671573281288147,
        0.06243280693888664,
        -0.08534853160381317,
        0.03765586391091347,
        0.07242649793624878,
        -0.05143812298774719,
        -0.009439793415367603,
        -0.047233618795871735,
        -0.03536175191402435,
        -0.009126754477620125,
        0.03917820751667023,
        0.06927989423274994,
        0.03548486530780792,
        -0.00925811193883419,
        -0.024090271443128586,
        -0.0056713600642979145,
        0.024068808183073997,
        0.02395632490515709,
        0.04980846866965294,
        -0.049232106655836105,
        0.0527750700712204,
        -0.10900450497865677,
        0.13336586952209473,
        0.07236117124557495,
        0.05573899671435356,
        0.08597154915332794,
        -0.10663149505853653,
        -0.011632987298071384,
        0.017637107521295547,
        0.040097881108522415,
        0.05615272745490074,
        -0.0910046175122261,
        -0.10860572755336761,
        -0.003539776662364602,
        -0.06060338392853737,
        -0.038954343646764755,
        0.026829944923520088,
        0.02763836830854416,
        0.06275108456611633,
        0.0034059735480695963,
        -0.029749449342489243,
        0.10289876908063889,
        -0.017826538532972336,
        0.010567218996584415,
        -0.1252657026052475,
        0.05283272638916969,
        -0.013090011663734913,
        -0.06350383162498474,
        0.037447985261678696,
        -0.1021338552236557,
        -0.06241081655025482,
        -0.02986670285463333,
        -0.08597429096698761,
        -0.07399480044841766,
        -0.07552861422300339,
        -0.04158787801861763,
        -0.010440430603921413,
        0.02335970848798752,
        -0.046697791665792465,
        -0.08898188918828964,
        -0.07795301079750061,
        0.09181191027164459,
        -0.02396329678595066,
        -0.1872720569372177,
        -0.07304419577121735,
        0.05245333909988403,
        -0.06731604039669037,
        -0.02446254901587963,
        -0.0207984521985054,
        -0.0863150879740715,
        -0.0033658049069344997,
        -0.01539228018373251,
        -0.069601871073246,
        -0.02015785686671734,
        -0.06830349564552307,
        -0.07567126303911209,
        0.09057606756687164,
        -0.03645375743508339,
        0.02951396442949772,
        0.02527528628706932,
        0.09559252113103867,
        0.0868065357208252,
        -0.03638904541730881,
        0.031183265149593353,
        0.028289413079619408,
        0.09059740602970123,
        0.10935623198747635,
        0.11942432075738907,
        0.13472196459770203,
        0.017064707353711128,
        0.07515070587396622,
        0.06757049262523651,
        0.0051195053383708,
        0.042796190828084946,
        0.04401741549372673,
        -0.014777753502130508,
        0.0524740032851696,
        -0.006589348893612623,
        0.04790830984711647,
        0.045779407024383545,
        0.10068707168102264,
        -0.028457829728722572,
        0.09954498708248138,
        0.027867602184414864,
        0.07209006696939468,
        -0.014406714588403702,
        0.04496177285909653,
        0.011202462948858738,
        0.016558421775698662,
        -0.1508902907371521,
        -0.1326507329940796,
        -0.11009598523378372,
        -0.022232385352253914,
        -0.1028289720416069,
        -0.08836139738559723,
        -0.07194226235151291,
        -0.08480774611234665,
        0.04299367591738701,
        -0.016918540000915527,
        -0.06234895437955856,
        -0.08544152975082397,
        0.07273615896701813,
        0.12549124658107758,
        0.07028744369745255,
        -0.05303233116865158,
        0.08630047738552094,
        0.020398851484060287,
        -0.07863720506429672,
        0.03120291419327259,
        -0.09900921583175659,
        -0.02093052677810192,
        -0.019115028902888298,
        0.01679566130042076,
        -0.16004209220409393,
        -0.013013188727200031,
        -0.11033011972904205,
        0.06511880457401276,
        0.03793713450431824,
        0.03377300500869751,
        -0.007990522310137749,
        0.10194192081689835,
        0.0856046974658966,
        0.024878008291125298,
        0.05084674805402756,
        0.13346520066261292,
        -0.14515119791030884,
        0.06621810793876648,
        0.11021669954061508,
        0.08917785435914993,
        0.10875920951366425,
        0.008994385600090027,
        0.0516606904566288,
        -0.07724933326244354,
        0.03888484463095665,
        0.04298824444413185,
        -0.06386314332485199,
        0.07555323094129562,
        0.008569691330194473,
        -0.00552548049017787,
        -0.027395205572247505,
        0.1764080822467804,
        0.014460278674960136,
        0.00433617178350687,
        0.011340692639350891,
        0.04855640232563019,
        -0.07227901369333267,
        0.07510615885257721,
        0.0646454393863678,
        0.07456192374229431,
        0.06127505749464035,
        0.029513061046600342,
        0.01411270909011364,
        0.041643597185611725,
        -0.007128744851797819,
        -0.03590739518404007,
        -0.13594816625118256,
        0.08557524532079697,
        0.03520132601261139,
        0.06541471183300018,
        -0.05219044163823128,
        0.004470737650990486,
        -0.023920435458421707,
        -0.025661304593086243,
        0.06247752159833908,
        0.08890058100223541,
        -0.09496258199214935,
        0.010687973350286484,
        0.012243512086570263,
        -0.006795489229261875,
        0.05826805531978607,
        0.17287679016590118,
        0.08254136145114899,
        -0.00336645869538188,
        -0.007355874869972467,
        0.10415386408567429,
        0.09382472932338715,
        -0.08972760289907455,
        -0.03489154949784279,
        0.037352003157138824,
        0.062016237527132034,
        0.008399692364037037,
        0.02070358768105507,
        0.06176215782761574,
        0.11168023198843002,
        -0.028999410569667816,
        0.04544176533818245,
        0.06605163216590881,
        0.11304949223995209,
        -0.17659668624401093,
        0.009979530237615108,
        0.07197871804237366,
        0.0637613907456398,
        -0.040851254016160965,
        0.03801418095827103,
        0.08585380017757416,
        0.03227786347270012,
        0.08800483494997025,
        0.07832875847816467,
        0.021679122000932693,
        -0.0017359295161440969,
        0.06404289603233337,
        -0.10094355791807175,
        0.039401814341545105,
        0.033314794301986694,
        -0.05080033466219902,
        -0.05857006460428238,
        0.07623013108968735,
        0.06039925664663315,
        0.06477458775043488,
        0.11368738114833832,
        0.10229207575321198,
        0.025338442996144295,
        0.04601103067398071,
        -0.04937048256397247,
        -0.03283348307013512,
        0.09936817735433578,
        0.03137725964188576,
        -0.15027718245983124,
        0.016686970368027687,
        -0.0123428450897336,
        -0.00027332897298038006,
        -0.037898898124694824,
        -0.11184573918581009,
        0.03188410401344299,
        -0.0279618538916111,
        -0.11608321964740753,
        -0.0387723445892334,
        0.013792206533253193,
        -0.07732293754816055,
        -0.0712866559624672,
        -0.02281852439045906,
        -0.06067156419157982,
        0.042305417358875275,
        -0.05884905904531479,
        0.08255506306886673,
        0.1063447967171669,
        -0.1185443177819252,
        -0.028944652527570724,
        -0.08819076418876648,
        -0.027210986241698265,
        0.14121009409427643,
        0.11675891280174255,
        0.010455121286213398,
        -0.07531434297561646,
        0.03183724358677864,
        0.12042077630758286,
        0.07346416264772415,
        0.09335263818502426,
        0.13604792952537537,
        0.03251472860574722,
        0.026154128834605217,
        0.02378731034696102,
        0.020203975960612297,
        -0.03716747835278511,
        0.03641442209482193,
        -0.027602920308709145,
        0.01883431151509285,
        0.011133312247693539,
        0.031032921746373177,
        -0.015133366920053959,
        0.043313127011060715,
        0.018848413601517677,
        0.05369127541780472,
        -0.019318094477057457,
        -0.006991860456764698,
        -0.0448976531624794,
        0.043005798012018204,
        0.06461357325315475,
        0.024111313745379448,
        -0.04875931888818741,
        -0.0231507308781147,
        -0.13106223940849304,
        -0.09399814158678055,
        -0.25419947504997253,
        -0.07279286533594131,
        -0.04423343390226364,
        -0.193935826420784,
        0.05750076100230217,
        -0.039286475628614426,
        0.03951552137732506,
        -0.1130862757563591,
        -0.009301661513745785,
        0.1622011810541153,
        0.07329105585813522,
        -0.04061015322804451,
        0.004295318387448788,
        -0.12081392854452133,
        -0.02675315923988819,
        0.07873237133026123,
        -0.06911852210760117,
        0.04930245131254196,
        -0.1299770474433899,
        0.04818050190806389,
        -0.14730587601661682,
        -0.11753766238689423,
        -0.0706733986735344,
        -0.03893617168068886,
        0.052551668137311935,
        0.04604218155145645,
        0.04488987848162651,
        -0.058346185833215714,
        0.0003407045442145318,
        -0.02716190181672573,
        0.09205587208271027,
        -0.03937523439526558,
        0.0018804314313456416,
        0.03429345414042473,
        0.03012167103588581,
        0.05228767916560173,
        -0.05842762440443039,
        -0.051816679537296295,
        0.04005977883934975,
        0.019970139488577843,
        0.018283851444721222,
        -0.10088182240724564,
        -0.12264534085988998,
        0.07307020574808121,
        0.10038798302412033,
        -0.04526270180940628,
        -0.011021867394447327,
        0.07647646963596344,
        -0.05969824269413948,
        0.14469879865646362,
        -0.10230843722820282,
        -0.0009041527519002557,
        -0.07635073363780975,
        0.03935053572058678,
        0.12444066256284714,
        0.008216695860028267,
        0.10805632919073105,
        -0.09287680685520172,
        0.05068054422736168,
        0.03992706909775734,
        -0.005814676638692617,
        0.014637638814747334,
        0.046606600284576416,
        0.0792052373290062,
        0.0247355867177248,
        -0.08538782596588135,
        -0.03390422835946083,
        -0.031619273126125336,
        0.01291277352720499,
        -0.032303959131240845,
        0.02856922708451748,
        0.06557267904281616,
        -0.02946782484650612,
        0.0822518840432167,
        0.04585687443614006,
        0.07258330285549164,
        -0.00814755354076624,
        -0.03293587267398834,
        -0.03821299225091934,
        0.09424889087677002,
        -0.05044769123196602,
        -0.014092756435275078,
        0.07903754711151123,
        -0.01862228661775589,
        -0.02130470611155033,
        0.015255890786647797,
        0.021263837814331055,
        -0.003954591695219278,
        0.008772263303399086,
        0.01411623414605856,
        0.048159826546907425,
        0.08948025107383728,
        -0.0702669769525528,
        -0.03836057707667351,
        0.058907993137836456,
        0.07851329445838928,
        -0.02007586695253849,
        -0.10193143784999847,
        0.08379858732223511,
        -0.06059395521879196,
        0.019895177334547043,
        -0.1539616584777832,
        -0.014379291795194149,
        0.07862511277198792,
        0.09625160694122314,
        0.06747487187385559,
        0.021657945588231087,
        0.08843837678432465,
        0.01597338728606701,
        0.10064815729856491,
        -0.057286858558654785,
        -0.03666849061846733,
        0.030381858348846436,
        0.05980880558490753,
        0.014839964918792248,
        0.07325110584497452,
        -0.04630724713206291,
        -0.10058599710464478,
        -0.036140747368335724,
        -0.05295242741703987,
        -0.1751662939786911,
        -0.08301694691181183,
        -0.023826662451028824,
        -0.20283275842666626,
        0.05640258267521858,
        0.026731662452220917,
        -0.13533344864845276,
        -0.016217010095715523,
        0.06929159164428711,
        -0.02152494713664055,
        -0.07680995017290115,
        -0.02422642521560192,
        0.001498931786045432,
        -0.07317590713500977,
        -0.014116735197603703,
        0.0066664135083556175,
        -0.1409023255109787,
        0.04539187625050545,
        -0.07926659286022186,
        0.04696708172559738,
        -0.0897243469953537,
        -0.004510454833507538,
        -0.053840719163417816,
        0.06947675347328186,
        0.07312005013227463,
        0.08113358169794083,
        -0.002117455704137683,
        0.027311408892273903,
        -0.020883847028017044,
        0.0348154753446579,
        -0.00900756660848856,
        0.017652351409196854,
        -0.010504767298698425,
        0.12524843215942383,
        -0.016304945573210716,
        0.09652602672576904,
        -0.002812922466546297,
        0.12855011224746704,
        0.08894404768943787,
        0.026697007939219475,
        0.027845310047268867,
        0.05278401076793671,
        0.05798894912004471,
        -0.012323283590376377,
        -0.04595508426427841,
        -0.0017962685087695718,
        -0.01585584692656994,
        0.08768771588802338,
        -0.029598532244563103,
        0.09211304038763046,
        0.0594928041100502,
        -0.022029785439372063,
        0.09392417967319489,
        0.031969103962183,
        -0.04448549449443817,
        0.10502900928258896
      ]
    },
    {
      "activation": "sigmoid",
      "architecture": "dense",
      "bias": [
        0.0187461469322443
      ],
      "weights": [
        0.14244505763053894,
        0.5536079406738281,
        -0.21030694246292114,
        0.20093517005443573,
        -0.02268114872276783,
        -0.4780588746070862,
        0.4323699474334717,
        -0.3850725293159485,
        0.36367470026016235,
        -0.12218061089515686,
        -0.4950653910636902,
        -0.15770505368709564,
        -0.26900866627693176,
        -0.19156618416309357,
        0.32425427436828613,
        -0.10059066116809845,
        -0.1627037078142166,
        -0.28116291761398315,
        0.5146202445030212,
        -0.13618196547031403
      ]
    }
  ],
  "outputs": [
    "ELT"
  ]
}
