{
  "defaults": {},
  "inputs": [
    {
      "name": "met_met",
      "offset": "-68421.4043012",
      "scale": "1.93385199669e-05"
    },
    {
      "name": "jet_pt_3rd_correct",
      "offset": "-24704.2117302",
      "scale": "3.37792191877e-05"
    },
    {
      "name": "event_mll",
      "offset": "-134635.814596",
      "scale": "1.04989072706e-05"
    },
    {
      "name": "ph_HFT_MVA_sel",
      "offset": "-0.747053808771",
      "scale": "4.39956127215"
    },
    {
      "name": "jet_tagWeightBin_leading_correct",
      "offset": "-4.71026461181",
      "scale": "1.60505705713"
    },
    {
      "name": "jet_pt_2nd_correct",
      "offset": "-64358.5883733",
      "scale": "2.31441918154e-05"
    },
    {
      "name": "event_nbjets77",
      "offset": "-1.41064262867",
      "scale": "1.92392032597"
    },
    {
      "name": "jet_pt_1st_correct",
      "offset": "-110933.334105",
      "scale": "1.39351641301e-05"
    },
    {
      "name": "ph_mgammaleptlept_sel",
      "offset": "-240612.897732",
      "scale": "6.84953380577e-06"
    },
    {
      "name": "jet_tagWeightBin_subleading_correct",
      "offset": "-2.46036638558",
      "scale": "0.590400447795"
    }
  ],
  "layers": [
    {
      "activation": "rectified",
      "architecture": "dense",
      "bias": [
        -0.13715200126171112,
        -0.12860478460788727,
        -0.05049404129385948,
        -0.15920238196849823,
        -0.10557601600885391,
        -0.06275474280118942,
        0.17221608757972717,
        -0.21386805176734924,
        -0.15899059176445007,
        -0.12308187782764435,
        -0.12177523970603943,
        -0.22256116569042206,
        -0.155893012881279,
        -0.20667074620723724,
        -0.16802865266799927,
        -0.16147103905677795,
        -0.19229662418365479,
        -0.07659589499235153,
        0.04117283597588539,
        0.11670957505702972,
        -0.19602271914482117,
        0.0007424372597597539,
        -0.2917559742927551,
        -0.21622976660728455,
        -0.08055085688829422,
        -0.2702184319496155,
        -0.13854391872882843,
        -0.1622985452413559,
        -0.17451462149620056,
        -0.13913065195083618
      ],
      "weights": [
        -0.16950537264347076,
        0.0031787515617907047,
        -0.04616221785545349,
        -0.02779589220881462,
        6.877974374219775e-05,
        0.04835660755634308,
        0.06620772927999496,
        0.07909350842237473,
        0.005007304251194,
        -0.1983916312456131,
        0.08818060904741287,
        0.10185065120458603,
        0.0013868283713236451,
        -0.03190993145108223,
        0.10616273432970047,
        -0.19732561707496643,
        -0.028171436861157417,
        -0.11322461813688278,
        0.09812650084495544,
        0.05788341537117958,
        -0.16616672277450562,
        -0.031596653163433075,
        0.18417955935001373,
        -0.023428060114383698,
        0.1254419982433319,
        0.12165709584951401,
        0.054595477879047394,
        -0.08826488256454468,
        -0.0276167169213295,
        -0.059512294828891754,
        -0.2733125388622284,
        0.0008641721797175705,
        -0.10776039212942123,
        0.01169904787093401,
        -0.022246187552809715,
        0.025414345785975456,
        -0.029964758083224297,
        -0.07956965267658234,
        0.059273768216371536,
        0.008870190940797329,
        0.0541369654238224,
        -0.03151821717619896,
        0.05984138324856758,
        -0.07841674983501434,
        -0.06675435602664948,
        0.0871729627251625,
        -0.034141410142183304,
        -0.0004936433397233486,
        0.2072450965642929,
        -0.1295279711484909,
        -0.15801817178726196,
        -0.026897596195340157,
        0.1509029120206833,
        0.21056698262691498,
        0.06301387399435043,
        0.0741550549864769,
        0.06861545145511627,
        -0.017962291836738586,
        0.0013886319939047098,
        0.04018644243478775,
        0.15538184344768524,
        -0.020594840869307518,
        -0.03173121437430382,
        0.15162132680416107,
        0.034182555973529816,
        0.020500387996435165,
        0.07165918499231339,
        -0.028694570064544678,
        -0.048884712159633636,
        -0.0019834910053759813,
        -0.2906007170677185,
        -0.010179649107158184,
        -0.07620207220315933,
        0.003811877453699708,
        -0.026006877422332764,
        0.025926748290657997,
        -0.021374231204390526,
        -0.10355721414089203,
        0.01391558162868023,
        0.0033388063311576843,
        -0.0043648299761116505,
        0.004123643971979618,
        -0.5217658877372742,
        -0.007488859351724386,
        0.0036300579085946083,
        0.010353127494454384,
        0.016950050368905067,
        0.006905009504407644,
        0.004989176522940397,
        -0.01766282506287098,
        -0.01610574685037136,
        -0.03404597193002701,
        0.18713149428367615,
        -0.00869764480739832,
        0.002913922071456909,
        -0.0613698810338974,
        0.03766842186450958,
        -0.04242418333888054,
        -0.26333191990852356,
        -0.012055499479174614,
        -0.14688549935817719,
        -0.07333717495203018,
        0.07857945561408997,
        -0.03461366146802902,
        0.10436495393514633,
        0.14409691095352173,
        -0.06350937485694885,
        -0.09443000704050064,
        -0.05322397127747536,
        0.13727381825447083,
        -0.11584609001874924,
        0.09936497360467911,
        0.09450613707304001,
        0.0008580670109950006,
        0.013073528185486794,
        -0.07501120120286942,
        0.058225538581609726,
        -0.08061203360557556,
        -0.15365003049373627,
        -0.11555086076259613,
        -0.07812201231718063,
        -0.003942836541682482,
        -0.33397796750068665,
        -0.019187597557902336,
        -0.012225939892232418,
        -0.0034836865961551666,
        -0.06272334605455399,
        0.012771463952958584,
        0.02220820263028145,
        -0.060333482921123505,
        -0.05430475249886513,
        -0.015498289838433266,
        0.1543760597705841,
        0.01940762996673584,
        0.051081713289022446,
        -0.0014686851063743234,
        0.012272530235350132,
        0.01081275474280119,
        -0.26650217175483704,
        -0.04656451195478439,
        -0.008215952664613724,
        -0.018094738945364952,
        -0.5705941915512085,
        -0.018916483968496323,
        -0.009683133102953434,
        0.007940436713397503,
        -0.015613294206559658,
        -0.010785666294395924,
        0.006113589741289616,
        0.012080634944140911,
        -0.14654764533042908,
        -0.01691879890859127,
        -0.059984371066093445,
        -0.03960101678967476,
        -0.02946619875729084,
        0.03961292281746864,
        0.019552262499928474,
        0.039390236139297485,
        0.02867567539215088,
        -0.22059999406337738,
        0.15263938903808594,
        -0.06289778649806976,
        -0.23225067555904388,
        0.1291070431470871,
        -0.026982389390468597,
        0.004221220966428518,
        0.021730579435825348,
        -0.02782587520778179,
        -0.04652342572808266,
        0.06703877449035645,
        -0.016791239380836487,
        0.0004887189134024084,
        0.06837054342031479,
        -0.18724346160888672,
        0.07093124091625214,
        -0.0032640965655446053,
        -0.07428889721632004,
        0.16356727480888367,
        0.08345883339643478,
        0.12697160243988037,
        0.12541304528713226,
        0.044965676963329315,
        -0.14000919461250305,
        0.19872131943702698,
        0.0026193945668637753,
        0.02214338630437851,
        0.08866351842880249,
        -0.05257147550582886,
        -0.08172924816608429,
        0.0810512974858284,
        0.08236119896173477,
        0.013353279791772366,
        0.11508995294570923,
        0.11006437987089157,
        0.0051306672394275665,
        0.065065898001194,
        0.09462885558605194,
        -0.0744422897696495,
        -0.21950316429138184,
        0.07692070305347443,
        -0.259747713804245,
        0.0011758417822420597,
        -0.07682950049638748,
        0.0263748187571764,
        0.0016450711991637945,
        0.0011887967120856047,
        0.06978575140237808,
        0.062474675476551056,
        0.011694747023284435,
        -0.02268592081964016,
        0.11724310368299484,
        0.06303829699754715,
        -0.05297878757119179,
        0.22561103105545044,
        -0.04441165179014206,
        0.024444222450256348,
        0.03876421973109245,
        -0.1402326226234436,
        0.010901608504354954,
        0.050482798367738724,
        -0.06234230473637581,
        0.009230921976268291,
        -0.0012509985826909542,
        0.007445012219250202,
        -0.003487605368718505,
        -0.15061992406845093,
        -0.04606989771127701,
        -0.18949706852436066,
        0.004869027994573116,
        0.05779048800468445,
        -0.22987689077854156,
        0.0033472110517323017,
        -0.08141908049583435,
        0.00820461567491293,
        -0.027234099805355072,
        -0.022626034915447235,
        -0.058929670602083206,
        -0.1270277202129364,
        -0.027890723198652267,
        -0.005669400095939636,
        0.04043026641011238,
        -0.09983528405427933,
        -0.06553802639245987,
        0.10307421535253525,
        0.14630724489688873,
        0.11043298244476318,
        0.04033341258764267,
        -0.18718358874320984,
        0.010877305641770363,
        0.11317917704582214,
        -0.15086808800697327,
        -0.017377953976392746,
        0.02791314758360386,
        0.018591320142149925,
        -0.041559793055057526,
        0.08023522794246674,
        0.015837645158171654,
        -0.02985526993870735,
        -0.0007729160133749247,
        -0.10218970477581024,
        0.036176182329654694,
        0.08149994164705276,
        -0.20731624960899353,
        -0.06013493612408638,
        -0.04494047909975052,
        -0.09913380444049835,
        0.065217524766922,
        0.021283021196722984,
        0.14388792216777802,
        -0.052137795835733414,
        -0.01601540669798851,
        -0.0033067772164940834,
        -0.5164464116096497,
        -0.00954605732113123,
        -0.00733105419203639,
        0.017066197469830513,
        0.009787329472601414,
        -0.0014009129954501987,
        0.012876592576503754,
        -0.0026897115167230368,
        -0.2727065086364746,
        -0.008999683894217014,
        -0.11203227192163467,
        0.005912150256335735,
        -0.038641903549432755,
        -0.03434101864695549,
        -0.012591669335961342,
        -0.0016665129223838449,
        0.06399305909872055,
        0.028929905965924263,
        0.024872122332453728,
        0.01220477931201458,
        -0.42887312173843384,
        0.0003785478766076267,
        0.009013892151415348,
        0.0008996569085866213,
        0.015384659171104431,
        0.0012028060154989362,
        -0.009570736438035965,
        0.03303651884198189
      ]
    },
    {
      "architecture": "normalization",
      "bias": [
        -0.03583633154630661,
        -0.04920374974608421,
        -0.07098621875047684,
        -0.0380738340318203,
        -0.10455765575170517,
        -0.11595116555690765,
        -0.15952534973621368,
        -0.02117263153195381,
        -0.07286901772022247,
        -0.02337479591369629,
        -0.03135499358177185,
        -0.009699424728751183,
        -0.046099402010440826,
        -0.006693412084132433,
        -0.06863758713006973,
        -0.0370374396443367,
        -0.025983072817325592,
        -0.0842655822634697,
        -0.11892847716808319,
        -0.14342951774597168,
        -0.026559438556432724,
        -0.09095117449760437,
        -0.0031401156447827816,
        -0.02246967703104019,
        -0.06290064007043839,
        -0.007047416642308235,
        -0.018777715042233467,
        -0.0648469477891922,
        -0.02560308575630188,
        -0.04912256449460983
      ],
      "weights": [
        8.979435920715332,
        10.274055480957031,
        7.001490592956543,
        9.78406810760498,
        4.518160343170166,
        5.72278356552124,
        3.982624053955078,
        11.333761215209961,
        8.315814018249512,
        18.699033737182617,
        10.875990867614746,
        21.044084548950195,
        9.139721870422363,
        29.548709869384766,
        8.221830368041992,
        9.244077682495117,
        9.481083869934082,
        6.266284465789795,
        4.200099468231201,
        4.359591007232666,
        13.267399787902832,
        5.573587894439697,
        25.938650131225586,
        11.890398025512695,
        7.571018218994141,
        21.772924423217773,
        9.658792495727539,
        8.538490295410156,
        12.013761520385742,
        10.635448455810547
      ]
    },
    {
      "activation": "rectified",
      "architecture": "dense",
      "bias": [
        -0.11898557841777802,
        0.09989627450704575,
        -0.06952401995658875,
        -0.23060327768325806,
        -0.23804423213005066,
        -0.06716533750295639,
        -0.028996005654335022,
        0.01153644546866417,
        -0.012188596650958061,
        -0.1991269439458847,
        -0.04763345047831535,
        -0.03484069183468819,
        -0.23242254555225372,
        0.060088615864515305,
        0.0009793916251510382,
        -0.15618392825126648,
        -0.04448668658733368,
        0.010052898898720741,
        -0.1032983735203743,
        0.20967192947864532
      ],
      "weights": [
        0.07086484879255295,
        0.2245960533618927,
        0.07141825556755066,
        0.006320157088339329,
        0.09548965841531754,
        0.1133333146572113,
        -0.37270253896713257,
        -0.02695804089307785,
        0.043437790125608444,
        -0.06135978549718857,
        -0.11206776648759842,
        0.009016376920044422,
        0.04809899255633354,
        0.027554195374250412,
        0.043838292360305786,
        0.16226494312286377,
        -0.2461187243461609,
        0.09837022423744202,
        -0.25197282433509827,
        -0.2255389392375946,
        0.13400733470916748,
        -0.25770577788352966,
        0.08551069349050522,
        0.049778249114751816,
        -0.24138030409812927,
        0.22328588366508484,
        0.04562225937843323,
        0.04909506067633629,
        0.1133413091301918,
        0.06822488456964493,
        -0.030354848131537437,
        -0.003620186587795615,
        -0.3711480498313904,
        0.058991942554712296,
        0.013718174770474434,
        -0.12730368971824646,
        -0.0007000750047154725,
        0.019042573869228363,
        -0.02866453118622303,
        0.2987602949142456,
        0.02747814916074276,
        -0.07749146968126297,
        0.005613274406641722,
        0.22467352449893951,
        -0.04497199505567551,
        0.04197360947728157,
        -0.03723129630088806,
        -0.3739146292209625,
        -0.11412313580513,
        0.005298878066241741,
        -0.13945892453193665,
        0.08592489361763,
        0.2217402309179306,
        0.04325151816010475,
        0.3573058545589447,
        0.08628837019205093,
        -0.11521148681640625,
        -0.03507259115576744,
        -0.024628400802612305,
        -0.10728009790182114,
        -0.04632357507944107,
        -0.30246850848197937,
        0.0196881964802742,
        0.019359737634658813,
        -0.023354174569249153,
        0.006672365125268698,
        -0.09942764043807983,
        0.06565094739198685,
        -0.25585517287254333,
        0.21260160207748413,
        -0.020571574568748474,
        -0.03970683366060257,
        -0.17053592205047607,
        0.1596045196056366,
        -0.2655026614665985,
        -0.03152744472026825,
        0.022513361647725105,
        0.03928831219673157,
        -0.07217710465192795,
        0.02546420320868492,
        0.03301651030778885,
        -0.053340230137109756,
        -0.03392244130373001,
        -0.0016459315083920956,
        -0.05008693411946297,
        -0.03917071595788002,
        -0.23976804316043854,
        -0.3288174569606781,
        0.013651705347001553,
        -0.06943929195404053,
        -0.04219730570912361,
        0.3064517378807068,
        0.25301119685173035,
        -0.007928305305540562,
        0.20181530714035034,
        0.3338502049446106,
        -0.21059249341487885,
        -0.12314718961715698,
        0.0975344255566597,
        0.002979606157168746,
        0.17966647446155548,
        0.09032059460878372,
        0.04418865963816643,
        0.22105088829994202,
        0.08873437345027924,
        -0.033054567873477936,
        -0.22227543592453003,
        0.0004469456325750798,
        -0.19442281126976013,
        -0.08977936953306198,
        -0.008213052526116371,
        -0.40805426239967346,
        0.2869841158390045,
        -0.018005670979619026,
        -0.11794428527355194,
        0.11531774699687958,
        -0.10430977493524551,
        0.1022811159491539,
        -0.003955239430069923,
        0.2208465337753296,
        -0.0026230185758322477,
        0.08399767428636551,
        0.037707265466451645,
        -0.006549605634063482,
        0.13570129871368408,
        0.134904682636261,
        -0.02591521292924881,
        -0.05996806174516678,
        -0.5665391087532043,
        0.029678046703338623,
        -0.016670221462845802,
        0.032179392874240875,
        -0.26818734407424927,
        0.10574690997600555,
        -0.47398531436920166,
        0.017906704917550087,
        -0.0833406150341034,
        -0.08071520924568176,
        -0.08225458860397339,
        -0.009720701724290848,
        -0.011494745500385761,
        0.02051520347595215,
        0.07411845028400421,
        -0.0113188112154603,
        -0.035970717668533325,
        0.03628426417708397,
        -0.03079320304095745,
        -0.5578930377960205,
        -0.031441446393728256,
        -0.36246001720428467,
        -0.3577306270599365,
        0.19146116077899933,
        -0.023246224969625473,
        -0.27741739153862,
        0.01326523907482624,
        -0.04366150498390198,
        -0.005203427746891975,
        -0.3590562045574188,
        0.049669791013002396,
        0.09647665172815323,
        -0.029190540313720703,
        -0.10855384916067123,
        -0.05460771918296814,
        -0.11709030717611313,
        0.03233521059155464,
        -0.2639527916908264,
        -0.039405807852745056,
        0.02838169038295746,
        0.005871083587408066,
        0.039917513728141785,
        -0.23074424266815186,
        0.04084274172782898,
        -0.1091490089893341,
        -0.31426215171813965,
        0.10268767178058624,
        -0.08724803477525711,
        -0.022039221599698067,
        -0.06684388965368271,
        -0.3051719069480896,
        -0.050441574305295944,
        -0.22249656915664673,
        0.15730033814907074,
        -0.03867011517286301,
        -0.29201042652130127,
        0.06466741114854813,
        0.055038947612047195,
        -0.029015684500336647,
        -0.41952452063560486,
        -0.16571560502052307,
        0.20498858392238617,
        -0.05199199169874191,
        -0.07327575981616974,
        -0.27120473980903625,
        -0.053369320929050446,
        0.013048747554421425,
        -0.07061958312988281,
        -0.020161814987659454,
        0.03219161927700043,
        0.011807161383330822,
        0.06270718574523926,
        -0.05407029762864113,
        0.1693994402885437,
        -0.10572939366102219,
        -0.2803995609283447,
        0.11412735283374786,
        -0.09657203406095505,
        0.06066860258579254,
        0.02260589972138405,
        -0.12010696530342102,
        -0.006127514410763979,
        -0.10539021342992783,
        0.1357116550207138,
        -0.14644619822502136,
        -0.12928470969200134,
        -0.1645907759666443,
        -0.18286509811878204,
        0.0005673462874256074,
        -0.22562715411186218,
        -0.012675978243350983,
        -0.08746002614498138,
        -0.025856174528598785,
        -0.206532284617424,
        0.08566952496767044,
        -0.14521771669387817,
        0.02274411916732788,
        -0.0643640011548996,
        0.05832871422171593,
        -0.1812860667705536,
        -0.06575914472341537,
        -0.05634428933262825,
        -0.391061395406723,
        -0.04639478027820587,
        -0.10101654380559921,
        -0.2597801685333252,
        0.04232464358210564,
        -0.18047626316547394,
        -0.1464264839887619,
        0.029985995963215828,
        -0.35425910353660583,
        0.01430788915604353,
        0.10795828700065613,
        0.1093018427491188,
        -0.2554009258747101,
        0.009771532379090786,
        -0.09864980727434158,
        -0.220440074801445,
        -0.058036889880895615,
        0.047615040093660355,
        -0.009620332159101963,
        0.11530989408493042,
        -0.260513037443161,
        0.002444495912641287,
        0.05170425772666931,
        0.10374978929758072,
        0.008031823672354221,
        0.07340613752603531,
        -0.3288607597351074,
        0.16269148886203766,
        -0.25495314598083496,
        -0.13303762674331665,
        0.03032775968313217,
        -0.18093489110469818,
        -0.2173672616481781,
        0.01836230978369713,
        -0.25909778475761414,
        0.0024588012602180243,
        -0.028663793578743935,
        0.018372176215052605,
        0.018890414386987686,
        -0.01298556663095951,
        0.01647004298865795,
        0.08623972535133362,
        -0.001516754855401814,
        -0.028860943391919136,
        0.08795928210020065,
        0.07863399386405945,
        0.001986169721931219,
        -0.045244693756103516,
        -0.4240047037601471,
        -0.0045762695372104645,
        -0.05574873089790344,
        -0.02050122804939747,
        -0.2324226200580597,
        0.08624810725450516,
        -0.43327829241752625,
        0.06417395919561386,
        -0.0199113842099905,
        -0.1050899401307106,
        -0.04693683236837387,
        -0.07860543578863144,
        -0.022519564256072044,
        -0.0311430674046278,
        0.07727815955877304,
        -0.001390253659337759,
        0.006071724928915501,
        0.10219690203666687,
        -0.053741808980703354,
        -0.4715932607650757,
        -0.05766930431127548,
        -0.12835711240768433,
        0.01312138419598341,
        -0.04126453027129173,
        -0.10018519312143326,
        0.005562706850469112,
        -0.28735876083374023,
        -0.23627007007598877,
        0.18007905781269073,
        0.0028750791680067778,
        0.22831152379512787,
        -0.18325649201869965,
        -0.06356384605169296,
        -0.34068024158477783,
        0.15540634095668793,
        -0.3213782012462616,
        0.21147067844867706,
        0.05086830258369446,
        0.12340095639228821,
        0.04825720563530922,
        0.026744142174720764,
        -0.03771216422319412,
        -0.02654889039695263,
        -0.04217509552836418,
        -0.27263200283050537,
        -0.11653842777013779,
        0.10688912868499756,
        0.13363675773143768,
        -0.06313302367925644,
        0.22566275298595428,
        0.008227059617638588,
        0.15951524674892426,
        0.06826889514923096,
        -0.024957995861768723,
        0.04195001721382141,
        -0.054309967905282974,
        0.0632486641407013,
        0.019517114385962486,
        -0.06564471870660782,
        -0.0394611582159996,
        -0.11494740098714828,
        0.07759088277816772,
        0.004977340344339609,
        -0.11146555840969086,
        -0.1595059037208557,
        0.1369054913520813,
        -0.22464266419410706,
        0.09891387075185776,
        -0.08645566552877426,
        0.01955842226743698,
        -0.09455852955579758,
        -0.0807097852230072,
        -0.038079749792814255,
        0.10237891227006912,
        -0.12189938873052597,
        -0.011131677776575089,
        -0.0491221584379673,
        0.0004695497336797416,
        -0.004635101184248924,
        -0.21189069747924805,
        -0.144645556807518,
        0.17367607355117798,
        0.040565699338912964,
        0.0609942227602005,
        0.013332723639905453,
        -0.02457170933485031,
        0.12018170952796936,
        0.08698856085538864,
        0.029636112973093987,
        -0.03737553581595421,
        -0.44743281602859497,
        -0.006006566341966391,
        0.0026738643646240234,
        0.043812159448862076,
        -0.18379902839660645,
        0.11782017350196838,
        -0.46374934911727905,
        0.029165595769882202,
        -0.07389375567436218,
        -0.0847771093249321,
        -0.07181905955076218,
        -0.019646186381578445,
        -0.022444574162364006,
        0.008281928487122059,
        0.08195632696151733,
        -0.022875025868415833,
        -0.0033317427150905132,
        0.030286690220236778,
        -0.05174192786216736,
        -0.4851202964782715,
        -0.03249737620353699,
        -0.34300607442855835,
        0.0054688043892383575,
        0.06343287974596024,
        -0.029573611915111542,
        0.035470228642225266,
        0.05307183414697647,
        -0.05280221998691559,
        -0.04498188570141792,
        0.08480431884527206,
        -0.18361371755599976,
        -0.005778402555733919,
        -0.37122511863708496,
        0.05881023779511452,
        -0.05614931136369705,
        0.18351858854293823,
        -0.11248710751533508,
        0.004556004423648119,
        -0.19681821763515472,
        -0.4529969394207001,
        -0.1833832859992981,
        -0.19389855861663818,
        -0.05297299101948738,
        -0.010659202001988888,
        0.23688872158527374,
        -0.005313419736921787,
        -0.14477376639842987,
        0.08979548513889313,
        -0.07570764422416687,
        -0.13170020282268524,
        0.011859613470733166,
        -0.2977277934551239,
        0.09525599330663681,
        -0.10022140294313431,
        -0.3835494816303253,
        -0.017210938036441803,
        0.10941553860902786,
        -0.08657484501600266,
        -0.05064510554075241,
        0.04058494046330452,
        0.055140890181064606,
        0.09447965770959854,
        -0.3009442090988159,
        0.05303783342242241,
        0.0034979023039340973,
        0.2809695601463318,
        0.018251337110996246,
        0.07500273734331131,
        -0.34609755873680115,
        -0.14612671732902527,
        -0.11533615738153458,
        -0.023310644552111626,
        -0.005337503273040056,
        -0.06561543047428131,
        -0.02143283188343048,
        0.011565079912543297,
        -0.26231849193573,
        0.09110201895236969,
        0.0722135528922081,
        0.051598429679870605,
        -0.009028102271258831,
        -0.10824204981327057,
        0.017346717417240143,
        0.0219887662678957,
        0.08398858457803726,
        -0.012635140679776669,
        0.07578451186418533,
        0.12156809121370316,
        -0.052361853420734406,
        0.02401443012058735,
        -0.48085546493530273,
        0.11876335740089417,
        0.03984370082616806,
        0.06461703777313232,
        -0.2503580152988434,
        0.23267672955989838,
        -0.3920471668243408,
        0.02232925035059452,
        -0.06843613088130951,
        -0.0265662781894207,
        -0.04816388711333275,
        -0.12680836021900177,
        0.04247213900089264,
        0.045440297573804855,
        0.0253133624792099,
        0.006367985624819994,
        -0.04134054481983185,
        -0.013391867280006409,
        -0.07749641686677933,
        -0.48586976528167725,
        -0.01948319561779499,
        -0.4231463372707367,
        0.027893053367733955,
        0.1978003829717636,
        0.0435916967689991,
        -0.1998150646686554,
        0.0061648632399737835,
        0.10674384981393814,
        -0.09815859794616699,
        -0.11734820157289505,
        -0.03728441148996353,
        -0.2713850736618042,
        -0.056871023029088974,
        -0.190003901720047,
        0.018227558583021164,
        -0.023251159116625786,
        -0.03203454613685608,
        0.0927758514881134,
        -0.20666156709194183,
        -0.10140839964151382,
        -0.2465454339981079,
        -0.277975857257843,
        -0.03037913702428341,
        -0.24035736918449402,
        0.034751806408166885,
        -0.1407763510942459,
        -0.2919257879257202,
        0.1621951162815094,
        -0.05452125519514084,
        -0.04357261210680008,
        0.11221140623092651,
        -0.23701916635036469,
        0.019245510920882225,
        -0.1609327793121338,
        -0.04283444210886955,
        -0.23708558082580566,
        -0.1609353870153427,
        -0.1568056344985962,
        -0.0460374616086483,
        -0.3103064000606537,
        -0.021605951711535454,
        0.02647334896028042,
        0.06184257194399834,
        -0.19414322078227997,
        0.07183272391557693,
        -0.12943460047245026,
        -0.013506853953003883,
        -0.03357268124818802,
        0.07523240894079208,
        -0.09079725295305252,
        -0.02646167390048504,
        -0.10434790700674057,
        -0.34703001379966736,
        -0.06684897840023041,
        -0.09088795632123947,
        -0.24594561755657196,
        0.05099634826183319,
        -0.2050282210111618,
        -0.09127487242221832,
        0.02621951326727867,
        -0.30386674404144287,
        0.027710556983947754,
        -0.28411397337913513,
        -0.0800459235906601,
        0.06943046301603317,
        -0.3157455623149872,
        -0.11218340694904327,
        -0.023638859391212463,
        0.01870310679078102,
        -0.3539929986000061,
        -0.010205843485891819,
        0.16828139126300812,
        -0.023624436929821968,
        -0.12953674793243408,
        -0.29892104864120483,
        -0.02194938249886036,
        -0.06359363347291946,
        -0.11510244011878967,
        -0.006376872304826975,
        0.08918861299753189,
        0.05618269369006157,
        0.10835092514753342,
        -0.036021243780851364,
        0.09029883146286011,
        -0.10592737793922424,
        -0.24235190451145172,
        0.06805802136659622,
        -0.09931333363056183,
        -0.21284790337085724,
        -0.03710537403821945,
        -0.11300315707921982,
        -7.468680996680632e-05,
        -0.014962567947804928,
        0.10473746061325073,
        -0.018242336809635162,
        0.05103594809770584,
        0.06414724141359329,
        0.05412249267101288,
        -0.10637477785348892,
        0.015525713562965393,
        -0.23771916329860687,
        -0.17931678891181946,
        -0.2252650409936905,
        -0.22167249023914337,
        -0.1266215443611145,
        -0.06774786859750748,
        -0.20550040900707245,
        0.1320963054895401,
        -0.31239384412765503,
        -0.4148704707622528,
        -0.24712404608726501,
        -0.346175879240036,
        0.11962142586708069,
        0.04864699766039848,
        0.2545749843120575,
        0.008967270143330097,
        -0.11164510250091553,
        0.15604627132415771,
        -0.062231115996837616,
        -0.24771787226200104,
        0.04824307560920715,
        -0.5058349370956421
      ]
    },
    {
      "activation": "sigmoid",
      "architecture": "dense",
      "bias": [
        -0.03388161212205887
      ],
      "weights": [
        -0.6734479069709778,
        -0.6800686120986938,
        0.5372450947761536,
        -0.5009952187538147,
        0.5729882717132568,
        0.7064837217330933,
        0.5076372027397156,
        0.6492656469345093,
        -0.6456327438354492,
        0.5863167643547058,
        0.537231981754303,
        0.3559160828590393,
        0.9156026244163513,
        -0.7697990536689758,
        -0.5627298355102539,
        0.9152876734733582,
        -0.4309183955192566,
        0.6084256172180176,
        0.6537812948226929,
        -0.46261781454086304
      ]
    }
  ],
  "outputs": [
    "ELT"
  ]
}
