{
  "defaults": {},
  "inputs": [
    {
      "name": "met_met",
      "offset": "-64575.9334623",
      "scale": "2.00401911264e-05"
    },
    {
      "name": "jet_pt_3rd_correct",
      "offset": "-48267.5247222",
      "scale": "3.79745708178e-05"
    },
    {
      "name": "jet_pt_4th_correct",
      "offset": "-38854.6767099",
      "scale": "5.50258063314e-05"
    },
    {
      "name": "ph_HFT_MVA_sel",
      "offset": "-0.736420620683",
      "scale": "4.30491866333"
    },
    {
      "name": "event_HT",
      "offset": "-337907.131639",
      "scale": "5.36031614612e-06"
    },
    {
      "name": "jet_tagWeightBin_leading_correct",
      "offset": "-4.65688829413",
      "scale": "1.49670564023"
    },
    {
      "name": "jet_tagWeightBin_subsubleading_correct",
      "offset": "-1.12593323003",
      "scale": "1.88712058373"
    },
    {
      "name": "ph_mgammalept_sel",
      "offset": "-113394.025576",
      "scale": "1.12833353023e-05"
    },
    {
      "name": "jet_pt_2nd_correct",
      "offset": "-68808.2937631",
      "scale": "2.0682474634e-05"
    },
    {
      "name": "jet_pt_5th_correct",
      "offset": "-34059.7467775",
      "scale": "7.69950561799e-05"
    },
    {
      "name": "event_mwt",
      "offset": "-81610.1477807",
      "scale": "1.65468200269e-05"
    },
    {
      "name": "event_nbjets77",
      "offset": "-1.36698830821",
      "scale": "1.88441040884"
    },
    {
      "name": "jet_pt_1st_correct",
      "offset": "-109754.252539",
      "scale": "1.31124773062e-05"
    },
    {
      "name": "event_njets",
      "offset": "-2.95967741935",
      "scale": "0.659410608885"
    },
    {
      "name": "jet_tagWeightBin_subleading_correct",
      "offset": "-2.45721228342",
      "scale": "0.596534088961"
    }
  ],
  "layers": [
    {
      "activation": "rectified",
      "architecture": "dense",
      "bias": [
        -0.10438894480466843,
        -0.12941353023052216,
        -0.2651780843734741,
        -0.30724483728408813,
        -0.15854817628860474,
        -0.17184196412563324,
        -0.2011730819940567,
        -0.2936911880970001,
        -0.042167533189058304,
        0.033115144819021225,
        -0.14274582266807556,
        -0.05825429782271385,
        -0.280148983001709,
        -0.2743680477142334,
        -0.07851783186197281,
        -0.3287125527858734,
        -0.12338236719369888,
        -0.08658396452665329,
        -0.3268265724182129,
        -0.24572382867336273,
        -0.09619180113077164,
        -0.471750944852829,
        -0.10441470146179199,
        -0.12194045633077621,
        0.09089157730340958,
        -0.3048935830593109,
        -0.08926968276500702,
        -0.22303417325019836,
        -0.3070734739303589,
        -0.2820475101470947
      ],
      "weights": [
        -0.004756610840559006,
        0.06932628899812698,
        0.02384170889854431,
        -0.013391402550041676,
        -0.2993731200695038,
        -0.033247269690036774,
        -0.017692111432552338,
        0.02612958662211895,
        0.0606793537735939,
        -0.0005356055917218328,
        0.01785028912127018,
        0.024641001597046852,
        0.08818472921848297,
        0.2490963339805603,
        -0.0037630635779350996,
        0.08360231667757034,
        0.09596209973096848,
        0.049186769872903824,
        0.18077293038368225,
        0.05501236766576767,
        0.1311480849981308,
        -0.11065267026424408,
        0.028948187828063965,
        -0.062473151832818985,
        -0.042286891490221024,
        -0.03433295339345932,
        -0.053593605756759644,
        -0.10454282909631729,
        -0.07238028943538666,
        0.05124882236123085,
        -0.18246029317378998,
        0.012289046309888363,
        -0.058144696056842804,
        0.002882721833884716,
        -0.12802070379257202,
        -0.04399433359503746,
        -0.028119832277297974,
        -0.14940738677978516,
        0.02496492490172386,
        -0.07766970992088318,
        -0.06568114459514618,
        0.014671566896140575,
        0.04597588628530502,
        0.04219590872526169,
        -0.08876684308052063,
        -0.18604058027267456,
        -0.10403018444776535,
        0.012873624451458454,
        0.008631168864667416,
        -0.06813066452741623,
        -0.011162553913891315,
        -0.0625871941447258,
        0.029852092266082764,
        -0.08882708847522736,
        -0.003285556100308895,
        0.04783286526799202,
        -0.015920458361506462,
        -0.025877738371491432,
        -0.061448387801647186,
        0.00032748375087976456,
        -0.13183781504631042,
        0.023822063580155373,
        0.02226770669221878,
        -0.01145998202264309,
        -0.2574235498905182,
        0.007066032849252224,
        -0.05717488378286362,
        0.019177760928869247,
        0.06369058787822723,
        0.021733224391937256,
        0.12386834621429443,
        0.03886623680591583,
        0.1015942171216011,
        0.13828270137310028,
        -0.028329934924840927,
        -0.359834760427475,
        0.029215171933174133,
        0.011895164847373962,
        -0.002434213412925601,
        -0.03619043901562691,
        -0.05893576145172119,
        -0.03804677352309227,
        0.04320576414465904,
        -0.0421735905110836,
        0.0031542214564979076,
        0.09124668687582016,
        -0.009065012447535992,
        0.09804508090019226,
        0.07956872135400772,
        -0.09074033051729202,
        0.2070375233888626,
        0.03787726163864136,
        0.05969582870602608,
        -0.011019863188266754,
        -0.08367525041103363,
        -0.05250279977917671,
        -0.0449758842587471,
        -0.06601130962371826,
        0.046794626861810684,
        0.009082523174583912,
        0.018818821758031845,
        0.013338737189769745,
        0.037937868386507034,
        -0.17501595616340637,
        0.096227265894413,
        -0.20556209981441498,
        -0.02835828810930252,
        0.02081935480237007,
        0.00837019830942154,
        -0.18663012981414795,
        -0.03146218881011009,
        -0.0046149808913469315,
        0.021525371819734573,
        -0.03135763481259346,
        0.0060374122112989426,
        0.028973013162612915,
        0.01775132305920124,
        -0.002415961353108287,
        -0.08217280358076096,
        -0.04329945892095566,
        0.06301616132259369,
        0.02646569535136223,
        -0.07928687334060669,
        0.0846433937549591,
        0.17643071711063385,
        0.09388419985771179,
        -0.007536815479397774,
        -0.1282072812318802,
        0.018899841234087944,
        0.044007815420627594,
        0.004979892633855343,
        0.10343237221240997,
        -0.1393837183713913,
        -0.09685175865888596,
        0.03131832927465439,
        0.2959635853767395,
        0.0044157314114272594,
        -0.0028605905827134848,
        0.024546870961785316,
        0.03280188888311386,
        -0.021422484889626503,
        -0.05149317905306816,
        -0.030274035409092903,
        -0.1687045693397522,
        0.023353518918156624,
        -0.0026669111102819443,
        0.08569206297397614,
        0.004892806056886911,
        -0.1103203296661377,
        0.019170045852661133,
        0.026720870286226273,
        0.02026785910129547,
        0.021741027012467384,
        -0.030727393925189972,
        -0.3002983033657074,
        0.018247734755277634,
        0.005230879411101341,
        0.04879932105541229,
        0.06307167559862137,
        -0.011204362846910954,
        -0.014073488302528858,
        0.01512665580958128,
        0.1490846425294876,
        0.1861458420753479,
        -0.00024104936164803803,
        -0.08627139776945114,
        0.07779624313116074,
        0.023561954498291016,
        -0.0013944010715931654,
        -0.12627525627613068,
        -0.03523876145482063,
        0.000377779477275908,
        -0.024473758414387703,
        0.03232709318399429,
        -0.016169993206858635,
        -0.02768229879438877,
        0.03299678489565849,
        0.14760561287403107,
        0.34610769152641296,
        -0.056633107364177704,
        -0.07851391285657883,
        -0.012845858000218868,
        -0.0344775952398777,
        -0.0054268562234938145,
        -0.1579463630914688,
        0.006500637158751488,
        -0.09010972082614899,
        -0.11806346476078033,
        0.017881199717521667,
        -0.13467323780059814,
        0.028021713718771935,
        0.01922023668885231,
        0.016053788363933563,
        0.02755090408027172,
        -0.019215470179915428,
        0.016147980466485023,
        0.021303148940205574,
        -0.06208806112408638,
        0.003143453970551491,
        0.19007235765457153,
        -0.010014792904257774,
        -0.0030086112674325705,
        -0.07427907735109329,
        -0.0792713612318039,
        -0.09854158759117126,
        0.02278888411819935,
        -0.05650134012103081,
        -0.07958752661943436,
        0.21503838896751404,
        0.05859959498047829,
        0.02265721932053566,
        -0.17637944221496582,
        0.15667350590229034,
        0.10603702068328857,
        0.09673961251974106,
        0.09644367545843124,
        0.022361058741807938,
        0.032421451061964035,
        -0.018099289387464523,
        0.04744575917720795,
        0.014398080296814442,
        0.10220126062631607,
        -0.04547511041164398,
        -0.19606579840183258,
        -0.032939258962869644,
        -0.13774892687797546,
        0.011083048768341541,
        -0.03354759141802788,
        0.008478816598653793,
        0.058805037289857864,
        -0.035942427814006805,
        -0.06369362026453018,
        0.00159854581579566,
        -0.042954668402671814,
        -0.16992700099945068,
        0.006508973427116871,
        0.02843751385807991,
        0.03165043145418167,
        -0.0027902040164917707,
        -0.06709011644124985,
        0.05345114693045616,
        -0.06993132084608078,
        -0.04111650213599205,
        -0.00874506589025259,
        0.2768760919570923,
        0.051652051508426666,
        0.0035191120114177465,
        -0.17217333614826202,
        -0.054017871618270874,
        0.006590419448912144,
        -0.0351361446082592,
        0.0029997238889336586,
        -0.13075393438339233,
        -0.025858502835035324,
        0.035682838410139084,
        0.03725115582346916,
        0.02987052872776985,
        -0.0034127035178244114,
        0.022061578929424286,
        0.28143423795700073,
        0.03081350401043892,
        0.029462696984410286,
        -0.058217015117406845,
        -0.22903886437416077,
        -0.03134522959589958,
        -0.04149121418595314,
        -0.02899756096303463,
        -0.16502606868743896,
        0.016284208744764328,
        0.038891229778528214,
        -0.07249927520751953,
        -0.05720003694295883,
        -0.050247929990291595,
        -0.0397510752081871,
        0.035604748874902725,
        -0.031281836330890656,
        -0.08343163132667542,
        0.03995935991406441,
        -0.12160749733448029,
        -0.17860901355743408,
        0.0037126566749066114,
        0.03403538838028908,
        0.05435541644692421,
        -0.10917211323976517,
        -0.09842559695243835,
        -0.29297080636024475,
        0.016191130504012108,
        -0.015564178116619587,
        -0.009736985899508,
        -0.035421960055828094,
        -0.06757358461618423,
        -0.03885948285460472,
        0.057704050093889236,
        0.045197490602731705,
        -0.0034734923392534256,
        0.009249996393918991,
        -0.06264857947826385,
        0.07749949395656586,
        0.01973991096019745,
        -0.09258510917425156,
        -0.003933962434530258,
        0.03760835528373718,
        0.026840755715966225,
        -0.020741773769259453,
        -0.28088927268981934,
        -0.007957938127219677,
        0.010300716385245323,
        0.021417783573269844,
        0.07865656912326813,
        0.00799388438463211,
        -0.010930814780294895,
        0.002236125525087118,
        0.12507034838199615,
        0.2380838841199875,
        -0.017182031646370888,
        0.08787506073713303,
        0.038682129234075546,
        0.09038588404655457,
        0.014764701016247272,
        0.009424465708434582,
        -0.053324561566114426,
        -0.07559669762849808,
        -0.17066249251365662,
        0.054588351398706436,
        -0.017025643959641457,
        -0.011461385525763035,
        -0.005630866624414921,
        -0.15282849967479706,
        -0.050799012184143066,
        0.04982689395546913,
        -0.04365392401814461,
        0.046795204281806946,
        0.027202589437365532,
        0.007979749701917171,
        -0.3211539685726166,
        -0.00067173718707636,
        0.008982889354228973,
        0.036775317043066025,
        0.06420669704675674,
        0.008847009390592575,
        0.05669266730546951,
        0.013370702974498272,
        0.14110952615737915,
        0.24973474442958832,
        -0.015940841287374496,
        0.004679190926253796,
        0.0356794148683548,
        0.015059848316013813,
        0.004745916463434696,
        -0.30236655473709106,
        0.0014573547523468733,
        0.009994609281420708,
        0.01996784470975399,
        0.06044597923755646,
        0.00956867914646864,
        -0.003555614035576582,
        -0.0033469521440565586,
        0.12873591482639313,
        0.21008972823619843,
        0.007136068306863308,
        0.16578619182109833,
        0.03371823951601982,
        -0.056770894676446915,
        -0.04724029451608658,
        0.2083461582660675,
        0.027318200096488,
        -0.13582481443881989,
        -0.043382056057453156,
        -0.07854447513818741,
        0.013235432095825672,
        -0.016319340094923973,
        0.046541616320610046,
        -0.05895862728357315,
        -0.09827515482902527,
        0.04890071228146553,
        -0.18963348865509033,
        -0.020244069397449493,
        0.006466515827924013,
        0.004702632315456867,
        -0.1922677904367447,
        0.007904975675046444,
        0.006918972823768854,
        -0.047931116074323654,
        -0.049124717712402344,
        -0.04154599457979202,
        0.05437338724732399,
        0.007515966892242432,
        0.02183796465396881,
        -0.05165397748351097,
        -0.03097553364932537,
        0.09729935228824615,
        0.02411016635596752,
        0.07155902683734894,
        0.22332097589969635,
        0.11463765799999237,
        0.11318506300449371,
        0.009509507566690445,
        0.03340480849146843,
        0.00024316716007888317,
        0.0007627548766322434,
        -0.013190856203436852,
        -0.05812292918562889,
        -0.1433189958333969,
        -0.10170941799879074,
        0.05855659022927284,
        0.015080949291586876,
        0.07827390730381012,
        0.07112404704093933,
        -0.0984729528427124,
        0.14928223192691803,
        0.05321634188294411,
        0.07751826196908951,
        -0.15421992540359497,
        -0.008783657103776932,
        -0.04642518237233162,
        0.0328843891620636,
        -0.04316717013716698,
        -0.05112186074256897,
        -0.1009954959154129,
        0.09729339927434921,
        0.09868425875902176,
        0.02839074283838272,
        0.14663361012935638,
        0.04316147416830063,
        0.15724729001522064,
        -0.03988468274474144,
        0.009174453094601631,
        -0.29264113306999207,
        0.028498835861682892,
        -0.04852879047393799,
        0.008789308369159698,
        0.08534329384565353,
        -0.1519254595041275,
        -0.002972893649712205,
        0.05416098237037659,
        -0.15344475209712982,
        0.021068673580884933,
        -0.050611939281225204,
        -0.008642536588013172,
        0.05008719861507416,
        -0.02107291668653488,
        0.02307181991636753,
        0.0627279058098793,
        -0.014578787609934807,
        -0.10458166152238846,
        0.03886088728904724,
        0.011909384280443192,
        -0.04278450831770897,
        -0.11158311367034912,
        -0.08201343566179276
      ]
    },
    {
      "architecture": "normalization",
      "bias": [
        -0.044157106429338455,
        -0.07151150703430176,
        -0.017147686332464218,
        -0.015664322301745415,
        -0.003127697855234146,
        -0.05936150997877121,
        -0.05434677004814148,
        -0.02197364717721939,
        -0.08988379687070847,
        -0.1552542746067047,
        -0.011794365011155605,
        -0.14763493835926056,
        -0.004398850258439779,
        -0.03958378732204437,
        -0.1049526035785675,
        0.0021419674158096313,
        -0.027293482795357704,
        -0.030962925404310226,
        -0.026935044676065445,
        -0.030099820345640182,
        -0.037208400666713715,
        -0.005235826130956411,
        -0.04695020988583565,
        -0.020984947681427002,
        -0.15680938959121704,
        -0.01308332197368145,
        -0.09962154179811478,
        -0.045206956565380096,
        -0.04796195775270462,
        -0.009569143876433372
      ],
      "weights": [
        10.612203598022461,
        7.945147514343262,
        11.665976524353027,
        16.68442726135254,
        25.499347686767578,
        7.596359729766846,
        7.506133079528809,
        13.562310218811035,
        5.746426105499268,
        4.456629753112793,
        16.526336669921875,
        4.486530780792236,
        15.772440910339355,
        10.837542533874512,
        7.1342620849609375,
        17.90592384338379,
        16.181364059448242,
        12.50744342803955,
        11.018186569213867,
        9.120317459106445,
        10.012022018432617,
        28.2517147064209,
        11.025331497192383,
        15.414905548095703,
        4.766152858734131,
        16.105388641357422,
        6.626554012298584,
        9.26366138458252,
        8.290273666381836,
        13.49373722076416
      ]
    },
    {
      "activation": "rectified",
      "architecture": "dense",
      "bias": [
        0.13171245157718658,
        0.18799735605716705,
        0.09600446373224258,
        -0.11493706703186035,
        0.16089899837970734,
        0.09927526116371155,
        0.03150526061654091,
        -0.09613897651433945,
        -0.015525716356933117,
        0.021090848371386528,
        0.17130859196186066,
        0.13289780914783478,
        0.17710009217262268,
        0.12852910161018372,
        0.02316461317241192,
        0.10001929104328156,
        -0.08312653750181198,
        -0.09787622094154358,
        0.0818016454577446,
        0.08369231224060059
      ],
      "weights": [
        -0.11407063901424408,
        -0.06396283209323883,
        0.1267969012260437,
        -0.009543629363179207,
        0.14975954592227936,
        -0.06519591808319092,
        -0.02166733145713806,
        0.004410029388964176,
        -0.0675482228398323,
        0.17520105838775635,
        0.126250758767128,
        -0.09523691236972809,
        0.2805235683917999,
        0.037674859166145325,
        -0.32817724347114563,
        0.18558797240257263,
        -0.11141670495271683,
        -0.09595401585102081,
        -0.32212314009666443,
        0.08598185330629349,
        -0.04738098010420799,
        -0.11375399678945541,
        0.03128517046570778,
        0.06921610236167908,
        0.023194989189505577,
        0.1010201945900917,
        -0.14566412568092346,
        0.03638847544789314,
        -0.2622331976890564,
        0.06301689893007278,
        -0.42168501019477844,
        -0.11110028624534607,
        0.041021477431058884,
        -0.09831171482801437,
        -0.14801551401615143,
        -0.09857496619224548,
        0.12937746942043304,
        0.09460025280714035,
        -0.01828266680240631,
        -0.016486262902617455,
        -0.23733918368816376,
        -0.3923500180244446,
        -0.025990312919020653,
        -0.24660414457321167,
        -0.1659080535173416,
        -0.1154126450419426,
        -0.12545375525951385,
        -0.01852240040898323,
        -0.09541748464107513,
        0.050638407468795776,
        -0.4599592089653015,
        0.2431933432817459,
        -0.2995266616344452,
        -0.32332539558410645,
        -0.14440695941448212,
        0.09179534018039703,
        -0.18758524954319,
        -0.06950975954532623,
        0.0940026119351387,
        0.006122811697423458,
        0.08188319951295853,
        0.0732017233967781,
        0.11290203034877777,
        -0.0067222085781395435,
        -0.06952890008687973,
        -0.22245928645133972,
        -0.2223212569952011,
        0.08590947836637497,
        -0.0020507045555859804,
        -0.1913832575082779,
        0.12027430534362793,
        -0.06454221904277802,
        0.012957911007106304,
        -0.23699744045734406,
        -0.0857335552573204,
        0.08699856698513031,
        -0.27406904101371765,
        -0.23371781408786774,
        -0.007923697121441364,
        0.1781025528907776,
        -0.1165284812450409,
        -0.1432660073041916,
        -0.03867769613862038,
        0.12786433100700378,
        -0.11283594369888306,
        0.11316308379173279,
        -0.030570005998015404,
        -0.03750147297978401,
        -0.19316256046295166,
        0.07547114044427872,
        -0.1726791262626648,
        0.11572608351707458,
        -0.28651678562164307,
        -0.1856781542301178,
        -0.09606372565031052,
        -0.11293482780456543,
        0.09404820948839188,
        -0.1953066885471344,
        0.042867355048656464,
        0.12652282416820526,
        -0.13852596282958984,
        -0.16448529064655304,
        -0.10849524289369583,
        -0.060027893632650375,
        0.018368596211075783,
        -0.0838916152715683,
        -0.07993721961975098,
        -0.060846857726573944,
        -0.00851360335946083,
        -0.13047534227371216,
        -0.2560679018497467,
        -0.04729785397648811,
        -0.11721467226743698,
        -0.12235501408576965,
        0.014108370058238506,
        -0.19080112874507904,
        0.06970257312059402,
        0.17403200268745422,
        -0.02809932455420494,
        -0.059933699667453766,
        -0.050948984920978546,
        -0.2713671028614044,
        0.11860515922307968,
        -0.12429878860712051,
        0.16284191608428955,
        -0.08038832992315292,
        0.05443118140101433,
        0.010797586292028427,
        -0.06307422369718552,
        0.0033342449460178614,
        0.0545036606490612,
        -0.18970361351966858,
        0.1352539360523224,
        -0.0851721316576004,
        -0.3024851977825165,
        0.14353187382221222,
        -0.1717996746301651,
        -0.11153645068407059,
        0.18160462379455566,
        0.0897250548005104,
        -0.00874452292919159,
        -0.1601070910692215,
        -0.04709019139409065,
        0.04010649025440216,
        0.0651475265622139,
        0.1378238946199417,
        -0.34983542561531067,
        0.01322883926331997,
        -0.24668031930923462,
        0.13202139735221863,
        0.04967479407787323,
        -0.014031333848834038,
        0.12047990411520004,
        -0.05060180649161339,
        0.15902277827262878,
        -0.13296112418174744,
        -0.17641396820545197,
        0.20396213233470917,
        -0.05121324956417084,
        -0.19633151590824127,
        0.02940039522945881,
        -0.053694915026426315,
        0.09504619985818863,
        0.023919278755784035,
        -0.017885584384202957,
        0.1054205670952797,
        -0.16940005123615265,
        -0.07914477586746216,
        -0.09734660387039185,
        0.11650940775871277,
        0.14228984713554382,
        -0.1958393156528473,
        -0.047510869801044464,
        -0.0942423939704895,
        -0.17870816588401794,
        0.09305614978075027,
        -0.10664471238851547,
        -0.04422368109226227,
        -0.22682955861091614,
        0.058124564588069916,
        -0.09499066323041916,
        0.13788029551506042,
        0.03763474151492119,
        0.03085365705192089,
        -0.04789840430021286,
        0.10760814696550369,
        0.08754347264766693,
        0.24162232875823975,
        -0.08923176676034927,
        0.16383475065231323,
        -0.29485103487968445,
        -0.0739821270108223,
        0.09788938611745834,
        0.008970145136117935,
        0.020290153101086617,
        0.2401384562253952,
        0.20586040616035461,
        -0.053803786635398865,
        0.2944785952568054,
        0.11370144784450531,
        0.07334529608488083,
        -0.05350620672106743,
        -0.29498234391212463,
        0.28709542751312256,
        0.14588966965675354,
        -0.12364314496517181,
        0.021614069119095802,
        0.04883579909801483,
        -0.13367518782615662,
        0.1135437861084938,
        -0.14801430702209473,
        0.1146516278386116,
        -0.2756791412830353,
        -0.13618513941764832,
        -0.021175017580389977,
        -0.15457653999328613,
        0.07454214990139008,
        -0.13193877041339874,
        0.018572095781564713,
        0.12425223737955093,
        0.0086685074493289,
        -0.21827729046344757,
        -0.10765408724546432,
        -0.10199698805809021,
        0.09655509889125824,
        -0.06971871107816696,
        -0.0982309952378273,
        -0.041997846215963364,
        -0.02644387260079384,
        -0.1524895429611206,
        -0.2131619155406952,
        -0.033959660679101944,
        -0.035571273416280746,
        -0.09295476973056793,
        0.022229110822081566,
        -0.17658129334449768,
        0.06416430324316025,
        0.2502886652946472,
        -0.05835513025522232,
        -0.13305756449699402,
        -0.06741716712713242,
        0.07571904361248016,
        -0.2814648747444153,
        -0.22150984406471252,
        -0.14250285923480988,
        -0.15429554879665375,
        -0.12629716098308563,
        -0.20242787897586823,
        0.07570476084947586,
        0.0669713169336319,
        -0.16571269929409027,
        0.03306465968489647,
        -0.18095184862613678,
        0.1739872843027115,
        -0.04431280866265297,
        -0.19708511233329773,
        0.12109724432229996,
        -0.02727484330534935,
        -0.1425144225358963,
        -0.2439475953578949,
        -0.06208352744579315,
        -0.10173798352479935,
        -0.1378771811723709,
        -0.18057070672512054,
        0.15303753316402435,
        -0.21921385824680328,
        0.024221546947956085,
        0.07264486700296402,
        -0.054577309638261795,
        -0.2065318375825882,
        0.10014759004116058,
        -0.14132358133792877,
        -0.09442334622144699,
        -0.039622657001018524,
        0.13370266556739807,
        0.07267899066209793,
        -0.25800371170043945,
        0.11112222820520401,
        0.06428687274456024,
        -0.026991847902536392,
        0.03461978957056999,
        0.18820326030254364,
        0.140734001994133,
        -0.1668238639831543,
        -0.12435522675514221,
        -0.2114434540271759,
        -0.17634698748588562,
        -0.13551604747772217,
        -0.26594308018684387,
        -0.12610507011413574,
        0.06807897239923477,
        -0.033124685287475586,
        0.12088242173194885,
        0.008135880343616009,
        -0.12934161722660065,
        -0.3395621180534363,
        -0.10000716149806976,
        0.06636188179254532,
        0.03746099770069122,
        -0.06032484024763107,
        0.01214914582669735,
        -0.17573511600494385,
        -0.31331467628479004,
        0.0995277464389801,
        0.10054541379213333,
        0.15301872789859772,
        0.0044004591181874275,
        -0.36173632740974426,
        -0.07552485913038254,
        0.09242142736911774,
        0.0006881659501232207,
        0.10425093024969101,
        -0.05687190964818001,
        -0.06686673313379288,
        -0.08008332550525665,
        -0.28833627700805664,
        -0.1532277911901474,
        -0.07234985381364822,
        0.002287572482600808,
        0.08973132818937302,
        0.03154723346233368,
        -0.09329847991466522,
        0.054395727813243866,
        0.03553202748298645,
        -0.07251483201980591,
        0.07898163050413132,
        -0.14857248961925507,
        0.060048703104257584,
        0.057527486234903336,
        -0.23937900364398956,
        -0.1737785041332245,
        -0.11862994730472565,
        -0.24348947405815125,
        0.14482146501541138,
        0.17736348509788513,
        0.10027936100959778,
        0.15219545364379883,
        -0.29790198802948,
        -0.03399084135890007,
        0.3622049391269684,
        0.20970654487609863,
        -0.017285194247961044,
        0.3180745840072632,
        0.028792040422558784,
        -0.1535976380109787,
        -0.22459837794303894,
        0.1022806167602539,
        -0.149457648396492,
        0.16493798792362213,
        0.1349058598279953,
        0.05381970480084419,
        0.018299508839845657,
        0.10085208714008331,
        0.13444967567920685,
        0.18998698890209198,
        0.01230598147958517,
        -0.017607782036066055,
        0.11599548161029816,
        -0.15182967483997345,
        0.20046117901802063,
        -0.20660793781280518,
        -0.14693793654441833,
        -0.0046661789529025555,
        -0.19499723613262177,
        -0.14689983427524567,
        -0.10230778157711029,
        0.05795157700777054,
        0.08280577510595322,
        -0.04513643682003021,
        -0.07322034984827042,
        -0.2945847511291504,
        -0.1597909778356552,
        -0.10686179995536804,
        0.0642850399017334,
        -0.3223876655101776,
        -0.17034901678562164,
        0.03483768180012703,
        0.06799177080392838,
        -0.19578959047794342,
        0.06264635920524597,
        -0.29779165983200073,
        0.23975132405757904,
        -0.32385897636413574,
        -0.2744441628456116,
        -0.08270315825939178,
        0.07210429012775421,
        -0.16072717308998108,
        -0.14343342185020447,
        0.1542070358991623,
        -0.14627234637737274,
        0.009141900576651096,
        -0.13800771534442902,
        0.10134418308734894,
        0.08896172046661377,
        0.040521442890167236,
        0.01739547960460186,
        0.06904445588588715,
        -0.32332661747932434,
        0.00038405030500143766,
        0.23440048098564148,
        0.16281136870384216,
        -0.11057168245315552,
        0.11775209754705429,
        -0.03033793345093727,
        -0.2820158004760742,
        0.2159179300069809,
        -0.17953896522521973,
        -0.17824335396289825,
        -0.1354759782552719,
        -0.13218815624713898,
        -0.0358988493680954,
        0.015930861234664917,
        0.023843728005886078,
        0.07208120077848434,
        0.09867600351572037,
        -0.01937144435942173,
        -0.127656951546669,
        0.08690845221281052,
        -0.11055081337690353,
        0.0670568197965622,
        -0.24620632827281952,
        -0.03763014078140259,
        -0.19032680988311768,
        0.018626566976308823,
        -0.09569695591926575,
        -0.10598690807819366,
        -0.08772125840187073,
        -0.1685076504945755,
        0.044112659990787506,
        0.04724697768688202,
        -0.1444137841463089,
        -0.18946246802806854,
        0.028437664732336998,
        -0.17237481474876404,
        -0.05720934644341469,
        -0.16607989370822906,
        0.031273625791072845,
        -0.030869754031300545,
        -0.08746380358934402,
        -0.16045774519443512,
        -0.2589917480945587,
        -0.14330877363681793,
        -0.21151381731033325,
        -0.23297543823719025,
        0.0354461632668972,
        -0.19135618209838867,
        -0.019139157608151436,
        0.1325472742319107,
        -0.0975588709115982,
        -0.10909750312566757,
        0.1268845796585083,
        0.07424981147050858,
        0.09640304744243622,
        0.11370040476322174,
        -0.02822444960474968,
        0.1430136114358902,
        -0.19316424429416656,
        0.15542270243167877,
        -0.07874433696269989,
        -0.2889809310436249,
        -0.2111721783876419,
        -0.08214729279279709,
        0.1063585951924324,
        -0.016432886943221092,
        0.05084596574306488,
        0.08124199509620667,
        -0.14574195444583893,
        0.04456876218318939,
        0.0469779446721077,
        0.09473446011543274,
        -0.057072535157203674,
        -0.16541549563407898,
        0.007621654309332371,
        0.07313676923513412,
        -0.3587767481803894,
        0.12002537399530411,
        0.008470389991998672,
        -0.0354512594640255,
        -0.1713961660861969,
        -0.0381765216588974,
        -0.12289934605360031,
        0.07838163524866104,
        -0.2950260043144226,
        -0.21630389988422394,
        -0.13486133515834808,
        -0.18133865296840668,
        0.015028312802314758,
        -0.21808773279190063,
        0.0799897313117981,
        0.13088630139827728,
        -0.20238551497459412,
        -0.0992928221821785,
        -0.13117487728595734,
        0.21323540806770325,
        0.03589401766657829,
        -0.18914858996868134,
        0.023362571373581886,
        -0.01660297065973282,
        -0.12732824683189392,
        -0.2333725243806839,
        -0.18825124204158783,
        -0.013468404300510883,
        -0.11495911329984665,
        -0.17024604976177216,
        0.09552542120218277,
        -0.16776230931282043,
        0.033921901136636734,
        0.18026204407215118,
        -0.03991542384028435,
        -0.3099658787250519,
        -0.12634232640266418,
        0.06273360550403595,
        -0.2683463394641876,
        -0.2173854559659958,
        -0.04766250029206276,
        -0.10247516632080078,
        0.022487204521894455,
        -0.25063812732696533,
        0.007379550952464342,
        0.11925230175256729,
        -0.13428761065006256,
        -0.16137951612472534,
        -0.05510898306965828,
        0.019106773659586906,
        0.09388409554958344,
        -0.14733228087425232,
        0.054995667189359665,
        -0.041300222277641296,
        -0.1432896852493286,
        -0.17761488258838654,
        -0.17170792818069458,
        -0.02919977530837059,
        -0.09600196033716202,
        -0.1812378317117691,
        0.07440111041069031,
        -0.1883925050497055,
        0.056584469974040985,
        0.08546371012926102,
        -0.035766009241342545,
        -0.29439017176628113,
        -0.06514731794595718,
        0.07782599329948425,
        0.10695614665746689,
        0.09931422770023346,
        -0.052964795380830765,
        0.07685244083404541,
        -0.2130577117204666,
        0.16358204185962677,
        -0.009805599227547646,
        -0.3199220895767212,
        -0.000763937016017735,
        -0.0912187471985817,
        -0.014733253046870232,
        -0.26525235176086426,
        0.010123904794454575,
        0.047880932688713074,
        -0.26362431049346924,
        -0.25008925795555115,
        -0.07878772914409637,
        0.03772001713514328,
        -0.004290587268769741,
        -0.1706845611333847,
        0.041910722851753235,
        -0.012897294014692307,
        -0.24056679010391235,
        0.09223952889442444,
        0.05677159130573273,
        -0.0210932195186615,
        -0.05886172875761986,
        -0.10188769549131393,
        -0.39601683616638184,
        -0.05808721482753754,
        0.08009976148605347,
        -0.15767036378383636,
        -0.06359931826591492,
        -0.1185181513428688,
        0.16554422676563263,
        0.12282111495733261,
        0.0478227362036705,
        -0.029698926955461502,
        -0.19941847026348114,
        -0.42171797156333923,
        0.029407909139990807,
        -0.2642541229724884,
        -0.24229863286018372,
        -0.10770228505134583,
        -0.22911794483661652,
        -0.08010755479335785,
        -0.13294947147369385,
        0.18495449423789978,
        -0.5150797367095947,
        0.31048521399497986,
        -0.31818705797195435,
        -0.32469162344932556,
        -0.13353674113750458,
        0.13158077001571655,
        -0.13678619265556335,
        -0.04796300083398819,
        0.11923669278621674,
        0.04710565134882927
      ]
    },
    {
      "activation": "sigmoid",
      "architecture": "dense",
      "bias": [
        0.026941491290926933
      ],
      "weights": [
        -0.37090975046157837,
        0.7196128368377686,
        -0.6490803360939026,
        0.6049251556396484,
        -0.7917020916938782,
        -0.36347702145576477,
        -0.5682364106178284,
        0.7012166976928711,
        0.7117804884910583,
        -0.7916104197502136,
        -0.43700259923934937,
        -0.36633628606796265,
        0.6492478847503662,
        -0.7051105499267578,
        0.753858208656311,
        -0.4263278841972351,
        0.44090816378593445,
        0.46816781163215637,
        -0.6008704304695129,
        0.40707239508628845
      ]
    }
  ],
  "outputs": [
    "ELT"
  ]
}
