{
  "defaults": {},
  "inputs": [
    {
      "name": "met_met",
      "offset": "-62230.1988041",
      "scale": "2.10457349563e-05"
    },
    {
      "name": "event_mll",
      "offset": "-129222.978819",
      "scale": "1.08032524027e-05"
    },
    {
      "name": "jet_tagWeightBin_leading_correct",
      "offset": "-4.65174252147",
      "scale": "1.49169873551"
    },
    {
      "name": "jet_pt_2nd_correct",
      "offset": "-48203.5698066",
      "scale": "2.13825340678e-05"
    },
    {
      "name": "event_nbjets77",
      "offset": "-1.31069207227",
      "scale": "2.06678083636"
    },
    {
      "name": "jet_pt_1st_correct",
      "offset": "-99591.1942511",
      "scale": "1.46870229005e-05"
    },
    {
      "name": "jet_tagWeightBin_subleading_correct",
      "offset": "-1.35985783394",
      "scale": "0.413317763068"
    }
  ],
  "layers": [
    {
      "activation": "rectified",
      "architecture": "dense",
      "bias": [
        -0.22225777804851532,
        -0.27677121758461,
        -0.23726901412010193,
        -0.3677319288253784,
        -0.17063161730766296,
        -0.026168804615736008,
        -0.09816158562898636,
        -0.2382911890745163,
        -0.29756638407707214,
        0.042480260133743286,
        -0.23117408156394958,
        -0.18156957626342773,
        -0.09969386458396912,
        -0.08325915038585663,
        0.050893157720565796,
        -0.14195755124092102,
        0.004939395003020763,
        0.05039907991886139,
        -0.12500661611557007,
        0.040577396750450134,
        0.041813939809799194,
        -0.2707976996898651,
        -0.2619733214378357,
        -0.10824614018201828,
        -0.01971040666103363,
        0.05458742380142212,
        -0.1828942447900772,
        -0.08493588119745255,
        -0.06292708963155746,
        -0.11426322162151337
      ],
      "weights": [
        -0.28465908765792847,
        -0.06642027199268341,
        -0.14067883789539337,
        0.007842679508030415,
        0.0708775445818901,
        0.026635009795427322,
        0.03686140477657318,
        -0.05454930290579796,
        -0.048602521419525146,
        -0.0010670674964785576,
        -0.08805356919765472,
        -0.009702980518341064,
        -0.2835269570350647,
        0.02184893749654293,
        -0.19163544476032257,
        -0.1542731672525406,
        -0.01859538070857525,
        -0.16821056604385376,
        0.10280812531709671,
        0.061709631234407425,
        0.006195268128067255,
        -0.23237229883670807,
        0.017529431730508804,
        -0.0944533720612526,
        -0.04220130294561386,
        -0.09694927930831909,
        0.07609052956104279,
        0.030508145689964294,
        -0.3157725930213928,
        -0.1061239093542099,
        -0.11920101195573807,
        0.07581740617752075,
        0.06391020864248276,
        0.015617364086210728,
        -0.03657284751534462,
        0.026044482365250587,
        0.020747920498251915,
        0.027615386992692947,
        0.013599005527794361,
        -0.15781834721565247,
        -0.07501544803380966,
        0.34230634570121765,
        0.08266868442296982,
        -0.18993400037288666,
        -0.018064361065626144,
        0.008464677259325981,
        0.013480802066624165,
        -0.004404005128890276,
        0.3848736584186554,
        -0.26105427742004395,
        -0.15801259875297546,
        -0.03941504657268524,
        0.012444853782653809,
        0.009497782215476036,
        0.10629410296678543,
        -0.05729282274842262,
        -0.12297207117080688,
        -0.04558286443352699,
        0.0064400010742247105,
        -0.08024962246417999,
        -0.0443870984017849,
        -0.22667717933654785,
        0.06890309602022171,
        0.2549845278263092,
        -0.04177752509713173,
        -0.1086299791932106,
        0.02136145532131195,
        0.23576931655406952,
        0.06906287372112274,
        -0.09727814793586731,
        -0.14748872816562653,
        -0.03803247958421707,
        -0.013957918621599674,
        -0.17069612443447113,
        0.07913375645875931,
        -0.19167190790176392,
        0.09778209775686264,
        -0.07991356402635574,
        -0.15258455276489258,
        0.0740245059132576,
        0.22468134760856628,
        -0.10032383352518082,
        -0.1379930078983307,
        0.005925797391682863,
        -0.011841965839266777,
        -0.44506049156188965,
        0.010637667961418629,
        -0.007960546761751175,
        0.15094532072544098,
        0.0015311399474740028,
        0.00244350777938962,
        0.17289450764656067,
        0.03255445137619972,
        0.24140751361846924,
        0.14415647089481354,
        0.039971061050891876,
        -0.17917676270008087,
        0.03962739557027817,
        0.051194723695516586,
        0.09429443627595901,
        0.01442287489771843,
        -0.02918565273284912,
        -0.10543018579483032,
        -0.023288339376449585,
        0.45226380228996277,
        -0.2585693597793579,
        -0.145538330078125,
        -0.05252625420689583,
        -0.1531548947095871,
        -0.04275334253907204,
        0.10899373888969421,
        0.1546904742717743,
        0.1302109807729721,
        -0.01197965256869793,
        0.2220471054315567,
        0.13881969451904297,
        -0.06451365351676941,
        -0.12200186401605606,
        0.15517312288284302,
        0.016192900016903877,
        0.4280303120613098,
        -0.003979109693318605,
        -0.014847397804260254,
        -0.18633626401424408,
        0.0047484394162893295,
        0.007530905306339264,
        0.049237050116062164,
        -0.305741548538208,
        -0.03465142846107483,
        0.0062833442352712154,
        0.07782817631959915,
        0.0038279166910797358,
        0.3107096552848816,
        0.006150421220809221,
        0.4143851101398468,
        0.00893623661249876,
        -0.013829880394041538,
        -0.18057191371917725,
        0.003908346872776747,
        0.009243934415280819,
        0.011933508329093456,
        0.40611740946769714,
        0.0042588310316205025,
        -0.012650181539356709,
        -0.1780664175748825,
        -0.0017205020412802696,
        0.007512979209423065,
        -0.18199805915355682,
        -0.12160198390483856,
        -0.012306815944612026,
        0.021029949188232422,
        0.052226245403289795,
        0.053107038140296936,
        -0.1376938819885254,
        -0.2192845344543457,
        -0.09394753724336624,
        0.0043447683565318584,
        0.05038761720061302,
        -0.07809551805257797,
        -0.18719130754470825,
        0.055491961538791656,
        0.12342605739831924,
        -0.17913638055324554,
        0.03810063749551773,
        -0.17368876934051514,
        -0.04110655188560486,
        -0.015189292840659618,
        0.2865821421146393,
        0.26573646068573,
        -0.013223348185420036,
        -0.01515759713947773,
        -0.1814533770084381,
        -0.2072528898715973,
        0.06869399547576904,
        0.009963663294911385,
        0.006377701181918383,
        0.4172915518283844,
        0.0038642417639493942,
        -0.01604609750211239,
        -0.17949144542217255,
        0.002093658549711108,
        0.013341224752366543,
        0.04920455068349838,
        -0.16854768991470337,
        -0.049901898950338364,
        0.10566455125808716,
        0.022470762953162193,
        -0.0996631532907486,
        0.3998502194881439,
        0.1323327273130417,
        0.0457930825650692,
        0.23062920570373535,
        0.17650793492794037,
        0.044695399701595306,
        -0.17799249291419983,
        0.028645072132349014,
        0.0019098087213933468,
        -0.3997839391231537,
        0.006351889576762915,
        -0.005737076047807932,
        0.17178134620189667,
        0.0007981667295098305,
        -0.0014573382213711739,
        0.290866881608963,
        -0.09480185061693192,
        -0.048582810908555984,
        -0.09672314673662186,
        -0.12637165188789368,
        0.10003623366355896,
        0.010941925458610058
      ]
    },
    {
      "architecture": "normalization",
      "bias": [
        -0.044027768075466156,
        -0.024771245196461678,
        -0.016549289226531982,
        -0.011577107943594456,
        -0.06323589384555817,
        -0.06011063605546951,
        -0.06144973635673523,
        -0.04004921019077301,
        -0.011509931646287441,
        -0.08163519203662872,
        -0.041190460324287415,
        -0.031405869871377945,
        -0.04262913763523102,
        -0.07318480312824249,
        -0.13207074999809265,
        -0.05680053308606148,
        -0.10147449374198914,
        -0.06747134029865265,
        -0.04605988413095474,
        -0.06406132876873016,
        -0.04727153480052948,
        -0.01765263080596924,
        -0.030683301389217377,
        -0.042814478278160095,
        -0.05675946921110153,
        -0.08182569593191147,
        -0.0677996352314949,
        -0.044253990054130554,
        -0.039078183472156525,
        -0.036589860916137695
      ],
      "weights": [
        10.223800659179688,
        18.153480529785156,
        15.533889770507812,
        20.67190933227539,
        6.710638046264648,
        6.724426746368408,
        4.030776500701904,
        11.8546142578125,
        21.268251419067383,
        3.831536054611206,
        10.805726051330566,
        14.692703247070312,
        6.122158050537109,
        5.107293128967285,
        3.3377976417541504,
        8.931551933288574,
        4.380730152130127,
        2.787343978881836,
        4.0563836097717285,
        2.872171640396118,
        2.856268882751465,
        18.20917320251465,
        14.113584518432617,
        6.142030239105225,
        3.407521963119507,
        3.07796049118042,
        4.564650058746338,
        5.25822114944458,
        5.420597553253174,
        3.9622602462768555
      ]
    },
    {
      "activation": "rectified",
      "architecture": "dense",
      "bias": [
        0.014269438572227955,
        -0.11188231408596039,
        -0.008059108629822731,
        -0.03605512157082558,
        -0.11202869564294815,
        -0.3935823440551758,
        -0.04428759962320328,
        0.15068349242210388,
        -0.03800419345498085,
        -0.08304804563522339,
        0.2539278566837311,
        -0.32903552055358887,
        0.06911622732877731,
        0.24634355306625366,
        0.07717640697956085,
        0.1276315152645111,
        0.06315290182828903,
        -0.07639210671186447,
        -0.24299032986164093,
        -0.2881696820259094
      ],
      "weights": [
        -0.06142353639006615,
        0.4542372226715088,
        -0.06841080635786057,
        -0.04196196421980858,
        0.0592208132147789,
        0.006224967539310455,
        0.0397278256714344,
        -0.10211877524852753,
        0.261674165725708,
        -0.6348692178726196,
        0.1694803386926651,
        -0.06238466873764992,
        0.0954904854297638,
        -0.3765173554420471,
        0.12635672092437744,
        -0.11803942918777466,
        -0.17013698816299438,
        -0.2035922110080719,
        0.03364170342683792,
        -0.31514033675193787,
        -0.2063455432653427,
        -0.05999268218874931,
        0.015472247265279293,
        0.06265776604413986,
        -0.2504822313785553,
        -0.24775534868240356,
        0.07377669215202332,
        -0.3784266412258148,
        0.05070172995328903,
        -0.19945462048053741,
        -0.02337312325835228,
        -0.10788940638303757,
        -0.04182027280330658,
        0.03018064983189106,
        0.009791996330022812,
        -0.25437334179878235,
        -0.22101567685604095,
        0.09228997677564621,
        -0.023480592295527458,
        0.23849862813949585,
        -0.03311456739902496,
        0.12974584102630615,
        0.05180767551064491,
        -0.2442285567522049,
        -0.14186403155326843,
        -0.05533749982714653,
        -0.18179376423358917,
        -0.6325345635414124,
        -0.08253170549869537,
        -0.6943744421005249,
        -0.6308779716491699,
        0.046314410865306854,
        -0.06377074867486954,
        -0.3236284852027893,
        0.04539310932159424,
        -0.5573673248291016,
        -0.07102703303098679,
        -0.14352934062480927,
        0.09008803218603134,
        0.0342300608754158,
        -0.42387059330940247,
        -0.06762710213661194,
        -0.12021760642528534,
        -0.08808976411819458,
        -0.315664678812027,
        0.028783777728676796,
        0.07130982726812363,
        -0.346918523311615,
        -0.3500208258628845,
        -0.043991636484861374,
        -0.08137693256139755,
        0.014179209247231483,
        0.06724212318658829,
        0.10963499546051025,
        -0.023892786353826523,
        -0.22110354900360107,
        0.1047307699918747,
        0.035338789224624634,
        0.04894791916012764,
        0.038375772535800934,
        0.031637709587812424,
        -0.11321788281202316,
        -0.22606250643730164,
        0.16458013653755188,
        -0.03408842161297798,
        0.027692221105098724,
        -0.01567530259490013,
        0.08624748885631561,
        0.047304730862379074,
        -0.046042345464229584,
        -0.05121598392724991,
        -0.008585928939282894,
        -0.09752655774354935,
        -0.11518221348524094,
        -0.008192499168217182,
        -0.17450039088726044,
        -0.4648846387863159,
        -0.10279402881860733,
        -0.008273595944046974,
        -0.3966289758682251,
        0.08280932158231735,
        -0.01573992893099785,
        0.010896396823227406,
        -0.13429896533489227,
        -0.13567805290222168,
        -0.0076712328009307384,
        -0.12287361919879913,
        -0.3610014021396637,
        -0.3353031873703003,
        -0.37423306703567505,
        -0.4348439574241638,
        -0.005411629099398851,
        -0.005249994341284037,
        -0.1995428204536438,
        -0.06664316356182098,
        -0.47038716077804565,
        -0.4591597318649292,
        -0.21777603030204773,
        -0.02217634581029415,
        -0.0744910016655922,
        -0.05072655528783798,
        -0.049480438232421875,
        -0.010174181312322617,
        -0.09806086868047714,
        -0.15004847943782806,
        -0.07191678136587143,
        -0.3593426048755646,
        -0.08979193866252899,
        -0.043256357312202454,
        -0.20828019082546234,
        0.015281936153769493,
        -0.013872615993022919,
        -0.029469547793269157,
        -0.24999403953552246,
        -0.07588811218738556,
        0.04468792304396629,
        -0.16852758824825287,
        -0.533831000328064,
        -0.3775103688240051,
        -0.5039714574813843,
        -0.4527266025543213,
        0.05198785290122032,
        0.03147951513528824,
        -0.1264726221561432,
        -0.1329105794429779,
        -0.4798981845378876,
        -0.3091200292110443,
        -0.22528180480003357,
        -0.13743466138839722,
        -0.1620667278766632,
        0.034375112503767014,
        -0.023898731917142868,
        -0.05565603822469711,
        0.048730552196502686,
        0.023555008694529533,
        0.13134831190109253,
        -0.22410599887371063,
        0.0636424645781517,
        0.009121577255427837,
        -0.0315864160656929,
        0.02074596658349037,
        0.010417086072266102,
        -0.7907173037528992,
        -0.005481884349137545,
        0.09890440106391907,
        0.02601286768913269,
        0.050110410898923874,
        -0.49560779333114624,
        -0.38223719596862793,
        -0.4664614796638489,
        -0.4829603433609009,
        -0.026536716148257256,
        -0.010773872025310993,
        -0.05738939344882965,
        -0.0071695600636303425,
        -0.40169885754585266,
        -0.2393893152475357,
        0.037780992686748505,
        -0.6579335927963257,
        -0.005366604309529066,
        0.1519865244626999,
        -0.18625853955745697,
        0.21049578487873077,
        0.4545476734638214,
        0.03987788408994675,
        -0.3582530617713928,
        -0.284058541059494,
        -0.012586148455739021,
        0.07920067757368088,
        -0.172544464468956,
        0.13098996877670288,
        -0.18504613637924194,
        -0.22107796370983124,
        -0.23910324275493622,
        -0.09915061295032501,
        0.07266745716333389,
        -0.2342962771654129,
        0.013741138391196728,
        -0.3617316484451294,
        0.03638020530343056,
        0.020247995853424072,
        0.30444592237472534,
        -0.08505982160568237,
        -0.24899262189865112,
        0.10935770720243454,
        0.05610106885433197,
        -0.37394505739212036,
        -0.17501333355903625,
        -0.33709490299224854,
        -0.15901555120944977,
        0.00918545201420784,
        -0.6311746835708618,
        0.05372416228055954,
        -0.05489890277385712,
        -0.03754142299294472,
        0.10714917629957199,
        0.0770622193813324,
        -0.36552804708480835,
        -0.5258592963218689,
        -0.15151135623455048,
        0.06820972263813019,
        -0.21530094742774963,
        -0.06453932821750641,
        -0.03238360583782196,
        0.22193263471126556,
        -0.08442864567041397,
        -0.046428292989730835,
        -0.19968433678150177,
        0.01563195139169693,
        -0.19077914953231812,
        -0.17778052389621735,
        -0.10463584959506989,
        -0.3566707968711853,
        0.06985572725534439,
        -0.2515844404697418,
        -0.17409628629684448,
        0.03475824370980263,
        0.04500700533390045,
        -0.08504816144704819,
        -0.30304592847824097,
        -0.24510690569877625,
        0.17473933100700378,
        -0.38249287009239197,
        -0.03866444528102875,
        -0.25649625062942505,
        -0.01324804313480854,
        -0.07436317205429077,
        -0.14925669133663177,
        -0.0540834441781044,
        0.04434160515666008,
        -0.03181738778948784,
        -0.025868713855743408,
        -0.013108069077134132,
        0.08450277149677277,
        0.03179298713803291,
        -0.4769361913204193,
        -0.029786061495542526,
        -0.0037220085505396128,
        0.014144803397357464,
        -0.0011954650981351733,
        0.016745934262871742,
        -0.06621500849723816,
        -0.4089467227458954,
        -0.012482879683375359,
        0.022285886108875275,
        -0.005921271629631519,
        0.0688893124461174,
        -0.018840499222278595,
        -0.03727014362812042,
        -0.04297402873635292,
        -0.024044515565037727,
        0.19252024590969086,
        0.1468552201986313,
        -0.09556396305561066,
        -0.03170520439743996,
        -0.2587158679962158,
        -0.15908527374267578,
        0.03180047869682312,
        0.194498673081398,
        -0.4639112651348114,
        0.04513118043541908,
        -0.12322501093149185,
        0.07739833742380142,
        -0.27365389466285706,
        -0.07007675617933273,
        -0.04059726744890213,
        -0.17019659280776978,
        -0.15583953261375427,
        -0.04707350581884384,
        -0.2585478723049164,
        -0.12419133633375168,
        -0.07950153201818466,
        0.017067238688468933,
        -0.20158851146697998,
        -0.25323188304901123,
        -0.23328131437301636,
        -0.16981330513954163,
        -0.31720665097236633,
        0.08157385140657425,
        -0.25078198313713074,
        -0.36800071597099304,
        0.22137460112571716,
        -0.19535695016384125,
        -0.23322373628616333,
        -0.17684341967105865,
        0.04465079307556152,
        -0.019967982545495033,
        -0.3535872995853424,
        0.18175385892391205,
        -0.008048606105148792,
        0.02738027833402157,
        0.1577257513999939,
        0.012212648056447506,
        0.007765165530145168,
        -0.16273251175880432,
        -0.13493958115577698,
        0.06515146046876907,
        0.002127061365172267,
        0.040394172072410583,
        0.015308113768696785,
        0.018321853131055832,
        -0.3158104717731476,
        0.1846129596233368,
        -0.14620855450630188,
        -0.008275037631392479,
        0.013610083609819412,
        0.010284827090799809,
        0.08230186253786087,
        -0.009013460949063301,
        0.02761310338973999,
        -0.058781035244464874,
        -0.04518381878733635,
        0.12321072816848755,
        0.2034856379032135,
        -0.1498090624809265,
        0.043262332677841187,
        -0.03291464224457741,
        -0.0986335277557373,
        -0.05315639078617096,
        0.17021995782852173,
        -0.009454062208533287,
        -0.06923851370811462,
        -0.6411846876144409,
        -0.025962576270103455,
        0.07424675673246384,
        -0.08895989507436752,
        -0.01494130864739418,
        -0.47992634773254395,
        -0.0962415263056755,
        -0.39783427119255066,
        -0.4832417070865631,
        -0.1825597733259201,
        -0.06362100690603256,
        -0.19613856077194214,
        -0.05027584359049797,
        -0.3975825011730194,
        -0.0769456997513771,
        -0.05022062361240387,
        -0.3822873830795288,
        -0.09202400594949722,
        -0.36247020959854126,
        0.09429299086332321,
        -0.3681214153766632,
        -0.10765739530324936,
        -0.20812241733074188,
        -0.09255251288414001,
        -0.02872353233397007,
        -0.13680191338062286,
        -0.15677395462989807,
        0.012844881974160671,
        -0.10927236080169678,
        0.041498180478811264,
        0.0014304176438599825,
        -0.04525958001613617,
        -0.009275935590267181,
        -0.5243761539459229,
        -0.002825147705152631,
        -0.019219297915697098,
        0.01495502982288599,
        -0.022901440039277077,
        0.0005041173426434398,
        -0.11430530995130539,
        -0.2583597004413605,
        -0.025729140266776085,
        -0.04721600562334061,
        -0.017147814854979515,
        0.044161442667245865,
        -0.03211386129260063,
        -0.00540159409865737,
        0.015411199070513248,
        -0.1611696034669876,
        -0.00817723199725151,
        0.026332389563322067,
        -0.30915841460227966,
        -0.16571350395679474,
        -0.06355985254049301,
        -0.04236794263124466,
        -0.2129460871219635,
        -0.29374438524246216,
        -0.013700679875910282,
        0.09036649763584137,
        -0.6568455100059509,
        -0.0010030183475464582,
        -0.0849047377705574,
        0.03156457096338272,
        -0.018002647906541824,
        -0.04697179049253464,
        -0.029825394973158836,
        -0.036939483135938644,
        -0.021422995254397392,
        -0.01694389432668686,
        -0.18745487928390503,
        -0.44242948293685913,
        -0.05576469004154205,
        0.049405742436647415,
        -0.022515466436743736,
        0.043150536715984344,
        0.043127577751874924,
        -0.012660115025937557,
        -0.004875332582741976,
        0.14172127842903137,
        -0.3667386472225189,
        -0.21700501441955566,
        0.19084453582763672,
        -0.016824254766106606,
        0.11277957260608673,
        -0.14565719664096832,
        0.07956033945083618,
        -0.3209697902202606,
        0.058596111834049225,
        -0.4632321894168854,
        -0.3601612448692322,
        -0.11562057584524155,
        -0.031293485313653946,
        0.35529714822769165,
        -0.013498375192284584,
        -0.076222263276577,
        -0.15771456062793732,
        -0.08341778069734573,
        -0.1969943642616272,
        -0.13823668658733368,
        -0.16940714418888092,
        -0.07719238102436066,
        0.07873702049255371,
        -0.1121736541390419,
        -0.1135939508676529,
        -0.08406903594732285,
        -0.10558865964412689,
        -0.13153588771820068,
        -0.10964273661375046,
        0.0769893229007721,
        -0.06206315755844116,
        -0.3145541846752167,
        0.02649685926735401,
        -0.010520651936531067,
        0.017611991614103317,
        -0.08548986166715622,
        -0.004474805202335119,
        -0.29167988896369934,
        0.08191921561956406,
        -0.27813002467155457,
        -0.5624080300331116,
        -0.08966181427240372,
        -0.022862406447529793,
        0.1639775037765503,
        -0.20357085764408112,
        -0.19100981950759888,
        -0.20812876522541046,
        -0.057302769273519516,
        -0.2663511335849762,
        -0.22171799838542938,
        -0.09652062505483627,
        -0.21264782547950745,
        0.10192596167325974,
        -0.09097076207399368,
        -0.22457312047481537,
        -0.024137329310178757,
        0.10926466435194016,
        -0.07326096296310425,
        -0.06468071788549423,
        -0.27145904302597046,
        0.11950405687093735,
        -0.44887492060661316,
        -0.16413971781730652,
        -0.18803617358207703,
        0.01461732666939497,
        0.03100372478365898,
        -0.14032284915447235,
        -0.06483078747987747,
        0.009637774899601936,
        -0.05691660940647125,
        -0.007737689185887575,
        -0.06429784744977951,
        0.0849321037530899,
        0.02085513435304165,
        -0.3593863248825073,
        -0.034165892750024796,
        -0.014026504009962082,
        0.02826795168220997,
        -0.018547123298048973,
        -0.009410512633621693,
        -0.13107268512248993,
        -0.440776526927948,
        -0.04344887286424637,
        -0.02960481122136116,
        -0.028182554990053177,
        0.06073403358459473,
        -0.02177644707262516,
        -0.06808246672153473,
        -0.02928074821829796,
        0.0033757342025637627,
        -0.055887676775455475,
        0.0704958587884903,
        -0.17479418218135834,
        -0.08765237033367157,
        0.0005186497583054006,
        -0.42120039463043213,
        0.004798739682883024,
        -0.0011827833950519562,
        -0.21792647242546082,
        0.01686709001660347,
        -0.014888421632349491,
        -0.04065081849694252,
        0.05437980964779854,
        -0.14547209441661835,
        -0.005118800792843103,
        0.2005409449338913,
        -0.4977080523967743,
        -0.5228294134140015,
        -0.49807044863700867,
        -0.43296098709106445,
        -0.12536108493804932,
        0.003522231476381421,
        -0.16339872777462006,
        -0.1083085685968399,
        -0.3618389666080475,
        -0.4254041910171509,
        0.1653449833393097,
        -0.21502062678337097,
        -0.14072638750076294,
        0.019321728497743607,
        0.13942047953605652,
        -0.09361868351697922,
        0.0633520632982254,
        0.03882334381341934,
        0.03872871771454811,
        -0.0763973519206047,
        0.023479726165533066,
        -0.06316721439361572,
        0.18743591010570526,
        0.05157475918531418,
        0.04811115562915802,
        -0.5562064051628113,
        -0.18531085550785065,
        0.09323475509881973,
        -0.011201213113963604,
        -0.06155148521065712,
        -0.4638349115848541,
        -0.22145108878612518,
        -0.4478704035282135,
        -0.4948616027832031,
        0.16163671016693115,
        -0.01433480717241764,
        0.024877110496163368,
        -0.017217842862010002,
        -0.3874465823173523,
        -0.13317933678627014,
        -0.19374556839466095,
        -0.5715784430503845,
        0.007579953875392675,
        0.029629753902554512,
        -0.10660296678543091,
        -0.02027539536356926,
        0.024256080389022827,
        0.0015153849963098764,
        0.11304555833339691,
        -0.24722446501255035,
        0.12967072427272797,
        0.030123069882392883,
        -0.14981988072395325,
        0.08199290931224823,
        -0.08417663723230362,
        -0.40301743149757385,
        0.07302366942167282,
        0.020849008113145828,
        -0.011357779614627361,
        0.18662674725055695,
        -0.3486379086971283,
        -0.41092169284820557,
        -0.312444806098938,
        -0.32414400577545166,
        -0.18201526999473572,
        -0.07821933180093765,
        -0.13137121498584747,
        -0.07680406421422958,
        -0.2946055829524994,
        -0.24997687339782715,
        0.04231248050928116,
        -0.5560361742973328,
        -0.10142853856086731
      ]
    },
    {
      "activation": "sigmoid",
      "architecture": "dense",
      "bias": [
        0.05898144468665123
      ],
      "weights": [
        -0.41931772232055664,
        -0.4331054091453552,
        0.6440949440002441,
        -0.800273060798645,
        -0.42393791675567627,
        -0.9438777565956116,
        -0.5284515023231506,
        0.39715901017189026,
        0.19025878608226776,
        -0.6347667574882507,
        0.6104250550270081,
        -0.7214401364326477,
        0.29937905073165894,
        0.5751699209213257,
        0.48385733366012573,
        0.27566513419151306,
        0.17000903189182281,
        -0.604978084564209,
        -0.8793366551399231,
        -0.4413639307022095
      ]
    }
  ],
  "outputs": [
    "ELT"
  ]
}
