{
  "defaults": {},
  "inputs": [
    {
      "name": "met_met",
      "offset": "-74102.4135107",
      "scale": "1.59343452839e-05"
    },
    {
      "name": "jet_pt_2nd",
      "offset": "-71401.4472953",
      "scale": "1.77589513972e-05"
    },
    {
      "name": "ph_drsubljet_sel",
      "offset": "19.0991150316",
      "scale": "0.0242391060907"
    },
    {
      "name": "jet_pt_3rd",
      "offset": "-49988.5525133",
      "scale": "3.30058101891e-05"
    },
    {
      "name": "ph_HFT_MVA_sel",
      "offset": "-0.743146343728",
      "scale": "4.26734773546"
    },
    {
      "name": "ph_drleadjet_sel",
      "offset": "-2.27545818543",
      "scale": "1.14993547611"
    },
    {
      "name": "jet_tagWeightBin_subleading",
      "offset": "-2.30882924932",
      "scale": "0.605920296115"
    },
    {
      "name": "event_HT",
      "offset": "-357168.868029",
      "scale": "4.28318983021e-06"
    },
    {
      "name": "ph_phi_sel",
      "offset": "-0.0534776521132",
      "scale": "0.548673602352"
    },
    {
      "name": "jet_pt_5th",
      "offset": "-36715.692387",
      "scale": "6.86959676846e-05"
    },
    {
      "name": "jet_pt_4th",
      "offset": "-41515.5485774",
      "scale": "4.81821072129e-05"
    },
    {
      "name": "jet_pt_1st",
      "offset": "-116718.761316",
      "scale": "1.0157984715e-05"
    },
    {
      "name": "event_nbjets77",
      "offset": "-1.31310774018",
      "scale": "2.04139319749"
    },
    {
      "name": "ph_drlept_sel",
      "offset": "-1.79904176479",
      "scale": "1.65978752506"
    },
    {
      "name": "jet_tagWeightBin_leading",
      "offset": "-4.63982886037",
      "scale": "1.4573771489"
    },
    {
      "name": "event_mll",
      "offset": "-139084.549932",
      "scale": "9.08813676262e-06"
    },
    {
      "name": "event_njets",
      "offset": "-2.54453520031",
      "scale": "0.792299865209"
    }
  ],
  "layers": [
    {
      "activation": "rectified",
      "architecture": "dense",
      "bias": [
        -0.08263964205980301,
        -0.046545594930648804,
        -0.05022500082850456,
        0.09160588681697845,
        -0.09115888178348541,
        -0.13565930724143982,
        -0.07178287208080292,
        -0.12089593708515167,
        0.061858948320150375,
        0.040743399411439896
      ],
      "weights": [
        -0.18090109527111053,
        0.014558791182935238,
        0.008478011935949326,
        -0.0005724763032048941,
        -0.0007691953214816749,
        -0.032796550542116165,
        -0.06987927854061127,
        0.024754870682954788,
        0.03602476045489311,
        -0.000270489341346547,
        -0.03940751403570175,
        -0.015375813469290733,
        0.008201077580451965,
        -0.016197804361581802,
        -0.01744665578007698,
        -0.0836668461561203,
        -0.045780934393405914,
        -0.18064816296100616,
        -0.07103367894887924,
        -0.026046281680464745,
        -0.019189734011888504,
        0.0341523177921772,
        0.008202971890568733,
        -0.03723525628447533,
        0.09137886017560959,
        -0.03184117376804352,
        0.03363437205553055,
        0.014298032969236374,
        -0.019841453060507774,
        -0.013726244680583477,
        0.029571307823061943,
        -0.04845714941620827,
        0.027037864550948143,
        0.005675898864865303,
        -0.08381076902151108,
        0.027167029678821564,
        -0.0014953535282984376,
        -0.04883949086070061,
        -0.024415303021669388,
        0.009224524721503258,
        -0.11528722196817398,
        0.03490713611245155,
        0.03339781612157822,
        -0.015613313764333725,
        -0.031432393938302994,
        -0.033493779599666595,
        0.005264983046799898,
        0.007200917229056358,
        -0.020033791661262512,
        -0.14138369262218475,
        -0.039459578692913055,
        -0.009388508275151253,
        0.02207695133984089,
        0.047177158296108246,
        0.013247434049844742,
        0.05972300097346306,
        -0.03754296526312828,
        0.027233149856328964,
        -0.0869995579123497,
        0.04379112645983696,
        0.028907950967550278,
        -0.028749842196702957,
        0.038532111793756485,
        0.0014709553215652704,
        -0.037845563143491745,
        -0.021109575405716896,
        0.01043397095054388,
        0.052189238369464874,
        -0.05784674361348152,
        0.058477193117141724,
        0.023825552314519882,
        -0.004448829218745232,
        -0.054422684013843536,
        0.0174832995980978,
        -0.045736297965049744,
        0.02456076629459858,
        0.04028112068772316,
        0.003851181361824274,
        -0.04083193466067314,
        -0.15424276888370514,
        0.028910702094435692,
        0.040719594806432724,
        -0.027067335322499275,
        -0.07572285085916519,
        -0.003153980942443013,
        -0.10855839401483536,
        0.002393134171143174,
        -0.029373178258538246,
        0.029580578207969666,
        -0.04525827243924141,
        0.006250777747482061,
        -0.11622808128595352,
        0.07834048569202423,
        0.0043766251765191555,
        0.003063460346311331,
        -0.04212990775704384,
        -0.014156464487314224,
        0.007399506401270628,
        -0.026725364848971367,
        -0.06675489991903305,
        -0.06229551509022713,
        -0.05685284361243248,
        -0.10178294032812119,
        -0.08925914764404297,
        -0.04872667416930199,
        0.022457946091890335,
        -0.007097973953932524,
        -0.007260422222316265,
        -0.027495618909597397,
        0.08551495522260666,
        0.0005109914345666766,
        0.006832615472376347,
        -0.028790874406695366,
        -0.014547226019203663,
        0.04044545069336891,
        0.017588403075933456,
        -0.030185166746377945,
        -0.08669546246528625,
        0.0363398976624012,
        -0.048669345676898956,
        0.054164186120033264,
        -0.018328379839658737,
        -0.028728704899549484,
        -0.016751393675804138,
        0.04489315673708916,
        -0.12649831175804138,
        0.02099055051803589,
        0.0043093557469546795,
        0.0032646325416862965,
        0.005181573797017336,
        -0.07141375541687012,
        0.0020225069019943476,
        0.027439530938863754,
        -0.018173083662986755,
        -0.10845334082841873,
        0.03628110885620117,
        -0.02105071023106575,
        0.04408528655767441,
        0.01387875247746706,
        -0.005397849250584841,
        0.049140021204948425,
        -0.03451038897037506,
        0.03147362917661667,
        -0.11433376371860504,
        -0.011006836779415607,
        -0.0040667299181222916,
        -0.018590345978736877,
        0.06480338424444199,
        0.001364750089123845,
        -0.0033525601029396057,
        0.0012047607451677322,
        0.00926373340189457,
        0.030101042240858078,
        0.015654250979423523,
        0.005110622383654118,
        0.07382872700691223,
        0.03708746284246445,
        0.04888617619872093,
        -0.017494238913059235,
        -0.005916042253375053,
        -0.050378408282995224,
        0.0347030945122242,
        0.06622641533613205,
        -0.025571640580892563,
        0.014802368357777596,
        0.029286937788128853,
        -0.0662917047739029,
        -0.046399183571338654,
        0.0350835956633091,
        0.024746950715780258
      ]
    },
    {
      "architecture": "normalization",
      "bias": [
        -0.06089409813284874,
        -0.08319399505853653,
        -0.08890864998102188,
        -0.08249951899051666,
        -0.061667513102293015,
        -0.05140808969736099,
        -0.04525318741798401,
        -0.05279305577278137,
        -0.06057683750987053,
        -0.06147148460149765
      ],
      "weights": [
        11.0099515914917,
        9.41220760345459,
        9.192339897155762,
        8.32888412475586,
        10.740984916687012,
        11.221209526062012,
        11.386635780334473,
        11.340011596679688,
        9.835465431213379,
        8.497735977172852
      ]
    },
    {
      "activation": "rectified",
      "architecture": "dense",
      "bias": [
        -0.0383751317858696,
        -0.03316721320152283,
        0.13787294924259186,
        -0.06066793575882912,
        0.15296825766563416,
        0.15310639142990112
      ],
      "weights": [
        0.05073993653059006,
        0.12939226627349854,
        0.03033682517707348,
        -0.0617700032889843,
        0.06763986498117447,
        0.19648785889148712,
        0.16891615092754364,
        0.07217343151569366,
        -0.04978242143988609,
        0.012682543136179447,
        0.06143644079566002,
        0.12530744075775146,
        0.015452864579856396,
        -0.04563700407743454,
        0.06801838427782059,
        0.1900976449251175,
        0.1666128933429718,
        0.048051618039608,
        -0.05817185342311859,
        -0.010945335030555725,
        -0.19963647425174713,
        -0.15266533195972443,
        -0.2095716893672943,
        0.1396597921848297,
        -0.22176504135131836,
        -0.1540750414133072,
        -0.18165837228298187,
        -0.21000023186206818,
        0.15790824592113495,
        0.1635035127401352,
        0.04182704910635948,
        0.10986267775297165,
        0.0406225249171257,
        -0.04538484662771225,
        0.05415467172861099,
        0.17403005063533783,
        0.13782060146331787,
        0.06592804193496704,
        -0.024481698870658875,
        -0.003006375627592206,
        -0.22943276166915894,
        -0.1845119446516037,
        -0.2300751954317093,
        0.13504236936569214,
        -0.16860127449035645,
        -0.16639310121536255,
        -0.14054900407791138,
        -0.2004157453775406,
        0.15569831430912018,
        0.19245752692222595,
        -0.2585879862308502,
        -0.14565126597881317,
        -0.16561919450759888,
        0.1455388069152832,
        -0.13275980949401855,
        -0.15779954195022583,
        -0.1710246354341507,
        -0.25481295585632324,
        0.07134726643562317,
        0.10450828820466995
      ]
    },
    {
      "activation": "sigmoid",
      "architecture": "dense",
      "bias": [
        0.12983597815036774
      ],
      "weights": [
        -0.6229130029678345,
        -0.8878561854362488,
        1.0053492784500122,
        -0.5506615042686462,
        0.5433991551399231,
        0.5741398930549622
      ]
    }
  ],
  "outputs": [
    "ELT"
  ]
}
