{
  "defaults": {},
  "inputs": [
    {
      "name": "met_met",
      "offset": "-72672.9693076",
      "scale": "1.9931266844e-05"
    },
    {
      "name": "jet_pt_2nd",
      "offset": "-73931.9162062",
      "scale": "1.70096898397e-05"
    },
    {
      "name": "ph_drsubljet_sel",
      "offset": "17.2598986158",
      "scale": "0.0250544824913"
    },
    {
      "name": "jet_pt_3rd",
      "offset": "-50602.9804029",
      "scale": "2.96775830077e-05"
    },
    {
      "name": "ph_HFT_MVA_sel",
      "offset": "-0.762710451345",
      "scale": "4.40618183378"
    },
    {
      "name": "ph_drleadjet_sel",
      "offset": "-2.29135886523",
      "scale": "1.1378405732"
    },
    {
      "name": "jet_tagWeightBin_subleading",
      "offset": "-2.22718253968",
      "scale": "0.620231830483"
    },
    {
      "name": "event_HT",
      "offset": "-378394.188647",
      "scale": "4.18014847928e-06"
    },
    {
      "name": "ph_e_sel",
      "offset": "-159112.344197",
      "scale": "5.0558426707e-06"
    },
    {
      "name": "jet_pt_5th",
      "offset": "-36762.1944012",
      "scale": "7.07721405172e-05"
    },
    {
      "name": "jet_pt_4th",
      "offset": "-40902.9671308",
      "scale": "4.9914409686e-05"
    },
    {
      "name": "jet_pt_1st",
      "offset": "-125692.487676",
      "scale": "9.40338972837e-06"
    },
    {
      "name": "event_nbjets77",
      "offset": "-1.29265873016",
      "scale": "2.08743081072"
    },
    {
      "name": "ph_drlept_sel",
      "offset": "-1.85250764707",
      "scale": "1.58471599018"
    },
    {
      "name": "jet_pt_6th",
      "offset": "-37253.8382181",
      "scale": "6.71878920215e-05"
    },
    {
      "name": "jet_tagWeightBin_leading",
      "offset": "-4.61739417989",
      "scale": "1.42541720124"
    },
    {
      "name": "event_mll",
      "offset": "-136624.895099",
      "scale": "9.65021159698e-06"
    },
    {
      "name": "event_njets",
      "offset": "-2.6130952381",
      "scale": "0.780557125671"
    }
  ],
  "layers": [
    {
      "activation": "rectified",
      "architecture": "dense",
      "bias": [
        -0.08079748600721359,
        -0.09092659503221512,
        -0.10862503945827484,
        -0.07077325135469437,
        -0.09893696755170822,
        -0.09248064458370209,
        -0.09755607694387436,
        -0.11720003187656403,
        -0.17872612178325653,
        -0.1053229570388794,
        -0.11480622738599777,
        -0.07178109884262085,
        -0.04555991664528847,
        -0.12118279933929443,
        -0.1309731900691986,
        -0.04844072833657265,
        -0.1981346756219864,
        -0.12237296998500824,
        -0.13637889921665192,
        -0.21469077467918396,
        -0.11367205530405045,
        -0.1814592331647873,
        -0.07614944130182266,
        -0.20628221333026886,
        -0.06741290539503098,
        -0.10959974676370621,
        -0.07192767411470413,
        -0.14043360948562622,
        -0.04684695973992348,
        -0.09913348406553268
      ],
      "weights": [
        -0.04634890332818031,
        -0.011420834809541702,
        0.01907234452664852,
        -0.0765017718076706,
        -0.027709554880857468,
        0.031213663518428802,
        -0.03940165042877197,
        0.040077093988657,
        -0.034634318202733994,
        -0.0031673116609454155,
        0.031127069145441055,
        0.01331406831741333,
        -0.06601681560277939,
        -0.013124650344252586,
        -0.004446872044354677,
        -0.0546799935400486,
        -0.05032029747962952,
        0.01779363490641117,
        -0.027783554047346115,
        0.02938748709857464,
        -0.018037714064121246,
        -0.04133692756295204,
        0.029023535549640656,
        0.03871707245707512,
        -0.0442352294921875,
        0.027001917362213135,
        -0.04521464928984642,
        -0.04152236878871918,
        0.043839871883392334,
        -0.07922039180994034,
        -0.04063364490866661,
        0.003954146057367325,
        -0.005489494651556015,
        -0.03355591371655464,
        -0.09274584800004959,
        0.029329698532819748,
        -0.03751324489712715,
        -0.018214955925941467,
        0.029934503138065338,
        -0.057022951543331146,
        0.08771619945764542,
        0.06545452028512955,
        0.02119421400129795,
        -0.04392882436513901,
        0.009050033986568451,
        -0.025866562500596046,
        -0.03136874735355377,
        -0.017089467495679855,
        0.036134883761405945,
        0.02727903425693512,
        -0.028817350044846535,
        -0.04215196892619133,
        -0.009342369623482227,
        -0.03811776638031006,
        0.05127651244401932,
        0.05951843410730362,
        0.11115089803934097,
        0.008276563137769699,
        -0.0005288698012009263,
        -0.020298460498452187,
        -0.01497842837125063,
        -0.037130214273929596,
        0.026442183181643486,
        -0.08525829762220383,
        0.07266131043434143,
        -0.014325505122542381,
        0.034786973148584366,
        -0.07541847229003906,
        -0.025406189262866974,
        -0.038489267230033875,
        0.038919538259506226,
        0.029290078207850456,
        -0.040202707052230835,
        0.023518677800893784,
        -0.039947472512722015,
        0.011414272710680962,
        -0.07193607836961746,
        0.012767842970788479,
        -0.044575415551662445,
        0.04961467161774635,
        0.01910402998328209,
        -0.008655058220028877,
        0.0038463380187749863,
        0.0086517333984375,
        -0.03798745945096016,
        0.016799185425043106,
        0.0022697807289659977,
        -0.07510188966989517,
        -0.03615106642246246,
        -0.09405233711004257,
        0.0003667984565254301,
        -0.0416528657078743,
        0.011329486034810543,
        0.018699005246162415,
        -0.01593801937997341,
        -0.0210039671510458,
        -0.030682092532515526,
        -0.11769245564937592,
        0.01624676026403904,
        0.08636870980262756,
        -0.025883477181196213,
        0.09031487256288528,
        0.03822297975420952,
        -0.0049986643716692924,
        -0.009782519191503525,
        0.03974943235516548,
        0.05747079849243164,
        0.04774356260895729,
        0.02109641395509243,
        0.003465908346697688,
        0.0026244984474033117,
        0.005555469077080488,
        -0.001992412842810154,
        0.010994936339557171,
        0.006780616473406553,
        -0.09246411174535751,
        -0.028718017041683197,
        0.11545739322900772,
        -0.07628343254327774,
        0.0675598606467247,
        0.00011333910515531898,
        0.004654362332075834,
        0.028581557795405388,
        0.010348120704293251,
        0.0207536444067955,
        0.054773665964603424,
        -0.06941532343626022,
        -0.034319568425416946,
        -0.01821996457874775,
        0.01348692923784256,
        -0.00807394739240408,
        0.010325211100280285,
        -0.05856785550713539,
        0.05585074424743652,
        0.0031434986740350723,
        0.019186312332749367,
        -0.04965946450829506,
        0.0040272497572004795,
        0.039800431579351425,
        0.03499775379896164,
        -0.09111185371875763,
        -0.01958312839269638,
        -0.07750726491212845,
        -0.00011304914369247854,
        -0.08668066561222076,
        -0.003409705124795437,
        0.01052938960492611,
        0.018366994336247444,
        -0.0020373770967125893,
        0.03967508673667908,
        -0.05151232331991196,
        0.03233827278017998,
        -0.06346737593412399,
        0.0363590344786644,
        -0.023809324949979782,
        -0.01114046573638916,
        0.015045661479234695,
        0.0015113166300579906,
        -0.07356264442205429,
        -0.026435472071170807,
        -0.03011653572320938,
        -0.03217310085892677,
        0.0014647595817223191,
        0.008554388768970966,
        0.0007325687911361456,
        0.009573410265147686,
        -0.01177141536027193,
        0.0003807988250628114,
        0.022315023466944695,
        -0.047557175159454346,
        0.007320655509829521,
        -0.18957799673080444,
        -0.0791587308049202,
        0.02344226837158203,
        -0.0031554088927805424,
        0.008408195339143276,
        -0.08707665652036667,
        -0.008436940610408783,
        0.008906638249754906,
        0.0077866725623607635,
        -0.11586528271436691,
        0.023770377039909363,
        -0.053980372846126556,
        0.02224559709429741,
        0.00397015456110239,
        0.04554150626063347,
        -0.04523325711488724,
        -0.024908361956477165,
        0.027122629806399345,
        0.03764210268855095,
        0.031026113778352737,
        0.005334232468158007,
        0.007799678947776556,
        0.02746349759399891,
        0.002514826599508524,
        -0.053839173167943954,
        -0.014106959104537964,
        0.014379114843904972,
        0.029891308397054672,
        0.042597007006406784,
        -0.016927793622016907,
        -0.005041822325438261,
        0.10154290497303009,
        0.019932184368371964,
        -0.03406614065170288,
        -0.06348034739494324,
        -0.04136723652482033,
        0.06925545632839203,
        -0.055585138499736786,
        0.03880561515688896,
        0.041357818990945816,
        -0.014154871925711632,
        0.02952628955245018,
        0.060265034437179565,
        0.0251655001193285,
        0.004549369215965271,
        -0.05515776947140694,
        -0.009100861847400665,
        -0.07060287892818451,
        0.014148061163723469,
        -0.0695582777261734,
        -0.005765237845480442,
        -0.03808663785457611,
        0.03731150925159454,
        0.06298734992742538,
        -0.012014642357826233,
        -0.05896609649062157,
        0.01420044805854559,
        0.033215392380952835,
        -0.0031550563871860504,
        0.03115488402545452,
        -0.009020794183015823,
        -0.08589686453342438,
        0.023612594231963158,
        -0.024845251813530922,
        -0.0010456593008711934,
        0.012466386891901493,
        0.07720961421728134,
        -0.051039133220911026,
        0.08334434777498245,
        -0.026827793568372726,
        -0.030849125236272812,
        0.00867707934230566,
        0.011170477606356144,
        -0.01389949768781662,
        0.01251123659312725,
        0.03706866502761841,
        0.06552204489707947,
        0.04017768055200577,
        -0.03841838240623474,
        -0.054726433008909225,
        0.01100280974060297,
        0.012773362919688225,
        -0.032485704869031906,
        0.04142250120639801,
        0.03201074153184891,
        -0.03400013968348503,
        -0.006878788582980633,
        -0.03914467990398407,
        -0.09104105830192566,
        0.0059161074459552765,
        0.010557827539741993,
        0.042047061026096344,
        0.07020260393619537,
        0.015555934980511665,
        -0.01425435021519661,
        -0.06628958135843277,
        0.028139417991042137,
        0.0608837865293026,
        0.027170011773705482,
        -0.03193392604589462,
        0.0024935686960816383,
        0.02917231060564518,
        -0.05467063561081886,
        -0.0066322446800768375,
        -0.01581372320652008,
        -0.04058651626110077,
        0.0542239211499691,
        -0.0479501374065876,
        -0.034317824989557266,
        0.04869290813803673,
        -0.024793708696961403,
        -0.08126533031463623,
        0.02268461510539055,
        -0.021943222731351852,
        -0.01089610904455185,
        -0.13921783864498138,
        -0.015639901161193848,
        -0.05025080591440201,
        -0.021829217672348022,
        0.0008786374237388372,
        0.036003969609737396,
        0.011545734480023384,
        0.019748618826270103,
        0.012779477052390575,
        -0.024209529161453247,
        0.03671671077609062,
        0.01609969511628151,
        -0.030378051102161407,
        -0.004942199215292931,
        -0.042340636253356934,
        -0.00767857488244772,
        0.10748492926359177,
        0.016217241063714027,
        0.017546793445944786,
        -0.014490329660475254,
        -0.0490250289440155,
        -0.02278878726065159,
        -0.043015506118535995,
        -0.012825297191739082,
        0.031289659440517426,
        -0.007108293939381838,
        -0.021789275109767914,
        0.0895734429359436,
        -0.005890843458473682,
        0.04311421513557434,
        -0.07826098054647446,
        -0.0147813456133008,
        0.00821240246295929,
        0.017772594466805458,
        -0.05906173959374428,
        -0.005611899308860302,
        -0.060871515423059464,
        0.029681092128157616,
        0.028889993205666542,
        -0.024156833067536354,
        -0.015881117433309555,
        -0.02123383805155754,
        -0.03769104182720184,
        0.023341525346040726,
        0.03676101565361023,
        0.09848595410585403,
        -0.012148680165410042,
        -0.0032728947699069977,
        -0.03496873006224632,
        -0.03291820362210274,
        0.018296072259545326,
        0.07449468970298767,
        0.035772282630205154,
        -0.003230161964893341,
        -0.017944153398275375,
        -0.025289587676525116,
        -0.009316716343164444,
        0.0267095435410738,
        0.023050477728247643,
        0.003385782241821289,
        0.0310951117426157,
        -0.03676939755678177,
        -0.02077539451420307,
        -0.031034259125590324,
        -0.0025062120985239744,
        0.018489066511392593,
        -0.010294833220541477,
        -0.026086091995239258,
        0.03379179537296295,
        -0.008078188635408878,
        0.128558948636055,
        -0.02240746095776558,
        0.006014790385961533,
        0.004503118805587292,
        -0.04410753399133682,
        0.007382785901427269,
        -0.02081393450498581,
        -0.009414389729499817,
        -0.032033368945121765,
        0.002774124965071678,
        -0.10230615735054016,
        0.031765107065439224,
        0.005821088794618845,
        0.015439406968653202,
        -0.012395154684782028,
        0.013279722072184086,
        -0.010451697744429111,
        -0.008108287118375301,
        0.003950010985136032,
        -0.026314353570342064,
        -0.11008591949939728,
        -0.03615773096680641,
        -0.0733417421579361,
        0.019657496362924576,
        -0.020858265459537506,
        0.01690416783094406,
        -0.0036436005029827356,
        -0.0009789622854441404,
        -0.023535938933491707,
        -0.07585572451353073,
        -0.019309518858790398,
        0.017736215144395828,
        -0.0066846502013504505,
        0.024698447436094284,
        -0.01741802506148815,
        -0.05315927416086197,
        -0.04273853078484535,
        -0.009008113294839859,
        -0.07420900464057922,
        0.025728905573487282,
        -0.019705550745129585,
        0.02208431251347065,
        -0.011645173653960228,
        -0.06620242446660995,
        -0.03749258816242218,
        -0.021755682304501534,
        -0.028099587187170982,
        0.0889914482831955,
        0.008834618143737316,
        -0.02003662846982479,
        0.024714866653084755,
        -0.07159187644720078,
        -0.0036296395119279623,
        -0.0008482919074594975,
        0.12765565514564514,
        -0.01696847192943096,
        -0.03213685005903244,
        -0.040416132658720016,
        -0.041265200823545456,
        -0.026045940816402435,
        -0.0038706636987626553,
        0.021448299288749695,
        0.005798173602670431,
        -0.0005498266546055675,
        -0.013823403976857662,
        -0.06368438154459,
        -0.011336377821862698,
        0.026815837249159813,
        -0.026738567277789116,
        -0.0027334599290043116,
        0.0074577718041837215,
        -0.010585393756628036,
        0.10771159827709198,
        -0.003958430141210556,
        0.01907731033861637,
        -0.0011255762074142694,
        0.030084913596510887,
        -0.011541923508048058,
        -0.02201859839260578,
        -0.13085733354091644,
        -0.04433867707848549,
        -0.030112192034721375,
        -0.0529903918504715,
        0.009026911109685898,
        -0.039808064699172974,
        -0.03221935033798218,
        -0.06697701662778854,
        -0.07803266495466232,
        -0.008668086491525173,
        0.0541384182870388,
        -0.022061312571167946,
        0.01968606375157833,
        0.042757097631692886,
        -0.031007591634988785,
        0.031277451664209366,
        0.04855596274137497,
        0.05669017136096954,
        -0.0037458990700542927,
        -0.0064429230988025665,
        -0.0037925720680505037,
        0.010821668431162834,
        -0.04947039484977722,
        -0.03448719158768654,
        -0.19756439328193665,
        -0.006144723854959011,
        0.0007144625415094197,
        0.0071353851817548275,
        -0.0021507826168090105,
        -0.08740171790122986,
        -0.007143095601350069,
        -0.006921447813510895,
        -0.01191624067723751,
        -0.014750597067177296,
        0.009064863435924053,
        0.015161935240030289,
        0.004117933567613363,
        -0.03935031220316887,
        0.052187882363796234,
        -0.0592067688703537,
        0.006260529160499573,
        -0.004821608308702707,
        0.023360848426818848,
        0.007482828572392464,
        -0.05278356000781059,
        0.021886643022298813,
        0.009334089234471321,
        0.1299714297056198,
        0.00577161367982626,
        0.009970887564122677,
        -0.09185744822025299,
        -0.06476505845785141,
        -0.07258208096027374,
        -0.038606639951467514,
        0.0019562228117138147,
        0.006755029782652855,
        -0.01846231333911419,
        -0.08316025882959366,
        0.046301305294036865,
        -0.029520973563194275,
        0.013532942160964012,
        0.024371065199375153,
        0.01757550984621048,
        0.04566185921430588,
        0.0183019507676363,
        -0.005084422882646322,
        -0.044935520738363266,
        -0.015684640035033226,
        -0.022197702899575233,
        -0.035247139632701874,
        0.031104641035199165,
        -0.015155849047005177,
        -0.04722311347723007,
        -0.009325898252427578,
        -0.018295271322131157,
        -0.09731654077768326,
        0.009132299572229385,
        -0.09580633044242859,
        -0.02389349602162838,
        -0.03129250556230545,
        -0.00872803945094347,
        -0.024235036224126816,
        0.0545242577791214,
        -0.004995864816009998,
        -0.01611306518316269,
        -0.05136845260858536,
        -0.058030564337968826,
        -0.006365712266415358,
        0.01764611527323723,
        -0.03581700474023819,
        -0.13715776801109314,
        -0.011726150289177895,
        -0.015054569579660892,
        0.01409316249191761,
        -0.09212467819452286,
        0.02496054209768772,
        0.0059585487470030785,
        -0.06956266611814499,
        0.05288208648562431,
        -0.006567935459315777,
        0.04035137966275215,
        -0.04559626430273056,
        0.019353922456502914,
        -0.005447531584650278,
        0.043207816779613495
      ]
    },
    {
      "architecture": "normalization",
      "bias": [
        -0.04309108108282089,
        -0.0390181727707386,
        -0.03563791140913963,
        -0.04104059934616089,
        -0.056714970618486404,
        -0.014007894322276115,
        -0.016645532101392746,
        -0.025770116597414017,
        -0.008366521447896957,
        -0.035464972257614136,
        -0.044165756553411484,
        -0.02828669548034668,
        -0.04971787706017494,
        -0.032842252403497696,
        -0.010814789682626724,
        -0.06764115393161774,
        -0.01287746150046587,
        -0.018176235258579254,
        -0.013333150185644627,
        -0.020237881690263748,
        -0.03236735239624977,
        -0.007545654661953449,
        -0.053460314869880676,
        -0.014276907779276371,
        -0.07628895342350006,
        -0.03147398680448532,
        -0.05203913897275925,
        -0.013928670436143875,
        -0.070564866065979,
        -0.042224593460559845
      ],
      "weights": [
        12.362935066223145,
        13.617586135864258,
        11.554068565368652,
        10.269219398498535,
        8.60178279876709,
        15.50287914276123,
        12.996737480163574,
        14.726280212402344,
        21.072528839111328,
        13.382513046264648,
        10.032668113708496,
        11.032081604003906,
        11.00072956085205,
        10.983553886413574,
        16.687084197998047,
        9.626201629638672,
        18.883573532104492,
        16.849239349365234,
        18.016910552978516,
        15.392208099365234,
        13.677389144897461,
        21.261558532714844,
        10.018537521362305,
        17.275190353393555,
        9.05718994140625,
        14.938790321350098,
        8.775113105773926,
        17.833866119384766,
        9.12218189239502,
        14.68622875213623
      ]
    },
    {
      "activation": "rectified",
      "architecture": "dense",
      "bias": [
        0.055469810962677,
        0.09083428233861923,
        -0.0004147108702454716,
        0.08227881044149399,
        -0.0018692094599828124,
        0.09996595233678818,
        0.07282937318086624,
        0.014629309065639973,
        0.05855105444788933,
        0.013101027347147465,
        0.05680277571082115,
        0.08950195461511612,
        0.08421137928962708,
        0.06173793599009514,
        0.07552430778741837,
        0.08127126842737198,
        0.07847025990486145,
        0.10270978510379791,
        0.029468121007084846,
        0.014922317117452621
      ],
      "weights": [
        -0.06484755873680115,
        -0.09098981320858002,
        0.05086679756641388,
        0.10860983282327652,
        -0.01466396078467369,
        0.13668157160282135,
        -0.011573020368814468,
        -0.07108171284198761,
        -0.10446800291538239,
        0.1047675758600235,
        -0.01035271491855383,
        0.09830193221569061,
        -0.010850373655557632,
        0.057876478880643845,
        0.1049899011850357,
        -0.13005314767360687,
        0.03404855728149414,
        -0.11520016938447952,
        -0.07828164845705032,
        0.10666384547948837,
        -0.12294948101043701,
        -0.11718779802322388,
        -0.17633414268493652,
        -0.0019572125747799873,
        -0.1312507688999176,
        0.02235359326004982,
        0.02164008654654026,
        -0.03375053033232689,
        -0.18671651184558868,
        0.06576147675514221,
        -0.01467929407954216,
        0.016019003465771675,
        0.03652658313512802,
        0.049984462559223175,
        -0.07455898821353912,
        0.09192705154418945,
        0.0016389318043366075,
        -0.10905110836029053,
        -0.06068453937768936,
        -0.008205106481909752,
        -0.1590368002653122,
        0.09135182201862335,
        -0.2157609909772873,
        -0.11569147557020187,
        0.06416673213243484,
        0.09477749466896057,
        -0.1831333190202713,
        -0.08776151388883591,
        -0.04305330663919449,
        -0.17140354216098785,
        -0.07883279025554657,
        -0.01936441659927368,
        -0.17888909578323364,
        -0.10892730951309204,
        -0.04441642016172409,
        0.14389675855636597,
        -0.11375182867050171,
        -0.09170252829790115,
        -0.07788834720849991,
        0.015366991981863976,
        0.009011329151690006,
        0.018230155110359192,
        -0.07859691977500916,
        -0.13092876970767975,
        -0.012280597351491451,
        -0.06461044400930405,
        -0.15025638043880463,
        0.05516810715198517,
        0.10465320199728012,
        -0.16551360487937927,
        0.03904029354453087,
        0.02138388715684414,
        0.026841051876544952,
        0.11418459564447403,
        -0.025653595104813576,
        -0.003579273819923401,
        -0.11187191307544708,
        0.08475080877542496,
        0.05545816197991371,
        -0.1133398786187172,
        0.04274642467498779,
        0.1331038773059845,
        0.025977732613682747,
        -0.11747315526008606,
        -0.013999640941619873,
        -0.11802656203508377,
        0.0870995745062828,
        0.04676416888833046,
        0.0034769864287227392,
        -0.12455449998378754,
        -0.04729246348142624,
        -0.020833635702729225,
        -0.033016636967659,
        -0.19496478140354156,
        0.014378003776073456,
        -0.13693606853485107,
        -0.27666759490966797,
        0.1289610117673874,
        0.19187945127487183,
        -0.2480425238609314,
        0.0410737618803978,
        -0.022646935656666756,
        -0.04559597000479698,
        0.09583866596221924,
        -0.1540285050868988,
        -0.0008820784278213978,
        -0.19632841646671295,
        0.12654204666614532,
        0.11201157420873642,
        -0.1769069880247116,
        -0.003465130692347884,
        0.15996207296848297,
        0.08900853991508484,
        -0.17451153695583344,
        -0.03091481886804104,
        -0.25867748260498047,
        0.09312662482261658,
        0.10725236684083939,
        -0.010358257219195366,
        -0.22890964150428772,
        0.004651153460144997,
        0.015745682641863823,
        -0.07102765142917633,
        -0.08878733962774277,
        0.0031871977262198925,
        -0.02180439792573452,
        -0.054516684263944626,
        0.034396909177303314,
        0.17541180551052094,
        -0.14727534353733063,
        0.04841573163866997,
        0.049471136182546616,
        0.037463199347257614,
        0.10108581185340881,
        -0.026290757581591606,
        0.033726174384355545,
        -0.12990376353263855,
        0.11194048076868057,
        0.024004366248846054,
        -0.07884848117828369,
        0.01977848820388317,
        0.09196801483631134,
        0.010980289429426193,
        -0.07870496809482574,
        -0.02758908085525036,
        -0.11912637948989868,
        0.06423213332891464,
        0.03266005963087082,
        0.013001044280827045,
        -0.11499028652906418,
        -0.0191185362637043,
        -0.1735372692346573,
        -0.05011913925409317,
        0.10652903467416763,
        -0.10163547843694687,
        0.22460266947746277,
        0.06636234372854233,
        -0.18885499238967896,
        -0.13009482622146606,
        -0.07855892926454544,
        -0.11286571621894836,
        0.12865737080574036,
        -0.14925040304660797,
        -0.029850997030735016,
        0.20327232778072357,
        -0.01105816476047039,
        0.19839775562286377,
        -0.15475870668888092,
        -0.03261920437216759,
        0.20903553068637848,
        -0.0920901894569397,
        -0.14677771925926208,
        -0.09518985450267792,
        0.1842402219772339,
        -0.21198005974292755,
        0.10224072635173798,
        -0.010530240833759308,
        -0.10499827563762665,
        -0.12273301929235458,
        0.03170435130596161,
        -0.08971279114484787,
        -0.18373136222362518,
        -0.04198160767555237,
        -0.0016572648892179132,
        0.01946653425693512,
        0.19608187675476074,
        0.21733681857585907,
        -0.14068619906902313,
        -0.11744212359189987,
        0.13586308062076569,
        0.016926143318414688,
        0.08964157849550247,
        0.07201812416315079,
        -0.0006298200460150838,
        0.12409432977437973,
        -0.1811390072107315,
        0.2134971022605896,
        -0.0602535605430603,
        -0.034172818064689636,
        0.15747952461242676,
        -0.07622569799423218,
        -0.141840860247612,
        0.0870530903339386,
        0.16483035683631897,
        -0.004184419754892588,
        -0.07077925652265549,
        0.11265138536691666,
        -0.1568455845117569,
        -0.044971320778131485,
        -0.1347781866788864,
        -0.013428551144897938,
        -0.007740145083516836,
        -0.06005857139825821,
        -0.11552808433771133,
        0.0009214013116434216,
        -0.07774899899959564,
        -0.180805042386055,
        0.04798836633563042,
        0.11760743707418442,
        -0.13832718133926392,
        0.0431249774992466,
        -0.009970149956643581,
        0.00512267928570509,
        0.07939884811639786,
        -0.05236051604151726,
        0.004906201269477606,
        -0.13049858808517456,
        0.0743606835603714,
        0.08373367041349411,
        -0.1410875767469406,
        0.038084566593170166,
        0.14652200043201447,
        0.09324357658624649,
        -0.18697334825992584,
        -0.0052624596282839775,
        -0.13603852689266205,
        0.08415157347917557,
        0.04098378121852875,
        -0.0054654311388731,
        -0.1726338118314743,
        -0.14203201234340668,
        -0.14943255484104156,
        -0.12674374878406525,
        -0.012843986041843891,
        -0.11229164898395538,
        0.10807735472917557,
        0.122932568192482,
        -0.0909729152917862,
        -0.146280437707901,
        0.07569320499897003,
        -0.16104252636432648,
        0.09696121513843536,
        -0.029775865375995636,
        -0.08152846992015839,
        0.11221655458211899,
        -0.0546601377427578,
        0.1517251431941986,
        -0.09269320219755173,
        -0.15122437477111816,
        0.016127390787005424,
        -0.019926704466342926,
        -0.12398754805326462,
        0.010053517296910286,
        0.09830974787473679,
        0.014963087625801563,
        -0.05975311994552612,
        -0.04213442653417587,
        -0.13011403381824493,
        0.07870014011859894,
        -0.0706273689866066,
        -0.00022155445185489953,
        0.022699706256389618,
        -0.12223789095878601,
        -0.14343857765197754,
        0.024769380688667297,
        0.0013142443494871259,
        -0.05293286219239235,
        0.09672022610902786,
        0.19055593013763428,
        -0.13637778162956238,
        0.05269566923379898,
        0.023080645129084587,
        0.01216699369251728,
        0.03705418109893799,
        -0.04239462688565254,
        0.03428047522902489,
        -0.10952112823724747,
        0.12690971791744232,
        0.00973135232925415,
        -0.09787338972091675,
        0.022121023386716843,
        0.14749930799007416,
        0.024584315717220306,
        -0.09250438213348389,
        -0.02191895991563797,
        -0.11316142231225967,
        0.05594100430607796,
        0.11969731748104095,
        -0.02276768535375595,
        -0.16691027581691742,
        -0.055072665214538574,
        -0.1525241732597351,
        -0.04538564756512642,
        -0.03389822319149971,
        -0.021194783970713615,
        0.16828308999538422,
        0.20372788608074188,
        -0.11044741421937943,
        -0.09575781226158142,
        0.022753603756427765,
        0.029546979814767838,
        0.10566576570272446,
        -0.058362048119306564,
        0.061828721314668655,
        0.16620060801506042,
        -0.15436188876628876,
        0.19683973491191864,
        -0.08600305765867233,
        -0.04229387640953064,
        0.17795513570308685,
        -0.07293903082609177,
        -0.11723345518112183,
        0.1046307161450386,
        0.1369812935590744,
        -0.1435389220714569,
        0.09354878962039948,
        0.10458189994096756,
        -0.14647138118743896,
        -0.1358647346496582,
        -0.13348372280597687,
        0.004318482242524624,
        0.11241229623556137,
        0.008849076926708221,
        0.12537389993667603,
        -0.11571354418992996,
        0.04843955859541893,
        -0.03469805419445038,
        -0.12913724780082703,
        -0.09080178290605545,
        0.07277625799179077,
        -0.12617458403110504,
        0.03476497903466225,
        -0.20431537926197052,
        -0.04157087206840515,
        0.04712221398949623,
        0.07167322188615799,
        -0.16438733041286469,
        -0.17876827716827393,
        -0.16419653594493866,
        -0.15460148453712463,
        -0.14772766828536987,
        -0.02219405025243759,
        -0.20308788120746613,
        -0.1534598022699356,
        -0.07685307413339615,
        0.11824502050876617,
        -0.16693297028541565,
        -0.07864365726709366,
        -0.05592833086848259,
        0.011981534771621227,
        -0.2152474969625473,
        -0.07513663917779922,
        -0.11272251605987549,
        -0.1184302493929863,
        0.04547518491744995,
        0.12604133784770966,
        0.0515252947807312,
        -0.1273057460784912,
        -0.14647941291332245,
        0.08138645440340042,
        -0.026841940358281136,
        0.007999845780432224,
        0.039188265800476074,
        -0.11348551511764526,
        0.10713212192058563,
        -0.03391591086983681,
        0.08547007292509079,
        -0.1622847318649292,
        -0.0797293484210968,
        -0.15163478255271912,
        0.0010928555857390165,
        -0.0977034941315651,
        -0.1522921770811081,
        -0.0006586150266230106,
        0.108989417552948,
        -0.10679176449775696,
        0.0038159426767379045,
        -0.12465813010931015,
        0.11273646354675293,
        0.0666956901550293,
        -0.11537708342075348,
        -0.1267469823360443,
        -0.01094905100762844,
        0.07125205546617508,
        -0.029869932681322098,
        0.13133788108825684,
        0.15458320081233978,
        -0.08171415328979492,
        -0.061497170478105545,
        0.04232830926775932,
        -0.032264772802591324,
        0.08665397018194199,
        0.047029413282871246,
        0.09397877007722855,
        0.1285218596458435,
        -0.14042505621910095,
        0.18243753910064697,
        -0.10010906308889389,
        -0.09950537979602814,
        0.17970126867294312,
        -0.07271838188171387,
        -0.12848180532455444,
        0.10449152439832687,
        0.1837068349123001,
        -0.1734853982925415,
        0.08425397425889969,
        0.07607472687959671,
        -0.11689525842666626,
        -0.14906059205532074,
        -0.13283884525299072,
        -0.04120408371090889,
        -0.13973914086818695,
        0.018842462450265884,
        0.04315534979104996,
        -0.08062572777271271,
        0.1635179966688156,
        0.146890789270401,
        -0.11077383160591125,
        -0.083502858877182,
        0.06331216543912888,
        -0.05030401051044464,
        0.06072387471795082,
        0.015109878033399582,
        0.08545861393213272,
        0.13250158727169037,
        -0.14744828641414642,
        0.22254595160484314,
        -0.07862180471420288,
        -0.12298872321844101,
        0.20202767848968506,
        -0.10133269429206848,
        -0.07906203716993332,
        0.13104113936424255,
        0.17059610784053802,
        -0.21037164330482483,
        0.07299631834030151,
        0.13332010805606842,
        -0.10398732870817184,
        -0.1285908967256546,
        -0.12744863331317902,
        -0.0920824334025383,
        -0.1976223886013031,
        -0.031180283054709435,
        -0.005258706398308277,
        -0.12936948239803314,
        0.1400870978832245,
        0.14074420928955078,
        -0.1046595498919487,
        -0.10747013241052628,
        0.00959504209458828,
        -0.044924262911081314,
        0.13149410486221313,
        -0.15665456652641296,
        -0.09891536831855774,
        0.13738659024238586,
        -0.12170161306858063,
        0.17721860110759735,
        -0.10097497701644897,
        -0.07533254474401474,
        0.14835090935230255,
        -0.09477535635232925,
        -0.09162656962871552,
        -0.004752048756927252,
        0.15020069479942322,
        0.052217286080121994,
        0.004243312403559685,
        0.0605822429060936,
        -0.11476060748100281,
        0.01593615859746933,
        0.02017512358725071,
        -0.12714055180549622,
        -0.11245562881231308,
        0.021967193111777306,
        0.11738307774066925,
        -0.14384284615516663,
        0.10872387886047363,
        0.03919054567813873,
        -0.14129064977169037,
        -0.0967971533536911,
        -0.06983303278684616,
        -0.18278983235359192,
        0.1195993572473526,
        -0.13751821219921112,
        -0.08311353623867035,
        0.10826511681079865,
        0.0052075935527682304,
        0.10799746960401535,
        -0.09051620215177536,
        -0.19644339382648468,
        0.12732642889022827,
        -0.04400283098220825,
        -0.07742077112197876,
        -0.03114819899201393,
        0.06938404589891434,
        -0.14507068693637848,
        0.09256900101900101,
        -0.023244544863700867,
        -0.06529423594474792,
        0.005249921232461929,
        0.048596739768981934,
        -0.024165373295545578,
        0.09154004603624344,
        -0.030588123947381973,
        0.14269372820854187,
        -0.11567513644695282,
        -0.1381915956735611,
        -0.06390209496021271,
        -0.17510496079921722,
        -0.16107317805290222,
        0.11489744484424591,
        -0.07789220660924911,
        -0.10469930619001389,
        -0.24088788032531738,
        -0.06805017590522766,
        -0.002432617824524641,
        0.10733040422201157,
        -0.137802392244339,
        -0.2037581205368042,
        -0.15099740028381348,
        -0.2350347936153412,
        -0.1036757379770279,
        -0.019680306315422058,
        -0.27981337904930115,
        -0.2233157753944397,
        -0.017248189076781273,
        0.17331695556640625,
        -0.18061509728431702,
        -0.06417954713106155,
        -0.019844403490424156,
        0.0761752501130104,
        0.009796755388379097,
        -0.006496858783066273,
        -0.08404330909252167,
        -0.16087983548641205,
        0.024538874626159668,
        -0.041735291481018066,
        -0.16169333457946777,
        0.09401803463697433,
        0.18282556533813477,
        -0.14017803966999054,
        0.0627460852265358,
        0.0278862863779068,
        0.01591675914824009,
        0.11295554041862488,
        -0.1070779412984848,
        0.013036263175308704,
        -0.15192538499832153,
        0.10073359310626984,
        0.040101539343595505,
        -0.10655499994754791,
        0.04468719661235809,
        0.11992479860782623,
        0.06334124505519867,
        -0.17890839278697968,
        -0.009431705810129642,
        -0.1465408354997635,
        0.07047108560800552,
        0.10501040518283844,
        -0.0107801528647542,
        -0.1726551353931427,
        -0.008062468841671944,
        0.014422203414142132,
        -0.09754657745361328,
        -0.12979024648666382,
        0.04456726461648941,
        -0.02286837249994278,
        -0.06282585114240646,
        0.08708073198795319,
        0.16880226135253906,
        -0.11526992172002792,
        0.01909513585269451,
        0.0313829705119133,
        0.013538915663957596,
        0.08435820043087006,
        -0.09459780901670456,
        0.014650518074631691,
        -0.1116628348827362,
        0.14190508425235748,
        0.015931785106658936,
        -0.11803887784481049,
        0.006328921299427748,
        0.08706441521644592,
        0.039707429707050323,
        -0.15074415504932404,
        -0.0242770966142416,
        -0.11937002092599869,
        0.0911223292350769,
        0.11818667501211166,
        -0.0030349865555763245,
        -0.17335793375968933
      ]
    },
    {
      "activation": "sigmoid",
      "architecture": "dense",
      "bias": [
        0.046383775770664215
      ],
      "weights": [
        0.4647383391857147,
        0.6445007920265198,
        -0.6522471308708191,
        -0.3229265809059143,
        -0.3965388536453247,
        0.21910406649112701,
        0.3481312096118927,
        -0.5160099267959595,
        0.5654014945030212,
        -0.45043203234672546,
        0.4469063878059387,
        0.5733893513679504,
        0.6437323093414307,
        0.6823024153709412,
        0.4358762800693512,
        0.3048853278160095,
        0.27563583850860596,
        0.22682689130306244,
        -0.33647245168685913,
        -0.7056225538253784
      ]
    }
  ],
  "outputs": [
    "ELT"
  ]
}
